//Numpy array shape [3, 3, 64, 64]
//Min -0.564654707909
//Max 0.452024400234
//Number of zeros 0

#ifndef W6_H_
#define W6_H_

#ifndef __SYNTHESIS__
conv2d_1_default_t w6[36864];
#else
conv2d_1_default_t w6[36864] = {-0.0501264780759811401, -0.1303026080131530762, 0.0999749749898910522, -0.0073582553304731846, 0.0325702503323554993, 0.0684687644243240356, -0.0285083297640085220, 0.0093192039057612419, 0.1080806031823158264, 0.1373730748891830444, 0.0663234740495681763, 0.0575500689446926117, 0.0998328253626823425, -0.0433867685496807098, -0.0993922650814056396, 0.1341995745897293091, 0.0587895512580871582, 0.0601765103638172150, 0.0174777004867792130, 0.0147971315309405327, 0.1265131235122680664, -0.0280168130993843079, 0.0406901501119136810, -0.0393652133643627167, -0.0174883753061294556, 0.0639988407492637634, 0.0057993270456790924, -0.0484347157180309296, -0.0070591247640550137, -0.0358629077672958374, 0.0794570893049240112, -0.0216499641537666321, -0.0318192951381206512, -0.0525284595787525177, 0.0562428273260593414, 0.0545709244906902313, -0.0461284853518009186, 0.0624592900276184082, -0.0827845036983489990, 0.0610172711312770844, 0.0135365994647145271, 0.0386621132493019104, 0.0128434626385569572, 0.0528918802738189697, -0.0892307981848716736, 0.0012131824623793364, -0.0480299368500709534, 0.0405301451683044434, 0.1092073619365692139, -0.0559207014739513397, 0.0251803174614906311, 0.0610223785042762756, -0.0205085296183824539, -0.0308317281305789948, 0.0803044512867927551, -0.0099869798868894577, -0.0272591430693864822, 0.0830201283097267151, 0.0570638701319694519, -0.0983946844935417175, 0.1595372408628463745, -0.0426339544355869293, 0.1094325184822082520, 0.0749367326498031616, 0.0340167842805385590, -0.0242154765874147415, 0.0037572118453681469, -0.0949623435735702515, 0.0378891676664352417, -0.0247295852750539780, -0.0650486201047897339, -0.0139266112819314003, -0.0744565725326538086, 0.0370153225958347321, 0.0364464186131954193, 0.0182197801768779755, -0.0123807247728109360, -0.1685263067483901978, -0.1183769479393959045, 0.1057333648204803467, 0.0497360751032829285, -0.0646456107497215271, -0.0763767361640930176, -0.0015619876794517040, 0.1152223125100135803, -0.0800769776105880737, 0.0127724427729845047, 0.0704053714871406555, -0.1115442216396331787, -0.1128522455692291260, -0.1250485777854919434, 0.0106335971504449844, -0.0585339665412902832, -0.0758288577198982239, 0.1063062995672225952, 0.0338089615106582642, 0.0090151960030198097, 0.0771178901195526123, 0.0077775190584361553, 0.0190400872379541397, 0.0020140518900007010, 0.0315529145300388336, -0.0062407213263213634, 0.0649960264563560486, -0.0070345024578273296, 0.0513323992490768433, 0.0903220251202583313, 0.0952576994895935059, -0.0921982228755950928, 0.0177308861166238785, -0.1208946406841278076, -0.0458702296018600464, 0.0033025005832314491, 0.0482877120375633240, -0.0154507029801607132, -0.0628012344241142273, -0.1465659290552139282, -0.0087618120014667511, -0.0318157672882080078, -0.1003415063023567200, 0.0849826931953430176, 0.0647808089852333069, -0.0162897333502769470, -0.1070025563240051270, 0.0604168884456157684, -0.0270171854645013809, 0.1108782291412353516, 0.0408115759491920471, 0.0149514274671673775, 0.0376722440123558044, 0.0008703253697603941, 0.0615944936871528625, 0.0300458949059247971, 0.0618771724402904510, -0.0493178106844425201, 0.1116603016853332520, 0.1352013349533081055, -0.0136931249871850014, 0.0371856987476348877, 0.0333533212542533875, 0.0280264876782894135, -0.1627438813447952271, -0.0227410178631544113, 0.0337330289185047150, -0.0913204699754714966, 0.0702669769525527954, 0.0498397164046764374, 0.0877070724964141846, 0.2607867419719696045, 0.0162485092878341675, -0.0285857263952493668, -0.0387505553662776947, -0.1173835247755050659, 0.0652115792036056519, -0.0258206389844417572, -0.0451303832232952118, 0.0152085190638899803, -0.0937229171395301819, 0.0404486134648323059, 0.0613460391759872437, -0.0214975774288177490, -0.0097450437024235725, -0.0194937046617269516, -0.0989944487810134888, -0.0007099163485690951, -0.0212207511067390442, -0.0454577505588531494, 0.0371726714074611664, 0.0759151950478553772, 0.1408968269824981689, -0.0034016126301139593, 0.0669820532202720642, -0.0163533370941877365, 0.1059619039297103882, -0.0764602571725845337, -0.0180316641926765442, 0.0486673377454280853, -0.0865561962127685547, -0.0451312065124511719, -0.0538415536284446716, -0.1712574362754821777, 0.0014391342410817742, 0.0887924730777740479, -0.0481716245412826538, -0.0046006883494555950, 0.0786897987127304077, -0.0976911336183547974, -0.0567733496427536011, 0.1466215252876281738, 0.0904835537075996399, 0.1077739819884300232, -0.0064432504586875439, -0.0231279768049716949, -0.0622369423508644104, 0.0579933524131774902, 0.0515816658735275269, -0.0039323139935731888, 0.0798112601041793823, 0.0408619455993175507, -0.0284241382032632828, 0.0159005168825387955, 0.0671517774462699890, -0.0516283139586448669, 0.1136067211627960205, -0.0177437812089920044, 0.0168964639306068420, -0.0880565196275711060, 0.0032289167866110802, 0.0376632064580917358, -0.1291676014661788940, -0.0184806752949953079, -0.0115604316815733910, 0.2568774521350860596, -0.0177085064351558685, -0.0040321396663784981, 0.0649081096053123474, -0.0116485152393579483, 0.1154164671897888184, -0.0597578249871730804, -0.0116819562390446663, -0.0653288215398788452, -0.0189059637486934662, 0.0324096865952014923, -0.0074822413735091686, 0.0322136022150516510, 0.0410475656390190125, 0.1068108528852462769, 0.0259921904653310776, 0.0788592770695686340, -0.0062275696545839310, -0.1178968027234077454, -0.0660623311996459961, 0.0322634652256965637, -0.0410894714295864105, 0.0287901014089584351, 0.0825087800621986389, 0.0638450682163238525, 0.0524680167436599731, 0.0038926920387893915, 0.1434617936611175537, 0.0307930521667003632, -0.0485664047300815582, 0.1567287892103195190, -0.0410667993128299713, -0.0838166549801826477, -0.0698341801762580872, 0.2038364559412002563, 0.0265873596072196960, -0.0732966735959053040, -0.0061955326236784458, 0.0513735897839069366, 0.0108493259176611900, 0.1939353048801422119, 0.0824814140796661377, 0.0442645139992237091, -0.0412874966859817505, 0.0093563366681337357, -0.0881531089544296265, -0.0792793408036231995, -0.0063849138095974922, 0.0653646513819694519, -0.0098023815080523491, -0.0783139467239379883, 0.0831684470176696777, 0.0150468032807111740, 0.1346343159675598145, -0.0705209821462631226, 0.1522506624460220337, -0.1035772413015365601, -0.0268032457679510117, -0.1435634493827819824, -0.0156216658651828766, 0.0393181405961513519, -0.1934040188789367676, -0.0425844192504882812, -0.0366783998906612396, 0.0943402275443077087, -0.0789740458130836487, -0.0770554319024085999, 0.0471418425440788269, 0.0243676658719778061, -0.0296328496187925339, 0.0540914684534072876, -0.0531951338052749634, 0.0237858332693576813, 0.0198993310332298279, 0.1059647053480148315, 0.0420009456574916840, 0.0559456609189510345, 0.1507122218608856201, 0.0763009861111640930, -0.0921174287796020508, -0.1286661624908447266, 0.0143995657563209534, -0.0016471368726342916, 0.0405680872499942780, -0.0172165501862764359, -0.1019430980086326599, -0.0152047723531723022, 0.0218272991478443146, -0.0130586735904216766, 0.0163299515843391418, -0.1142914816737174988, 0.1295528858900070190, 0.0087894489988684654, -0.0255671162158250809, 0.1673555970191955566, -0.0681620687246322632, -0.1243821978569030762, -0.0285439305007457733, 0.1010288000106811523, 0.1323899775743484497, 0.0142860049381852150, 0.0309149120002985001, -0.0881228148937225342, -0.0654766187071800232, 0.0529161877930164337, -0.0304616559296846390, 0.0874025076627731323, -0.0842177122831344604, -0.0568186752498149872, -0.1687077134847640991, -0.0724056437611579895, 0.0260646715760231018, 0.0365659035742282867, -0.0102000525221228600, 0.0170860812067985535, 0.1066189408302307129, 0.1812963783740997314, 0.0176930334419012070, -0.0787285566329956055, 0.0747254565358161926, -0.1809183359146118164, -0.0135728931054472923, -0.0839344188570976257, 0.0683506205677986145, -0.0821717008948326111, -0.0667448416352272034, -0.0431384295225143433, -0.0294783506542444229, 0.3618299961090087891, -0.0374277420341968536, -0.0209556780755519867, -0.0274649132043123245, -0.0588523633778095245, 0.1542349159717559814, -0.0108081223443150520, 0.0472187884151935577, -0.0133742941543459892, -0.0167770776897668839, 0.0102084781974554062, -0.0352849364280700684, 0.0246906410902738571, 0.1283567845821380615, 0.1169073730707168579, -0.0225748755037784576, -0.0758181512355804443, 0.1015113964676856995, -0.0353461503982543945, -0.0184258744120597839, -0.0304431468248367310, -0.0680409967899322510, -0.0465516597032546997, 0.0017364158993586898, -0.0360007174313068390, -0.0545000620186328888, -0.0125471828505396843, 0.1667830646038055420, 0.0748809501528739929, -0.0594174154102802277, 0.1161320358514785767, -0.1100834012031555176, -0.1892738193273544312, 0.0490243956446647644, 0.1412678509950637817, 0.1515755802392959595, 0.0426075309514999390, 0.0122793577611446381, -0.0273529663681983948, -0.0475531257688999176, 0.1216253563761711121, 0.0870429724454879761, 0.0494449622929096222, 0.0271488763391971588, 0.0321733765304088593, -0.0693892911076545715, 0.0432020612061023712, 0.0414259508252143860, 0.0491023808717727661, -0.0126416245475411415, 0.0736366510391235352, 0.0577347017824649811, 0.1368844509124755859, 0.0897442027926445007, 0.0374274365603923798, 0.1335671097040176392, -0.0957396030426025391, -0.0747184753417968750, -0.1308250576257705688, 0.0005818048375658691, -0.0175031833350658417, -0.0094121089205145836, -0.0371962450444698334, 0.0148008354008197784, 0.2065705209970474243, 0.0274783521890640259, 0.1483845710754394531, 0.0514361932873725891, -0.0034073297865688801, 0.0950288996100425720, -0.0321713164448738098, 0.0150070786476135254, -0.0191543288528919220, 0.0407675281167030334, 0.1280751228332519531, 0.0348425023257732391, 0.0045972401276230812, 0.0524028651416301727, 0.1438428908586502075, -0.0303969867527484894, -0.0069738561287522316, 0.1160773411393165588, -0.0592628233134746552, 0.0741573050618171692, -0.0233674086630344391, -0.0172942113131284714, -0.0427055619657039642, 0.0803152769804000854, -0.0520237386226654053, -0.0397351719439029694, -0.0711747258901596069, 0.1071929857134819031, 0.0611836016178131104, -0.0564941801130771637, -0.0888893678784370422, -0.0459009706974029541, -0.0087964069098234177, -0.0552222616970539093, 0.1485357284545898438, 0.1361935585737228394, 0.0087119350209832191, -0.0066419700160622597, 0.0225266143679618835, 0.0327063612639904022, 0.1625728160142898560, -0.0097377523779869080, 0.0601100027561187744, 0.0170234497636556625, 0.1381087452173233032, -0.0624083690345287323, 0.0736838877201080322, 0.0655018463730812073, -0.0056241606362164021, -0.1039229333400726318, -0.0344945415854454041, 0.2171028256416320801, 0.0618969798088073730, 0.1518085598945617676, 0.0566390380263328552, 0.2447934299707412720, -0.1666552871465682983, -0.0144171584397554398, 0.0686433836817741394, 0.0826962813735008240, -0.0405455417931079865, -0.0243302881717681885, -0.0213405936956405640, -0.1537750959396362305, 0.0731200054287910461, 0.0770828500390052795, 0.1166269332170486450, 0.0764945596456527710, 0.0077782408334314823, -0.0170242432504892349, 0.0156737305223941803, -0.0261348038911819458, -0.0293378345668315887, 0.0705890953540802002, -0.0102393878623843193, 0.0148648619651794434, -0.0151494946330785751, 0.1108988299965858459, 0.1721068322658538818, -0.0511077977716922760, -0.0486800745129585266, 0.1100403219461441040, 0.0683941170573234558, 0.1283115744590759277, -0.0983954519033432007, -0.1716584414243698120, -0.0797061920166015625, -0.0351585671305656433, -0.0524586550891399384, -0.1195927262306213379, -0.0944066047668457031, 0.1535462886095046997, 0.1282404959201812744, 0.0340177565813064575, 0.0211038552224636078, -0.0591544583439826965, 0.0379973277449607849, 0.0396599359810352325, 0.0886780619621276855, 0.1060110405087471008, 0.0480305813252925873, 0.0520306266844272614, -0.0015674922615289688, 0.0231318473815917969, 0.1675984114408493042, 0.0816427543759346008, 0.0385602638125419617, -0.0687849745154380798, 0.0947930663824081421, 0.0203641224652528763, 0.0370977036654949188, 0.1374160796403884888, 0.1025523021817207336, 0.0461012274026870728, -0.0624772980809211731, 0.2168779969215393066, 0.1956581920385360718, -0.0732302889227867126, 0.0158795956522226334, 0.1699658185243606567, -0.1664077043533325195, -0.2046916633844375610, -0.0233181677758693695, 0.1059856638312339783, 0.0245599877089262009, -0.0083929961547255516, 0.0532266534864902496, 0.0235636886209249496, 0.2548904716968536377, -0.0293149519711732864, 0.0058959075249731541, 0.0270580276846885681, 0.0482173003256320953, -0.0012251508887857199, 0.0636033117771148682, 0.0330891124904155731, 0.0030930819921195507, 0.0573003888130187988, 0.0438738130033016205, 0.1095317378640174866, 0.0638947933912277222, 0.1312772184610366821, 0.2043628394603729248, 0.0818276032805442810, 0.1343682110309600830, 0.1326265186071395874, 0.1487983465194702148, 0.0702107325196266174, 0.0376363024115562439, -0.1571477651596069336, 0.1250679045915603638, 0.0786918476223945618, 0.0503961145877838135, -0.0288867130875587463, -0.1436779499053955078, 0.1854421794414520264, 0.0629070028662681580, -0.0044887289404869080, 0.1076684892177581787, -0.0949769094586372375, -0.0476380065083503723, -0.0008917833911255002, 0.1113536506891250610, -0.0500617809593677521, 0.1207187771797180176, -0.0012458233395591378, -0.0180902462452650070, 0.0088511221110820770, 0.1391447633504867554, -0.0154856359586119652, 0.0192340221256017685, -0.0070058633573353291, -0.0255554933100938797, -0.1274163722991943359, 0.0943300053477287292, 0.0404918082058429718, -0.0009074001573026180, 0.0662806332111358643, 0.0967611595988273621, -0.0772473737597465515, 0.0264419838786125183, -0.0282230973243713379, 0.0590845905244350433, 0.0172845516353845596, 0.0487103611230850220, 0.0430991724133491516, 0.0709847360849380493, 0.0318034067749977112, 0.0696057677268981934, 0.0256950166076421738, 0.0534538440406322479, 0.0909014269709587097, 0.1581853181123733521, 0.0289995577186346054, 0.1379880160093307495, 0.0653989464044570923, -0.0451916232705116272, 0.0824194699525833130, 0.0631677433848381042, 0.1027115210890769958, -0.0398038960993289948, -0.0460951067507266998, 0.0226202532649040222, 0.0532192662358283997, 0.0900549516081809998, 0.0411177575588226318, -0.0320187769830226898, 0.0368302352726459503, -0.0259752385318279266, -0.0018171872943639755, 0.0907479822635650635, 0.0471924841403961182, 0.0516566820442676544, 0.0077017922885715961, 0.0669838637113571167, 0.0929895639419555664, -0.0157480444759130478, 0.0275356993079185486, -0.0211164802312850952, 0.1035866141319274902, -0.0421604774892330170, 0.0168096441775560379, 0.1447097659111022949, 0.0140665993094444275, -0.1312615275382995605, 0.0447415523231029510, 0.0618184432387351990, 0.1554655879735946655, 0.0015165091026574373, -0.0146711412817239761, -0.0591791830956935883, -0.0042068311013281345, 0.1054936870932579041, 0.0793915912508964539, 0.0673848241567611694, 0.0325565114617347717, 0.0337657891213893890, -0.0793638303875923157, 0.0448777340352535248, 0.0702658519148826599, -0.0170430187135934830, 0.0204637628048658371, -0.0192589033395051956, -0.0259171258658170700, -0.0569141656160354614, 0.0188881680369377136, 0.0739864408969879150, -0.0584690086543560028, 0.0280343089252710342, 0.1924943625926971436, 0.0012979117454960942, -0.0183199513703584671, -0.0564758442342281342, 0.0238007251173257828, 0.0129647832363843918, 0.0308267772197723389, 0.1439971774816513062, 0.0658349692821502686, -0.0279262065887451172, -0.0728379860520362854, 0.0268251430243253708, -0.0040680365636944771, -0.0599250905215740204, -0.0138926981016993523, -0.0557278804481029510, 0.0117858704179525375, -0.0243245679885149002, -0.0570281706750392914, -0.0495769642293453217, 0.0115295751020312309, -0.0495077446103096008, -0.0567202232778072357, -0.0927385911345481873, 0.1434002965688705444, 0.0053495839238166809, -0.0220649242401123047, 0.0061755445785820484, -0.0359403081238269806, -0.0624705292284488678, -0.0335395857691764832, -0.0612885318696498871, 0.0687476247549057007, 0.0330991558730602264, 0.1688994765281677246, 0.0032063820399343967, -0.0298967957496643066, 0.0585493259131908417, 0.0617054663598537445, -0.1188060641288757324, 0.0522304661571979523, 0.0171971991658210754, 0.0484106354415416718, -0.0919430926442146301, 0.0187652911990880966, 0.1224095374345779419, 0.1045570895075798035, -0.0095559554174542427, -0.0072635854594409466, 0.0511416122317314148, -0.0172787979245185852, -0.0813757628202438354, -0.1194376796483993530, -0.0155859906226396561, 0.0800413414835929871, -0.0501375198364257812, 0.0257849525660276413, 0.0685281306505203247, -0.0283826515078544617, 0.1617978066205978394, 0.0213233456015586853, 0.0643271878361701965, -0.1752811074256896973, 0.0969139039516448975, -0.0054000252857804298, -0.1124002560973167419, 0.0614480488002300262, -0.0522795356810092926, 0.0313390418887138367, 0.0096091367304325104, -0.0753407031297683716, 0.1610189825296401978, 0.0049620983190834522, -0.0205320902168750763, 0.0872471705079078674, 0.0499172396957874298, 0.1052699461579322815, -0.0407533198595046997, 0.0889002531766891479, 0.1035658046603202820, -0.0520412959158420563, 0.0937082618474960327, 0.0224223807454109192, -0.0552658177912235260, 0.0571985356509685516, -0.0231714546680450439, -0.0675034299492835999, -0.0463131219148635864, 0.0678770318627357483, 0.0699039921164512634, 0.0884261652827262878, 0.0381029769778251648, -0.0526508204638957977, 0.0301701221615076065, -0.0495953820645809174, 0.0512160956859588623, 0.0354803875088691711, 0.0069542690180242062, -0.0216304641216993332, -0.0683279410004615784, 0.0310187302529811859, 0.1760118305683135986, 0.0368844196200370789, -0.0289429947733879089, 0.1053543314337730408, 0.1432935893535614014, 0.0931668356060981750, -0.0503766685724258423, 0.0231189057230949402, 0.0576602928340435028, -0.0157444886863231659, -0.0535817928612232208, 0.0595332086086273193, 0.1296711266040802002, 0.0051679573953151703, -0.0321191102266311646, -0.0677069127559661865, 0.0793093591928482056, -0.0209236685186624527, -0.0696199536323547363, 0.0543549209833145142, 0.0183961410075426102, -0.2296496927738189697, -0.0138826519250869751, 0.0641108378767967224, 0.0748915076255798340, 0.0028226051945239305, -0.0722405835986137390, 0.0547660849988460541, 0.0415785573422908783, -0.0234691575169563293, -0.0369933024048805237, 0.0427662432193756104, 0.0166876334697008133, -0.0125380763784050941, 0.0417453087866306305, -0.0578191690146923065, 0.0244848579168319702, -0.0183559991419315338, 0.0744918286800384521, 0.0706114843487739563, 0.0396554842591285706, 0.0811299085617065430, 0.0322915613651275635, 0.0445492677390575409, 0.0159605182707309723, 0.0083908820524811745, 0.0098110856488347054, 0.1493654251098632812, 0.0722106620669364929, 0.0001822685007937253, 0.0589977055788040161, 0.1225123777985572815, -0.0991337001323699951, 0.0050566401332616806, 0.0911654606461524963, -0.0055109760724008083, -0.0152843398973345757, 0.0461493395268917084, 0.0744762793183326721, 0.0080595249310135841, 0.0858004540205001831, 0.1642959415912628174, -0.0693747326731681824, -0.0099411392584443092, 0.1717435121536254883, -0.0143087869510054588, -0.1696633398532867432, 0.0460737422108650208, 0.1423110216856002808, 0.1391801983118057251, -0.0872301235795021057, 0.1014779955148696899, 0.0230844207108020782, 0.0870804712176322937, 0.0323163419961929321, 0.0984171330928802490, 0.0197739992290735245, -0.0485832765698432922, 0.0080314502120018005, -0.0776887983083724976, 0.0112193813547492027, -0.0052450965158641338, -0.0019608160946518183, 0.0022729884367436171, 0.0628055483102798462, -0.1076321825385093689, 0.1495188474655151367, 0.1090058013796806335, 0.0338130258023738861, -0.0067908526398241520, -0.0766987800598144531, 0.0435550212860107422, 0.0842106491327285767, 0.0419389419257640839, -0.0479706339538097382, -0.0857397168874740601, -0.0084511032328009605, 0.0693258345127105713, 0.1043301224708557129, 0.0324066765606403351, 0.1828601509332656860, 0.0602332241833209991, 0.0516328364610671997, 0.2026762962341308594, -0.0395713448524475098, 0.1017427444458007812, -0.0050940234214067459, -0.0102383773773908615, 0.0563586242496967316, -0.0339475497603416443, 0.0663085505366325378, 0.1340555846691131592, -0.0267421696335077286, -0.0209656413644552231, 0.1384154111146926880, 0.1549943536520004272, 0.0912246257066726685, -0.0192605294287204742, -0.0141237629577517509, -0.0458341650664806366, -0.0929638519883155823, 0.0401990115642547607, 0.0647090673446655273, 0.1203691065311431885, 0.1167609319090843201, 0.2331618219614028931, -0.0363994203507900238, 0.0740076079964637756, 0.2584310472011566162, -0.0526924021542072296, -0.1299301087856292725, -0.0529600419104099274, 0.0263527911156415939, 0.2072702050209045410, -0.0885851159691810608, 0.0426627248525619507, 0.1531769037246704102, 0.0118739679455757141, 0.0678132995963096619, 0.0628565996885299683, 0.0267905071377754211, -0.0237724166363477707, 0.0177126508206129074, -0.1333110928535461426, 0.0644090101122856140, 0.0169564094394445419, 0.0021382831037044525, -0.0469715595245361328, 0.0006725647253915668, 0.0790655314922332764, 0.2215047180652618408, 0.0994200035929679871, 0.0423469580709934235, 0.0420547388494014740, -0.0753039568662643433, 0.0186879560351371765, 0.0591136440634727478, 0.0566018596291542053, 0.0105353398248553276, 0.1172298863530158997, -0.0613685809075832367, 0.0061459033749997616, 0.0939123183488845825, 0.0237807892262935638, 0.1826268434524536133, -0.0421631336212158203, 0.0472580231726169586, 0.1414516121149063110, -0.0297483596950769424, -0.0365279614925384521, 0.0129023473709821701, 0.0486946254968643188, 0.0573874711990356445, -0.0230888873338699341, -0.0747143924236297607, 0.0176053512841463089, 0.0825717374682426453, 0.0456361137330532074, 0.1172296106815338135, 0.2274177074432373047, 0.0537593401968479156, 0.0242670737206935883, -0.0200927332043647766, -0.0205516852438449860, 0.0395414307713508606, -0.0701599270105361938, -0.0045002265833318233, -0.0344840474426746368, 0.0423368215560913086, 0.2169234007596969604, -0.0820992812514305115, 0.0825233981013298035, 0.1800369024276733398, -0.0906282141804695129, -0.0446768961846828461, -0.1094765439629554749, 0.0429942384362220764, 0.2117805778980255127, -0.0561694614589214325, -0.0254581030458211899, 0.0079696606844663620, 0.1217182204127311707, 0.0960789844393730164, 0.1027128398418426514, -0.0571034289896488190, 0.0599073693156242371, -0.0560928545892238617, 0.1021898314356803894, 0.1650748252868652344, 0.0069698747247457504, 0.1068710610270500183, -0.0304812509566545486, -0.0936181917786598206, 0.1304769963026046753, 0.0767000094056129456, -0.0923605933785438538, -0.0665128678083419800, -0.0508384704589843750, 0.1176944598555564880, -0.0576975904405117035, 0.1456428915262222290, 0.0156367998570203781, -0.0901106595993041992, 0.0767928585410118103, -0.0118061089888215065, 0.0371575802564620972, 0.1239057108759880066, -0.0901461914181709290, 0.1719413101673126221, 0.0390471816062927246, -0.0943975225090980530, 0.1192072704434394836, 0.0346618294715881348, -0.0915518626570701599, 0.0388013459742069244, -0.0681606754660606384, 0.0600427724421024323, -0.0935782343149185181, 0.0619381926953792572, 0.1119736507534980774, 0.0974326208233833313, -0.0701385214924812317, 0.1676431149244308472, 0.0229992475360631943, 0.1812415719032287598, 0.0419806204736232758, -0.0097303483635187149, 0.0279500521719455719, 0.0017308945534750819, 0.0329585634171962738, -0.0284780748188495636, 0.0708275511860847473, -0.0484377816319465637, 0.0811347588896751404, 0.0387461818754673004, -0.0301145426928997040, 0.2854149043560028076, 0.0227111447602510452, 0.0925341621041297913, -0.0491383560001850128, 0.0254555121064186096, 0.1558667570352554321, 0.0033922465518116951, -0.0368141904473304749, 0.0135540738701820374, 0.0812789574265480042, -0.0491017140448093414, -0.0286162644624710083, -0.0189053714275360107, 0.0108968317508697510, 0.0172113124281167984, -0.0027158465236425400, -0.0612523555755615234, -0.0997252091765403748, -0.0675136372447013855, -0.0269961319863796234, 0.0247164610773324966, 0.0376404188573360443, 0.0941188260912895203, 0.1511154919862747192, -0.0287524349987506866, 0.0200754720717668533, 0.0517096780240535736, 0.0457411482930183411, 0.0789620876312255859, 0.0433657206594944000, -0.0171526558697223663, -0.1144859343767166138, -0.0479571409523487091, -0.0509388558566570282, 0.1549009233713150024, 0.0129235582426190376, 0.1381895095109939575, -0.0165242925286293030, 0.0996268689632415771, 0.0892227739095687866, -0.0149163408204913139, 0.0006790670449845493, -0.1024248450994491577, -0.0440532863140106201, -0.0150059135630726814, -0.0251104775816202164, 0.0153729841113090515, 0.0956457033753395081, 0.0866953581571578979, -0.0059688054025173187, 0.0698943287134170532, 0.1238747984170913696, 0.0682590827345848083, 0.0263679940253496170, 0.0813442766666412354, 0.0523753985762596130, -0.0752452388405799866, 0.0469330623745918274, 0.0787021741271018982, 0.0800799578428268433, 0.0219907872378826141, 0.0963902100920677185, 0.0999422743916511536, -0.0450086928904056549, 0.1254672855138778687, -0.1583087593317031860, -0.0503561608493328094, -0.1108533069491386414, 0.1097684130072593689, 0.1558885127305984497, -0.0815223157405853271, -0.0237831547856330872, -0.0070092310197651386, 0.0364318564534187317, 0.0848624259233474731, -0.0472012609243392944, -0.0102045936509966850, 0.0307790581136941910, -0.1169188991189002991, 0.0230043847113847733, -0.0772102028131484985, -0.0961978286504745483, -0.0931291580200195312, -0.0714660435914993286, -0.0176799576729536057, 0.0200976263731718063, -0.0942425802350044250, 0.0261836685240268707, 0.0320703536272048950, -0.0760963633656501770, 0.0657965317368507385, -0.0209583695977926254, 0.1033949404954910278, -0.0518407337367534637, 0.0085105914622545242, 0.0056924605742096901, -0.0806192606687545776, -0.0302871577441692352, 0.0702330693602561951, 0.0407102890312671661, 0.0151522941887378693, 0.0215328466147184372, 0.0426982827484607697, 0.0899541079998016357, -0.0288845933973789215, -0.0338198989629745483, -0.0460005588829517365, -0.0787546113133430481, -0.0451644323766231537, -0.0501211509108543396, 0.0114325163885951042, 0.0497682243585586548, -0.0576016642153263092, 0.0059846928343176842, -0.0141773493960499763, 0.1465610116720199585, -0.0593809187412261963, -0.0224453918635845184, -0.0374912805855274200, -0.0549020580947399139, -0.0081761088222265244, -0.0240073837339878082, 0.0874839350581169128, 0.1001848280429840088, -0.0255300644785165787, 0.0202404651790857315, 0.0854945182800292969, -0.0661484077572822571, 0.2161716520786285400, -0.0660613551735877991, -0.0507462583482265472, -0.1019791066646575928, 0.0351645722985267639, 0.1215841472148895264, -0.0734356492757797241, 0.0597229823470115662, 0.0438383035361766815, -0.0281155575066804886, 0.0125319361686706543, 0.0918041989207267761, 0.0111259929835796356, 0.0238762050867080688, -0.0293265171349048615, -0.1383125185966491699, 0.0643208026885986328, 0.0908561497926712036, -0.0044490476138889790, 0.0886529684066772461, 0.0712685734033584595, 0.0319606289267539978, 0.0495883710682392120, 0.0723159760236740112, -0.0256635230034589767, -0.0718330070376396179, 0.1598519831895828247, 0.0766495615243911743, 0.0139701254665851593, 0.1380020976066589355, -0.0395036041736602783, 0.1481438130140304565, 0.0213584993034601212, 0.0433057136833667755, 0.0065550785511732101, 0.0051216701976954937, 0.2016825526952743530, 0.0865821465849876404, 0.0095998747274279594, 0.1338156908750534058, -0.0036559952422976494, -0.0436895415186882019, 0.1194912716746330261, -0.0701306462287902832, 0.1360227614641189575, 0.0386062860488891602, -0.0735502317547798157, -0.0014617085689678788, 0.0378130748867988586, 0.0916739255189895630, 0.1100253388285636902, 0.0180448945611715317, 0.0386227443814277649, -0.0030721675138920546, -0.0291381776332855225, 0.1749505549669265747, -0.0375124327838420868, 0.0475431643426418304, -0.0516777522861957550, 0.0272108893841505051, 0.0570684261620044708, 0.1021964624524116516, -0.0053318454883992672, 0.0364475809037685394, 0.0416857898235321045, -0.0721414387226104736, -0.0472867265343666077, -0.0092782070860266685, 0.0923626944422721863, 0.0372562482953071594, 0.0208705514669418335, 0.0628458485007286072, 0.0659047886729240417, 0.0366914980113506317, 0.0720744878053665161, 0.0741412341594696045, -0.0474956743419170380, 0.1231786385178565979, 0.0203828997910022736, -0.0691556036472320557, -0.0477170199155807495, -0.0418816469609737396, -0.0296849012374877930, -0.0470711588859558105, -0.0397221967577934265, 0.0437350235879421234, -0.0008875185740180314, 0.0282319653779268265, 0.0693432465195655823, -0.0585554689168930054, 0.2061634659767150879, 0.0785839632153511047, -0.0391306616365909576, -0.0388230308890342712, -0.0275305379182100296, 0.1784906536340713501, -0.0633042752742767334, -0.0467561371624469757, 0.0162635687738656998, -0.0471030697226524353, 0.1903983801603317261, -0.0307683795690536499, -0.0572514981031417847, 0.0516799949109554291, 0.0460200943052768707, 0.0467523708939552307, -0.0548444092273712158, -0.0224627424031496048, 0.0372181572020053864, -0.0087599866092205048, -0.0398721210658550262, 0.0141085740178823471, -0.0374163575470447540, 0.0496712550520896912, -0.0027552044484764338, 0.0387271083891391754, -0.0047843889333307743, -0.0528605505824089050, -0.0328537598252296448, 0.1823211163282394409, 0.0403536409139633179, -0.0475886762142181396, 0.0549100451171398163, -0.0049425885081291199, -0.0367205142974853516, 0.1490561068058013916, 0.0332105979323387146, -0.0275967568159103394, -0.0363413058221340179, -0.0483888983726501465, -0.0340930894017219543, -0.0988778099417686462, 0.1705901920795440674, -0.0978084802627563477, -0.0129197072237730026, -0.0150640876963734627, 0.0563050359487533569, -0.0631332322955131531, 0.0838775783777236938, 0.0658451765775680542, -0.0422190986573696136, 0.0638488605618476868, 0.0535175800323486328, -0.0985184833407402039, -0.0213499311357736588, 0.0551602542400360107, -0.0542636290192604065, 0.0236194226890802383, 0.0198786240071058273, -0.0198921859264373779, 0.0369660593569278717, 0.1713231354951858521, -0.0265082661062479019, 0.0680846273899078369, 0.1722236126661300659, 0.0012478869175538421, 0.0264048818498849869, 0.0928637534379959106, 0.0194659177213907242, 0.0624600648880004883, 0.0302501022815704346, 0.0406643338501453400, -0.0056538791395723820, 0.0413125753402709961, 0.1492050886154174805, -0.0035643326118588448, -0.0303628835827112198, 0.0865766853094100952, -0.0057732407003641129, 0.0856253579258918762, 0.0825848579406738281, -0.0309700593352317810, 0.1556139290332794189, -0.0178775731474161148, 0.0212227180600166321, 0.1051737442612648010, -0.0212057884782552719, -0.0286761466413736343, 0.0782564505934715271, 0.2424723058938980103, 0.0923092812299728394, -0.0171166602522134781, -0.0011773038422688842, -0.0014652488753199577, -0.0086080767214298248, 0.0458252429962158203, -0.0153488647192716599, -0.1136030256748199463, 0.0187448114156723022, 0.1838835626840591431, 0.0676500871777534485, -0.0505094230175018311, 0.0411444902420043945, 0.0600885637104511261, -0.0911030322313308716, 0.0331689566373825073, 0.1359163969755172729, -0.0679057687520980835, 0.0275217276066541672, 0.0129463737830519676, 0.0505641363561153412, 0.0330522023141384125, 0.1087479516863822937, 0.0370868183672428131, 0.1077082380652427673, 0.0336792469024658203, -0.0384613983333110809, 0.0327722318470478058, -0.0166659206151962280, -0.0003447062626946718, 0.0542246289551258087, 0.0220502503216266632, -0.0668485090136528015, -0.0936007052659988403, -0.0882919430732727051, 0.0675301030278205872, -0.0355550758540630341, 0.0052856365218758583, 0.1533061265945434570, -0.0143619338050484657, 0.0475035309791564941, 0.0131537960842251778, -0.0191984008997678757, -0.0387423373758792877, 0.0151016013696789742, -0.0086857052519917488, 0.0407269336283206940, -0.0169806145131587982, 0.0601352080702781677, -0.0155907329171895981, 0.0324512943625450134, 0.0988612025976181030, 0.0362762920558452606, 0.0842380002140998840, -0.0538074485957622528, 0.0558418184518814087, -0.0261547714471817017, 0.0267426893115043640, -0.0085676917806267738, 0.1986552476882934570, -0.1555343270301818848, 0.0664512217044830322, -0.1097876429557800293, 0.1722617596387863159, 0.0595274455845355988, -0.1310254931449890137, 0.0278033204376697540, 0.2569227516651153564, -0.0897344499826431274, 0.0760509967803955078, -0.0111239803954958916, 0.0823599323630332947, 0.0975732579827308655, 0.0401766598224639893, -0.0833270028233528137, -0.0176694989204406738, 0.2290395349264144897, 0.0740229859948158264, -0.0294454079121351242, 0.1051558405160903931, 0.1789384633302688599, 0.0172659680247306824, -0.0299391634762287140, 0.0794180706143379211, -0.0421174727380275726, -0.0929465517401695251, -0.0751628875732421875, 0.0488266050815582275, 0.0820112451910972595, 0.0791374593973159790, 0.0103503763675689697, -0.0320799723267555237, -0.1266438066959381104, 0.0222017318010330200, 0.0800965055823326111, 0.0509847663342952728, -0.0815669149160385132, -0.0641959160566329956, -0.0835809409618377686, 0.0004702006117440760, -0.0790609717369079590, 0.0710726976394653320, 0.2261020839214324951, 0.0970912501215934753, -0.0197786074131727219, 0.0237323138862848282, 0.0538586266338825226, -0.0534472353756427765, -0.0343477465212345123, -0.0158282648772001266, 0.1062006354331970215, 0.0245038568973541260, -0.0474860332906246185, 0.0547198876738548279, 0.0179626438766717911, 0.1667641550302505493, 0.0085793053731322289, 0.0011645436752587557, 0.0009879698045551777, -0.0254513807594776154, -0.0376972518861293793, 0.0830014720559120178, 0.0555837340652942657, 0.2556708455085754395, -0.1244673356413841248, -0.0496447421610355377, -0.0973081216216087341, 0.1441431641578674316, 0.0711673051118850708, -0.1771299093961715698, 0.0158067587763071060, 0.0990937799215316772, 0.0512679219245910645, -0.0476225726306438446, 0.0032541006803512573, 0.0552069731056690216, 0.0371998958289623260, -0.0396747514605522156, -0.0302660912275314331, -0.0442143678665161133, 0.1735949665307998657, 0.0344719327986240387, -0.0335988365113735199, 0.1005092188715934753, 0.2947804927825927734, -0.0061503872275352478, -0.0329067073762416840, 0.1133801788091659546, 0.0736347213387489319, -0.0857235267758369446, -0.0567475184798240662, 0.0832041800022125244, 0.0344775654375553131, 0.0327420309185981750, 0.0306875184178352356, 0.1062417775392532349, -0.1015363782644271851, -0.0397854298353195190, 0.0079421289265155792, 0.0780949816107749939, 0.0523233227431774139, 0.0695016160607337952, -0.0732251033186912537, 0.0075441449880599976, -0.0178371835500001907, 0.0310820657759904861, 0.0855582207441329956, 0.0444425605237483978, 0.0161103773862123489, -0.0216347184032201767, -0.0201497487723827362, -0.0619734190404415131, -0.0112995458766818047, -0.1061674356460571289, 0.0704262927174568176, 0.0572387017309665680, -0.0868879035115242004, 0.0631967782974243164, 0.0059400801546871662, 0.0826170220971107483, -0.0579098165035247803, 0.0255555789917707443, -0.0465200915932655334, 0.0260267592966556549, 0.0368747524917125702, -0.0492589361965656281, -0.0291095562279224396, 0.1075142994523048401, 0.0502793006598949432, -0.0285568013787269592, -0.1357397437095642090, 0.1727589219808578491, 0.0724711716175079346, -0.0267881713807582855, 0.1248240619897842407, 0.0026224448811262846, -0.0223447307944297791, 0.0093687437474727631, -0.0406271666288375854, 0.1506283581256866455, 0.1029618009924888611, 0.0147751048207283020, 0.0081709912046790123, 0.0217579323798418045, 0.1174917444586753845, 0.0318594500422477722, 0.0890034586191177368, -0.0435482971370220184, 0.1279215216636657715, 0.0722413435578346252, 0.0267531089484691620, 0.0063189337961375713, 0.0531175024807453156, 0.0236923880875110626, 0.0389135554432868958, -0.0675136074423789978, 0.1197447404265403748, 0.0654958412051200867, 0.0820753350853919983, -0.0895449072122573853, -0.0329494625329971313, -0.0185962263494729996, 0.0862448066473007202, 0.0625055953860282898, -0.0543830059468746185, 0.2157765924930572510, 0.1667795479297637939, -0.0275888983160257339, -0.0840185880661010742, 0.0057580666616559029, 0.0926657617092132568, -0.0060310238040983677, 0.0724667534232139587, -0.0815712884068489075, -0.0387348048388957977, -0.0904237702488899231, -0.0536894574761390686, 0.0602479837834835052, 0.0998497828841209412, -0.0925107672810554504, 0.0490243434906005859, -0.0480593107640743256, -0.0320918150246143341, 0.0004090289585292339, -0.0154353640973567963, 0.0553796105086803436, -0.0790952891111373901, 0.0046481378376483917, 0.0902587100863456726, 0.0623744502663612366, 0.1009985730051994324, 0.0646757632493972778, 0.1332428753376007080, -0.0145813506096601486, 0.0070202634669840336, 0.0426304377615451813, 0.0099637210369110107, -0.0072403615340590477, -0.0224836748093366623, -0.0235634148120880127, -0.1514883637428283691, -0.0670346543192863464, -0.0320439636707305908, 0.0612908042967319489, 0.0554824694991111755, 0.0010965417604893446, -0.0509822964668273926, -0.0642621442675590515, 0.0885387435555458069, -0.0343677997589111328, 0.0255249477922916412, 0.1080416366457939148, 0.0077694910578429699, 0.1539006233215332031, 0.0139980288222432137, -0.0078694690018892288, -0.0728733986616134644, -0.0047026723623275757, -0.0089399395510554314, -0.1145800054073333740, -0.0474898628890514374, -0.1099859401583671570, 0.0442588478326797485, -0.0086747482419013977, -0.0015723035903647542, 0.0696503296494483948, -0.0338079445064067841, 0.0146177373826503754, 0.0299635436385869980, 0.0975024774670600891, 0.1177364587783813477, 0.0520384460687637329, -0.0897674635052680969, 0.0669681653380393982, -0.0014076360967010260, 0.0226871110498905182, -0.0050464384257793427, -0.0400637648999691010, -0.0324378386139869690, -0.0626844987273216248, -0.1028695330023765564, -0.1253811866044998169, 0.0454551316797733307, 0.0106201395392417908, -0.0679595097899436951, -0.0905695259571075439, -0.0441132038831710815, -0.0124985333532094955, 0.0413789898157119751, 0.0990640297532081604, -0.0509302020072937012, 0.0001752867246977985, -0.0162911731749773026, 0.0768689811229705811, 0.0715113952755928040, 0.1050679981708526611, 0.1311562955379486084, -0.0838861316442489624, -0.0812449529767036438, 0.0674952566623687744, 0.0257898233830928802, -0.0326939187943935394, 0.0451413914561271667, 0.0157802328467369080, -0.1473735272884368896, 0.0029858704656362534, 0.0385458692908287048, 0.0472251810133457184, 0.0753134265542030334, -0.0216503422707319260, 0.1015203297138214111, -0.0037133013829588890, 0.0244243163615465164, 0.0002611466625239700, -0.1018473282456398010, 0.1818152517080307007, -0.0851838961243629456, 0.1756744980812072754, -0.0599413551390171051, -0.0910754203796386719, 0.0333454236388206482, 0.0078538013622164726, -0.0598990358412265778, -0.1289476305246353149, -0.0532111227512359619, -0.0327454470098018646, 0.0544393099844455719, 0.0011956789530813694, -0.1054667159914970398, 0.0233663208782672882, -0.0934902727603912354, 0.0058200410567224026, -0.0435830056667327881, 0.0983090326189994812, 0.0169039927423000336, -0.0118568586185574532, -0.0653408616781234741, 0.0053460504859685898, -0.1065916121006011963, -0.0312098488211631775, 0.0816136747598648071, -0.0097029088065028191, -0.0171071402728557587, -0.0519316010177135468, -0.0980268120765686035, -0.0787614062428474426, 0.0928480848670005798, 0.0246877949684858322, -0.1355064809322357178, -0.0235379282385110855, -0.0217114482074975967, -0.1658122092485427856, 0.0538204945623874664, 0.0661092475056648254, -0.0146821821108460426, 0.0026808073744177818, -0.0992309078574180603, 0.0536373220384120941, -0.0077800592407584190, 0.0017658107681199908, 0.0390037372708320618, -0.0449180677533149719, -0.0637155473232269287, -0.0123614054173231125, -0.0928594321012496948, 0.0492767840623855591, 0.0671002045273780823, -0.0590476058423519135, -0.0774663016200065613, -0.0410880073904991150, -0.1092658266425132751, 0.1105625927448272705, 0.0188636258244514465, -0.0441988669335842133, -0.0168643407523632050, 0.0331781432032585144, 0.0401089265942573547, -0.0073258667252957821, -0.0801647678017616272, -0.0143883014097809792, -0.1197854727506637573, 0.0592420734465122223, -0.0491800792515277863, 0.0010436244774609804, 0.0571781396865844727, 0.0451948568224906921, -0.0948018580675125122, -0.1435299366712570190, -0.0788659974932670593, -0.1417084485292434692, 0.1002048105001449585, 0.0527664422988891602, 0.0052571864798665047, -0.0029837924521416426, -0.0059695537202060223, 0.0915456712245941162, 0.0448870286345481873, -0.0828400701284408569, 0.0697149038314819336, -0.0978004857897758484, 0.0941437929868698120, -0.0247126426547765732, -0.0455492697656154633, -0.0056297644041478634, 0.0042456332594156265, 0.0501522272825241089, 0.0897440314292907715, 0.0823463350534439087, 0.0765555277466773987, 0.2557127773761749268, -0.0451621934771537781, -0.0218867193907499313, 0.0127809466794133186, 0.0577807649970054626, 0.0616074353456497192, 0.0905629619956016541, 0.0687132775783538818, -0.0302064437419176102, 0.1175021678209304810, 0.0987422391772270203, 0.1409313827753067017, 0.0177188236266374588, 0.1531979441642761230, -0.0295458752661943436, 0.0063606924377381802, 0.0399174615740776062, 0.0310209952294826508, -0.0901127681136131287, 0.1182541251182556152, 0.0237513240426778793, 0.0275544039905071259, 0.0333310328423976898, 0.0918519869446754456, 0.0574974268674850464, 0.0840198099613189697, -0.0379890576004981995, 0.0095981666818261147, -0.0441757366061210632, 0.0059148180298507214, 0.0779745355248451233, -0.1453631669282913208, 0.0515012517571449280, -0.1041431352496147156, 0.0528434552252292633, 0.0072644171305000782, -0.1024981588125228882, 0.0106032285839319229, 0.1357929110527038574, -0.1465356796979904175, -0.0218267273157835007, 0.0837858691811561584, 0.0372516103088855743, -0.1236883699893951416, 0.0602786317467689514, -0.0499582327902317047, -0.1189618930220603943, 0.0064666424877941608, 0.0525261685252189636, -0.0206892117857933044, 0.0841760039329528809, 0.0175054986029863358, -0.0503541268408298492, -0.0129841780290007591, -0.0338872373104095459, -0.0464686192572116852, -0.1387433856725692749, 0.0650631487369537354, -0.1035732179880142212, -0.2240445166826248169, -0.0580525100231170654, 0.0442084409296512604, -0.0590739473700523376, -0.0248330514878034592, 0.0401072353124618530, -0.1194221377372741699, 0.0461016595363616943, 0.0105524193495512009, -0.0554654560983181000, -0.1425347626209259033, -0.0668586120009422302, -0.0106360344216227531, 0.0489840693771839142, 0.0415074750781059265, 0.0257172379642724991, 0.0263882502913475037, -0.0140471532940864563, -0.0153389479964971542, 0.0227047856897115707, 0.0526867955923080444, -0.0289501436054706573, -0.0391755253076553345, -0.1027406677603721619, -0.0247110482305288315, 0.0682549625635147095, 0.1057597622275352478, -0.0003250055597163737, 0.0624101758003234863, -0.0066533326171338558, -0.0347681753337383270, -0.0458475127816200256, -0.0544748976826667786, -0.1211727336049079895, -0.0301920175552368164, -0.0668764635920524597, -0.0680594816803932190, -0.0222693141549825668, -0.0429250560700893402, -0.0176379941403865814, 0.0130626307800412178, 0.0300650391727685928, -0.0781780332326889038, -0.0289354883134365082, -0.1159316375851631165, 0.0162635613232851028, -0.1094737723469734192, -0.0093960305675864220, -0.0005413909675553441, 0.0812253877520561218, -0.0366341397166252136, -0.0454794056713581085, -0.0388161763548851013, -0.0562543123960494995, 0.0083340732380747795, -0.0315211974084377289, 0.0061966860666871071, 0.0558876544237136841, -0.0478753894567489624, 0.0213747993111610413, -0.0166730005294084549, -0.0686314925551414490, 0.0186547506600618362, -0.0360550284385681152, -0.1816999018192291260, -0.0101166870445013046, -0.1102715432643890381, 0.0364071503281593323, -0.0848205909132957458, 0.0613590106368064880, -0.0759233534336090088, -0.0387207418680191040, 0.0673208981752395630, -0.1234471201896667480, -0.1021026521921157837, -0.0096835326403379440, -0.0505116097629070282, 0.0145821813493967056, -0.0561004839837551117, -0.1061238422989845276, 0.0815784111618995667, -0.1325990557670593262, -0.0177176482975482941, -0.0314385630190372467, 0.0953697040677070618, -0.0267277788370847702, -0.0290153510868549347, -0.0059264288283884525, -0.1187798827886581421, 0.0672338455915451050, 0.0928665101528167725, -0.0081118289381265640, 0.0500684194266796112, -0.0219636317342519760, -0.0263978932052850723, 0.0321344062685966492, 0.0250171478837728500, -0.1379615068435668945, 0.0082722380757331848, -0.0212013125419616699, 0.0260446947067975998, -0.0604745037853717804, -0.0252266451716423035, -0.1452388316392898560, 0.0453568585216999054, 0.0960930511355400085, -0.1271996498107910156, -0.0152485230937600136, -0.1250178217887878418, -0.0092216990888118744, -0.1390865743160247803, 0.0453678220510482788, 0.0457300022244453430, 0.0263038333505392075, 0.0575251728296279907, 0.0186991523951292038, 0.1220001429319381714, -0.0013052184367552400, 0.0382363833487033844, 0.1223703175783157349, -0.0105184027925133705, -0.0281241871416568756, 0.1558237075805664062, 0.1044263988733291626, 0.0978163629770278931, -0.0548201650381088257, -0.0553421750664710999, 0.0940226688981056213, 0.0827749297022819519, 0.0091771753504872322, 0.0154549926519393921, 0.0706732571125030518, 0.0675424709916114807, 0.1429869234561920166, -0.0320513844490051270, 0.0671903714537620544, 0.0210772287100553513, -0.0297745391726493835, 0.0253730509430170059, 0.0547269880771636963, 0.1127793192863464355, 0.1253118067979812622, 0.0496721677482128143, -0.0089760636910796165, 0.1167670488357543945, -0.0055886097252368927, 0.1531415879726409912, 0.0696244984865188599, 0.0562292784452438354, 0.0805525258183479309, 0.0500838123261928558, -0.0460280627012252808, 0.1144775524735450745, 0.1192085593938827515, 0.0391140356659889221, 0.0716926828026771545, 0.1017624512314796448, 0.1014628782868385315, 0.0575869381427764893, -0.0580289401113986969, 0.1175326704978942871, 0.0154621703550219536, -0.0980737879872322083, 0.0284156203269958496, 0.0432252585887908936, 0.0144997062161564827, -0.0647339373826980591, 0.0307573713362216949, 0.0256425961852073669, 0.1633724570274353027, -0.0625886097550392151, 0.0640321820974349976, -0.0922335088253021240, 0.1350420266389846802, 0.0129527300596237183, 0.0283495951443910599, -0.0348461270332336426, 0.0517068579792976379, -0.0247018169611692429, -0.0388371050357818604, 0.0722104087471961975, 0.0438259057700634003, 0.0094771469011902809, -0.0135364774614572525, 0.0654670596122741699, 0.0072887623682618141, 0.1093580871820449829, -0.0358235612511634827, -0.0368435382843017578, -0.1727570891380310059, -0.0796674415469169617, -0.0791745111346244812, 0.0008969402406364679, -0.0110967298969626427, 0.0123480232432484627, 0.0081099336966872215, 0.0012800960103049874, 0.0158498175442218781, -0.1276289969682693481, -0.0797726958990097046, -0.0705479457974433899, -0.1098564565181732178, -0.0132156144827604294, -0.0001798487937776372, 0.1049595102667808533, 0.0366498306393623352, 0.0272827073931694031, 0.0393593609333038330, 0.0378399565815925598, 0.0447542294859886169, 0.0587381981313228607, -0.0049013216048479080, 0.0071328473277390003, -0.0715688914060592651, -0.0841530784964561462, 0.0024730141740292311, 0.0069860005751252174, 0.0340450629591941833, 0.0141025967895984650, -0.0296375248581171036, 0.1365965008735656738, -0.0934776440262794495, 0.0286740977317094803, -0.0232557710260152817, -0.0275633893907070160, -0.0304466765373945236, -0.1114784106612205505, -0.0412959828972816467, 0.0108386790379881859, -0.0196369178593158722, 0.0075827543623745441, 0.0621269308030605316, -0.0653548315167427063, 0.0846493840217590332, -0.0108095286414027214, -0.0783010721206665039, -0.0318239107728004456, -0.0602007769048213959, -0.1314810216426849365, 0.0229751653969287872, -0.1000025272369384766, 0.0154697075486183167, 0.0031280056573450565, -0.0522101297974586487, -0.0872270762920379639, -0.1272869259119033813, 0.0307046249508857727, 0.0199190471321344376, -0.0610215626657009125, -0.0453768037259578705, -0.0501177608966827393, -0.0108655150979757309, -0.0236496645957231522, -0.0745071694254875183, 0.0149192865937948227, -0.1562070548534393311, -0.0902979299426078796, -0.0252798739820718765, 0.0018743863329291344, 0.0335668846964836121, -0.0516057386994361877, 0.0131701286882162094, -0.0802512168884277344, -0.0866728499531745911, 0.0678044334053993225, -0.1075207740068435669, -0.2074778378009796143, 0.0861416533589363098, -0.1109368428587913513, -0.0776405707001686096, -0.0324536152184009552, -0.0188013687729835510, 0.0911021754145622253, -0.0766377225518226624, -0.0159971006214618683, -0.0249741952866315842, -0.0380986519157886505, -0.0966049954295158386, -0.0653975158929824829, -0.1131948828697204590, -0.0348740331828594208, 0.0161255542188882828, -0.0270344074815511703, -0.0767775326967239380, 0.0480202361941337585, -0.0029894202016294003, -0.0387689806520938873, 0.0146997598931193352, -0.0200188271701335907, 0.0321244522929191589, 0.0274000354111194611, -0.0558160990476608276, -0.0130890542641282082, -0.0517317578196525574, 0.0483955480158329010, -0.1164746955037117004, 0.0176556333899497986, -0.0015022595180198550, -0.0243642497807741165, -0.1379229277372360229, -0.1099235489964485168, -0.1454840898513793945, -0.1831711977720260620, 0.0290809851139783859, 0.0299989674240350723, 0.0780556499958038330, -0.0474978536367416382, 0.1159074157476425171, 0.0385278463363647461, -0.0079707447439432144, 0.0291475132107734680, 0.1209997385740280151, 0.0153823262080550194, -0.0694090947508811951, 0.0535074435174465179, 0.0280524082481861115, 0.0875195637345314026, -0.1541679948568344116, 0.0513473190367221832, 0.1173002943396568298, 0.1331066638231277466, 0.0949433371424674988, 0.0529177561402320862, 0.0686555206775665283, 0.0313860662281513214, 0.0522889792919158936, 0.0179583635181188583, 0.1233386993408203125, 0.0518802218139171600, 0.0238821376115083694, 0.0507350638508796692, 0.1425949931144714355, 0.0887144953012466431, 0.0058530387468636036, 0.0122620435431599617, 0.0661088228225708008, 0.0788787007331848145, -0.0601920485496520996, 0.0105065125972032547, -0.0835957303643226624, -0.0636066943407058716, -0.0098301237449049950, -0.0321089848875999451, -0.0189580321311950684, -0.0473613888025283813, 0.0678817555308341980, -0.0658069252967834473, 0.1566409319639205933, 0.1180836483836174011, 0.0788180902600288391, 0.0866218656301498413, 0.0191902946680784225, -0.0002793180174194276, 0.1017861515283584595, -0.1280559450387954712, -0.0354405008256435394, -0.0452887378633022308, 0.0977731645107269287, -0.1043980643153190613, -0.0190227590501308441, -0.0049519096501171589, 0.0637105032801628113, -0.0570018365979194641, -0.0177220590412616730, -0.0463415719568729401, 0.1212092563509941101, -0.0690294504165649414, 0.1614534705877304077, -0.0387933440506458282, 0.0728440433740615845, 0.0450273528695106506, -0.0642633140087127686, 0.1105990782380104065, -0.0216320864856243134, 0.0146974809467792511, 0.0635381788015365601, 0.0230073165148496628, -0.0768384784460067749, 0.0649553388357162476, -0.0074102501384913921, 0.0499065928161144257, -0.1006563156843185425, -0.0450201034545898438, 0.0615403726696968079, 0.0526865422725677490, -0.0163944717496633530, 0.0088191526010632515, 0.0292713157832622528, -0.0515901744365692139, 0.1119036227464675903, -0.2455376088619232178, -0.0214662496000528336, 0.0502982810139656067, -0.0509678944945335388, 0.0287139602005481720, -0.0055433306843042374, 0.0700399056077003479, -0.0568658150732517242, 0.0839551091194152832, 0.0224302113056182861, -0.0072979810647666454, -0.0561222694814205170, 0.0479629486799240112, -0.0581518411636352539, 0.0471726097166538239, 0.0058097559958696365, 0.0703169032931327820, 0.0023098923265933990, -0.0995196178555488586, 0.0639348477125167847, 0.0520242862403392792, -0.0662835389375686646, -0.0015176652232185006, -0.0856580063700675964, 0.0644699335098266602, 0.0120222419500350952, 0.0200410000979900360, -0.0380111075937747955, -0.1223739534616470337, -0.0427878983318805695, -0.0344589166343212128, 0.0521781854331493378, -0.0917892679572105408, 0.0860709100961685181, -0.0047488533891737461, 0.0391498394310474396, -0.0192926768213510513, -0.0167133416980504990, -0.0347908213734626770, 0.0133541142567992210, -0.1765038222074508667, 0.0569241531193256378, -0.0261513907462358475, -0.0051875663921236992, 0.0943190827965736389, -0.0391357652842998505, 0.1048949882388114929, -0.0646731257438659668, 0.0879586637020111084, -0.0770085081458091736, -0.0558743625879287720, 0.1416691392660140991, 0.0432676188647747040, -0.1061200723052024841, 0.0021786221768707037, 0.0695207566022872925, -0.0116399461403489113, 0.0194362737238407135, 0.1080639064311981201, -0.0517004504799842834, -0.0553416199982166290, 0.0246896371245384216, 0.0121365608647465706, -0.0451055690646171570, -0.3056558370590209961, 0.0463371537625789642, 0.0053732842206954956, 0.0299644693732261658, -0.0391370318830013275, 0.0623745396733283997, -0.0039015074726194143, -0.1117382943630218506, 0.0139986705034971237, -0.0782946646213531494, 0.0474609360098838806, -0.0179486237466335297, -0.0134880561381578445, -0.0332409106194972992, 0.1012751385569572449, -0.0523071922361850739, -0.0371828861534595490, -0.0401731021702289581, -0.0007266539614647627, -0.0040913107804954052, -0.1339629143476486206, -0.0609668567776679993, -0.0741667598485946655, -0.0989109575748443604, -0.0259344130754470825, -0.0524571016430854797, -0.0001963313261512667, 0.0595439076423645020, -0.0499969273805618286, -0.0365120582282543182, 0.0373846925795078278, 0.0336532630026340485, -0.0081384452059864998, -0.0052748769521713257, -0.0133132990449666977, -0.1240824237465858459, -0.0543507076799869537, -0.0141538837924599648, -0.1061876267194747925, -0.0145586747676134109, -0.0959954783320426941, 0.1212074980139732361, -0.0895687192678451538, 0.0512317605316638947, 0.0787588655948638916, -0.0627002418041229248, -0.1334945857524871826, 0.0735164657235145569, -0.2716062963008880615, 0.0616772584617137909, 0.0095336670055985451, -0.1303457021713256836, -0.0651838481426239014, -0.0811400711536407471, -0.1054288819432258606, -0.0214020702987909317, -0.3362506628036499023, -0.1800157576799392700, 0.0535632111132144928, -0.2096956968307495117, -0.0801791027188301086, -0.3693594932556152344, -0.0023717235308140516, -0.1538591533899307251, 0.0361091047525405884, -0.0165086202323436737, -0.1660871505737304688, 0.0389649085700511932, 0.0943418368697166443, 0.0462766066193580627, -0.0432063415646553040, 0.0440580621361732483, -0.1686121076345443726, 0.0418012514710426331, -0.3509629964828491211, -0.0560963302850723267, 0.0716886967420578003, 0.0609724894165992737, -0.0675522834062576294, -0.0205871313810348511, 0.0618364736437797546, 0.0063061760738492012, -0.1339355856180191040, -0.2075707763433456421, -0.0716114044189453125, -0.3433755338191986084, -0.2283461540937423706, -0.1025282144546508789, -0.1391010731458663940, -0.0263526067137718201, 0.0816500112414360046, -0.1651397645473480225, -0.0595432333648204803, -0.0526853017508983612, -0.1262661516666412354, -0.0879467725753784180, -0.1952099651098251343, 0.0767785832285881042, -0.0795501470565795898, -0.1127069070935249329, 0.0152419870719313622, -0.0948657616972923279, 0.0088996440172195435, -0.0191653426736593246, -0.1236856430768966675, -0.0511328205466270447, 0.0675809383392333984, -0.0549393519759178162, -0.0300414059311151505, -0.1009192466735839844, -0.0292737204581499100, 0.0280760750174522400, -0.1106868609786033630, -0.0204291716217994690, -0.0047726724296808243, -0.0489324331283569336, -0.0090494398027658463, 0.0283837225288152695, 0.0842344239354133606, -0.0169448871165513992, -0.3178375065326690674, -0.0897150337696075439, 0.0418223515152931213, 0.0487342104315757751, 0.0407328754663467407, -0.1072382107377052307, 0.0869288146495819092, -0.0673704966902732849, -0.1133604124188423157, -0.0373121947050094604, -0.0564904026687145233, -0.0285592693835496902, 0.0739991441369056702, -0.1762372106313705444, -0.0086304023861885071, 0.0130201801657676697, 0.0638774633407592773, 0.0858318582177162170, -0.0798409283161163330, 0.0166688878089189529, -0.0134764481335878372, 0.1063158735632896423, -0.0791919603943824768, -0.0450464673340320587, -0.1937183737754821777, -0.0303030759096145630, -0.1139775440096855164, -0.0267693363130092621, 0.0306830331683158875, -0.0247884001582860947, 0.1031401902437210083, 0.0554439537227153778, 0.0377075187861919403, 0.0342068858444690704, 0.0952426865696907043, -0.1257837265729904175, -0.0960982218384742737, -0.0099056148901581764, -0.1781271994113922119, 0.1119996532797813416, 0.0962898731231689453, 0.1664299964904785156, -0.2255937159061431885, -0.0099249873310327530, 0.0494353026151657104, 0.1297884136438369751, 0.0616423115134239197, 0.0457529798150062561, 0.0433314517140388489, -0.0888029783964157104, -0.1579170525074005127, -0.0873392745852470398, -0.0506351515650749207, -0.1987314075231552124, -0.0248438324779272079, -0.0563402324914932251, -0.0602394789457321167, 0.0569627955555915833, -0.0465021803975105286, 0.0296509936451911926, -0.0381624847650527954, -0.0592064410448074341, 0.0216684043407440186, -0.0494034104049205780, -0.0958551615476608276, -0.1390011012554168701, -0.2466368079185485840, -0.1975031942129135132, 0.0507447905838489532, -0.0287375431507825851, -0.0316912904381752014, -0.1223053410649299622, -0.0451372899115085602, -0.0790462046861648560, -0.0742427632212638855, 0.0034884437918663025, -0.1294975876808166504, -0.0264226812869310379, -0.0217031296342611313, -0.0622801519930362701, 0.0342397764325141907, -0.0560196377336978912, -0.0565358176827430725, 0.0121472170576453209, -0.0290015619248151779, -0.0762226134538650513, 0.1315453797578811646, -0.0836764872074127197, -0.2196575105190277100, 0.0229174457490444183, -0.1357004493474960327, -0.0117332814261317253, -0.0698744803667068481, -0.0209878273308277130, 0.0305734220892190933, -0.1351748406887054443, 0.0167346820235252380, 0.0678620710968971252, 0.0048522241413593292, -0.0544317103922367096, -0.1430841535329818726, -0.0238114930689334869, -0.2637582421302795410, -0.0298417303711175919, -0.0004699291312135756, -0.0073916991241276264, -0.1088337302207946777, -0.0046202703379094601, -0.0536031313240528107, -0.1119520589709281921, 0.0004101544909644872, -0.0767113938927650452, -0.1620152741670608521, -0.0325582772493362427, -0.0706691592931747437, 0.0344729013741016388, 0.0944978296756744385, 0.0031372515950351954, -0.0862094610929489136, 0.0878370702266693115, -0.0105645442381501198, -0.0754910483956336975, 0.0291777737438678741, 0.1507254987955093384, 0.1861033439636230469, -0.1564484834671020508, 0.0186248794198036194, 0.1151312142610549927, -0.4308693408966064453, -0.2605931162834167480, 0.0509510897099971771, -0.0201039314270019531, -0.0526462309062480927, -0.1402189135551452637, -0.0438986979424953461, -0.2125402688980102539, 0.0016536171315237880, 0.0020953672938048840, 0.0615186281502246857, -0.0477527342736721039, 0.0390017181634902954, 0.0565893352031707764, 0.0484046489000320435, -0.0322026237845420837, -0.0737994238734245300, -0.0526505932211875916, -0.1975230872631072998, 0.0836084857583045959, 0.0091535253450274467, -0.0977141186594963074, 0.1173557117581367493, -0.0855179578065872192, 0.0380867347121238708, 0.0776240453124046326, -0.0212922673672437668, -0.0081543019041419029, -0.2510494291782379150, -0.4119732379913330078, -0.1530538350343704224, 0.0087019409984350204, -0.0316182672977447510, -0.2256757467985153198, 0.0056373956613242626, 0.1294380873441696167, 0.1095014065504074097, 0.0411153137683868408, -0.4785931110382080078, 0.0024713452439755201, 0.1213853061199188232, 0.1817682981491088867, -0.1643712520599365234, -0.1614317297935485840, -0.0210375543683767319, 0.0409736558794975281, 0.0725715905427932739, -0.1294984072446823120, 0.0743273645639419556, 0.0141285471618175507, 0.1240110695362091064, -0.0447699092328548431, 0.1257294416427612305, 0.0281463749706745148, -0.0580646991729736328, 0.0388362891972064972, -0.0811376124620437622, -0.0120632797479629517, 0.0635823756456375122, 0.0137766487896442413, 0.0049694986082613468, -0.0332384891808032990, -0.0191524699330329895, -0.0200943462550640106, -0.2850756049156188965, -0.0100248828530311584, 0.1360293477773666382, 0.1125096604228019714, 0.0117356674745678902, -0.0804738104343414307, 0.0867451280355453491, -0.0200255680829286575, -0.1857801526784896851, 0.0089820986613631248, -0.0520779862999916077, 0.0319643057882785797, 0.0943961367011070251, -0.1255142986774444580, -0.0118083255365490913, -0.0583210773766040802, -0.0186340939253568649, 0.0041793198324739933, -0.1168259531259536743, 0.0297219399362802505, 0.0715783536434173584, 0.0084246583282947540, -0.0702996179461479187, 0.0565974973142147064, -0.0277283769100904465, 0.0498852580785751343, -0.0740337595343589783, 0.0173359513282775879, -0.1030293181538581848, -0.3541723191738128662, -0.0248332396149635315, 0.0524965077638626099, 0.0694145113229751587, -0.1457817554473876953, -0.0185410361737012863, -0.0757820010185241699, -0.0244288351386785507, 0.1033586859703063965, -0.5646547079086303711, 0.1123732328414916992, 0.0842386782169342041, 0.1889980137348175049, -0.1517373621463775635, -0.1891770362854003906, 0.0883039832115173340, 0.0008261830662377179, 0.0571447834372520447, -0.0673903450369834900, -0.0066848667338490486, -0.0779922306537628174, -0.0769182294607162476, -0.0886072963476181030, 0.1165701672434806824, -0.2694542407989501953, 0.0363309979438781738, 0.0354893319308757782, 0.1166950315237045288, -0.0435570515692234039, 0.0475787483155727386, 0.0226646587252616882, -0.0449316799640655518, -0.2052449434995651245, 0.0491617918014526367, -0.0981120467185974121, -0.1320587694644927979, -0.1000239104032516479, -0.0925034284591674805, 0.0271198470145463943, 0.0280066113919019699, 0.0580219253897666931, 0.0027809825260192156, -0.0396708026528358459, -0.1497079730033874512, -0.0802438780665397644, -0.1328448206186294556, -0.0147172799333930016, -0.0695191621780395508, 0.0610396042466163635, -0.0371855907142162323, -0.1097394153475761414, 0.0101656820625066757, 0.0535648167133331299, -0.1238666996359825134, 0.0597143694758415222, -0.0260149203240871429, -0.1232534274458885193, 0.0347595438361167908, -0.0867504552006721497, -0.1506345570087432861, -0.0484176315367221832, -0.0092146806418895721, -0.0199283361434936523, -0.1480661928653717041, -0.2112658470869064331, 0.0437126755714416504, 0.0679771378636360168, -0.0620568171143531799, -0.1144756749272346497, -0.0622007139027118683, -0.1108419001102447510, 0.0360274016857147217, -0.0176589097827672958, -0.5332821607589721680, 0.0728120580315589905, 0.0438060611486434937, 0.0415056906640529633, -0.0141104878857731819, -0.2293513566255569458, -0.0332553312182426453, -0.0326794385910034180, 0.0325579792261123657, -0.0930422693490982056, -0.0736305415630340576, -0.0152542293071746826, 0.0672803893685340881, -0.0263633392751216888, 0.0977778062224388123, -0.0738821029663085938, 0.0113127334043383598, -0.0129640521481633186, 0.0805950388312339783, -0.0525099001824855804, -0.0570082850754261017, 0.1118037700653076172, -0.0225624367594718933, 0.0531369894742965698, 0.0102657508105039597, 0.0835767239332199097, -0.1648404002189636230, 0.0750095397233963013, 0.1255093514919281006, 0.1048091873526573181, -0.0296041741967201233, 0.0232922937721014023, -0.0258418805897235870, -0.1436127424240112305, 0.2327767163515090942, -0.0391237996518611908, -0.0576895475387573242, 0.0335794240236282349, 0.0344124250113964081, -0.0076723722741007805, 0.0560868941247463226, 0.0077191605232656002, -0.1020497754216194153, -0.0253968425095081329, -0.1226108446717262268, 0.1145047396421432495, 0.0615584179759025574, -0.0191010162234306335, -0.0509380847215652466, 0.0429113544523715973, -0.1949046701192855835, 0.0309693347662687302, -0.0882288292050361633, -0.0785440430045127869, -0.0308853890746831894, 0.0606875009834766388, -0.1667286604642868042, 0.0658126771450042725, -0.0726566910743713379, -0.0215005874633789062, -0.0077507025562226772, 0.0583756864070892334, 0.1156886219978332520, 0.0167734995484352112, 0.0153448125347495079, 0.0667530745267868042, 0.1111494749784469604, 0.1149053797125816345, -0.0041672424413263798, 0.0588234402239322662, -0.0341202989220619202, 0.0944883599877357483, 0.1376285851001739502, -0.0178890042006969452, 0.1474644541740417480, 0.0542155653238296509, 0.2489721924066543579, -0.0616220682859420776, 0.0855985432863235474, 0.0276746544986963272, 0.0128662670031189919, 0.0063644950278103352, 0.0541687794029712677, -0.0013213395141065121, 0.0346981622278690338, -0.0284580849111080170, -0.0301160328090190887, 0.1156393438577651978, -0.0234133861958980560, 0.0718648284673690796, -0.0973180681467056274, -0.0290901046246290207, 0.1303735524415969849, 0.0731790363788604736, 0.0650859698653221130, 0.1142552047967910767, 0.1126027330756187439, -0.0571805872023105621, -0.1101391464471817017, 0.0264179743826389313, -0.0653336122632026672, 0.0835774019360542297, -0.0018904451280832291, -0.0899793356657028198, 0.0646163374185562134, 0.0544861257076263428, 0.1159152090549468994, 0.0807594805955886841, -0.0304073449224233627, 0.1324215680360794067, 0.0117703573778271675, 0.0527208670973777771, -0.0471485257148742676, 0.0882001966238021851, -0.0610789731144905090, -0.0162275899201631546, -0.1309461742639541626, 0.0774907320737838745, -0.0316923186182975769, -0.1936475783586502075, 0.0428087189793586731, 0.0398892238736152649, -0.0595177039504051208, -0.1021879538893699646, 0.0489817932248115540, -0.0828356891870498657, 0.1250655204057693481, 0.0295714735984802246, 0.0762801095843315125, 0.0047602672129869461, 0.1114388033747673035, 0.1293808370828628540, 0.0054817111231386662, -0.2216119021177291870, 0.1100590452551841736, 0.1433372050523757935, 0.0633676350116729736, 0.0450326837599277496, 0.1397224068641662598, 0.0135162407532334328, 0.1716377139091491699, 0.0708612203598022461, 0.0355904325842857361, -0.0708269253373146057, -0.0587218962609767914, 0.0914776548743247986, -0.0305725205689668655, -0.0551333650946617126, 0.0633181035518646240, -0.0361584126949310303, 0.1167697161436080933, -0.0727981105446815491, -0.0045185508206486702, 0.0391639657318592072, -0.0863398760557174683, -0.1391064077615737915, 0.1194899380207061768, 0.1696856170892715454, 0.0878353044390678406, 0.1779895722866058350, 0.0986048877239227295, 0.0410964488983154297, 0.0142265390604734421, 0.0012125665089115500, -0.1447468101978302002, -0.0093383137136697769, -0.0055266153067350388, -0.0337852612137794495, 0.0569131262600421906, -0.0399149619042873383, -0.0523143112659454346, 0.0949320420622825623, -0.0457940176129341125, 0.1429855376482009888, 0.0793340876698493958, 0.0071700178086757660, 0.0078411512076854706, 0.0273573808372020721, -0.0872704163193702698, -0.1297204643487930298, -0.0209387075155973434, 0.1352950930595397949, 0.0224010515958070755, -0.2393904179334640503, 0.0435260795056819916, 0.0306873414665460587, -0.0073159099556505680, -0.0537623874843120575, 0.0093284770846366882, -0.2084133625030517578, 0.0408741720020771027, 0.0445843338966369629, 0.1233597621321678162, 0.0732057765126228333, 0.2189544290304183960, 0.0445972271263599396, 0.1174473166465759277, -0.1411913186311721802, -0.0258478745818138123, 0.0267815198749303818, 0.1108743622899055481, 0.0011127850739285350, 0.0388112366199493408, 0.0374361947178840637, 0.2728955149650573730, 0.0890181362628936768, 0.0760985687375068665, 0.1018982082605361938, 0.1531502455472946167, -0.0288326367735862732, 0.0057259150780737400, 0.0099038174375891685, 0.0201697368174791336, 0.0069586364552378654, 0.0566614829003810883, -0.0114531917497515678, -0.0733552351593971252, -0.3342518210411071777, -0.0140058584511280060, 0.0973404571413993835, -0.2165094166994094849, 0.0050669414922595024, 0.0273882485926151276, 0.1437299251556396484, 0.0093425018712878227, 0.0228812675923109055, -0.0800142660737037659, -0.0909538790583610535, 0.1300572007894515991, -0.0673630014061927795, -0.2073030322790145874, -0.1054028347134590149, 0.0289701875299215317, -0.0547231510281562805, -0.0088119572028517723, -0.1033058837056159973, 0.0862568467855453491, -0.0577203333377838135, -0.0612814798951148987, -0.2622843980789184570, -0.0362874157726764679, -0.0455664880573749542, 0.1548861414194107056, -0.0073702004738152027, 0.0242147054523229599, 0.0184098705649375916, 0.0878721550107002258, 0.0393381901085376740, -0.0648769065737724304, -0.0883573517203330994, 0.0317540243268013000, 0.1265409737825393677, 0.0722382068634033203, 0.2135827541351318359, -0.1002605110406875610, -0.0039691734127700329, -0.0849110037088394165, -0.1549382060766220093, -0.0740516930818557739, -0.0683314427733421326, -0.1937586665153503418, 0.0770582929253578186, 0.0381595566868782043, -0.1891034692525863647, 0.0303816962987184525, -0.0367785096168518066, 0.0068946979008615017, 0.0044454764574766159, -0.0881699919700622559, 0.0186921227723360062, -0.1177460476756095886, 0.1283138841390609741, 0.0244531352072954178, -0.0776685625314712524, -0.0528047345578670502, -0.0204329844564199448, -0.0016854329733178020, -0.1824245005846023560, -0.0335174314677715302, -0.0134184872731566429, -0.0235577374696731567, -0.1754348874092102051, -0.0947904661297798157, 0.1209924966096878052, 0.0339217111468315125, -0.1528999656438827515, -0.0672057196497917175, -0.0495546124875545502, -0.1049181297421455383, -0.0695265233516693115, -0.0094383722171187401, -0.0810667872428894043, 0.0737864151597023010, -0.1641056984663009644, -0.0128393499180674553, -0.0898030772805213928, -0.1028791293501853943, 0.1146046072244644165, -0.0386864580214023590, 0.0064873397350311279, -0.1301026940345764160, -0.0008917053346522152, -0.0317751877009868622, -0.0403534807264804840, -0.1369946599006652832, -0.0142825823277235031, 0.0687608718872070312, 0.0733620077371597290, -0.1027824133634567261, -0.1314130127429962158, 0.1165138632059097290, 0.0344881005585193634, -0.1264266669750213623, -0.1567828804254531860, -0.1442057788372039795, 0.1447188109159469604, 0.2297628074884414673, 0.1688529700040817261, -0.1131763011217117310, -0.0679440572857856750, 0.1569782793521881104, -0.0972993150353431702, -0.0281644016504287720, -0.0339474231004714966, -0.2372469902038574219, 0.1862557977437973022, -0.0718608945608139038, -0.2159122973680496216, 0.1601747423410415649, 0.0533856675028800964, -0.1304987370967864990, 0.0206142570823431015, 0.0118811177089810371, -0.0854288339614868164, -0.0867264047265052795, 0.0250799935311079025, -0.2403744161128997803, -0.0608250573277473450, -0.1054209470748901367, -0.1305273175239562988, 0.0499828755855560303, -0.2891231179237365723, -0.1448246389627456665, 0.0691377520561218262, 0.0448866337537765503, -0.0707202106714248657, -0.1832471191883087158, -0.0229530036449432373, 0.0226913411170244217, -0.0023046128917485476, 0.0395793877542018890, 0.0110352616757154465, -0.0056142271496355534, -0.2823995351791381836, -0.0666832327842712402, -0.0503767803311347961, 0.0418383479118347168, 0.0436514578759670258, -0.0339807160198688507, -0.1113371327519416809, 0.0333805531263351440, 0.0085328724235296249, 0.0144331036135554314, 0.0325174145400524139, -0.3119094073772430420, -0.0431176908314228058, -0.0450441949069499969, 0.1028686836361885071, -0.1900917440652847290, 0.0254981070756912231, 0.0114189619198441505, -0.2007386535406112671, -0.1777008920907974243, -0.1657109707593917847, 0.0268363244831562042, -0.0276567395776510239, -0.1765689700841903687, -0.0432841107249259949, -0.1545549929141998291, 0.0567172914743423462, 0.1081616133451461792, -0.0959075689315795898, -0.0645496323704719543, -0.0404955744743347168, 0.0780454799532890320, -0.0873904526233673096, -0.1538981497287750244, 0.0596557520329952240, -0.2030028849840164185, 0.1019342839717864990, -0.0107072768732905388, -0.1385963708162307739, 0.0290432963520288467, -0.0496643893420696259, -0.1387028098106384277, 0.0231562219560146332, -0.0129105523228645325, -0.0351020209491252899, 0.0366532467305660248, 0.0351686999201774597, 0.3461942970752716064, 0.0420747995376586914, 0.2562020421028137207, 0.0222324822098016739, -0.0180124565958976746, 0.0911724269390106201, 0.1785668581724166870, -0.0025790785439312458, 0.0676309093832969666, -0.1103055030107498169, 0.0414120778441429138, -0.1602463126182556152, -0.0604803934693336487, 0.0690307840704917908, 0.0442303456366062164, 0.2335183471441268921, 0.0481990575790405273, 0.1650569885969161987, -0.4965011477470397949, -0.0064655072055757046, 0.0902491807937622070, -0.0435674935579299927, -0.1569893956184387207, -0.0115758059546351433, 0.0634850338101387024, -0.0295001566410064697, 0.1841235607862472534, 0.0369656272232532501, 0.1302404701709747314, 0.0463717952370643616, -0.0157325342297554016, -0.0790273174643516541, 0.0943924337625503540, 0.0482550077140331268, 0.0811428278684616089, -0.0262908525764942169, -0.0542196258902549744, 0.1957866251468658447, -0.1792344450950622559, 0.1841003298759460449, 0.1131405755877494812, 0.0876062363386154175, -0.0493732392787933350, -0.1646291613578796387, -0.3201319575309753418, 0.2238688021898269653, -0.0890045613050460815, 0.0548821575939655304, -0.3016880154609680176, -0.0242230929434299469, 0.1080646142363548279, -0.0586538165807723999, 0.0458156727254390717, -0.2553136050701141357, -0.0564097091555595398, 0.0211686044931411743, -0.2139126360416412354, -0.1254741251468658447, 0.2358573377132415771, 0.1297893673181533813, -0.1118936836719512939, 0.0909330472350120544, -0.0347596034407615662, 0.0988368019461631775, 0.1291739195585250854, -0.0190866272896528244, 0.1465305536985397339, -0.0527074038982391357, -0.1460074037313461304, 0.1145755350589752197, 0.0558832734823226929, -0.0333758853375911713, 0.0088012870401144028, -0.0767465680837631226, -0.0710787102580070496, -0.1641779243946075439, -0.1271370351314544678, -0.1266075819730758667, -0.1139166504144668579, 0.0819167718291282654, -0.0600899867713451385, -0.0274463240057229996, -0.4262903034687042236, -0.0146656418219208717, 0.0927552804350852966, -0.1150739565491676331, -0.1978517621755599976, -0.0029437399934977293, -0.1544063091278076172, -0.0599040351808071136, 0.0483985953032970428, -0.0325180403888225555, -0.0420773588120937347, -0.0099714118987321854, -0.0016714601079002023, -0.1760626733303070068, 0.0451350659132003784, -0.0982269272208213806, 0.2271624505519866943, 0.0865729600191116333, -0.1002884209156036377, 0.1250002533197402954, -0.0888913422822952271, 0.1208757460117340088, -0.0333970189094543457, -0.0611952207982540131, -0.1560387611389160156, 0.0431405231356620789, -0.1678943932056427002, 0.0780478194355964661, -0.0508068092167377472, -0.0606982409954071045, -0.1783072650432586670, -0.0893701612949371338, 0.1768970936536788940, 0.0338225662708282471, -0.1733547747135162354, -0.0086948024109005928, -0.0517380796372890472, 0.0215567536652088165, -0.1406522691249847412, -0.1950475424528121948, 0.0239605102688074112, -0.0319799967110157013, -0.0703224092721939087, -0.0865049287676811218, -0.0712732896208763123, 0.0589606575667858124, 0.0652643814682960510, -0.1573875546455383301, 0.0811086371541023254, -0.1732142120599746704, -0.0946917757391929626, -0.0014285908546298742, 0.1124744862318038940, 0.0332404151558876038, -0.0474481098353862762, -0.0155222183093428612, -0.0247826781123876572, 0.0793695598840713501, 0.0507957898080348969, 0.0025133334565907717, -0.0742100477218627930, -0.0408969260752201080, -0.0246228184551000595, -0.1335666477680206299, -0.1762867718935012817, -0.0409131571650505066, 0.1309002041816711426, 0.0263495501130819321, -0.0465698018670082092, -0.1051888614892959595, -0.0584484711289405823, -0.0112311290577054024, -0.1046909689903259277, 0.0185967385768890381, -0.2389049530029296875, -0.0512970089912414551, -0.0661308318376541138, -0.1249412149190902710, 0.0009900729637593031, -0.0720740109682083130, 0.0808308497071266174, -0.0122309215366840363, -0.1410326659679412842, -0.0349718742072582245, 0.1375884264707565308, 0.0364967025816440582, 0.0092965587973594666, 0.0495732910931110382, -0.0719199404120445251, 0.1809687316417694092, 0.0037613040767610073, 0.0624458342790603638, 0.0417415387928485870, 0.0025942795909941196, -0.0026384422089904547, -0.1340164989233016968, 0.0791366249322891235, 0.0941554233431816101, -0.1352899670600891113, 0.2348185777664184570, 0.0662661045789718628, 0.0524015724658966064, -0.0455142781138420105, -0.0882674157619476318, 0.1561818718910217285, -0.1301916092634201050, -0.0268927682191133499, -0.1252809166908264160, 0.1512128561735153198, -0.0942126065492630005, 0.2687742114067077637, 0.0517092943191528320, 0.1171383410692214966, 0.0829882696270942688, 0.1245062351226806641, 0.0520320869982242584, 0.2007944434881210327, 0.0985916554927825928, 0.1216137707233428955, -0.1083941683173179626, -0.0746265649795532227, 0.2573567628860473633, 0.1494015604257583618, 0.0668347924947738647, 0.1249236464500427246, 0.1713379025459289551, 0.1020078286528587341, 0.2002512663602828979, -0.0287154596298933029, 0.1007782965898513794, 0.0125471968203783035, -0.0222649089992046356, 0.1150802150368690491, 0.2392546832561492920, 0.0103139942511916161, 0.0217247065156698227, 0.1261959671974182129, 0.0072762211784720421, 0.0744490250945091248, 0.0968460217118263245, 0.1319327801465988159, -0.0452826917171478271, 0.1722041815519332886, 0.0525842159986495972, 0.1008859053254127502, -0.0841966941952705383, -0.0168805345892906189, 0.1061624884605407715, -0.0166489519178867340, 0.1382716000080108643, 0.1827117800712585449, 0.0730225592851638794, 0.0774689093232154846, 0.0845838636159896851, 0.0507105439901351929, 0.2153186351060867310, -0.1103420630097389221, -0.0165502261370420456, 0.1955204755067825317, 0.0809339955449104309, 0.1423607170581817627, -0.0083284154534339905, 0.0630782246589660645, -0.0681494399905204773, 0.0898783653974533081, 0.1419923007488250732, 0.0441833324730396271, 0.0936359241604804993, 0.2318431138992309570, 0.2391383945941925049, 0.1185801699757575989, 0.1376690417528152466, 0.0384396091103553772, 0.1485924273729324341, 0.3030735850334167480, 0.0457977615296840668, 0.1420988440513610840, -0.0061955079436302185, 0.0446052923798561096, 0.1457413583993911743, 0.1745903789997100830, 0.0783260241150856018, 0.0187089368700981140, -0.1961465030908584595, -0.0068773417733609676, 0.0041320733726024628, -0.0511750578880310059, 0.0960758551955223083, -0.0067596146836876869, 0.1147941276431083679, -0.0174935720860958099, 0.1304107606410980225, -0.1982115805149078369, 0.0309704225510358810, 0.2468944191932678223, -0.0952271893620491028, -0.0443378724157810211, 0.1073371842503547668, -0.0002802122035063803, -0.0418045669794082642, 0.1939659267663955688, -0.0356422998011112213, 0.1407500505447387695, -0.0141456192359328270, 0.1486248970031738281, 0.0174117330461740494, 0.0637215971946716309, -0.0509547591209411621, 0.2345094829797744751, 0.1360266804695129395, -0.0685719028115272522, 0.1196525990962982178, -0.0084640616551041603, 0.0454374849796295166, 0.1241589710116386414, 0.0772296562790870667, -0.0443358868360519409, -0.0781233981251716614, -0.0893863588571548462, 0.2124347835779190063, 0.0300738457590341568, -0.0684139430522918701, 0.0348224304616451263, 0.0031392090022563934, 0.0306653976440429688, -0.0524694472551345825, 0.1249258071184158325, -0.0707552060484886169, 0.0106828659772872925, 0.1505198329687118530, 0.0447161905467510223, -0.0259420797228813171, 0.2299596518278121948, 0.0292877312749624252, 0.0226558279246091843, 0.1455227732658386230, -0.0392275266349315643, 0.1793158352375030518, 0.1029991060495376587, -0.0240956582129001617, 0.0520491786301136017, -0.0259059779345989227, -0.1199986338615417480, 0.0291875954717397690, 0.0067135822027921677, 0.1107045412063598633, -0.0283421650528907776, 0.0357581414282321930, -0.0210313405841588974, -0.0419656150043010712, 0.1277828663587570190, 0.0230134129524230957, -0.0744583755731582642, 0.0442409738898277283, -0.0678376704454421997, 0.1284501999616622925, -0.1690846681594848633, 0.0166954230517148972, -0.0343797318637371063, 0.0893718972802162170, 0.1054156944155693054, 0.0881624147295951843, -0.0682623535394668579, -0.1439436674118041992, -0.0019298939732834697, -0.0071718688122928143, 0.1911670267581939697, -0.0333827659487724304, -0.0804785937070846558, 0.0225947592407464981, 0.0518115274608135223, -0.0315872170031070709, 0.1362932920455932617, -0.0197686180472373962, -0.0259307380765676498, 0.0102753182873129845, -0.0187413133680820465, -0.0853091478347778320, 0.0013008770765736699, 0.0556647293269634247, -0.0610020197927951813, 0.0491360649466514587, -0.1014605313539505005, 0.1240944191813468933, 0.1085844412446022034, 0.0329128019511699677, 0.1243473887443542480, -0.0122645804658532143, 0.0235068686306476593, -0.0275556799024343491, 0.0127718523144721985, -0.0109748104587197304, -0.0042827618308365345, 0.1075933128595352173, 0.1226067468523979187, -0.1417275071144104004, 0.1359729766845703125, 0.1448041200637817383, 0.1734125018119812012, 0.0605841875076293945, 0.0279801152646541595, -0.0019792234525084496, -0.1800123900175094604, 0.0832312107086181641, -0.0650710165500640869, -0.0520449839532375336, 0.0526566989719867706, 0.0816632211208343506, 0.0527679957449436188, -0.1127829700708389282, -0.0758430734276771545, 0.0425445549190044403, -0.0220107715576887131, -0.2301657795906066895, -0.1166048571467399597, -0.0068635004572570324, -0.0464053303003311157, 0.0491270534694194794, 0.0440213717520236969, -0.0284914895892143250, -0.0709458738565444946, -0.0157382059842348099, -0.0539833493530750275, -0.0491955764591693878, -0.0320776551961898804, -0.0491338819265365601, -0.0319112278521060944, 0.0758790001273155212, -0.1227241829037666321, 0.0198086593300104141, 0.0485865622758865356, 0.0723232924938201904, -0.0335288606584072113, 0.1750747263431549072, -0.0078949667513370514, -0.0502608083188533783, -0.0543109849095344543, -0.0137477964162826538, 0.0190751049667596817, 0.0030715700704604387, -0.0948926433920860291, 0.0046668024733662605, -0.1363503634929656982, 0.0417867861688137054, -0.0524625480175018311, -0.0423772968351840973, 0.0301322285085916519, 0.1745783239603042603, -0.0443056300282478333, -0.0315940715372562408, -0.0443284772336483002, 0.0298922285437583923, -0.0444620773196220398, 0.2541300654411315918, 0.0155020263046026230, -0.0215230416506528854, -0.0208149589598178864, -0.1753460317850112915, -0.0937602072954177856, -0.0018938166322186589, -0.0925157740712165833, -0.0592991970479488373, 0.0749377980828285217, -0.0956474617123603821, 0.0898136124014854431, -0.1140476316213607788, -0.0516380779445171356, -0.0438256077468395233, -0.0028050774708390236, 0.0701095610857009888, -0.0138246137648820877, 0.1169294565916061401, 0.1004548668861389160, -0.0817078948020935059, -0.0171647127717733383, 0.0411491915583610535, -0.0145345330238342285, -0.0985632985830307007, -0.0578729435801506042, 0.0089777624234557152, -0.0357110127806663513, 0.0031061440240591764, -0.0257356166839599609, -0.0997563898563385010, -0.1043651849031448364, 0.0041879238560795784, -0.0491262525320053101, -0.1066646948456764221, -0.0361508578062057495, -0.0410569235682487488, -0.0487014129757881165, 0.0795611217617988586, -0.1006926074624061584, -0.0860983058810234070, 0.0960159227252006531, -0.0618053451180458069, 0.0484480522572994232, 0.0589081197977066040, 0.0856278762221336365, -0.0156736131757497787, -0.0640802383422851562, -0.0374065674841403961, 0.0369712561368942261, 0.1043974459171295166, -0.0814212784171104431, 0.0508677922189235687, -0.0352543927729129791, -0.0453945621848106384, -0.0595524981617927551, -0.1334798038005828857, -0.0200002156198024750, 0.1856687366962432861, -0.0539009310305118561, 0.0178044158965349197, -0.0140627818182110786, 0.0313649587333202362, -0.0245262496173381805, 0.1381690353155136108, -0.0746407061815261841, 0.1396483480930328369, 0.0208065211772918701, -0.1192724779248237610, -0.0581692978739738464, 0.0231640618294477463, -0.0275256428867578506, -0.0611960925161838531, -0.0194475576281547546, -0.0363871678709983826, 0.0028325521852821112, 0.0601644963026046753, 0.0020763846114277840, 0.0209577381610870361, 0.0038412543945014477, -0.0916894376277923584, -0.0058436891995370388, 0.1106835231184959412, 0.1282919198274612427, -0.0996213778853416443, -0.0409476347267627716, -0.0037924039643257856, 0.0276739392429590225, -0.1020444631576538086, -0.0635864734649658203, -0.0660287812352180481, -0.0079467715695500374, 0.0357003174722194672, -0.0005303124198690057, -0.0101441880688071251, -0.1178747564554214478, -0.0473063476383686066, 0.1239277794957160950, -0.0682104378938674927, 0.0305485688149929047, -0.0089703565463423729, -0.0334702432155609131, -0.0399040021002292633, 0.0195326041430234909, -0.0684526711702346802, -0.0968066826462745667, -0.0447201058268547058, 0.0349613353610038757, 0.0026962514966726303, 0.0569773688912391663, -0.0198146440088748932, 0.0503490343689918518, 0.0657682493329048157, 0.0152045888826251030, 0.0543605722486972809, -0.0257259719073772430, 0.0053224405273795128, -0.0113256266340613365, 0.0171420425176620483, -0.0269084386527538300, -0.0172740556299686432, -0.0948486551642417908, 0.2487596273422241211, -0.0466047860682010651, -0.0368828587234020233, 0.0169649738818407059, 0.0250493660569190979, 0.0861523002386093140, 0.1984851062297821045, -0.0438652932643890381, 0.1502956300973892212, -0.0395060926675796509, -0.1406260877847671509, -0.0346695072948932648, 0.0456381365656852722, 0.0171571504324674606, -0.1062374338507652283, 0.0281360987573862076, 0.0289961695671081543, -0.0073893689550459385, -0.1166549175977706909, -0.0815295949578285217, -0.0537797287106513977, -0.0076125455088913441, -0.0470061786472797394, -0.0812390074133872986, -0.0166195556521415710, 0.0987787097692489624, -0.0752003341913223267, -0.0350697375833988190, 0.1323740333318710327, 0.0292485356330871582, -0.1704685539007186890, -0.0369644127786159515, 0.0623934753239154816, -0.0066927103325724602, 0.1425627768039703369, 0.0601144880056381226, -0.0498494692146778107, -0.0215093493461608887, -0.0350107885897159576, 0.0402210839092731476, 0.0263968985527753830, -0.0866632685065269470, -0.0703670531511306763, -0.1056571900844573975, -0.0199541691690683365, -0.1302853375673294067, -0.0784849971532821655, 0.0061593633145093918, -0.0521440394222736359, 0.0029957753140479326, 0.0616076514124870300, 0.1377110928297042847, 0.0818971246480941772, 0.0529777631163597107, -0.1401896625757217407, -0.0251834765076637268, 0.0476347729563713074, -0.0292815882712602615, 0.1488130539655685425, -0.0031287672463804483, -0.0193522609770298004, -0.0697040036320686340, -0.0770555287599563599, 0.0007844446226954460, 0.2235443741083145142, 0.0217243675142526627, 0.0316482111811637878, 0.1782928705215454102, -0.0587333403527736664, 0.0408044159412384033, 0.1327899545431137085, -0.0765347182750701904, 0.0089159617200493813, 0.0377091579139232635, -0.1133203655481338501, -0.0082183266058564186, 0.0843579173088073730, -0.0816257297992706299, -0.0170027017593383789, 0.1401065737009048462, -0.0708194673061370850, 0.0532932840287685394, -0.0351498387753963470, 0.0167225077748298645, -0.0728621482849121094, -0.0176090560853481293, -0.0904358401894569397, 0.0670781210064888000, 0.1519481539726257324, 0.1225378811359405518, -0.0919825509190559387, 0.0485713481903076172, 0.0553092807531356812, 0.1340725719928741455, -0.0730236545205116272, -0.1417994052171707153, 0.0799806565046310425, -0.0131902499124407768, 0.1489907056093215942, 0.0044993227347731590, -0.0374638363718986511, -0.0663680806756019592, -0.0583184659481048584, 0.0982126295566558838, -0.0673933550715446472, -0.1131519377231597900, 0.0139271859079599380, -0.1334946304559707642, -0.0322850719094276428, -0.0842553749680519104, -0.0652438104152679443, -0.0062703574076294899, -0.0606058128178119659, -0.0925869643688201904, -0.0092176189646124840, 0.0688975676894187927, 0.0955296382308006287, -0.0273292027413845062, -0.1509748548269271851, -0.0079016294330358505, 0.0740583837032318115, -0.0782191455364227295, 0.2571728229522705078, -0.0199646390974521637, -0.0673844069242477417, 0.0874742567539215088, -0.1551958024501800537, -0.1370456367731094360, 0.1687081903219223022, 0.0520540922880172729, 0.0078428098931908607, 0.0034602445084601641, -0.0597286857664585114, -0.0780872255563735962, 0.0428572371602058411, -0.0210507363080978394, -0.0217219777405261993, 0.0367087610065937042, -0.1149597838521003723, -0.0672584101557731628, 0.1045785546302795410, -0.0213617384433746338, -0.0212791543453931808, -0.0270520467311143875, 0.0612294264137744904, 0.1152892336249351501, 0.0098354024812579155, 0.0393623337149620056, -0.0434870049357414246, 0.1560194045305252075, 0.0024106558412313461, 0.0207839459180831909, 0.0818460807204246521, 0.0209493171423673630, 0.0206980053335428238, -0.0523410812020301819, 0.0574974343180656433, 0.1179772093892097473, 0.1246963441371917725, -0.0331220477819442749, 0.0493739098310470581, -0.0063430131413042545, 0.0582832731306552887, 0.0919207185506820679, 0.0018487430643290281, -0.1130030155181884766, 0.0243577919900417328, 0.1153129041194915771, 0.0613225102424621582, 0.0115260398015379906, 0.0193472094833850861, -0.0599095076322555542, -0.0261068027466535568, 0.0875576809048652649, -0.0620590522885322571, -0.0277084745466709137, 0.0323921218514442444, -0.0815462172031402588, 0.0013473134022206068, 0.1027720049023628235, 0.0235336273908615112, 0.1253049969673156738, -0.1903952062129974365, -0.0157677438110113144, 0.0588311813771724701, -0.1575521230697631836, 0.2007277905941009521, -0.0532326176762580872, -0.0078087723813951015, 0.0439074784517288208, -0.1097516939043998718, -0.1759085059165954590, 0.0905554592609405518, 0.0638117790222167969, -0.0125861596316099167, -0.0038942846003919840, -0.0407929532229900360, 0.0552125424146652222, 0.0579693093895912170, -0.0349375531077384949, -0.1592175811529159546, 0.0095786731690168381, -0.0105398241430521011, 0.0475173629820346832, 0.0876968502998352051, 0.0666501745581626892, 0.0327584631741046906, -0.0695566758513450623, 0.1232191771268844604, 0.0633448064327239990, 0.0609478503465652466, -0.0251621082425117493, 0.0162761248648166656, 0.0256800092756748199, 0.0074018221348524094, -0.0296554509550333023, 0.0079413717612624168, -0.0166429765522480011, -0.0773721709847450256, 0.0376753993332386017, 0.0893113240599632263, 0.2003240585327148438, -0.1168258413672447205, 0.0353054739534854889, 0.0513004846870899200, 0.0132779739797115326, 0.1595037132501602173, 0.0379040800034999847, 0.0160430781543254852, -0.0624463744461536407, 0.0752674341201782227, 0.1102462559938430786, -0.0012714406475424767, -0.0470958277583122253, -0.0895158722996711731, -0.1129094436764717102, -0.0152710461989045143, 0.0341541245579719543, 0.0302044134587049484, -0.1105754449963569641, -0.0519820824265480042, -0.0838667079806327820, -0.0485144518315792084, 0.0605786927044391632, -0.0465676747262477875, -0.0311912130564451218, -0.2020562738180160522, -0.0202327016741037369, 0.0670056194067001343, -0.0346259251236915588, 0.3236100077629089355, 0.1407765299081802368, 0.0461832545697689056, 0.0640269443392753601, 0.0031592436134815216, -0.1018713787198066711, 0.0071943164803087711, 0.0347423516213893890, -0.0087950229644775391, 0.0275828912854194641, -0.1117441132664680481, -0.0485531464219093323, 0.0112857427448034286, -0.0980890020728111267, -0.0909059122204780579, 0.0214956793934106827, 0.0541054159402847290, -0.0420290902256965637, -0.0188357830047607422, 0.0501315593719482422, 0.0769865363836288452, -0.0778412148356437683, 0.0718172192573547363, -0.0394787564873695374, -0.0697390884160995483, 0.0452502220869064331, -0.0834231227636337280, 0.1356584727764129639, -0.0332597717642784119, 0.0160571876913309097, -0.0098195774480700493, -0.0519099310040473938, -0.0914275795221328735, 0.0443214625120162964, 0.0225218944251537323, 0.2499009817838668823, 0.0025342102162539959, -0.0287038106471300125, 0.0244975667446851730, 0.0087364781647920609, 0.1809233129024505615, 0.0260538905858993530, 0.0184420850127935410, -0.0416820310056209564, 0.0760379657149314880, 0.0988572984933853149, -0.0057084583677351475, -0.0652389153838157654, -0.0234159808605909348, -0.0353521928191184998, -0.0981451869010925293, -0.0223831478506326675, -0.0736572816967964172, -0.0598743632435798645, -0.0654651001095771790, -0.0821529477834701538, 0.0464392118155956268, -0.0212321095168590546, 0.0116756679490208626, 0.0044380300678312778, -0.2120748013257980347, -0.0922618284821510315, 0.0128043154254555702, -0.0209516976028680801, 0.3175311386585235596, 0.1141975820064544678, -0.0429559461772441864, 0.0508939102292060852, 0.0746352598071098328, -0.1343110650777816772, -0.0007892066496424377, 0.0594488978385925293, -0.0300473030656576157, -0.0790862143039703369, -0.0588939450681209564, -0.0513850040733814240, -0.0444955676794052124, -0.0397889241576194763, -0.1199793815612792969, -0.0143817123025655746, 0.0465758927166461945, -0.0019169028382748365, 0.0346202105283737183, 0.0601902231574058533, 0.0813832730054855347, -0.0196190718561410904, 0.1262166649103164673, 0.0053760134615004063, 0.0511892922222614288, 0.0140111846849322319, 0.0490230545401573181, 0.1487822681665420532, 0.0511194579303264618, 0.0221313163638114929, 0.0958139747381210327, 0.0049860025756061077, 0.0099478028714656830, 0.0445984527468681335, 0.0454959571361541748, 0.2402076721191406250, 0.0147858560085296631, 0.0171172525733709335, -0.0551713481545448303, 0.0451222546398639679, 0.1494318097829818726, 0.0624483264982700348, 0.0574971735477447510, -0.1024885773658752441, -0.0008451130706816912, 0.1233232095837593079, 0.0406859181821346283, -0.0514317154884338379, 0.0202560015022754669, 0.0495286211371421814, 0.0325489826500415802, 0.0956745594739913940, 0.0276857484132051468, 0.0330288000404834747, -0.0278521403670310974, 0.0536083057522773743, 0.0586091130971908569, -0.0643359273672103882, 0.0438700355589389801, 0.0545451156795024872, -0.0893610492348670959, 0.0640380978584289551, -0.0701677724719047546, -0.0410850755870342255, 0.1581188887357711792, 0.0391300842165946960, 0.0396907851099967957, 0.0725867524743080139, 0.0152206234633922577, -0.0890880748629570007, 0.0439500063657760620, 0.0606119260191917419, 0.0503247678279876709, -0.1044159531593322754, -0.0794448778033256531, 0.0394023098051548004, -0.0385112762451171875, 0.0777283608913421631, -0.0039535802789032459, 0.0684875920414924622, 0.0180386453866958618, 0.0946339145302772522, -0.0020148823969066143, 0.0042318608611822128, -0.0202382300049066544, -0.0787100568413734436, 0.0342520922422409058, -0.0038351137191057205, 0.0702723637223243713, -0.0291712917387485504, 0.0714365914463996887, -0.0168705992400646210, -0.0239411890506744385, 0.0566542446613311768, -0.0498849190771579742, 0.0027573883999139071, 0.0311929322779178619, -0.0512369312345981598, -0.1310481429100036621, 0.0285070911049842834, 0.0927018225193023682, 0.0405722558498382568, -0.0169080607593059540, 0.0547325126826763153, 0.0090711675584316254, 0.0434233285486698151, -0.0494365990161895752, -0.0997334718704223633, 0.0627015084028244019, 0.0982937291264533997, 0.0520491786301136017, -0.0525215044617652893, 0.0840694978833198547, 0.0699543878436088562, -0.0334206297993659973, 0.0204219035804271698, -0.0059661897830665112, -0.0116120120510458946, -0.0715452432632446289, 0.0313685834407806396, -0.0562374964356422424, -0.0751628205180168152, 0.0501114949584007263, 0.1788480281829833984, 0.0845073983073234558, 0.1593628674745559692, -0.0006411977810785174, 0.0340562462806701660, -0.1823590844869613647, 0.0968071520328521729, 0.0589920245110988617, -0.0234827287495136261, -0.0141025641933083534, 0.0626922249794006348, 0.0158331170678138733, -0.0576334260404109955, 0.0050252168439328671, -0.0376450605690479279, 0.0055787125602364540, 0.1896746307611465454, -0.0161189921200275421, 0.0003433810488786548, 0.0001648774778004736, -0.0231131333857774734, 0.0518914125859737396, -0.0878662839531898499, 0.0233397204428911209, -0.0314604677259922028, -0.0080095548182725906, 0.0804363116621971130, 0.0884301662445068359, 0.0140070272609591484, 0.0591293498873710632, -0.0591957829892635345, -0.0411235578358173370, 0.1149788573384284973, -0.1024914532899856567, -0.0382992215454578400, 0.0248151943087577820, -0.0614722222089767456, -0.0901090502738952637, -0.0297963283956050873, -0.0480111092329025269, 0.0434832610189914703, -0.0295904539525508881, 0.0355447717010974884, -0.0096881156787276268, 0.0762351378798484802, 0.0952958315610885620, -0.0049741608090698719, -0.0538573153316974640, -0.0982563868165016174, -0.0284314528107643127, 0.0877953693270683289, 0.0069376858882606030, -0.0632191449403762817, 0.0128223858773708344, -0.0276769641786813736, -0.0105564920231699944, 0.0726781412959098816, -0.0189571119844913483, -0.0829032808542251587, 0.0302023831754922867, -0.0564461313188076019, -0.0268226508051156998, 0.1047607138752937317, 0.0016471737762913108, 0.0046521178446710110, 0.1176259964704513550, 0.0937343910336494446, -0.0361865982413291931, -0.0261484272778034210, -0.1619310975074768066, 0.0348598062992095947, 0.0164343398064374924, -0.0609213896095752716, 0.0738598704338073730, -0.0351539328694343567, 0.0654167234897613525, -0.0856822878122329712, 0.0219652149826288223, 0.0328716635704040527, -0.0633362755179405212, 0.0903132408857345581, -0.0798827186226844788, 0.1087739095091819763, -0.0318127684295177460, 0.0116235399618744850, 0.0067421160638332367, -0.0667274296283721924, -0.0015112303663045168, -0.0000274839512712788, -0.0311028584837913513, 0.0547161586582660675, -0.0019020366016775370, -0.0149666089564561844, -0.0076164612546563148, -0.0148091753944754601, -0.0050279740244150162, 0.0550292171537876129, -0.0489631406962871552, -0.0554250143468379974, -0.0137722073122859001, 0.0585252828896045685, -0.0291712619364261627, -0.0420820750296115875, -0.0776223391294479370, 0.0413369014859199524, -0.0380572453141212463, -0.0409650169312953949, -0.0130289113149046898, 0.0024015370290726423, 0.0073044714517891407, -0.0007114557665772736, -0.0880754739046096802, -0.1357211172580718994, -0.0232743881642818451, 0.0623550154268741608, -0.0404647365212440491, -0.0475462414324283600, 0.1116483286023139954, -0.0299769081175327301, -0.0635525509715080261, 0.0086720827966928482, -0.0090384781360626221, 0.0091832820326089859, -0.0501266121864318848, -0.0108671998605132103, 0.0181467160582542419, -0.0031811059452593327, -0.0355523899197578430, 0.0838703513145446777, 0.1137304678559303284, 0.0710024610161781311, -0.0558164902031421661, -0.0123215066269040108, -0.1109144240617752075, 0.0325423069298267365, 0.0550005510449409485, 0.0674585476517677307, -0.0511996150016784668, 0.0593117997050285339, 0.0224234052002429962, 0.0043302546255290508, 0.0588419884443283081, -0.0559060759842395782, -0.0506373755633831024, 0.1168393343687057495, -0.0321790501475334167, 0.1382263451814651489, -0.0202858559787273407, -0.0175065528601408005, 0.0949470028281211853, -0.0937160775065422058, 0.0078026093542575836, 0.0577971227467060089, 0.0208814013749361038, 0.1297486573457717896, -0.0129333054646849632, -0.1010477691888809204, 0.0661875605583190918, -0.1294015794992446899, -0.0946439653635025024, -0.0165026932954788208, -0.0003463846805971116, 0.0275134220719337463, -0.1580234766006469727, -0.1608048528432846069, -0.0397752597928047180, -0.0572598502039909363, -0.2185527533292770386, -0.0223573632538318634, -0.0128620099276304245, 0.0274575334042310715, -0.1050412729382514954, -0.0219648052006959915, 0.0448217652738094330, -0.0550123378634452820, -0.2267105132341384888, -0.0832962840795516968, -0.0449039936065673828, -0.0286301281303167343, 0.0364794060587882996, -0.0684373527765274048, 