//Numpy array shape [3, 3, 64, 64]
//Min -0.513463735580
//Max 0.402520418167
//Number of zeros 0

#ifndef W6_H_
#define W6_H_

#ifndef __SYNTHESIS__
conv2d_1_default_t w6[36864];
#else
conv2d_1_default_t w6[36864] = {-0.0679834634, -0.1436760277, 0.0498136841, -0.0265047699, 0.0231958125, 0.0533055142, 0.0191452038, 0.0929876417, -0.0118062189, 0.0061384435, 0.0768204406, 0.0758111179, 0.0823309049, 0.0969163030, -0.0393326059, -0.0166752785, -0.0335499346, -0.0522631370, 0.0574968681, 0.0682187155, -0.1283542216, -0.0099642202, 0.0167762954, -0.0054488559, 0.0287589300, 0.0636983067, -0.0170761328, 0.0642128289, 0.0055177924, -0.0266023111, -0.0135675389, -0.0496199802, -0.0410436243, -0.0799461156, 0.0782930702, -0.0481003784, 0.0206096191, 0.0412607901, 0.0388927571, 0.0935212895, 0.0582002513, -0.0433603525, 0.0247843657, -0.0864588544, 0.0292848572, 0.0256304853, 0.0816393420, 0.0604976825, -0.0373789482, 0.0843756795, -0.0004281926, -0.0903043076, 0.0951128528, -0.0623326078, -0.0546237044, 0.0049835797, -0.0195740554, -0.0444553755, -0.0174325351, 0.1080280319, 0.0344866663, 0.0680389702, -0.0459911190, 0.1224654540, 0.0186857954, 0.1275433600, -0.0577869080, -0.0606247559, -0.0580764636, 0.1445025802, -0.0371442996, -0.0677241385, 0.0542175993, 0.0748116896, 0.0010487661, 0.0190271400, 0.0239938982, 0.0554064810, -0.1095771939, 0.0071049118, 0.1094781831, 0.0746798590, -0.0128800897, 0.0954835415, -0.0261588115, -0.0553563572, -0.0242156330, -0.0965217277, -0.0702892765, 0.1219149977, -0.1380377710, 0.0668281466, -0.0609042682, 0.0555516556, 0.0418369435, 0.0102477316, -0.0797150284, -0.0137513857, -0.0471965037, 0.0107560139, -0.0456823595, -0.0523515753, -0.0060764691, -0.0600885451, 0.0488140658, -0.0323179588, 0.0354640372, -0.0652076304, 0.0576828383, -0.0775692165, 0.0549596138, -0.0263993293, 0.1777257919, -0.0000097338, 0.0717044547, 0.0088635134, 0.0590803958, -0.0085038319, -0.0776371062, 0.0556041822, 0.0511072911, -0.0002773033, -0.0490716062, 0.2250641286, -0.0238113757, 0.0344487354, 0.0348589532, 0.0370984152, 0.0277897902, 0.0064520896, -0.0649422184, -0.0162322484, -0.0434764437, -0.0454474650, -0.0586279407, -0.0542328022, -0.0297428221, -0.0221367981, -0.0475433879, -0.0706250072, -0.0588673763, 0.0683641061, 0.0590717681, -0.0816798434, 0.2067895234, 0.0055978326, -0.0988970995, -0.0244410019, 0.0202592500, 0.0405988805, -0.1132534295, -0.0320848860, -0.0891536847, 0.0630635619, -0.0061177765, 0.0977425724, -0.0043337727, 0.0131046809, 0.0063572782, -0.0123969810, -0.0831291378, -0.0384529904, -0.1153859198, 0.0901429206, -0.0657867044, 0.0747308508, -0.0222224053, -0.0783167779, 0.0676391795, 0.0132954456, -0.0336444750, -0.0291960742, 0.0176554825, 0.0202282947, 0.0188268200, -0.0661070943, 0.0374704190, -0.0855830535, 0.0699562058, 0.0544516481, -0.0620342866, 0.0980915651, -0.0411206633, 0.0484046750, 0.0800196603, 0.0288974177, -0.0633186400, 0.0638978705, 0.0937266871, -0.0353898667, 0.0264132861, -0.1015960425, -0.0082381330, -0.1292887628, -0.0301357247, 0.0327912122, 0.0952480286, 0.0770426989, 0.0926659182, 0.0447267927, 0.0682728067, 0.0083763432, 0.0106938267, 0.0545343980, -0.0068635917, 0.0314737633, -0.0298215561, 0.0323264748, 0.0108818756, -0.0228748228, 0.0761451945, 0.0329946540, -0.0382861421, -0.0256094560, -0.0007410056, 0.0372669250, 0.0581965968, 0.0415418856, -0.0604051687, -0.0387311354, 0.0096431859, 0.0051811780, 0.0222036876, 0.0505931675, 0.0408181548, -0.0181780886, 0.0459845662, -0.0245129820, 0.0433732830, -0.1152367294, -0.0179883316, 0.0238071159, 0.0275864042, -0.0862541273, 0.0752877891, -0.0868370309, 0.0952085033, 0.0422931649, -0.0163735468, -0.0209312849, -0.0474675894, -0.0077972934, -0.0856426209, -0.0533672981, -0.0216756575, -0.0548358373, -0.0812474042, -0.0393064246, -0.1802146584, -0.0686163679, 0.0037981251, 0.0218654461, 0.0176553484, 0.0386824459, -0.0916254073, -0.0105508370, -0.1296204925, 0.0361474641, -0.0238081850, 0.0227074139, 0.0242296644, 0.1517644823, -0.0186623912, 0.0763360113, -0.0398154110, 0.0858183801, -0.0141037181, -0.0133704366, 0.0789233595, 0.1313629150, -0.0747135654, -0.0413341857, -0.0788413361, -0.0428198949, 0.0490380265, 0.1332162023, -0.0304392688, -0.0037969225, -0.0348064378, 0.0417025685, 0.0336657912, 0.0817623213, -0.0463904999, 0.0143353762, -0.0562238395, 0.0504532307, -0.0109334970, 0.0077244318, -0.0731787980, -0.0486307889, 0.0330634452, -0.0397339053, 0.0986725241, -0.1235509664, 0.0137695260, 0.0813662782, -0.1294215173, 0.0271744207, 0.0177116953, -0.1327776015, -0.0045904056, -0.1133804768, 0.0067678359, -0.0654358864, 0.0929585472, 0.0829535499, -0.0731108338, -0.0411337651, -0.0265641715, -0.1521324217, -0.0201879814, -0.0413996316, 0.0026479841, -0.0073839095, -0.0324409418, 0.2152948380, -0.1406897306, 0.1109761000, 0.0283052586, -0.0767192990, 0.0248825699, 0.1972974986, -0.0490211137, -0.0454044044, -0.0724218935, -0.0213962682, -0.0818295777, -0.0799592808, 0.0050096572, 0.0491815172, -0.0494541451, -0.0709415451, -0.0849801078, -0.0124955764, -0.0204166677, -0.0440082438, 0.1589486003, 0.0684525892, -0.0255923793, 0.0200076979, 0.0897441357, -0.0911432579, 0.0018343105, -0.0003887115, 0.0182961486, 0.1886886507, 0.0219790917, -0.0469580665, 0.0288250558, -0.0973363891, 0.0286476538, 0.0093714558, -0.0219877325, -0.0738895163, -0.0649429634, 0.0460675545, -0.0688620359, 0.0114931194, -0.0194043200, -0.0534403920, 0.2028214335, -0.0960469171, 0.0019972024, 0.0191187710, -0.0823502913, 0.0421463698, -0.0951469764, 0.0671278313, 0.1402663141, -0.0700236261, 0.0183626525, 0.1519827992, -0.0620980710, -0.0121345194, 0.0441828594, 0.0383653305, 0.0715858117, 0.0185900759, -0.0372776166, 0.1784050614, -0.0001860276, -0.0169576518, -0.0137371244, -0.1259388775, -0.0349246636, -0.0662948489, 0.0153794549, 0.0416667685, 0.0072678304, 0.0376287326, 0.0383107476, 0.0031085412, 0.0482597202, 0.0261209365, -0.0157526974, -0.0081965216, 0.0138278669, -0.0966571942, 0.0344907269, 0.1256083101, 0.0351554640, -0.0952661261, -0.0108616706, 0.0542348474, 0.0062984331, 0.0749093518, -0.0459800884, 0.0615201071, 0.0843701586, -0.0923986882, -0.0310173407, 0.0478637032, 0.0810670853, 0.0520215817, -0.0115948245, 0.0114514232, -0.0400224403, 0.0017255008, -0.0439800285, -0.1099632308, 0.0549899638, 0.0324166343, 0.0850752071, 0.0405467711, -0.0198206492, -0.0570734590, 0.0127392914, -0.0999283046, 0.0972273350, -0.0634872839, 0.0731298625, -0.0991699845, -0.0325899497, 0.0044216085, -0.1090676486, -0.0612372532, -0.0376323722, 0.0155411130, -0.0456125923, 0.0859523043, -0.1422701478, -0.1105152145, 0.0469693057, 0.0105014797, -0.0701987520, -0.0096291341, -0.1195477918, -0.0736323595, -0.0695545152, 0.0645124167, 0.0447871052, 0.0254936852, 0.0658161268, 0.1209625974, 0.0718550980, -0.0062361266, 0.0413766541, 0.0010463281, -0.0143004209, -0.0550367422, 0.0562399216, 0.0171641205, -0.0946947187, 0.0558294803, -0.0255198348, -0.0915277675, 0.0709754974, 0.0213140901, -0.0844934285, -0.0572464578, 0.0477752201, 0.0406637825, -0.0164020490, -0.0494194292, -0.0641537905, 0.1038699821, -0.0010130834, 0.0483717173, -0.0364040397, 0.0759319961, -0.0794990435, 0.0349508077, 0.0591037646, -0.0375203937, 0.0926872268, 0.0374213681, 0.0418445095, 0.0384763144, 0.0463961251, 0.0316394307, 0.0949802846, -0.0713119060, 0.0330356210, -0.0666568428, -0.0414249375, -0.1717333049, -0.0278745107, -0.0405520685, -0.0621511713, -0.0571375489, -0.0554039553, -0.0398723073, -0.0123788780, -0.0249546282, 0.0055387691, -0.0552274361, 0.0153823160, 0.0729459897, -0.0574469045, 0.1408057064, 0.0036692633, 0.0096689304, -0.0632500798, 0.1886583567, -0.0514542535, -0.0573212467, -0.0713899285, 0.0658704638, 0.0102859503, 0.0134931998, 0.0333149806, 0.0733947828, 0.0359652936, -0.0284864344, 0.0127619058, 0.0171768721, 0.0535087474, 0.0270215254, 0.0919422507, 0.0095641380, -0.0528221354, 0.1286569089, 0.1131852046, -0.0826496854, 0.0282169878, -0.0417212956, -0.0705120713, 0.0816647336, 0.0179611519, 0.0204475410, 0.0067615374, -0.0021757137, 0.0105286287, -0.0750961527, 0.0173234232, -0.0260730106, 0.0192105100, -0.0574136414, 0.0126540055, -0.1381938010, -0.0728087947, 0.0037071877, 0.1076736003, -0.0742962360, 0.0388391837, 0.0198789462, -0.0180947464, 0.0502892993, -0.0256115664, 0.0439402424, 0.0322698057, -0.0286889374, 0.0006412291, -0.0037137419, -0.0799452588, 0.0729982033, 0.0014739460, -0.0062112985, 0.0134357847, 0.0957540572, -0.0322964415, 0.2097108662, -0.0796498507, 0.1855356842, -0.1060190201, -0.0064042867, 0.0427935757, 0.1119023189, 0.0142084025, 0.0220599584, 0.0117188925, -0.0198986605, 0.0798618719, -0.0043847607, -0.0744290203, 0.0218621753, -0.0349342786, -0.0004068718, 0.0371965021, 0.0871993676, 0.1488580108, 0.0990635976, 0.0424445681, 0.1281483024, -0.0392563753, 0.0245435387, 0.2211943418, -0.0060824943, 0.0768904462, 0.0126942676, 0.0545846932, 0.1559192985, 0.1576515287, 0.0244700741, -0.0653057843, 0.0741497800, -0.0514821522, 0.0541008897, 0.0920107886, -0.0231994838, 0.1343303472, 0.1980503500, -0.0259720199, 0.0289677996, 0.0381795131, 0.0418670736, 0.1434723288, 0.0516770035, 0.0220775399, -0.0056939428, 0.0188675225, 0.0560924374, -0.0149197457, 0.1477937698, 0.0749955028, -0.0315440372, 0.0148450397, -0.0502011701, -0.0476912819, 0.1566093564, 0.0321482681, 0.0144657725, 0.1003087759, -0.0039448068, 0.0263977833, 0.1151712686, 0.0651855394, 0.0383813232, -0.0148556130, -0.0812936425, 0.0804175138, -0.0510138497, 0.0652740151, 0.0126139149, -0.0513491966, 0.0556025766, 0.0426789150, 0.0154996524, -0.0006452465, 0.0278259329, 0.0284901578, 0.0726077855, 0.0943957716, 0.0395846330, 0.1296471506, 0.0217906237, 0.1018018797, 0.0076364363, 0.0263093244, 0.0149891023, 0.1991532445, 0.0597105585, 0.0476908572, -0.0220059603, 0.0119567970, 0.1343172789, 0.0948701501, 0.0765296444, 0.0501690842, 0.0247976873, 0.0494029820, 0.0774054229, 0.0502101108, -0.0139417751, 0.1927685887, 0.1151240394, 0.0609028377, 0.0436341837, -0.0071127950, -0.0538010411, 0.0884323269, 0.0087667881, 0.0645322949, 0.0883288234, -0.0550401285, 0.0687363148, -0.0520793982, 0.0766637847, 0.0615971759, -0.0529261194, -0.0968083292, -0.0724789128, 0.0214110985, 0.1111366004, -0.0982466787, 0.0223776624, 0.1320491582, -0.0556166545, -0.0301758349, -0.0497501530, -0.0624944605, 0.0875777900, -0.1411922872, -0.0457762033, 0.0181600377, 0.1002043635, 0.0272525083, 0.0527799577, 0.0736527517, 0.0159645472, 0.0608873554, -0.0395377018, -0.0706684738, -0.0364219062, 0.0061066574, 0.0603398196, 0.0805115774, 0.0597069636, 0.0456601791, 0.0605556071, -0.0253415536, 0.0702996254, -0.0033006365, -0.0143743595, 0.1476255059, 0.0281195752, 0.0797280073, 0.0721132010, 0.0134969056, 0.0026055153, 0.0565407239, 0.0428101160, -0.0455576032, -0.0366452150, 0.0112396162, 0.0739597306, 0.0818987042, 0.0666982383, 0.1236381307, 0.0421854593, -0.0275796261, 0.0719021186, 0.0067835208, -0.0146625796, 0.0191679485, -0.0216584224, 0.0607632138, 0.0395729393, 0.0422652140, -0.0402046070, 0.0251573082, 0.1713986695, 0.0491751768, -0.0264643561, 0.0632387400, -0.1515381634, -0.0402098708, 0.0618978553, 0.0017388510, 0.0076239281, 0.0793757215, -0.0161759555, -0.0034944688, -0.0093580121, -0.0676906183, 0.0480952002, -0.0125187431, 0.0606383532, 0.0376075283, 0.0040989993, -0.0673128366, -0.0020728570, -0.0433785543, 0.0133672263, 0.0651493594, 0.0173849612, -0.0117312213, 0.0148212910, -0.0522574633, -0.0333820172, 0.0155396657, 0.0010428302, 0.1808463931, 0.0347398408, -0.0044016670, 0.1242844015, 0.0512572490, 0.0141586559, 0.1903268546, 0.0176469777, -0.0156934336, 0.0710791349, -0.0673093051, 0.1964526176, 0.1005597264, -0.0857523158, -0.0063685155, 0.0902115107, -0.0415820070, -0.0196660142, -0.0184528809, -0.0211564712, 0.1413201243, 0.0181044303, -0.0735198185, 0.0509876981, 0.0380552933, -0.0044734287, -0.0127727045, -0.0394062884, 0.0504406169, 0.0042512454, -0.0661367998, -0.0594722182, -0.0708914697, 0.0940192193, 0.0638823807, 0.0654348955, 0.0731874630, -0.0128584700, 0.0473856702, 0.0894827470, -0.0030854489, -0.0121238213, 0.0524739958, -0.0431474373, 0.0221726447, 0.1035326198, 0.0419535898, 0.0160515048, -0.1067166328, 0.0729859248, 0.0497320890, 0.0704956874, 0.0003597680, 0.0575174205, -0.0214692689, -0.0538558252, 0.0201858263, -0.0566426553, 0.0599464141, -0.0142174680, -0.0011629491, 0.0571736395, 0.0934022889, -0.0234592129, 0.1004834771, 0.0417488031, 0.0947923884, 0.0667859316, -0.0278317165, 0.0587725118, 0.1403900385, -0.0110776806, -0.0774696022, 0.1204824895, -0.0147649217, 0.0879606009, 0.0914848074, -0.0086949896, -0.0882824510, 0.0656814352, -0.0102568483, -0.0116950953, -0.0080284048, 0.0279996227, 0.1918341368, -0.0060890834, -0.0149638997, 0.0377098918, -0.0275560413, 0.0670389384, 0.0882877409, 0.0736983493, -0.0087378602, -0.0567509122, 0.0282840710, -0.0396885686, -0.0171027239, 0.1136149317, 0.0328484140, 0.0749833956, -0.0465695038, 0.0181720592, 0.0331350155, -0.0154884662, -0.0637754500, -0.0630535260, 0.0900142118, -0.1018588245, -0.0517545976, 0.0061733290, 0.0728408918, -0.0659735277, -0.1168972775, 0.0468937084, 0.1043526381, 0.0624615513, -0.0441569462, 0.0571903437, -0.0279476158, -0.0156586058, 0.0348189659, 0.0152681749, -0.0606394745, 0.0627323613, 0.0071430355, -0.0186475515, 0.0378524214, -0.0826715156, 0.1450701505, -0.0067607472, 0.0984269828, -0.0297325645, 0.0201073214, -0.0435768515, 0.1559465528, 0.0167856757, 0.0266374331, 0.0215423964, 0.0711136088, 0.1216544956, 0.0369676612, 0.0220387485, -0.0635917261, 0.0105176084, -0.0128661711, -0.0432065018, 0.0119867949, 0.0191204436, 0.1693781614, 0.0608857721, 0.0323724411, 0.0807798132, -0.0482181311, 0.0371057838, 0.0015337642, 0.0734127387, -0.0001400364, -0.0011610223, -0.0022004109, 0.0120969731, 0.0189999547, 0.1618370861, 0.0373918153, -0.0069179619, 0.0438187793, 0.0304401908, 0.0408350229, -0.0573848523, -0.1140487641, -0.0654637888, 0.0180646032, -0.0297818128, -0.0612715967, 0.0421592481, -0.0402164124, 0.0808855519, -0.0794557706, 0.1055992544, 0.0591578297, -0.0326953828, 0.0444295816, 0.0266137905, 0.0244508311, -0.0050531942, 0.0346929766, 0.0488622487, -0.0185070783, 0.0589927621, -0.0373242199, -0.0535417870, 0.0870466679, -0.0893351734, -0.0520109907, 0.0499345139, -0.1017507687, -0.0662601069, -0.0431650467, 0.1133917868, 0.1149249598, 0.0312426202, 0.0463743992, 0.0540684126, 0.0654666573, 0.1767494231, 0.0954917893, -0.0423761196, -0.0207295865, -0.0353625603, -0.0219846591, 0.0102641815, 0.0682658628, 0.2019957155, 0.0623281375, 0.0455669537, 0.0156348106, 0.0115320552, -0.0673396960, -0.0113645233, -0.1108422950, 0.0780446827, -0.0817911029, -0.0920416489, -0.0345091298, -0.0015198078, -0.0048934701, 0.0970555916, 0.0859830379, 0.0629403070, 0.0511975437, -0.0987313241, 0.0771063715, -0.0647386238, -0.1164694130, -0.0416505411, -0.1678562909, -0.1513709724, -0.0146575896, 0.1089985296, 0.0355421975, -0.0750139728, -0.2059163004, 0.0421939306, 0.0903787911, 0.0885086209, -0.0605661646, -0.0198279321, -0.0889181346, -0.0921771601, -0.0404537022, 0.0604128130, -0.0293305703, 0.0488361493, -0.0364839025, -0.0262032673, 0.0158166550, -0.1396856308, 0.0303517953, 0.0299039893, -0.0439382941, -0.0286543667, -0.0605189763, 0.0983738899, 0.1157821789, 0.0136301769, -0.0890614092, 0.0198606439, 0.0206772145, 0.0835579559, -0.0651122704, -0.0426563285, -0.0416499786, 0.0440375917, 0.0572557896, -0.0470623709, -0.0607876629, 0.1792980134, 0.1848396510, 0.0903002694, -0.0809655413, 0.1343603730, -0.0558004826, -0.0863420218, -0.0690629780, 0.0141154435, -0.0002821768, -0.1162138581, -0.0242941678, -0.1029640809, -0.0866834000, -0.0220505241, 0.0269697364, -0.0700666830, 0.0258892197, -0.0273908582, -0.0390398353, -0.0830231532, -0.0418518819, 0.0513704568, -0.0689564943, -0.0924430415, -0.0584741347, 0.1234394014, 0.0108135138, -0.0253639128, -0.3179540634, -0.0403644592, 0.1127092093, 0.0376670882, -0.0644795373, -0.0361652784, -0.0785581470, -0.0060350667, -0.0270723775, -0.0425315909, -0.0304093137, -0.1003061756, 0.0100471163, -0.0221196264, -0.0778769925, -0.1205296665, 0.0447280146, -0.0131594473, -0.0216487423, 0.0202132091, -0.0689292327, 0.0374238864, 0.0480303243, 0.0449156165, -0.0458789952, 0.0251623597, -0.0335870311, -0.0312882364, 0.1122131124, -0.0362930819, -0.1127640605, 0.0102985017, -0.0260853935, 0.0298477281, 0.0561182834, 0.0739651248, 0.0778332800, 0.0168768559, 0.0071132611, 0.0721992776, -0.0516037717, 0.0111685954, 0.0577385351, 0.0191606134, -0.0964854583, -0.0425958969, -0.0699566826, 0.0274895653, -0.0440340899, 0.0261306204, -0.0314889103, -0.0012613266, -0.0040455605, -0.0503710695, -0.0044359993, -0.0167040043, -0.1266901940, 0.0139891235, -0.0937170833, -0.2412022054, -0.0650118068, 0.0706995502, -0.0227986574, -0.0132902339, -0.3175338805, 0.0740389079, 0.0590048730, 0.1143881455, 0.0122195277, 0.0208151676, -0.0007028570, 0.1198639497, -0.0361569151, -0.0265464485, 0.0306909680, -0.0552559309, -0.0857007578, -0.0643977970, -0.0320297517, -0.0088002412, -0.0288196448, -0.0372817926, -0.0393397324, 0.2246993184, -0.0113614202, 0.1113419533, 0.0411284864, 0.0246346295, 0.0842061937, 0.0813182294, -0.0370776244, 0.1815672219, 0.0365577564, 0.0047759502, -0.0472817086, 0.0331317633, 0.0005558649, 0.0063737398, 0.0857689232, 0.1594941467, 0.1739064157, 0.1615689248, 0.0886560678, 0.0975995287, 0.0022888533, -0.0272743050, -0.0663202032, 0.0930296108, 0.0700201988, -0.0732287318, -0.0581771247, -0.0487822443, 0.0696215928, 0.0025696293, 0.0472886674, -0.0248516928, 0.2517800033, -0.0819160417, 0.0429705121, 0.0481922366, 0.0379981957, 0.1083002612, 0.0485634208, -0.0873700231, 0.0100730909, 0.2200806737, -0.1003495157, 0.0729755536, -0.2462831885, 0.2790773809, 0.0927707851, 0.1228821427, -0.0668050274, -0.0346639752, 0.0020334420, 0.2028318644, 0.0051572169, -0.0144100133, -0.0600141697, 0.0425157063, 0.0322037898, 0.0253912285, 0.0301589444, 0.0989249051, 0.0708448291, 0.0376029350, -0.0191017929, 0.0919484347, -0.0451101921, 0.1461406797, 0.0366791859, -0.0305019040, 0.1528351307, 0.0622412935, -0.0450767614, 0.1606859565, 0.1325795799, -0.0841554329, -0.0863014609, -0.0403481610, -0.0758029521, -0.0100830356, 0.1035209298, 0.1823137254, 0.1359863877, 0.0968724117, 0.1027078256, 0.0174062550, -0.0398783125, -0.0404961891, -0.1068388224, 0.0550996885, 0.0321346633, 0.0256058108, -0.0476884246, -0.0395156220, -0.0568771772, 0.0894891992, 0.1262873560, -0.0297993682, 0.1124419346, -0.0232747458, -0.0037495233, 0.0187072270, -0.1246527657, 0.0480080135, 0.1273712069, 0.0073676319, -0.0897282735, 0.2409930527, -0.0053783529, 0.1137747020, -0.1834747046, 0.2628842592, 0.0861553624, -0.0099514965, -0.0131021328, 0.0250648204, -0.0666410327, 0.1392775625, 0.0554942787, -0.0708655193, -0.0692523718, -0.0041355859, -0.0113411192, 0.0218717568, -0.0783010349, -0.0785731375, -0.0164121836, 0.0926743746, 0.0272475034, 0.0141793061, -0.0373702049, 0.0690548420, 0.0643466115, -0.0805145279, 0.0454889536, 0.0682974234, -0.0093823485, 0.0708523169, 0.1507041156, -0.0697366744, -0.0666068941, -0.0306915585, -0.0269635767, -0.0749517754, 0.0380663536, 0.0266291164, 0.1421360373, 0.0769157037, 0.0432348251, 0.0791066438, -0.0187478997, 0.0098683611, 0.0200696886, 0.0404718742, -0.0498393476, -0.0433680676, -0.0381401516, 0.0626026690, 0.0017941908, 0.0044364398, -0.0264394451, 0.0335604735, 0.1392231435, 0.0219615009, 0.0240713451, 0.0605139732, -0.0239604395, -0.0418757163, 0.0034582142, 0.0026855348, -0.0227356907, -0.0100034485, 0.0075114332, -0.0886311457, -0.2510579228, 0.1302214414, 0.0178336948, -0.0271532312, 0.0491967797, -0.0591631941, -0.0422867276, 0.1820563376, 0.0304973740, 0.0678572357, -0.0207924414, 0.0474104285, -0.0346848331, -0.0564953610, -0.0735399276, -0.0215722062, -0.0374438055, -0.0245078113, -0.0817711055, 0.0889343545, -0.0422207378, 0.1588485837, 0.1106783450, -0.0190875307, 0.0795340687, 0.0493060164, 0.0232146084, 0.1304264963, 0.0461550280, -0.0025765398, 0.0554532781, 0.0435879119, 0.0207194462, 0.0556454286, 0.0496505909, 0.0042344029, 0.0961199626, 0.0825264007, 0.0715725049, -0.0516123548, -0.0553692207, 0.0065496215, 0.0129348878, 0.0316891074, -0.0355509557, -0.0889359191, 0.0518082194, 0.0211332459, -0.0020436128, 0.0835497826, 0.0076085948, 0.0470980890, 0.2429699004, 0.0395978726, -0.0176576078, 0.0841321051, 0.0334147401, 0.1094330400, -0.0910423249, -0.0414277129, -0.0153281307, 0.1339804232, -0.0955883190, -0.0195003245, -0.2538875639, 0.1083003134, 0.0632011965, 0.0690666512, 0.0329689682, -0.0425573587, -0.0261524525, 0.1060109735, -0.0044383761, -0.0809106752, -0.0183148496, 0.0743906274, -0.0046804575, 0.0723065808, -0.0608000010, 0.1251480877, 0.0212243088, 0.0114676850, 0.0373574309, 0.2348387539, -0.0355435722, 0.1077503115, 0.0308353361, -0.0374311022, 0.1492733806, 0.0889418796, 0.0489200130, 0.1729277223, 0.1444962919, 0.0172865950, -0.0376183726, 0.1314889789, -0.0111653153, 0.0106870858, 0.1154593304, 0.0149453981, 0.1692789793, 0.0543038212, 0.0346463583, 0.0282786582, 0.0126897302, -0.0024102428, -0.0408789627, -0.0078688823, 0.0507566333, -0.0389074907, 0.0297523756, -0.0013199430, 0.0202168915, 0.0872149095, 0.0276994575, -0.0062859491, 0.2122602016, -0.0001300079, -0.0224468317, 0.0240598433, -0.0640839487, -0.0211492609, 0.1165248603, 0.0365653671, -0.0288117286, 0.2340869755, -0.1456067860, 0.0814294592, -0.2277578115, 0.0823049992, 0.0238853302, 0.0994443372, -0.0291895084, -0.0868866518, -0.0066559846, 0.0781870186, -0.0937392265, -0.0460315645, -0.0578540750, -0.0514819548, -0.0434730016, 0.0031831556, 0.0413710326, -0.0813597515, -0.0130873490, 0.0187016819, -0.0468872674, 0.0820280537, -0.0513582565, 0.1379377842, -0.0103306426, -0.0646035150, 0.0405912548, 0.0625257343, 0.0131787993, 0.1783621460, 0.0358454622, 0.0326771848, -0.0695159063, 0.0342045650, -0.0600814410, -0.0596900247, 0.0000423186, -0.1146360561, -0.0401067138, -0.0535855331, -0.0777006894, -0.0110519715, 0.0412189662, -0.0390350521, -0.0049856235, 0.0347454734, -0.0384871028, -0.0966608450, -0.0410569608, -0.0272919852, -0.0284721684, 0.0067705400, -0.0439273380, -0.0451042987, 0.0519869775, -0.0626423806, 0.0478074551, -0.0214426797, 0.0044808565, 0.0165175069, 0.0000241308, 0.0410099849, 0.0002943696, 0.1159134358, -0.1728544533, -0.0521119274, -0.1293749809, -0.0661325678, -0.1485687792, -0.0655603409, 0.0723323971, 0.0494653210, 0.0790210143, 0.0648645088, 0.0753640011, -0.0400309637, -0.0585504770, -0.0419341065, -0.0055329460, 0.0553123765, -0.0586901009, -0.0448761247, -0.0945554450, -0.2191622704, -0.0236490127, -0.0604766496, 0.0312190801, 0.0098178796, 0.0793371573, 0.0774693266, 0.0366636775, 0.0401792005, 0.0310195871, -0.0611938611, 0.0207915511, -0.0165473446, -0.0536546186, 0.0198915116, -0.0150192939, -0.0043089581, -0.0239790343, -0.0067339097, -0.0622536354, -0.0369007438, 0.1128877848, -0.0499570034, 0.0102514904, 0.0782062635, -0.1088826135, -0.0729178786, -0.0750148594, -0.1857340038, 0.0280548930, -0.0537858382, 0.0294070058, 0.0550646894, -0.0482788756, 0.0091343969, -0.0504689254, -0.0241223387, 0.0874020234, -0.0206232276, -0.0746057257, -0.0238538422, -0.1207301542, -0.0429221243, 0.0320430920, -0.0507765338, -0.1540634930, 0.0081109526, -0.1284512281, 0.0752564520, -0.0567748919, -0.0337146074, 0.0557050332, 0.0478131436, 0.0760595724, 0.1423968673, 0.0032753951, -0.0167575683, -0.0288602542, -0.0035560718, 0.0574685186, 0.0697227046, 0.0152755640, 0.0581296869, -0.0187392905, -0.1021908745, -0.1642214656, -0.0673801005, 0.0677546039, 0.1207030267, 0.0301430766, -0.0327665284, 0.1083314046, 0.1072394997, -0.0288736876, -0.0830286965, 0.0739104077, 0.0082073500, 0.0219422095, 0.0036253685, 0.0299590938, -0.0562085547, 0.0058896272, 0.0291061290, 0.0110621098, -0.0245622899, 0.1143794581, -0.0991740227, -0.0415598527, 0.0396798141, -0.1081555709, -0.0439251810, -0.0562498122, -0.0738877133, 0.0748938024, -0.0697518066, 0.0936120152, -0.0167081598, -0.0916240439, -0.0408518575, -0.1122169197, 0.0099946437, 0.0344775654, -0.0338797793, -0.0458119661, -0.1324449629, -0.1290712953, -0.0377532542, 0.0807997361, 0.1011846289, -0.1579905152, 0.0863441825, -0.1369384676, 0.0964275077, -0.1664393246, 0.0123233562, -0.0705134869, -0.0213336479, -0.0501491092, 0.1454547644, 0.0517998375, 0.0394116715, 0.0336749330, -0.0214741491, 0.0484387241, 0.0310428087, 0.0508557409, 0.0317846201, 0.0002143994, -0.2017665058, -0.0092067858, 0.0422799177, 0.0355998985, 0.0453576818, 0.0089543676, 0.0292917825, 0.0539848991, 0.0100033535, -0.0093430551, 0.0890082046, 0.0677759200, 0.0229432378, 0.0386745185, 0.0944795981, 0.0172292590, -0.0408642441, 0.0214671548, -0.0714417323, 0.0385270491, 0.0203124583, 0.0782134905, -0.0693778917, 0.0160752144, -0.0309989899, -0.0621256158, -0.1529365182, 0.0557007492, -0.1174671128, 0.0314394757, 0.0051028170, -0.0580323376, -0.0249196738, -0.0223302376, -0.0188377853, -0.1148827001, -0.0617025085, -0.0243035425, 0.0866934136, -0.0496335290, -0.0665560439, 0.0772792026, -0.0250496995, 0.0142700151, -0.0363979079, -0.1835366488, -0.0393068455, -0.0913998708, -0.0084223738, -0.0921665877, 0.0588477440, 0.0112274727, 0.0614495128, -0.0429188460, 0.0173814073, -0.0240435638, 0.0069337133, 0.0356178842, 0.0532956794, 0.0087593971, 0.0469286740, -0.0123800253, 0.1049827933, -0.0316374265, 0.0344915278, 0.0534670353, 0.0332009085, 0.0536317714, -0.0754601434, -0.0475920774, 0.0390242934, -0.0267498568, 0.1025553420, -0.0716833249, -0.0266796630, 0.0284231510, -0.0007918377, 0.0024011559, -0.0657220334, -0.0464596562, 0.0103828767, 0.0418212414, -0.0332538821, -0.0771452710, -0.0251388699, 0.0605182163, 0.0173304360, 0.0317771323, -0.0465510413, 0.0490998887, -0.0364074707, -0.0227620453, 0.0247459356, -0.0642467216, 0.0227822717, -0.0175427925, 0.0875623524, 0.0018164808, -0.0445012972, 0.0454535335, 0.0204604995, -0.0255168770, -0.0333708264, 0.0871528909, -0.0168198422, 0.0903426185, 0.1246525124, -0.0401204601, -0.1452385783, -0.0993634090, 0.0274235066, 0.0070834905, -0.0081331534, -0.2283844650, 0.0673509911, -0.0112741943, 0.0521238446, -0.0165380836, -0.1080468222, -0.0203899369, -0.0665185004, -0.0562996045, 0.0226207729, 0.0395121239, 0.0541873127, 0.0692179650, 0.2561512291, 0.0931482762, -0.0165999103, 0.0943170488, -0.0075076143, -0.0023978597, -0.0076005408, -0.0219620001, -0.0540284477, 0.0021410512, 0.1018016413, -0.0116408924, -0.1424673349, 0.0073040510, -0.0589462481, 0.0521097966, -0.0603917390, 0.0305999015, -0.1120763645, 0.0379256569, -0.0919532850, -0.0217464212, -0.0413768105, -0.0372509845, -0.1183375716, 0.0547292009, -0.0573778264, -0.0371925458, -0.1221709251, 0.0608563684, 0.0844161883, 0.0349842496, 0.0298020598, 0.0085437475, 0.1391003430, 0.0534439683, -0.0342164263, 0.0472945012, 0.1523775309, 0.0128598949, -0.0019148550, -0.0786817372, -0.0750787854, 0.2463339865, 0.1246207952, -0.0242613927, -0.2739058137, -0.1402932107, -0.0221759472, 0.0330562927, -0.1150372401, -0.0291149188, -0.1112984568, 0.0243327413, 0.0815627128, -0.0390220135, 0.1045281217, 0.0086649349, -0.0386245325, -0.0320507549, -0.0406727269, 0.0038387487, -0.0434291176, 0.0391483903, 0.2003648281, -0.0254024602, 0.0114136823, 0.0601934679, 0.0501944833, 0.0136410436, 0.0393342525, 0.0149355875, 0.0363563634, -0.0008699209, 0.0696377978, -0.0375605300, 0.1381808817, -0.0488457680, 0.0751088858, -0.0750231892, -0.0362664461, -0.0467249863, -0.0127616916, -0.0878992081, 0.0514404587, 0.0511753000, 0.0733195245, 0.0851214752, -0.0224537570, -0.0560878105, -0.0392967649, 0.0080540879, 0.0203124788, 0.1827921122, -0.0749551132, 0.0153298052, 0.0348204784, 0.0167676657, 0.1057020053, 0.2065193057, 0.0832731649, 0.0896714330, 0.1003388911, 0.0702703446, -0.1201353073, -0.0213450529, -0.0617659241, 0.1459863633, 0.1985213310, 0.0171837807, 0.0490614176, -0.1371549815, -0.0436117575, 0.0340952948, -0.0197410230, -0.0327241346, 0.0767047703, -0.0397117622, 0.0181077067, 0.0133462753, -0.0451716483, 0.0624245070, -0.0357446559, -0.0394696966, 0.0269095004, 0.0123609602, 0.0701183081, -0.0749559551, 0.1549547464, -0.0563686639, 0.0279701408, 0.1210207120, 0.0232427511, -0.0090658022, 0.0735114068, 0.0245190635, 0.0667117238, -0.0294920318, 0.1150715426, 0.0119041316, -0.0019485407, -0.0734744295, 0.0374824442, 0.0161543190, -0.0157054868, -0.0312371533, 0.0200268347, 0.0301563293, -0.0131882383, 0.0347808413, -0.0315080434, 0.0542637967, -0.0942976847, -0.0740760192, 0.0279461704, -0.0067705079, -0.0525518879, 0.0092301033, 0.0185009800, -0.0091371564, 0.0007235776, -0.0637845993, 0.1168058217, 0.0041376133, -0.0259754080, 0.0072271149, 0.1068692207, -0.0112652304, 0.0466163941, -0.0310693756, -0.0266429298, -0.0209755022, 0.0952998921, -0.0687015727, -0.0367840528, -0.1865285188, -0.0468602777, 0.0391207188, -0.1338217705, -0.2262085974, 0.1359785050, 0.0586243495, 0.0658270419, -0.0343316421, 0.0058418550, 0.0829165280, -0.0836721733, -0.0018337271, -0.0083657866, -0.0041966378, 0.0269218758, 0.0054297461, 0.1784500331, 0.0595046096, -0.0142361615, 0.2261914164, 0.0926165506, -0.0622664727, -0.0630476475, 0.1045165285, 0.0014391528, 0.0923715681, 0.0969462544, -0.0153191751, -0.2191521972, 0.0400586352, -0.0420867763, 0.0760571361, 0.0727528408, 0.0417715833, 0.0126067158, -0.0896233991, -0.0396513492, -0.0437130593, 0.0280990228, 0.0497256927, -0.0428852625, -0.0723368153, 0.0074559455, 0.0239999555, -0.1883912981, -0.0473606810, 0.0732409433, -0.0333289690, -0.0460680723, 0.0062608132, 0.0815252811, 0.1161717474, -0.0057323235, 0.0133060915, 0.1778691113, -0.0641323030, -0.1093279496, -0.1524327546, -0.2431031018, 0.1042904705, 0.1313627809, -0.0124035301, -0.2330991328, -0.1482063681, -0.0191257615, 0.0804219767, -0.0630736500, -0.2556910813, 0.0045039947, -0.0503679179, -0.0064156014, 0.0145607963, 0.0133685339, 0.1330035031, 0.0356943421, -0.0735245124, 0.0977003872, -0.0410104431, -0.0258849617, -0.0583535358, 0.1636051089, -0.0176449642, -0.0137678711, -0.0204117130, -0.0198120959, 0.0518358126, 0.0467688739, -0.0432398506, 0.0754443780, -0.0404316708, 0.0830470175, 0.0661029592, 0.0848518014, -0.0356293991, 0.0009945326, -0.0698161572, 0.1290309727, -0.0653137863, -0.0156275183, -0.0573955253, -0.0734838769, -0.0214777999, 0.0408920087, 0.1477196962, -0.1480791569, 0.0049624159, -0.0552008934, -0.0268097091, -0.0221256725, 0.1006489545, -0.1009209603, 0.0281372853, -0.0466747545, 0.0023104709, 0.1190507784, 0.0757889226, 0.0103985956, -0.0033433116, -0.0255890805, 0.0561943389, -0.0121493069, -0.0995319560, -0.1394670755, 0.0533712320, 0.1265605092, 0.0149573330, -0.1022755727, -0.1959596425, 0.0675744265, 0.0965974703, -0.1348038614, -0.1128075495, 0.0524646305, -0.0534882136, 0.0074850214, 0.0421833768, 0.0410965495, 0.0738110691, -0.0497004725, 0.0589898415, 0.0411005914, -0.0034677070, 0.0496054180, 0.0593413450, 0.0450553969, 0.0255644191, -0.0464633927, 0.1223083511, -0.0318082497, -0.0866980851, 0.0106967045, 0.0485068224, -0.0432356559, 0.0337411053, -0.0029100669, 0.0647749528, -0.0574930795, -0.0268578306, 0.0389144830, -0.0112080304, 0.0514245629, -0.0338191800, -0.1045122072, 0.0203890149, -0.0902407989, 0.0264252555, -0.0589917265, -0.0232202038, 0.0097061163, 0.0409930274, 0.0486377031, -0.0070644328, -0.0055176737, -0.0324579366, 0.0444882363, -0.0573012605, -0.0430151559, -0.0059161112, 0.0036978386, 0.0148930885, 0.0800861567, 0.0949058980, 0.0381665379, -0.0597192161, -0.0489811376, -0.0568131879, -0.0721024424, 0.0173720531, -0.0239042565, 0.0033146245, -0.0805004984, 0.0200428292, -0.0071537727, 0.0970242545, -0.0280335732, -0.0299816504, 0.1143174991, -0.0218695533, -0.0226480421, -0.0303263832, 0.0189428646, 0.0727199242, 0.0017040909, -0.0115953470, 0.0924564973, -0.0187360886, 0.0602156185, 0.0524228700, 0.0502053276, 0.1261769384, -0.1052888408, 0.1651375890, 0.0396318585, -0.0573183633, -0.1061284915, 0.1167651117, 0.0764738470, 0.1139826775, 0.0508501865, 0.0223085061, -0.1242810413, 0.1220847368, -0.0076298718, -0.0394364595, 0.0493558645, 0.0542152599, -0.0921243727, -0.0586522110, -0.0610529445, -0.0219136886, 0.0184756722, -0.0148301544, -0.0078582438, 0.0564731844, 0.0052230675, 0.0251974072, -0.1614122540, 0.0660000220, -0.0590829924, 0.0566477738, -0.0504191034, 0.0347005129, 0.1209006310, 0.0777247548, 0.0684072077, -0.0072154752, -0.0036322186, 0.0459654592, 0.0422888473, -0.0199250802, 0.0085267304, 0.1412013173, 0.1808344275, 0.0620574988, -0.1123982072, 0.0522902608, -0.0691439658, 0.1443165839, -0.0755883977, -0.1504685134, 0.0246671010, 0.0565160774, 0.0179584641, 0.0519130751, 0.0766149387, 0.0605943874, -0.0213551261, -0.0745862424, 0.0751172751, -0.0542934313, 0.0394360237, 0.0217145793, 0.0899165869, -0.0565529615, -0.0916804522, 0.0548525602, 0.1118750349, 0.0508507937, 0.0367319286, -0.0581200421, 0.0284792688, 0.0599317662, 0.0518081412, 0.0500832908, 0.0451686382, 0.0565719344, 0.0760076940, -0.0535252579, 0.1345671117, 0.0846778974, -0.0322197452, -0.1172800213, 0.0413913913, -0.0092930887, -0.0110456189, 0.0870514810, -0.0694852322, 0.0298738107, 0.0624647252, -0.0867854208, 0.0237895697, 0.1050475910, -0.0443210080, 0.0075541385, -0.0297829155, 0.0791783258, 0.0089776963, -0.0068023512, -0.0058487365, -0.0134806996, 0.0289838687, 0.0449793339, 0.0110798907, -0.1143945009, -0.0848764852, 0.0285017975, 0.1275544316, -0.0818367675, -0.0872104168, -0.0724855512, 0.0247643702, 0.0260282252, -0.1460302472, 0.0260775667, 0.3417266607, 0.0126952156, -0.0823068172, 0.0475623831, 0.0882391408, 0.0983266234, 0.0350174978, 0.0264087990, -0.0070119817, -0.0431807414, 0.0701238438, 0.0383089483, -0.1677289754, -0.0302250776, 0.0090411063, -0.0032932702, -0.2055203021, 0.0616201237, 0.0406461619, 0.0309306532, -0.0571132116, 0.0728451312, -0.0101969512, -0.0245424341, -0.0465737320, 0.0409166031, 0.0187373385, 0.0506612770, 0.0876023844, 0.0359303206, -0.0366895124, -0.0437407121, -0.0788465962, 0.0672228262, -0.1031370237, 0.1016340330, 0.0705617741, -0.0117225358, 0.0024251856, -0.0035905684, 0.0628606379, -0.0632019117, -0.1646807492, -0.0425463170, 0.0019660587, -0.0147036100, -0.1104821935, -0.1231903061, 0.0406921096, -0.0322186016, -0.1149472222, -0.0281703789, -0.0069453781, -0.0067279609, 0.0552001558, -0.2715099156, -0.0768182352, -0.0642195642, 0.1256480515, -0.2560197115, 0.0353796221, -0.1638695002, -0.1048606858, 0.0722504780, 0.2818467319, -0.0313133150, -0.0860327333, -0.0466641672, 0.0556940250, 0.0200029686, -0.0406205729, 0.0349502154, -0.0306391921, 0.0673218146, 0.0611109361, 0.0401001386, -0.2004629970, 0.1042221412, 0.0886963159, -0.0689435229, -0.0603297129, -0.0122386003, 0.0524985716, 0.0611775890, 0.0030955879, 0.0155555839, -0.1160699353, 0.0154371746, 0.0334108509, 0.0110516744, 0.0203235634, -0.0432198048, -0.0159015972, -0.0180601049, -0.0849070773, 0.0759707242, -0.0104677668, 0.0116176205, -0.0212679673, 0.0377050452, -0.1118873730, -0.0352236740, 0.0833744928, 0.0452058166, -0.0530077741, -0.0720759854, -0.1045642123, 0.0595171526, 0.0521741547, -0.0156812258, 0.0175941195, -0.0832041651, -0.0171825476, -0.1045299247, -0.0772944316, 0.0297906194, -0.0582028665, -0.0060885469, 0.0737774968, -0.1943020970, -0.0832371563, 0.0728497878, 0.0773653239, -0.1385298371, -0.1286669374, -0.1278077215, -0.0839023590, 0.1115550771, 0.2246766537, -0.0093100304, 0.0527884662, -0.0309198797, -0.0673713312, -0.0340217501, -0.0279103313, 0.0736184195, 0.0607532859, -0.0067544091, 0.0220511146, -0.0407736637, -0.0495978631, 0.1147712842, 0.0199892428, 0.0098729841, -0.0082750600, 0.0300165489, 0.0276147891, 0.1611154675, 0.0106436806, -0.0309954844, -0.1129358485, 0.0098079015, 0.0544116348, -0.0064632269, -0.0006337485, -0.0463674664, 0.0487868488, 0.0796780512, 0.0728915930, -0.0715271309, 0.0185885131, -0.0750114471, 0.0917599276, 0.0502575599, 0.0014392224, 0.0514237471, -0.0055146706, 0.1729639173, 0.0456249602, -0.1205674782, -0.0310811568, -0.0225407518, 0.0032575268, 0.0839617625, -0.0537659116, -0.1035275757, -0.0293497667, -0.1025611833, -0.0553471260, 0.0695498660, 0.1178727522, 0.0898433030, 0.0984073728, -0.1599858552, -0.0507216677, 0.0015831605, 0.0222003311, -0.1535534859, -0.0816290751, -0.1093494296, -0.1596168131, -0.0344964042, 0.1944809407, 0.0650419220, -0.0680222660, 0.0845571682, 0.0323504880, 0.0622155443, 0.0326179713, 0.0339919478, -0.0530090481, 0.0311296638, 0.0110826232, -0.0414497927, -0.2191820592, -0.0626097620, -0.0710761249, 0.0524649136, -0.1727942675, -0.0426689088, -0.1045531929, -0.0340606198, 0.0291357823, 0.0118521508, -0.0985682905, -0.0128414491, -0.2513796985, -0.0378839374, -0.0986359343, -0.0182848237, 0.0052185785, 0.0242207572, 0.0357072689, -0.0780333728, -0.2799927592, 0.0117850993, -0.0443730243, 0.0483434126, 0.0448234156, -0.0342210867, 0.0128911119, 0.0174746551, -0.1274264753, -0.1079107672, -0.2334545404, 0.0068276864, 0.0194630753, 0.0628942400, -0.0812147707, -0.2699090838, 0.0727123916, -0.2151520699, -0.1073126569, 0.0699694082, -0.0556936301, -0.1234297007, 0.0362747051, -0.2938348055, -0.1811918020, 0.0285473634, -0.0358805284, -0.1301138401, -0.1806228906, -0.1254116744, -0.0333906636, -0.0622792505, 0.0507518724, 0.0990633816, -0.0388014019, 0.0790533200, 0.0691061169, -0.0541103594, -0.0621687211, 0.0560133904, 0.1022737473, 0.0487771034, 0.0741457865, 0.0846292302, -0.1678431779, -0.0358391404, -0.0565514714, -0.1995255500, -0.2089484483, 0.0825924575, 0.0495132916, 0.0220480449, 0.1014187410, 0.0195033550, 0.0063089766, 0.0205342285, -0.1688216180, 0.0408211946, 0.0394140594, 0.0225654431, 0.0108606406, -0.0380531996, -0.0853011236, 0.0268390309, -0.2797635496, -0.0699575767, -0.1865750402, 0.1225797459, -0.1858414859, 0.0128317541, 0.0571317859, -0.1177138388, -0.1966461986, -0.1151785851, -0.1822888255, 0.0726456866, -0.1248915568, -0.0261818226, -0.1787537336, -0.1431206018, 0.0617078617, -0.3446868360, -0.2094051838, 0.0585235953, -0.0662477463, -0.1769697368, -0.1523363441, -0.5134637356, -0.1247761995, -0.0431391299, 0.1638332605, -0.2877114713, -0.0500630811, -0.1667281389, 0.0007018835, 0.0326900817, 0.0852993801, 0.0003585987, -0.0866482630, 0.0321654864, 0.0391998626, -0.0212493464, 0.0557359233, -0.0091565074, 0.0303591490, -0.0044913944, 0.0837689638, 0.0487588309, -0.0751520470, 0.0097926259, 0.1815841645, -0.0816635415, -0.1193508506, 0.0819656029, -0.0146425022, 0.1359303296, 0.0766256973, 0.0267331135, -0.0721412227, -0.0241330843, -0.0260917339, -0.0604683347, -0.0498355143, 0.0726188496, 0.0208704136, 0.0016832234, -0.0193476938, -0.0593330786, -0.1480806619, -0.1490109116, -0.1720947772, 0.0457919240, -0.2310431302, 0.0253510661, 0.0801686645, -0.0636984929, -0.0980128944, -0.1256112009, -0.0932067260, 0.0571051240, -0.0907381624, 0.0684761181, -0.2299757600, -0.0276278388, 0.0310537275, -0.2460247725, -0.1343057752, 0.0310818292, -0.1292360276, -0.1106946766, -0.0151364785, -0.2240903974, -0.1213186830, -0.0324750617, 0.2132892907, -0.2219018787, -0.1063630879, -0.1456958801, -0.1726249903, -0.0399784856, 0.0825519562, 0.0034848654, -0.0361228921, 0.0421867184, -0.1667569876, -0.0001357480, 0.0480722524, -0.0334609486, -0.0025314528, 0.0743988231, 0.0164659899, 0.0166986752, -0.2777797282, 0.0396651402, 0.0539999306, 0.0742301270, -0.1065746173, -0.0588774197, -0.0595079884, -0.0161208138, 0.0721474513, 0.0679990500, -0.0752860233, 0.0645611212, -0.2165829837, -0.0177837145, -0.1044101417, -0.0162081160, -0.0435271151, -0.0312017053, -0.0845046565, -0.1122018695, -0.1005016193, -0.2320770174, 0.0268406868, -0.0165291540, -0.0772896260, 0.0139565114, 0.0209920965, -0.0430769846, -0.1542347819, -0.0843657777, -0.1206744835, 0.0879135206, -0.0627461150, -0.0149079813, -0.0900471509, -0.0961627588, 0.0729512349, -0.1818410307, -0.0005645087, 0.0676560476, 0.0445848368, -0.0715049505, 0.0144773647, -0.2928418815, -0.1142428070, 0.0878852680, 0.0783860236, -0.0805574730, -0.2663038075, 0.0658484995, -0.0306559820, -0.1180958673, 0.0329124220, 0.0726709291, -0.0482349060, 0.1060365736, -0.1138915643, -0.0495993979, 0.0310593098, 0.0870821252, 0.0367894024, 0.0317791142, 0.0494776256, 0.0237685237, -0.1607157141, -0.1465011239, 0.1064834893, -0.0609805137, -0.3610632718, 0.0615263581, -0.1355617344, -0.1107962504, -0.0115630105, 0.0044472464, -0.1067781076, 0.0561562032, -0.3297310770, -0.0580345392, 0.0155597478, 0.0095223114, 0.0364192240, 0.0633848086, -0.0421814136, -0.0282193478, -0.1056143343, -0.1670247316, -0.0163558908, -0.0064242403, -0.0533475839, 0.0910282433, 0.0150624774, -0.0705308318, -0.1703426540, -0.1092175245, -0.1817466021, 0.0932305828, 0.0121992193, 0.0785400793, -0.2141792625, -0.1668219417, 0.0249752644, -0.3092744648, -0.0275329836, 0.0182027332, 0.0464647003, -0.2083283216, -0.0052372115, -0.4640296698, -0.2215377092, -0.0192445759, 0.0288804993, -0.2228347212, -0.1820616722, -0.0653864294, -0.2607787251, -0.2113902718, -0.0372444317, 0.0496772341, 0.0264257081, -0.0124200145, 0.0873506367, 0.0128838969, 0.0768640190, 0.0117802098, 0.0675627366, 0.0602685213, 0.0647383854, 0.0141600491, 0.0282165315, -0.1149151474, 0.1548424810, -0.1758547276, -0.2081346363, -0.0004738880, 0.0564881228, -0.1291872710, 0.0333691016, 0.0628025457, -0.0346652381, 0.0085489675, -0.2600472867, -0.1028679013, 0.0340460502, 0.0964866430, 0.1383072883, 0.1054990813, -0.0415278599, -0.0708910376, -0.0311549325, -0.0797927454, -0.0239694603, 0.1209263429, -0.1137413457, 0.0105133289, 0.0923404694, -0.1276863813, -0.1878952682, -0.1087070927, -0.1164839566, 0.0296510737, -0.0207224842, 0.0332060531, -0.1558600962, -0.0042086309, 0.1013118550, -0.2042972594, -0.0182469580, -0.0159835666, 0.0351832137, -0.1618263572, -0.0495720655, -0.4789950550, -0.0151960570, -0.0222515352, 0.1991146505, -0.2643719614, -0.1160040349, 0.0813311264, -0.0676135719, -0.0038170153, 0.0243687872, 0.0658822209, -0.0438471250, 0.0368030407, 0.1668930650, 0.0962765440, 0.0500910059, 0.0461965241, 0.0326602794, 0.0652577505, 0.0548176505, -0.0030424925, -0.0043371948, 0.0801775604, 0.0854004920, 0.0288544949, 0.0909558833, -0.0241018776, 0.1009295359, 0.0125668403, 0.0113484217, 0.1157804579, 0.1263031512, -0.0691072121, 0.0205601789, 0.1487928331, 0.0184975266, -0.0532563478, 0.0861332119, 0.0616520643, -0.0398575105, 0.0908971727, 0.0006896803, -0.0144470287, 0.0707858503, 0.0494864807, 0.1285512745, 0.0734003782, -0.0084060272, -0.0545112565, -0.0631134957, -0.0457774177, -0.0227181986, -0.0628831089, 0.0185176283, 0.0606992841, 0.0317155905, -0.0941244662, 0.0545647182, 0.0939040408, 0.0658063293, 0.0317366794, 0.1438613087, 0.0165177807, 0.0740068406, -0.0240067914, -0.0518997386, -0.0366498679, 0.0915109143, 0.2348807454, 0.0486841612, 0.1128923371, 0.1964079440, 0.0635975897, -0.0622249916, -0.0426770784, 0.0493032783, 0.0636832789, 0.1477244347, 0.0482669286, 0.0421732813, 0.0206000097, 0.0124975778, 0.0876835361, 0.0422934964, 0.0213448536, -0.0089349318, -0.0148617644, 0.0791641250, -0.0066273282, 0.0398060977, 0.0044395188, 0.0478007011, 0.0328500196, 0.0368955694, 0.0966708139, 0.0435178764, -0.0621966943, 0.0454153419, 0.1007983238, -0.0079938015, 0.0033815724, 0.0185562167, -0.0266804751, 0.0367415994, 0.0221776664, 0.0401708297, 0.0086187655, 0.1527417004, 0.1070141196, 0.0775669292, 0.0802948922, 0.0019682397, 0.0721145198, -0.0012686972, 0.0961224064, -0.0027064919, 0.0548940673, 0.0220004860, 0.0638459623, 0.0342499092, -0.0660537407, 0.0294797346, 0.0564414412, 0.0929368511, 0.0825994834, 0.1804008335, -0.0435892828, 0.0399556495, -0.0312889628, -0.0348907858, -0.0470478088, 0.2000482529, 0.1583360136, -0.0241386369, 0.2253594846, -0.0161182601, -0.0705036297, -0.0114550972, -0.0340889581, 0.0124333194, -0.0378582105, 0.0589924045, 0.0114968130, -0.0529490784, -0.0034028979, 0.0793317482, 0.0754419863, -0.0522682779, -0.0509680994, 0.1281236410, -0.0490336455, 0.0366453156, -0.0836443007, 0.0846300945, 0.0500178225, 0.0670929998, -0.0131679671, -0.0381977484, 0.0343794636, 0.0608537085, -0.0548514985, 0.0249744151, 0.0822902024, 0.0907920673, 0.0724651068, 0.0390573442, 0.0210859068, 0.0161885284, 0.0357470252, -0.0366038531, -0.0352574326, 0.1239551827, 0.0132999914, -0.0750664994, -0.0311569981, 0.0446432643, -0.0001179620, -0.0528350398, 0.0063327858, -0.0690751001, 0.0706076548, 0.0419508107, 0.0165330358, -0.0170645081, -0.0040449649, 0.0935581774, 0.0210877359, -0.0678661093, -0.0329157375, 0.1823207140, -0.0617534406, -0.0799038559, -0.0015267029, 0.0032575272, -0.0205020905, 0.0130682206, 0.0287680496, 0.0307583157, 0.1974458992, -0.0024655194, 0.0881488621, 0.1245989278, -0.0576630048, -0.0476080030, -0.0843234584, -0.0986795127, -0.0889195874, 0.0652162880, -0.0436217412, -0.0442805700, -0.0931628421, -0.0264186114, -0.0324975103, -0.0034989980, -0.0847702771, 0.0525477044, -0.1033039540, 0.0718361735, -0.0010949650, -0.0819090381, -0.0341667198, -0.0300133768, -0.0376966745, -0.0378987826, 0.0154830609, 0.0590856075, -0.0853602365, 0.0151819382, -0.0731629506, -0.0365473405, -0.0066900882, -0.0026037816, -0.0693719983, 0.0506015755, -0.1765326262, 0.0425216109, -0.1023754701, 0.0455246903, -0.0331315883, -0.0372910425, -0.0892544910, 0.0835770443, -0.0561686270, -0.0238410607, 0.0561791360, 0.0543050468, 0.0051991222, -0.0904159546, -0.0726698413, -0.0913785845, 0.1061643586, -0.0217681918, -0.0724888742, 0.1105376258, 0.0540783070, 0.0794356987, -0.0140446229, -0.0536628105, -0.0712502599, -0.0926177949, 0.1082537770, -0.1094603091, 0.0046992879, -0.0956776068, 0.1006152406, -0.0506389812, 0.0178668927, -0.0156757012, -0.0509327352, -0.0234511048, 0.0226353463, -0.0069829086, -0.0222240686, -0.0053842892, 0.0534187891, 0.0228421576, 0.0392640196, -0.0809762105, 0.0746633261, 0.0218198728, -0.0053589502, 0.0543230772, -0.0137083000, -0.0944063663, 0.0711371601, 0.0661282763, -0.0539365783, -0.0053972546, 0.0098730158, 0.1418295801, -0.0462006517, 0.1026745290, 0.0422245786, 0.0008866470, -0.0160970129, 0.0063243536, -0.0210731886, 0.0535681881, -0.1841419935, 0.0551228337, -0.0394046642, 0.1545154601, 0.0177929960, 0.0346560180, 0.0961056948, -0.0069746082, -0.0341805480, -0.0219263416, 0.0241880305, 0.0608755164, -0.0077709695, 0.0722171590, -0.0421647914, -0.0754246861, 0.1796335131, 0.1138831228, 0.0396588184, 0.1708720177, 0.1235966012, 0.0443259627, 0.0335908867, -0.0587805398, 0.0488800704, -0.0152329095, 0.2565512955, -0.1134999469, 0.0749082044, -0.0770775229, 0.0887605399, 0.0220666118, -0.0345338844, -0.0084140245, 0.0719189718, 0.1012625173, -0.0176825840, -0.0561914295, -0.0405287743, 0.0551005751, 0.0567846857, 0.0206333753, -0.0680778548, 0.0095750932, 0.0265259370, 0.1076121181, 0.0670067668, 0.0925404206, 0.0735203475, 0.0594988801, 0.0014930472, -0.0131247491, -0.0232931469, -0.0172323454, 0.0788885355, 0.1495050341, -0.0115408711, 0.0844293758, 0.0765444711, -0.0738975033, -0.0113924146, 0.0055344901, 0.0444300510, 0.0235595778, -0.1844921708, 0.0369096138, 0.0106886849, 0.0859232098, 0.0672853962, 0.0790593848, -0.0202292800, 0.0034634538, -0.0455252044, -0.0372407585, 0.0582323521, -0.0560386702, 0.0401551761, 0.0141024394, -0.0202663820, -0.0286974311, 0.0869585425, 0.1067635268, 0.0486885794, 0.1260882467, 0.0874735564, 0.0737906992, -0.0448474325, 0.0334151648, 0.0462625511, 0.0338121727, 0.1793307066, -0.0181890596, 0.1477694809, -0.1495701224, -0.0223915372, 0.0281238444, 0.0148267830, -0.0500045866, -0.0750964805, -0.0007278043, -0.1445047706, 0.0073402994, 0.0527138077, -0.0142372437, -0.0897019804, -0.0701163188, -0.0494424365, -0.0131587535, -0.1525602639, -0.0068197818, -0.1587872803, -0.0204841048, -0.0707837865, 0.0230703577, -0.2016603500, 0.0264072288, -0.0198860355, -0.1249199733, -0.0011036629, 0.0031916969, -0.1524120718, 0.0541336238, -0.0725947693, -0.0379572362, -0.0828818008, 0.0336010046, -0.0247566607, -0.0665315017, -0.0699729100, -0.0140340114, -0.0802362785, -0.0492561497, 0.0431952290, -0.0088114627, -0.0686908960, 0.0250104107, 0.0199288707, -0.0645108595, -0.0429166146, -0.0153162535, -0.0770730376, -0.2264400423, -0.0543204434, -0.0866398811, -0.0153471632, -0.1017870456, 0.0068223514, 0.0887617469, 0.1485556811, -0.0325008072, -0.0539287999, -0.0413335674, 0.0185115002, -0.0533162020, -0.0147562362, -0.0064103487, -0.1349733472, -0.1000222266, -0.0655871406, 0.1046756431, 0.0506441109, -0.0880753025, -0.0282580201, 0.0139703648, -0.0935533866, 0.0057369573, -0.0219991207, -0.0386921354, 0.0707348883, -0.0821812451, -0.0586369149, -0.0197645146, 0.0297177583, -0.0632850081, -0.0331006423, 0.0515083820, -0.0798021927, -0.0578454696, -0.0100532034, 0.0421198718, -0.0286856610, -0.0654603690, -0.0045621344, -0.0481384993, 0.0069144676, -0.0121752312, 0.0122313676, -0.0535206310, -0.0024073215, -0.1042772532, -0.0002370642, -0.1461789459, -0.1019188613, -0.1125112772, -0.0095312214, 0.0140221920, -0.0360966474, 0.0552770980, -0.0324228220, -0.0288530178, -0.1445490420, 0.0021049629, -0.0543543696, -0.0150182340, -0.0781907141, -0.0602424480, -0.1683938801, -0.0500602573, 0.0930088758, -0.0544379912, -0.0400534272, -0.0132624200, 0.0558887050, -0.0712401494, -0.0200989395, -0.0705408156, -0.0762392730, 0.0551128536, 0.0165770855, -0.0920944139, -0.0505640842, -0.0133527787, -0.0679528341, -0.0285846721, 0.0754144564, 0.0341374241, -0.0077985656, -0.0221293326, 0.0049451645, 0.0137409056, 0.0627888888, 0.0107463049, -0.0211965460, -0.0149958534, 0.0388235375, 0.1031443924, 0.0128839454, -0.1434885859, -0.0361114666, -0.0324967243, 0.0400297679, 0.0319257304, 0.0413640253, -0.0600849129, -0.0109120533, 0.0341545120, 0.0706620663, -0.0541623794, -0.1271990538, -0.0231045745, -0.0223299246, -0.0785935074, -0.0145374266, -0.0378965624, 0.0262572523, -0.0911540687, -0.1878633499, 0.0304668508, 0.0210709702, -0.0924384594, -0.0552383028, -0.0309470594, 0.0415678732, -0.0370149091, 0.0001710281, 0.0576203354, 0.0517224520, 0.0277433582, -0.0134762833, -0.0243354850, -0.1110008284, -0.0414441340, 0.0553289540, 0.0868217051, -0.0597607195, 0.0407529250, 0.0787572339, 0.0118798800, 0.0155548025, 0.0441030152, -0.0356489010, 0.1134096757, 0.0305779185, -0.0470136479, 0.0011031165, -0.1054072902, 0.0336222388, 0.0040050410, 0.0168060828, -0.0672121719, -0.0345539264, 0.0948901176, 0.0174661484, -0.0279547460, 0.0482364371, 0.0141537851, 0.0121762194, 0.0203019306, -0.0280118510, -0.0602651536, -0.0128844297, -0.1400600970, 0.0787813291, 0.0044331080, 0.0455997773, 0.0637409836, 0.1090024188, -0.0513599254, 0.0388700552, -0.0468303710, 0.0119741214, 0.0907834470, -0.0206954591, 0.0264741089, -0.1052326113, 0.0754602477, -0.0454697832, -0.0433779322, 0.0599682145, 0.0904481784, 0.0121153248, 0.1480366290, 0.0476917513, -0.0441439934, -0.0222888030, -0.0396321975, -0.0028668060, 0.0488645919, -0.0644491166, -0.0024254876, -0.0356809124, 0.0058068740, 0.0504558384, -0.0525923371, 0.0010443189, 0.0034449359, 0.0896580815, -0.0023433259, 0.0524239242, 0.0124488324, 0.0298897866, 0.0350469053, -0.1605304778, -0.1172599420, -0.0069479146, 0.0489513539, 0.2509037256, 0.1486784816, -0.1819388419, 0.0709109008, -0.0356734172, -0.0404349640, 0.0020710565, 0.0045555644, -0.0882256776, 0.0346680544, -0.0174192861, 0.0195921529, -0.0147814397, -0.0908882543, 0.0273626801, -0.0668198764, -0.0740560591, -0.0648980364, -0.0822469294, -0.2197535187, -0.0254881009, 0.0187481381, -0.0925942957, 0.0360951237, 0.0349284261, -0.0202407837, -0.0183951966, -0.0663995519, -0.0857208818, -0.0675211325, 0.0637783036, 0.0737637132, -0.0721457452, 0.0073870909, 0.0296809748, -0.0263848975, -0.0116951969, 0.0328522399, 0.1828572005, -0.0669254586, 0.0404690914, 0.0466340967, -0.0474007279, 0.0099985525, 0.0082203532, 0.0510670170, 0.0636066124, -0.0728795975, -0.0863406211, 0.0424740687, -0.0290553290, -0.0465894639, -0.1169560403, -0.0028502203, 0.0523030013, -0.0897394866, -0.0873331502, 0.0836016238, -0.0244893357, 0.0919483677, -0.1073031873, -0.0880677998, -0.0445239358, 0.0676945075, 0.0597890951, 0.0755751431, -0.2508381009, 0.1199119389, -0.0364880636, -0.0966815427, 0.0343557261, 0.0395357832, -0.0285001677, 0.0794761777, 0.0196803864, -0.0309777353, -0.0003554248, -0.0192715451, 0.1036219001, -0.0640946776, -0.0019516023, -0.1812204868, 0.1230585501, -0.2567456961, 0.0855876431, 0.0489336289, -0.0892657265, 0.0003144114, 0.0307733379, 0.0086550117, 0.1450560987, 0.0304406472, -0.0201681778, -0.0415765345, 0.1846918762, -0.0628789291, -0.0008154284, -0.0759248585, -0.0162547249, -0.0174982958, 0.1501320601, 0.0173487086, 0.0765557140, 0.0144296400, 0.0469105728, 0.0752988458, -0.0094886627, -0.0573278405, 0.0693910569, 0.0126621695, -0.0385137051, 0.0752163529, -0.0461961962, 0.1087643877, -0.0080286413, 0.0767029151, -0.1523717493, -0.0458316170, 0.1409045607, -0.1130573675, 0.0271337591, 0.1105584502, 0.0546859242, -0.0259378832, -0.1007623523, -0.0312220883, -0.0061361925, 0.1055088341, 0.0586885437, -0.0262827743, -0.0721745193, 0.2235363722, 0.0913391486, -0.0814724788, -0.0679846853, -0.0618556850, 0.0449525081, 0.0373569764, -0.0019224610, 0.0538168885, 0.0634743273, 0.0547839291, 0.0294599384, 0.0190811418, 0.0549013615, -0.0619320273, 0.0309297554, 0.0462008007, -0.0177117363, 0.0102927955, -0.0572564378, 0.0130723678, 0.0182620846, -0.0408501253, 0.0236937869, -0.0660745874, -0.0220854394, 0.1257398874, 0.0277618747, 0.0538143888, -0.0923514068, 0.1147205010, -0.0063407929, 0.0094967987, -0.0352156907, 0.1428562254, 0.0596540608, -0.0096533038, 0.0203226581, 0.0531152971, -0.0207941104, 0.0327022523, -0.0114798527, 0.0411933996, 0.0909015313, -0.0268366598, 0.0285254866, 0.0566046834, 0.0113386977, -0.0439380035, -0.0610103160, 0.0601398610, 0.0675937906, -0.0563089773, -0.0226948075, -0.0329701789, 0.0138102127, 0.0413449630, -0.0792274773, -0.1146852002, -0.0398905687, 0.1057943404, 0.0841661692, -0.0622890070, -0.0214513894, 0.0337826610, 0.0866905823, 0.0051240120, 0.0542091094, -0.0217683427, -0.0765179023, -0.0035042807, -0.0503382683, 0.0519780889, 0.0617175885, -0.0540919825, 0.0206866041, -0.0226924736, -0.0789185986, -0.2154220790, 0.0125766909, -0.1063266471, -0.0650390089, 0.0127815949, 0.0148279229, -0.0295060743, -0.0291188881, -0.0201301351, 0.0610270351, -0.1085105911, -0.0093555665, 0.1097881049, 0.1213270798, 0.0109297866, -0.0461791158, 0.0842147619, 0.0353875980, 0.0725582615, -0.0058597764, -0.0068877274, 0.0620490983, -0.0828042179, -0.0383539461, 0.0770196840, 0.0236120876, 0.0175120328, 0.0546470657, 0.0001501541, -0.1139353812, -0.0879953504, -0.0224854965, 0.0679931492, 0.0566272289, -0.0412009433, -0.1947325915, -0.0334371030, 0.0783353001, -0.1104412526, -0.0241130870, 0.0440136604, 0.0021945988, -0.0098642223, -0.0562972687, -0.1678366065, -0.0072742673, -0.0789734721, -0.0291549340, -0.0414109752, -0.0291688778, 0.1632625163, -0.0212599859, -0.0824652538, 0.0411049910, -0.0917343348, 0.0677623525, -0.0031410926, 0.0174437594, -0.0385552049, -0.0086771818, -0.0373664610, 0.0099652493, 0.0009014055, -0.0253936481, -0.0091778534, 0.0663455427, -0.0334690697, 0.0052907499, -0.0134691205, 0.0639137700, -0.0075593353, 0.0503622703, 0.0028636991, 0.0787880123, -0.0277294945, 0.0753506348, 0.2053488493, 0.0610022955, -0.0254762694, 0.0019997465, 0.0820053071, -0.0601996034, 0.0473059602, 0.0769520849, 0.0771318823, -0.0341118574, 0.0435016006, -0.0045889523, -0.0116938744, -0.0400525704, 0.0556514636, -0.0571749359, 0.1051246971, -0.1111235023, -0.0956650376, 0.0516532324, -0.0011786286, 0.0369727202, 0.0547146648, -0.1545626968, -0.0161895398, 0.1450244188, -0.0723576918, -0.0450125374, -0.0224157181, 0.0739038214, -0.0497824028, -0.1465355307, -0.1274983734, 0.0136304069, 0.0520728566, 0.0196852144, -0.0814064443, -0.0028077215, 0.1039561555, -0.0117797405, 0.0822617188, 0.0009348649, -0.0467949808, -0.0405490473, 0.0068705454, 0.0089055207, -0.0519004017, 0.0454097502, 0.0397630483, -0.0338020287, 0.0178468954, -0.0082189469, -0.1999507546, -0.0767946094, 0.0878692940, -0.0517873690, 0.0091804927, -0.0390838571, -0.0546785519, 0.0726319999, 0.0253326036, 0.0137235224, 0.0538694002, 0.0174464937, 0.0240711365, 0.1483289748, -0.0735566840, -0.0459274389, 0.0655531436, -0.0616283119, -0.0126657970, -0.0144231971, 0.1053413376, 0.0569024496, -0.0629717335, 0.0045762048, -0.0548107401, -0.0119329086, -0.0523905121, -0.0245474037, 0.0468517803, -0.0972324908, -0.0429110229, -0.0642902032, 0.0641659126, 0.0686098561, -0.0045860675, -0.1093396097, 0.0814232826, 0.1335771382, 0.0152832028, 0.0781586468, 0.0765865147, -0.0365926027, -0.0004641237, -0.0710952431, 0.0004216377, 0.0492868237, -0.0486936010, 0.0578206144, -0.1784517914, 0.1090757698, 0.2094952315, 0.0605872087, 0.0126167182, 0.0351216979, 0.0020414235, -0.0264928266, 0.0071259369, -0.0152409635, -0.0449715368, 0.0239476245, 0.0355162174, 0.0326559097, 0.0160750840, 0.0235654358, -0.1383349299, 0.0688023791, 0.1082535908, -0.0049149562, 0.0091522122, -0.0272656288, -0.0365526676, -0.0201914366, 0.0029315897, 0.0736783966, -0.0060639069, 0.0191195291, 0.1270915717, 0.0227078497, -0.0235964283, -0.0414130576, 0.0566434525, 0.0275694896, -0.0311543066, 0.0272576921, 0.0247062668, 0.0582025573, 0.0566021390, 0.0745896250, 0.0825552568, 0.0686845109, -0.0208392553, 0.0459996611, -0.0416799895, -0.1345425695, -0.0532837398, 0.0168625154, 0.0475551896, -0.0065757837, 0.0039845859, -0.0784341916, 0.0541973561, 0.1272127330, -0.0049785511, 0.0526016653, 0.0012448782, -0.0512897931, 0.0541274883, -0.1232204735, -0.0328462310, 0.0356095918, 0.0499412455, 0.1273362339, -0.1319635361, 0.0610489398, 0.1823582202, -0.0007688729, -0.0737837479, 0.0823504031, 0.0057732435, 0.0606519729, 0.0886105970, 0.0967503563, 0.0133541729, 0.0422539935, 0.1062590629, -0.0558801889, 0.0196156465, 0.0522248931, -0.0029884612, -0.0044356873, 0.1599169672, -0.0598003939, -0.0114861736, -0.0516011007, 0.0973948091, -0.0623417497, 0.0795534551, 0.0298622455, 0.1417806596, 0.0324018449, 0.1146756187, 0.0991741866, -0.0590154715, 0.0645106733, 0.1028008834, 0.0349278040, 0.0354441181, -0.0603468381, 0.0429347456, -0.0147381807, 0.0172011536, 0.0363021977, 0.0877738222, 0.0400523357, -0.0528938435, -0.1262042075, -0.0167653505, -0.1226426810, -0.0573801473, 0.0453197919, 0.0288433786, -0.0264319927, -0.0974112377, -0.0227638371, 0.0787399486, 0.2146994770, -0.0255386569, -0.0336270407, 0.0086506987, 0.0370020047, 0.0453339182, -0.2020682693, -0.0059879012, 0.0799026489, 0.0279916376, 0.1104439348, 0.0282808691, 0.2255874425, 0.0655664802, 0.0575873144, 0.0491760746, 0.0244217012, 0.0719818026, -0.0542220064, 0.0094018765, 0.0408729166, -0.0337765813, 0.0158676654, 0.0476081781, 0.0073470185, 0.0622741207, -0.0112135783, 0.0688550845, -0.0396525152, -0.2194956541, 0.0462941229, 0.0511550792, 0.0431283712, 0.0670830756, -0.0334348679, -0.0137647055, 0.0075724293, -0.0275473408, 0.0280186255, -0.0525438301, -0.0217355452, -0.0270733740, 0.0175288636, 0.0091865743, -0.0499582253, 0.0859078839, -0.0075487411, 0.0953154638, -0.0734108165, -0.0065544099, 0.0254295897, -0.0022044058, 0.0194512159, -0.0008739329, 0.0012787870, -0.0223894175, 0.0774053931, 0.0001555519, 0.0090088816, 0.0795762241, -0.0096054832, -0.0633512437, 0.0434022993, -0.0338483788, 0.0611360893, -0.0247506369, 0.0714478865, 0.0028720845, -0.0048906845, 0.0689951405, 0.0562419184, 0.0655878708, -0.0474944636, -0.1976228803, 0.0014486701, 0.0634260550, -0.0935031250, -0.0089925202, -0.0519717969, 0.0775590464, -0.0206351317, -0.0401257984, -0.0358199216, -0.0326614603, -0.0460648909, 0.0412473045, -0.0841733068, 0.0476670563, -0.0485817902, -0.0068146223, -0.0549303703, -0.0553713590, 0.0055195098, -0.1606340259, 0.0779328719, 0.0712862983, 0.0458524302, -0.0771191195, -0.0440266281, 0.0320636705, -0.0487695597, 0.0496419854, -0.0196478777, -0.0872430205, 0.0489600189, -0.0161265582, 0.0484569147, -0.0600269325, 0.0232897121, 0.0536522530, -0.0535761118, 0.0307168458, -0.0327797271, -0.1143466309, -0.0627846718, 0.0104047731, -0.0587165542, 0.0605563484, -0.0137182008, 0.0206902307, 0.0187023412, -0.0317651853, -0.0449648574, -0.0176176764, 0.0413236395, -0.0286087412, 0.0570492782, -0.0058932672, 0.0826929584, 0.0920283049, -0.0704590827, -0.0211944226, -0.0932941586, -0.0097208563, 0.0608605407, 0.0697227716, 0.0597702004, -0.0313518271, -0.0487829335, 0.0461817011, 0.0185073409, -0.0694386959, -0.0460542031, -0.0470177457, 0.0449549966, 0.0141110057, -0.0027812824, -0.0080253650, -0.0030151552, -0.0084775779, -0.0026976643, 0.0559878536, 0.0178001411, 0.0397484377, 0.0035352083, 0.0059585785, 0.0709239617, -0.0280233435, 0.0544585958, 0.0379612893, -0.0714152828, -0.1065321043, -0.0216234401, 0.0293316804, 0.0717717260, -0.0086261230, 0.0118352156, -0.0825227350, -0.0341269486, 0.0226285849, 0.0456694290, 0.0591048896, -0.0049100798, 0.0375703201, -0.0003475736, -0.0207064655, -0.0890976563, -0.0513822474, 0.0195510294, -0.0292086657, -0.0130884331, -0.0114188697, 0.0904263332, -0.0094714956, -0.0772833750, -0.0696330294, -0.0302044414, 0.0607752874, 0.0744582713, -0.0112036373, -0.0313197374, 0.0774982423, 0.0138186021, 0.0590656698, -0.0568795316, -0.0755953342, -0.0546277128, 0.0351552442, 0.0965204835, -0.0126030799, 0.0473407432, -0.1371577233, -0.0223862994, -0.1171869114, -0.0184972622, 0.0795391053, -0.0943939611, 0.1056101099, -0.0042657168, -0.0363014452, -0.0460417569, 0.0299484041, -0.0723583549, -0.0288713835, 0.0365448147, 0.0226102676, 0.0429164432, 0.0518441200, 0.0802362189, 0.0603934526, 0.0062055890, -0.0460223183, 0.0678172857, 0.0427398942, -0.0598988757, 0.0783135369, -0.0897858590, -0.0492409691, -0.0603999346, 0.0790423080, -0.0312855430, 0.0129065877, -0.0782177374, 0.0105848191, -0.0049649640, -0.0627023354, -0.0302462000, -0.0550954044, -0.0355111696, 0.0592045486, -0.0571436211, -0.0889172032, -0.0123606138, -0.0970612317, 0.0312083121, 0.0641721115, 0.0577332452, -0.0418098122, -0.0466599986, -0.0615957305, -0.0387025140, 0.0965241864, -0.0704758465, 0.0915073603, -0.0337009020, -0.0288685318, 0.0150218764, -0.0336331353, -0.0061073415, -0.0784271955, -0.0249235090, -0.1009849608, 0.0201410726, -0.0335158408, -0.0540842339, -0.0590730384, -0.1694639772, 0.0724390298, -0.1330853701, 0.1111129075, -0.1934486777, -0.0051051336, 0.0040394724, -0.0265565645, 0.0107513014, -0.0051609860, 0.0094455890, 0.0058564749, -0.0963740051, 0.0641676188, 0.0032990079, -0.0483145379, -0.0620243959, -0.0503384583, -0.0384139903, -0.0728203207, 0.0691426769, -0.0205326602, 0.0362503752, -0.0060293730, 0.0168590173, -0.0702655464, 0.0755099207, -0.0760357678, -0.0550945178, -0.1039612219, 0.0691948533, -0.0738076344, 0.0339716971, 0.0204323214, 0.0167975482, -0.0639595762, 0.0278267395, -0.0744871423, -0.0134546906, -0.1616102755, 0.0458283350, -0.1238733307, 0.0615935214, 0.0695070997, -0.0316521749, 0.0014035471, 0.0104053291, -0.0300009660, -0.0376438424, -0.0236319378, -0.0078670653, -0.0479742587, 0.0172035415, 0.0551276170, -0.0583688170, 0.0293744281, -0.0000739485, -0.1301819086, -0.0747637823, -0.1618033797, 0.1714478433, 0.1205175668, -0.0661964715, -0.1452071816, -0.3008083701, 0.0526997559, 0.0159713868, 0.0669221878, -0.1905344278, -0.0154682035, 0.0525526740, 0.0000025058, 0.0443800911, -0.0305639133, 0.0531830825, -0.0359580331, 0.0269339830, 0.0462480299, 0.0014208694, 0.0358578041, 0.0810117573, 0.0046616914, 0.0924119502, -0.0406821370, 0.0666061044, -0.0834587291, -0.0671269745, 0.0003512908, -0.0412967689, 0.0619460866, 0.0592500344, 0.0497170910, 0.0175129920, -0.0928778797, 0.0758473203, -0.0615420304, -0.0271206070, 0.0587220974, -0.0177430492, 0.0363557972, 0.0060282797, -0.0655936077, -0.0238119084, -0.0703096986, 0.0326832719, -0.1662206650, 0.0170941055, 0.0101883933, 0.1072715968, -0.0377144814, -0.0604152009, -0.0546194762, 0.0513510853, 0.0549247935, 0.0362655148, 0.0271490403, -0.0113778589, 0.0055595096, -0.0709456727, -0.0102543449, 0.0493983217, -0.0560731851, -0.0606043600, -0.0589452721, 0.0727542043, 0.0044326284, -0.0046522655, -0.0908095241, -0.1616177857, -0.0959793553, -0.0270478800, 0.0184271969, -0.1030279547, 0.1307260245, -0.0017225485, 0.0472459123, 0.0189664029, 0.0273613539, 0.0355737731, 0.0344818570, -0.0002422349, 0.0879175290, -0.0471287593, 0.0071302033, -0.0319750048, 0.0610225014, -0.0828616545, -0.1308913529, -0.0181477815, -0.0766946077, 0.0859583244, -0.0294510089, 0.0079444135, -0.0048912037, 0.0052468204, 0.0126067083, -0.0579377264, -0.0257364959, -0.0801285431, -0.0241123103, -0.0586858988, -0.0400725864, -0.0192720592, 0.0497197881, -0.0502260365, 0.0799275786, -0.0646386221, -0.0308945533, 0.0117605207, 0.0144674955, -0.0363749415, 0.0687537789, -0.0072023724, -0.0549333245, -0.0291853026, 0.0524193347, -0.0009385489, -0.0540293865, 0.0046454119, 0.0651013702, 0.0834984928, 0.0183378868, -0.0715123564, 0.0469036624, 0.0100947982, -0.0867625773, -0.0618540049, 0.0893257260, 0.0804072991, 0.0294550005, -0.0083536552, -0.1084341705, -0.0731402040, 0.1296333373, -0.0087604374, -0.0356988832, -0.0469977185, 0.1680935472, 0.0646326169, 0.0055910111, -0.0512510166, -0.1077097356, 0.0026893814, -0.0319953263, -0.0192518253, -0.0242465436, 0.0885140970, -0.0668332949, -0.0195448305, -0.0476032719, 0.0592786781, -0.1468826234, 0.1124248877, -0.0302782357, 0.0387090147, -0.0047667278, 0.0666691810, -0.0708022639, 0.0597458743, -0.0056054960, -0.0228438750, -0.1221743897, 0.1325581521, -0.0791521743, 0.0593312271, 0.0043442901, -0.0364818983, -0.1015446559, 0.0051315543, -0.0462701842, 0.0083788494, -0.0840783641, -0.0330880173, -0.0247338768, 0.0446291380, -0.0170418732, 0.0204855334, -0.0603772365, 0.0905899927, 0.0581672601, 0.0442216545, -0.0613352023, -0.0306635946, 0.0583084263, 0.0638763160, 0.0266229268, -0.0697106421, 0.0496467128, -0.0386795066, -0.0093532801, -0.0621483363, -0.0672290325, 0.1186179966, 0.1393160820, 0.0458111279, -0.0917390659, -0.0983118638, 0.0682666227, -0.0486509129, -0.1139036566, -0.1038461104, -0.0374744385, 0.0196938757, 0.0494069308, 0.0172514599, -0.0837849453, 0.0185495634, -0.0053984998, -0.0540040508, -0.0455282442, 0.0325425230, 0.0903783515, 0.0645628422, 0.0532852300, 0.0367294773, -0.1708661318, 0.1531502455, 0.0280512385, 0.0593901537, -0.0101172430, -0.0186298378, 0.0026201520, -0.0133940428, -0.0066616992, 0.0109753394, -0.1148774475, 0.0554590188, -0.0288085137, 0.0270318128, -0.0357493609, -0.0377390049, -0.0016666917, 0.0206796546, 0.1162825748, -0.1201252267, -0.0427976325, -0.0483318008, -0.0117007578, 0.0085045071, -0.0473655351, 0.0232797563, 0.0369672589, -0.0673472881, 0.0336530507, 0.0821006596, 0.0493856966, 0.0844312087, 0.1039940864, 0.0444056019, 0.0025844125, -0.1593243182, -0.0257856920, -0.0134856971, -0.0676329583, -0.1394394338, 0.0591151491, -0.0432319604, 0.0856661946, 0.0236379020, -0.2050990015, 0.0790442377, -0.0142303230, -0.0375731215, -0.0689267591, 0.1673936397, -0.0275227427, 0.0145475967, 0.0161281172, -0.0313164853, -0.1329503804, 0.0290909205, -0.0481612086, 0.0284636002, -0.0036017089, 0.0983453989, -0.0343091711, -0.0426944233, 0.0220004376, -0.0373832397, -0.0768242478, 0.0482422002, -0.0034166304, -0.0854687169, -0.0508606359, 0.1384115219, -0.0172007363, -0.0509659052, -0.0172392745, 0.0116628790, 0.1129168868, -0.0208393671, 0.0811141208, 0.0687018186, 0.0256625582, 0.0460906029, 0.1102139503, -0.1132318527, 0.0194528606, 0.0763310865, 0.2533065379, -0.0197342113, 0.0686412603, 0.0260892287, 0.0394202136, 0.0552202873, 0.0139346942, -0.0196523704, 0.0300036427, 0.0652074143, 0.0190598015, 0.0453089736, 0.0340961590, 0.0625547767, 0.0118877552, -0.0110221514, 0.1374590993, 0.0195436887, 0.1340811849, -0.0791551545, 0.0807548985, 0.0207184944, -0.0836432427, 0.0971467495, -0.1389548928, 0.0571829230, -0.1416088641, -0.0101518994, -0.0608895496, -0.0686766803, -0.2043880820, 0.0548421405, -0.0026356401, -0.0490086488, 0.0869816020, 0.0248174835, -0.0180995613, 0.0224651396, 0.0107818572, 0.0874429420, -0.0286680683, -0.0361447148, 0.0284581687, -0.0441687070, -0.1546121240, 0.0681987554, -0.0752994046, -0.0148382420, 0.0880165026, 0.0442011207, 0.0134606929, 0.0745814890, 0.0447951257, -0.0362246372, 0.0625629798, 0.0127429394, 0.0653067678, -0.0554511696, 0.0242082831, -0.0006116795, -0.0132900551, -0.0072360002, -0.1172707826, 0.1543802470, 0.1019265503, 0.0702669695, 0.1106245741, 0.0731664300, -0.0460206531, -0.0365660079, -0.1187608466, 0.0617090501, -0.1004120484, 0.0708969384, -0.0757191852, 0.0701509193, -0.1246324703, -0.0520895496, -0.0175462291, 0.0258441474, -0.0554169901, 0.0681040809, -0.0202305783, -0.0385493115, -0.0170041975, -0.0458678529, 0.0150864916, 0.0206993651, 0.2066252977, -0.1721881777, -0.0274789575, -0.1079280674, 0.0163053535, -0.0055700117, -0.0459716879, 0.0642467141, -0.0764855072, -0.0695373267, 0.1235353425, -0.0419929102, 0.0142728304, 0.0703885853, 0.0206577946, -0.0332044959, -0.0073103644, -0.0491159931, 0.0071471105, -0.0703484192, 0.0479935221, 0.0334807299, 0.0358011499, 0.0020844894, 0.0363691039, 0.1251141578, -0.0479771085, 0.1174403727, 0.0350360163, 0.0151870353, 0.2434752136, -0.0874529853, -0.0477167703, -0.0447946675, 0.0212369654, 0.0000554161, 0.0404810831, 0.0818088874, -0.1092584953, -0.0119328499, 0.0596912503, 0.0144431461, -0.0618180521, -0.0430276059, -0.0366912335, -0.0753930807, -0.1073352620, -0.0388984643, -0.1195378527, -0.0597987771, -0.0540866368, 0.0512715578, 0.0782788321, 0.1687743366, 0.0317458920, 0.0846808106, 0.0033014710, 0.0531296022, -0.0065230923, 0.0167963747, -0.0241248347, 0.0129603073, 0.0089683626, -0.0072479607, 0.2209454328, 0.0217865370, -0.0138609018, -0.0967230722, 0.0799584538, 0.0458897501, -0.0184710771, -0.0715070218, -0.0819016695, -0.0210917983, 0.1328299642, -0.0028441565, -0.0321334153, -0.0127642006, -0.0499880835, -0.0260844007, 0.0131173991, -0.0412401669, -0.0449318923, 0.0048376746, -0.0458466820, 0.1612312794, 0.1118083969, -0.0713515654, 0.0221144687, 0.0932508707, 0.0581806712, 0.0578070208, -0.0368253961, -0.0072648805, 0.2345630080, -0.0438568406, 0.0572238602, 0.0383062102, -0.0268855393, -0.0331731588, 0.0524256192, -0.0178077873, -0.0795516670, -0.0480269939, 0.0396508686, -0.0102254078, -0.0643996224, 0.0068842582, -0.0427090079, 0.0563175455, -0.1022260934, -0.0156383310, 0.0127379745, -0.0738539249, 0.0607246570, -0.0504388511, -0.0043124547, 0.1241777688, -0.0742382035, -0.0174871515, 0.1138385609, 0.0497730598, -0.0469555408, -0.0999945775, 0.0190089252, 0.0266540051, 0.0656070709, 0.0827744678, 0.2367015183, 0.0538844764, -0.0489227697, 0.0192494448, 0.1498771608, 0.0690444261, 0.0073708016, 0.0735447481, -0.0138073852, -0.0485415310, -0.1031666175, 0.0001618253, 0.0028836350, -0.0071929768, -0.0067632389, 0.0429353863, 0.0236737505, 0.0398575328, 0.1316490471, 0.0615732931, -0.0484489053, 0.1518631279, -0.0352724679, -0.0662593842, -0.0662782118, 0.0811970159, 0.0954727679, -0.0101735154, 0.0480615459, 0.0018070373, 0.0921634585, 0.0273396820, 0.0187417548, 0.0937416255, 0.0116824433, 0.0408945829, -0.0119642485, -0.0479108579, 0.0033980219, -0.0486276262, 0.1338127106, 0.0108446460, 0.1261352152, 0.0457887314, 0.0381414704, 0.0250544995, -0.0338873751, -0.0507979132, -0.0711094961, -0.0465398282, -0.0216122307, -0.0380704366, -0.0035274986, 0.0164939724, -0.0033499722, 0.0322941728, 0.1876227558, -0.0371651836, -0.0036526942, 0.0046243393, 0.0494545326, 0.0335126929, 0.0355612822, 0.0782970786, -0.0297324918, 0.0585988797, -0.0307396054, -0.0589898005, -0.0332564302, 0.0382986031, -0.0261829272, 0.0286015663, -0.0560893491, -0.0255612470, 0.1082412750, 0.0482342243, 0.0028500089, 0.0964711681, 0.0435382575, -0.0268000737, -0.0353865921, -0.0598485731, 0.1026307195, -0.0554479733, -0.1260471791, -0.0091610309, -0.0516043156, -0.0160746351, 0.1092673391, -0.0577962101, 0.0088335462, -0.0264932681, 0.0533906259, 0.0137033183, -0.0259916931, -0.0309768263, 0.1137081757, 0.0802363083, 0.0784661099, 0.0760829374, 0.0945183039, 0.0241042767, 0.0975937843, 0.1201724261, 0.1606422663, 0.0811338276, 0.0255866144, 0.0605900325, 0.0073047429, 0.0300156511, -0.0518516004, 0.0556168631, -0.1427692026, 0.0605249628, -0.0799416080, 0.0742234066, -0.0436866991, -0.0121004684, 0.0225819983, -0.0245308727, 0.0865914002, 0.0269937329, 0.0663172230, -0.0951149389, 0.0716505647, 0.0224961378, -0.0634427816, 0.0397950895, 0.0690772161, -0.0833107233, 0.0267928280, -0.0465065055, -0.1432345062, -0.0797657520, -0.1270878315, 0.0323262289, -0.0773250386, 0.0087919729, -0.0153321326, -0.0154207861, -0.0571419485, 0.0246768799, -0.0189389847, -0.0714061707, -0.0049412302, 0.0425373130, -0.0149223665, -0.0900755227, -0.0123554757, -0.0161406752, -0.0963564292, 0.0205435269, 0.0722716302, 0.0211978070, -0.0614399090, 0.0788761899, -0.0055284915, -0.0659025684, -0.0750888363, 0.0499113873, 0.0335719213, -0.0081332829, 0.0272093676, 0.0625151098, 0.0676818341, -0.0063400748, 0.0231461748, -0.0381739475, 0.1101822555, 0.0878604352, -0.0563315339, -0.0290165320, 0.0271574538, -0.0148623073, -0.0275846869, 0.0687903315, -0.1078454554, 0.0010827988, -0.0327463709, 0.0476571992, -0.1065046042, 0.1055785939, 0.0005616604, -0.0194043647, 0.0543189235, 0.0019683607, 0.0493369699, -0.1808966994, 0.0669338778, -0.0627589077, -0.0188570060, -0.0323565751, -0.0546340980, -0.1770757288, -0.0221064221, -0.0028585054, -0.1026118025, -0.0127590382, -0.1563900858, -0.0171824563, -0.0138327619, -0.0082180817, 0.0597160757, 0.0116504859, 0.0215599425, -0.0670702159, 0.0224743579, -0.0293033179, -0.0706653148, 0.0123869907, 0.0317914076, -0.0208424944, -0.0004915952, 0.0008141701, -0.0252514724, -0.0664728954, -0.0495101996, 0.0430129245, 0.0203643274, -0.0535515510, 0.0957299322, -0.0325883590, 0.0475543439, -0.0511019379, 0.0683016479, 0.0714290217, -0.0879876986, -0.0002762970, 0.0671676025, 0.0172252599, 0.0148591511, 0.0263360627, 0.0029662673, 0.0571808964, 0.0759875551, -0.0420777574, -0.0308010951, -0.0223278087, -0.0883720890, 0.0217020418, -0.0272217952, -0.0201270469, -0.0475242473, 0.0039926707, -0.0314271674, 0.1108911932, 0.0211024173, 0.0179483443, 0.1035025343, -0.0158682037, 0.0228122752, -0.1248895451, 0.0130063221, 0.0849035084, 0.0493946671, 0.0271575172, 0.0503438115, -0.0759708881, -0.0325806588, -0.0674970001, -0.0199924856, 0.1527419537, -0.1399486065, -0.0332228690, -0.0060008666, 0.0250737444, 0.0533047318, 0.0470088050, 0.0161836650, 0.0030248151, 0.0304048769, -0.0054469351, -0.0384368449, 0.0358453989, 0.0340704769, 0.0636647493, 0.0077842688, 0.1102823466, 0.0685621724, -0.0884175971, 0.0153988972, 0.1560927331, -0.0358217768, -0.0419856831, -0.0498093516, -0.0542981960, 0.0666360930, -0.0710423142, -0.0670865104, 0.0211994443, 0.0485004000, -0.0388184600, -0.0453264825, -0.0000645000, 0.0213041790, -0.0726514086, 0.1365412176, 0.0243341867, 0.1194568351, 0.0558215193, 0.0638610497, 0.1498343945, -0.0948255360, -0.0103068566, -0.1060529724, -0.0304000843, 0.0496133417, -0.0539360866, 0.0022536388, 0.0441375040, 0.0439976119, -0.0665750206, 0.0373231955, 0.0411056317, 0.0407870412, -0.0141102457, -0.0236848649, 0.0363963060, -0.0090201795, 0.0680906251, 0.1045155227, 0.0069619217, -0.0330110788, 0.0020683063, -0.2200049013, -0.1082487181, 0.0470869839, -0.0634117350, -0.0333910920, -0.0538196526, -0.0269009061, 0.0121609373, -0.0116979824, -0.0987924710, -0.0748540983, 0.0233018361, 0.0619804226, -0.0199497193, 0.0074218693, -0.0162695833, -0.2140447646, 0.0503045805, -0.0868779346, 0.0283978041, 0.0003710173, -0.0277300794, 0.0429921858, -0.0655796900, 0.0048677493, -0.0360824913, -0.1441481411, 0.0495696217, -0.0665559098, -0.0219081324, 0.0564524010, 0.0298789442, -0.0596314482, 0.0019863734, -0.0561894067, 0.0167833697, -0.1942801476, -0.0071688625, -0.1448765695, -0.0803814754, 0.0362096578, 0.0347044766, -0.0824994519, -0.0329051539, 0.0100713279, -0.0632566214, -0.0308102425, 0.0196118597, -0.0539288074, 0.1000026539, -0.0397172682, -0.0097495345, -0.1211623847, -0.0584253594, -0.1075702757, -0.1266601235, -0.1793719977, 0.1042585075, 0.0438910499, -0.0543216541, -0.0593563430, -0.1556619257, 0.0277686939, 0.0465521142, 0.0103235943, -0.0712476596, 0.0920718163, -0.0174502842, -0.0341294669, -0.0608303733, -0.1273092180, -0.1116629317, -0.0849121287, 0.0083777793, -0.0706878528, -0.0239654072, 0.0133602722, -0.0173562188, 0.0693333820, 0.0051940391, -0.1114501208, 0.1202125996, -0.0054486776, -0.0880553871, -0.0594887100, 0.0773835629, 0.0026510905, -0.0436182991, 0.0569853298, 0.0061323461, -0.1380467266, 0.0115625178, 0.0870273039, 0.0092247752, 0.0208034534, 0.0423435494, 0.0179770123, 0.0058698254, 0.0257794298, -0.0320586003, -0.1064284295, 0.0034470910, -0.1172071919, 0.0159220323, 0.0411048643, 0.0125821242, -0.0076454943, -0.0484762266, 0.0159971733, -0.0310198404, 0.0553858913, -0.0128236786, 0.0450456217, -0.1264662147, 0.0405640639, 0.0431936681, -0.0070352303, 0.0133244013, -0.0127712786, -0.0185857955, -0.1289454997, 0.0476462245, 0.0345489793, 0.0366075933, -0.1166642755, -0.0588456765, 0.0719367266, -0.0012375227, 0.1362988055, -0.2110525072, 0.2003968805, -0.0418546982, -0.0256460775, 0.0125367977, -0.0619782433, -0.0681681558, 0.0069785253, 0.0808482096, 0.0301651563, -0.0416492373, -0.0168194603, 0.0442050584, -0.0094528915, -0.0201832298, -0.0949309319, 0.0639148876, -0.0480431505, 0.0462022424, 0.0742954910, 0.0018700765, -0.0225765686, -0.0564888492, 0.0374828763, 0.0016524948, -0.0726626813, 0.0310196746, 0.0739615709, -0.0488152951, -0.0342363641, -0.0562635586, 0.0093787359, 0.0155892251, -0.0933153406, 0.0423638187, -0.2140867263, -0.0106914835, -0.1810499877, -0.0446541272, -0.0599745251, 0.0059262468, -0.0251344685, 0.0017970741, 0.0360306874, 0.0275685620, 0.0785015076, -0.0719239712, 0.0371375754, -0.0473420173, -0.0169907454, 0.1074460894, -0.0402428508, -0.0220050514, 0.1179470122, 0.0240124539, 0.0045220372, -0.0480472706, -0.0079781553, -0.0179079194, 0.0338620134, -0.0919270143, 0.0241318867, -0.0380410925, -0.0043931021, -0.2075140923, 0.1896435171, -0.0366227366, 0.0244280156, -0.0474537537, -0.1048638001, 0.0125810951, -0.0538697578, -0.0584967621, -0.0462482870, -0.0284895618, 0.0422083251, -0.0327215604, -0.0079476880, 0.0015116921, -0.1246688366, 0.0310462639, -0.0783696547, -0.0211144127, -0.0982536003, 0.0078057204, 0.0372727290, -0.0382378213, -0.0050274390, 0.0489831045, -0.1907141656, 0.0709198862, -0.0728486553, -0.0337424316, -0.0446253121, -0.0282068551, -0.0868969783, -0.0702650025, -0.0521917380, -0.0248137545, -0.0663113743, 0.0114954188, -0.1623852402, -0.0251387376, -0.0226973202, 0.0003945292, -0.1016485468, 0.0361832269, -0.0324922949, -0.0331803374, 0.0284612272, -0.0407304019, 0.0305674095, 0.0726197362, 0.0305966232, -0.0557435416, -0.0381901637, -0.0272539053, -0.1102265567, -0.1033271328, -0.1784651726, 0.0406105630, 0.0856996775, -0.0504050367, -0.0052339025, -0.1057675034, -0.0766165704, 0.0723968670, 0.0421441048, -0.1389048249, 0.1400371939, -0.0079480791, 0.0461179316, 0.0282220244, -0.0703402385, -0.0613630451, -0.0437307730, -0.0357426442, -0.0501168966, 0.0464731306, 0.0484972969, 0.0685693324, -0.0115172137, -0.0339098610, 0.0439413451, 0.0097694648, -0.0222320613, -0.0691146031, 0.0608589873, 0.0598885007, -0.0360309109, 0.0831174180, 0.0346123874, 0.0195358079, -0.2639310360, -0.0175404903, 0.0887009129, 0.0178579912, 0.0171567351, -0.0026707419, -0.0685930327, 0.0387038216, 0.0229548793, 0.0041697947, -0.1169311851, 0.0182430800, -0.1739418060, 0.0780930147, 0.0040911054, 0.0553598292, -0.0347348861, -0.0800890550, 0.1201669574, 0.0042881025, 0.0341568105, 0.0791279748, 0.0098657086, -0.0923225805, 0.0267643481, -0.0605314486, 0.0281210616, -0.0455423705, -0.0113947522, 0.1271851957, -0.1260633618, -0.0194886234, 0.0931677669, 0.0198101960, -0.0489591621, -0.0204415210, 0.0459307916, 0.0512680449, 0.1398836970, -0.2160870880, 0.1959970891, -0.0332062654, -0.0236982983, 0.0523923263, 0.0192457046, -0.0765589103, -0.0054116664, 0.0508320741, -0.0377605893, 0.0874289274, 0.0032880076, 0.0350036845, 0.1048149541, -0.0357473493, 0.1005723551, -0.0081368657, -0.1255524457, 0.0740459189, 0.0866154656, -0.0295254216, 0.0363006070, -0.0797160044, -0.0424981229, 0.0113155749, -0.0786509663, 0.0385582186, 0.0473151281, -0.0215039551, -0.0190103855, -0.0205513015, 0.0459628180, 0.0685653985, -0.0927262381, 0.0322085656, -0.0779555216, -0.0462428927, -0.1884136647, 0.0481129847, 0.0195158627, 0.0095171314, 0.0924863070, 0.0255670380, 0.0082065416, 0.0632865354, 0.0790759474, -0.0482647233, -0.0058045834, 0.0255970750, -0.0470318347, 0.0321240239, -0.0307438672, -0.0341690630, 0.1168306023, 0.1266220212, -0.0266279373, -0.0052140108, -0.0175283961, -0.0508441627, 0.0642318130, -0.1416059136, 0.0982139483, 0.0513219312, 0.0247128867, 0.0544545949, 0.2047421038, 0.0634022132, 0.0225706212, -0.0569480620, -0.0680806339, 0.0221922696, -0.0501776263, 0.0016072518, -0.0413264036, -0.0134100914, -0.0500764661, -0.0288371146, 0.0823773071, 0.0984918475, -0.2077595294, 0.0306450184, -0.0425912775, -0.0159869287, -0.0400944874, 0.0794820115, 0.0044796271, 0.0191248972, 0.0551699996, -0.0600803234, -0.0750092641, 0.1014232263, -0.0051716287, -0.0569672734, 0.0647171661, 0.0079191942, -0.0218185969, -0.0228405558, 0.0556465536, 0.0708758384, 0.0002897972, -0.0254109874, -0.0097290594, -0.0644403026, -0.0267050620, 0.1014414579, -0.0457913019, 0.0825859904, 0.0317087173, 0.0483144931, -0.0153057063, -0.0042293067, 0.0442951992, 0.0616110377, 0.0413833223, -0.0034613530, 0.0822064131, 0.0164149310, 0.0566279963, -0.0326781645, 0.0537211671, 0.2014377117, 0.0512638837, -0.0658197701, -0.0552790649, 0.1490274817, 0.0078802099, 0.0642459765, -0.0027928920, 0.0087487539, 0.1208235770, 0.0046797669, 0.0098807970, 0.0365657136, -0.0653428808, -0.0465341024, -0.0116681000, 0.0463288836, -0.1007946134, 0.0368118249, -0.0419248194, 0.0300652012, 0.0570534207, -0.0052488921, -0.0702153593, -0.0056570228, -0.0683699697, 0.0234732777, -0.0843543857, 0.0402926840, 0.0722978711, -0.0488193333, 0.0670921728, 0.0197222345, -0.0824409053, 0.0836698711, 0.1661195904, 0.0028654390, 0.0290849768, 0.0504800230, 0.0705545396, 0.1145698130, -0.0096462732, 0.0954073370, 0.0823502764, -0.0682258010, -0.0301925410, -0.0001698097, -0.0504098721, 0.1342625469, 0.0275118332, 0.0477837436, 0.0083563523, 0.0631514937, 0.1516125649, 0.0446018092, 0.1210241169, 0.0472140238, -0.0547453910, -0.0494316369, 0.0198243074, 0.0555722341, 0.1430106908, 0.1423181593, 0.0665283054, 0.0926958621, -0.0118582100, -0.0354444981, -0.0100033740, 0.1843524724, 0.0274312478, -0.0187514219, 0.0940261409, -0.0479165874, 0.1380979866, 0.0610360280, -0.0030497597, -0.0159776099, -0.0403724201, 0.0438461341, 0.0274909567, 0.0803711116, 0.0547539592, -0.0361122601, 0.0787866190, 0.0116417296, 0.1174958944, -0.0773778036, 0.0021017580, 0.0301042367, -0.1283079386, 0.0298433155, 0.0168702696, -0.0569102019, -0.0320832953, -0.0252480917, -0.0479555279, 0.0120560965, -0.0445872359, -0.0525578111, 0.0341565832, -0.0321843103, -0.0233749039, 0.0730245858, -0.0622170419, 0.0367968865, 0.0340520926, 0.0029408028, -0.0141884852, -0.0873145759, 0.1013949215, 0.0585714616, 0.0233396050, 0.0818783119, 0.1170878783, -0.0279639959, 0.1636725068, 0.0287079960, 0.1457569003, 0.0834854916, 0.1314463913, -0.0019575229, 0.0414825454, -0.0553302579, 0.0583578274, 0.0680680200, 0.1057863384, 0.0890107155, 0.1057164147, -0.0430529155, -0.0255566910, -0.0342332907, 0.0213805530, 0.1366495341, 0.0875787362, 0.0031640206, -0.1891096234, -0.0954284146, -0.1234667748, 0.0178231318, 0.0514188185, -0.0419709086, 0.0456010066, 0.0512674376, 0.0437537320, 0.0558967032, -0.0008419395, 0.0586200990, 0.0315400586, 0.0736859962, -0.0955686569, 0.0860286728, 0.0382281803, -0.0886778459, 0.1089310870, -0.0461443514, -0.0265814718, -0.0331562199, -0.0453768820, 0.1232855320, 0.0722936615, -0.0077710794, -0.1141502485, 0.0278002042, 0.0583139472, 0.0624222979, -0.0061223269, 0.0171034932, 0.0247557890, 0.0134228170, 0.0245217513, 0.1355905384, -0.0598809160, 0.0283630472, -0.0276264604, 0.0737043545, -0.0107361898, 0.0092891557, 0.1133536696, 0.0099507365, 0.0322939306, 0.0759682283, 0.0079417145, -0.0322794914, 0.0970178992, 0.0784140080, -0.0061322032, 0.2010074258, -0.1325919628, 0.0582243949, 0.1107285544, -0.0562102981, -0.0038066392, 0.0904423445, 0.0272385832, 0.0165703483, -0.0270024929, -0.0527273305, 0.0720224828, 0.3099888265, 0.0794805139, -0.0925786570, 0.0193966851, 0.0589582324, -0.0128654521, 0.0572800264, 0.0552559868, 0.0720608383, 0.0721625686, -0.0220388379, -0.0132292882, 0.0535485595, 0.0806898475, 0.0317669064, 0.0657135770, 0.0573691837, 0.0742181242, 0.0300494861, -0.0080203610, 0.0052108229, -0.0466090217, -0.0537806004, 0.0211746823, -0.0086977631, 0.1330441386, 0.0490530059, 0.0062321518, 0.0184927378, 0.0444734432, -0.0146520818, 0.0017891929, -0.0125941159, 0.0651304796, 0.0445142090, 0.0988948792, 0.0123765795, 0.0611477643, -0.0388031192, -0.0500585586, 0.0415498577, -0.0392435230, -0.0150213540, -0.0570921041, -0.0062335501, -0.0168248806, 0.0086281262, 0.0769077241, -0.0273419805, 0.0169632323, -0.0567285419, -0.0517681390, 0.1808796674, 0.0275451224, 0.0286564436, 0.1242245585, 0.0137041882, -0.0121711949, -0.1222717613, 0.0453856401, 0.0525195412, -0.0679264739, 0.1024868265, -0.0215347093, 0.2194817364, 0.0376040041, 0.0846364796, 0.0286002383, 0.0034404278, 0.0014936761, 0.0468981974, -0.1074189469, -0.0278835949, 0.0797346160, 0.0207910836, 0.0517747141, -0.0374420397, 0.0577662587, 0.0624379665, -0.0640589297, -0.0392552838, -0.0367685892, -0.1035006195, -0.0407591946, 0.0489372648, 0.0177776497, 0.0664430484, -0.0167086367, -0.0140620889, 0.0380649008, 0.0621120967, -0.0605795942, 0.0287041645, 0.1140878871, 0.0042567072, -0.0760732591, 0.0804681778, -0.0021122331, -0.0738622621, 0.2621404529, 0.0773611814, 0.0299356859, -0.0910922885, 0.0427911133, 0.0289454088, 0.0663939640, -0.0927173644, 0.0275715273, 0.0277538188, 0.0224662032, 0.0448500700, 0.0576420464, -0.0579132326, 0.0497701652, 0.1027677581, 0.0141630135, 0.1231846809, -0.0176991858, -0.0481515266, 0.1661445647, 0.0634432137, 0.0447528027, 0.0620761700, 0.0684984401, 0.0875068232, -0.1452828944, 0.1597252786, 0.1030093804, 0.2142342478, -0.0353830643, -0.0483655781, 0.0768285394, -0.0251963157, 0.0620475262, -0.0027256117, -0.0734185651, 0.0471352674, 0.0967622548, -0.0177647211, 0.0290665701, 0.0752702579, 0.0231891442, 0.0682464764, 0.0106218792, 0.0062681139, 0.0402431898, -0.1224495620, 0.0588149019, 0.0197155941, -0.0397941880, 0.0327823870, 0.0675573200, 0.0033417940, 0.1071830466, -0.0595417358, 0.0216148626, 0.0085775396, 0.0083210990, -0.0356066823, -0.0728993937, 0.0177210942, 0.0049381987, 0.0084031476, 0.0229439158, 0.0039484780, 0.0216337778, -0.0787262693, 0.0533861630, 0.0651267618, 0.0698185787, 0.0463226624, 0.0757562816, 0.0278806575, 0.0837643072, -0.0179021731, -0.0215090774, -0.0116170757, -0.0127801588, -0.0493581071, -0.0667087212, 0.0650450364, -0.0208497774, -0.0010966298, 0.1074682102, 0.0552810878, 0.0389698893, -0.0423540063, -0.0056817960, 0.0247778054, -0.1869257689, 0.0218114611, -0.0089645619, 0.1065886021, -0.0025735346, 0.0858506337, 0.0717693716, -0.0081790844, 0.0776681527, 0.0721269995, -0.0486013927, -0.0286806859, -0.0195915084, -0.0065650120, -0.0925130621, -0.0117081590, 0.0906575397, -0.0167458244, -0.0158822015, -0.0358144566, -0.1652920842, -0.0646423325, 0.1483701915, 0.0136382151, -0.0931543335, -0.0731732026, 0.0028970260, -0.0748410970, 0.0419400260, -0.0246267952, 0.0093533508, -0.0039142058, 0.0218273215, -0.0239322241, -0.0922721028, 0.0745981857, 0.0441486798, -0.0966536999, 0.1558394283, 0.1584839821, -0.0520659871, -0.0820802897, 0.0639726222, 0.0551029854, 0.0507969335, -0.1278061867, 0.0687505379, 0.0412001200, -0.0062855179, -0.0377527364, 0.0175189842, 0.0490182154, 0.0719723478, 0.0447604209, -0.0652989149, 0.2103484720, -0.0675402880, 0.0142319109, 0.1237307340, 0.0155167999, 0.0526868068, 0.1329638660, -0.0634500831, -0.0107189631, -0.1836827695, 0.1610264331, -0.0125381704, 0.1487161666, 0.0716696084, -0.0325840563, 0.1068478450, 0.0319336019, -0.0363958962, 0.0205463953, 0.0046359426, -0.0758238360, -0.0485159531, -0.0399532057, -0.0942939743, -0.0064916806, 0.0392352454, -0.0701134130, -0.0157582797, -0.1446650177, -0.1941978633, 0.0275372211, 0.0518967547, -0.0299459044, 0.0037130534, -0.1065435559, -0.0331425257, 0.1162566245, -0.0472739376, 0.0324691460, -0.0134237614, 0.0680547431, 0.1472366601, -0.0097373594, -0.0813669041, 0.0365778320, -0.0400775596, 0.0453835838, 0.0839003921, 0.0577186793, -0.0157791730, -0.0390914902, -0.0882366076, 0.0586768985, -0.0688239560, -0.0580050237, 0.0611452013, -0.0510324389, 0.0375277512, -0.0537648872, 0.0901265517, -0.0851276517, -0.0478399172, -0.1048372313, 0.0385010839, 0.2542782724, -0.0578605980, 0.0073586525, 0.0523629710, 0.0542818755, -0.0150243146, 0.0834448263, 0.0790089667, -0.0150730209, 0.0428811982, 0.1042941734, 0.0192240216, 0.0591666959, 0.1678237468, 0.0507736728, 0.0538607389, 0.0551493987, -0.0366841815, -0.0332882404, -0.0290513188, 0.0582022108, -0.0515065379, -0.0456329845, -0.0700185597, -0.0731882751, -0.0358296745, 0.0667209402, -0.0209969711, -0.0683721080, -0.0298443139, -0.0792726874, 0.0179681219, 0.0117615322, -0.0451314971, -0.0123161664, -0.0419095531, -0.0189283267, -0.0452805012, 0.0310072452, -0.0631891042, 0.0371256992, -0.0025081721, -0.0115857236, -0.0363842808, -0.0667685419, 0.0673738867, -0.0072169648, 0.0844747052, 0.1140880585, -0.0838520378, -0.0787158236, -0.0082508828, 0.0104020294, 0.0663837641, 0.0164780896, 0.0543766506, 0.0483590402, 0.0370618775, -0.0238297861, -0.0181486774, 0.0112009775, -0.0480864011, -0.0522401184, -0.0217014086, 0.1792326272, -0.1015488580, 0.0576353669, -0.0485980436, 0.0719878599, 0.1027281880, -0.0189197082, -0.0705802143, -0.0596342124, -0.1276012361, 0.0537432767, -0.0340272114, 0.0620452464, 0.0202349219, 0.0455321707, 0.0769222900, -0.0502484925, 0.0398117565, -0.0117608625, -0.0682827011, -0.0481881499, 0.0070873327, -0.0019990113, -0.0390300229, -0.0726362467, -0.0103859548, -0.0385996923, -0.0277603846, 0.0529123731, -0.0316412486, -0.0761463046, -0.0372151434, -0.0515202954, -0.0709966198, 0.0997552872, -0.0099118091, -0.0659980997, 0.0590803437, -0.0367243327, -0.0668814480, -0.0059854593, 0.0563796684, 0.0626276284, 0.0316493139, -0.0670903027, -0.0185793918, 0.0244097952, 0.1727374494, 0.1052539125, -0.0710659474, -0.0653804019, 0.0257325806, -0.0058512329, -0.0652257279, -0.0197382011, 0.0473039411, 0.0002541894, 0.0067806323, -0.0754023716, 0.0681384653, 0.0015545004, 0.0205744728, 0.0118147600, -0.0266330633, 0.1097262427, -0.0566720553, -0.0203495193, 0.0482527688, 0.1198447719, 0.0759628564, 0.0228370074, -0.0046741185, 0.0140996771, -0.0676702410, 0.0075063636, -0.0863519311, 0.0103188688, 0.1460340768, -0.0492633209, 0.0887480527, 0.0590985790, -0.0165640768, -0.0290695596, -0.0659045801, -0.0020892683, 0.0668727607, 0.0196351428, -0.0372991674, -0.0404169522, -0.0577549413, 0.0188103579, 0.0415876061, -0.0802457482, -0.1824634224, 0.0414956771, -0.0633988827, 0.0682931542, -0.0581323504, 0.0816622674, 0.0610928386, -0.0255040191, 0.0693514720, -0.0301946849, -0.1017991230, 0.0706287101, 0.0893360823, -0.0493898243, -0.0670439079, 0.0081456434, 0.0843333751, 0.0325199962, 0.1769372225, 0.0878522173, -0.0922854170, -0.0643262342, -0.0384953693, -0.0188679677, 0.0382292159, -0.0178968534, 0.0413977690, 0.0028227796, 0.0411564149, 0.0275728330, 0.0644895136, -0.0302388854, 0.0019524229, 0.0240683127, -0.0419245660, 0.0162430964, -0.0686171204, -0.0695963800, 0.0922244564, 0.0446539856, 0.0724210665, 0.0365150571, 0.0132993748, 0.0258608405, -0.1457812935, -0.0138036394, -0.0083939685, 0.0366015173, 0.0860883966, 0.1058209985, 0.0642774031, 0.0519862473, 0.0261072945, 0.0645941719, -0.0533568412, 0.0664895624, -0.0395687334, -0.0469550192, 0.0103007052, 0.0100038676, 0.0085747968, -0.0013722189, -0.0119602429, -0.0334160700, 0.0342363529, -0.0118297925, 0.0809118301, 0.0792525709, -0.0723498464, -0.1399899870, 0.0036598998, -0.0618972592, 0.0536410548, 0.0655608252, 0.1065378264, -0.0871020705, -0.0440509580, -0.0426389426, -0.0245364383, 0.0243953392, -0.0489394590, -0.0166452546, 0.0328841433, -0.0674041361, -0.0126759885, 0.0793681964, 0.0287512895, 0.0068276529, 0.0267784223, -0.0348289795, -0.0148456972, -0.0563326739, 0.0545073338, -0.0248662252, -0.0466417484, 0.0332070366, -0.1409409940, 0.0176037475, -0.0528114401, 0.0312422551, 0.0280441530, 0.0470826216, 0.0063586538, -0.0275920201, 0.0638379753, 0.1357730776, 0.0027615982, -0.0317439996, -0.1783567816, 0.0981033221, -0.0611758344, 0.1726790518, -0.1511057913, 0.1308195442, -0.0080234054, -0.0620584264, -0.0385747179, -0.0459537655, -0.0907961130, -0.0314571820, 0.0651460141, 0.0721904263, -0.0375115983, 0.0697567090, -0.0047585429, -0.0160259642, 0.0261329245, -0.0234708879, 0.0627243519, 0.0267514978, 0.1563218832, 0.0046454100, -0.0157177374, -0.1429209560, 0.0060512326, -0.0838109925, 0.0096232621, -0.0155727044, 0.0778956413, 0.0266154893, 0.0308100097, -0.0259099938, 0.0519402213, 0.0479030274, -0.0405598804, 0.0426240973, 0.0462971777, -0.0863701627, -0.0735210180, 0.0611733310, 0.1151931882, -0.0232301503, -0.0183154494, -0.0475109220, 0.0229472630, -0.0748153031, 0.0516155139, 0.0420558117, -0.0561637655, 0.0330001973, -0.0915196389, -0.0081157219, -0.0489245020, -0.0242247712, 0.0932036117, 0.0325665139, -0.0302822720, 0.1296262145, 0.0448460579, 0.0703941882, 0.0327116884, 0.0678327903, -0.2179956287, -0.0358397253, -0.1217446551, 0.1937282234, -0.1426235288, 0.1260433197, 0.0053867642, -0.0276962183, -0.0724779367, -0.0547811761, 0.0073220618, 0.0181438271, -0.0584699661, 0.0682870895, 0.0213399678, -0.0003207020, -0.0558134876, -0.0417833775, 0.1013587639, -0.0832708105, 0.0130681209, 0.0037764474, 0.0410568193, -0.0212738495, 0.0738306791, -0.1127241328, 0.0065105376, 0.0253679380, 0.0207593348, 0.0194904804, 0.0249850042, -0.0575474836, 0.0501288995, 0.0132317469, -0.0375610180, 0.0169333890, 0.0453076661, -0.0610884726, 0.0296859853, -0.1180013716, -0.0348026007, 0.0447231643, 0.1106477976, 0.0100675840, -0.0343100764, -0.0151209794, -0.0385293849, -0.0357552879, 0.0717267618, 0.0281931814, -0.0121723423, 0.0171020217, -0.1223209575, -0.1406649202, -0.0511498712, 0.0398160033, 0.0524454601, 0.0568287149, 0.0315640308, 0.0943640098, 0.0102426047, -0.0070335022, 0.0346912183, -0.0373034291, -0.0547444820, -0.0184734799, -0.0712177455, 0.1254935414, -0.1556324959, 0.0542548373, 0.0170654804, -0.0485257171, 0.0108382823, -0.0383895114, 0.0468772836, -0.0097517977, -0.0849566683, -0.0752267689, -0.0578320436, -0.0400499403, -0.0306597948, -0.0555862933, 0.0326487795, -0.0594527423, -0.0212829467, 0.0204774011, -0.0005516915, -0.0743008703, -0.0525679216, 0.0064389817, -0.0368141569, 0.0512235016, 0.0447696298, -0.0755071342, -0.0580225810, 0.0007573143, 0.0374443792, 0.0764501318, 0.0595694259, 0.0058831512, -0.0664832070, 0.0308363549, 0.0935087949, -0.0467726812, 0.0381287821, 0.0272582956, -0.0173521489, -0.0411765389, -0.0281104036, -0.0330727398, 0.0391571373, -0.0351815820, 0.0525613651, -0.0260030515, 0.0172156710, -0.0484382510, 0.0104423137, -0.0075860843, -0.0431829207, 0.1365794539, 0.0842895359, -0.0224476643, 0.0474235117, 0.0097564394, -0.0750616789, -0.0417781211, 0.1278611571, -0.0732178688, -0.0313042998, 0.0787646994, -0.1058115512, 0.2822945714, -0.0270487741, -0.0583676547, 0.0391072854, 0.0178809837, -0.0512892380, -0.0288465936, 0.0504010729, -0.0492041744, -0.0310556721, 0.0203077979, 0.0661744699, 0.0618956722, -0.0468806103, -0.0527667888, 0.0004524731, -0.0154262353, -0.0025396971, -0.0093900561, 0.0833441988, -0.0903169289, -0.0283569824, 0.0050878841, -0.0079719266, 0.0939596891, 0.0161908735, 0.0440144837, 0.0011221584, 0.0196287259, 0.0655360445, 0.0038107149, 0.0147334747, 0.0525791310, 0.0522626415, 0.0258817039, 0.0743700936, -0.0339161940, -0.0485936292, 0.0442687273, -0.0249325577, 0.0098727494, -0.0267230682, 0.0087614693, -0.0730980113, 0.0114931976, 0.0087017417, -0.0554924347, 0.0356061459, 0.0353744440, -0.0681488067, -0.0292058326, 0.0498205982, 0.0242962819, 0.1680714786, 0.0696931034, 0.0702503324, -0.0074855918, -0.0699603632, 0.0202858597, 0.1516071260, 0.0729876682, -0.0521100536, 0.0689655319, -0.0677921399, 0.2151951939, 0.0534540154, -0.0246742461, 0.0658758730, 0.0619293228, 0.0057763956, 0.0563990697, 0.0769652575, 0.0564064123, -0.0582295209, 0.0044613397, 0.0223800354, 0.0257416088, 0.0109455418, -0.0381188318, 0.0627082065, 0.0074347425, 0.0009555469, 0.0274990853, 0.0789600611, 0.0682788566, 0.0406651273, 0.0035191281, -0.0433403999, 0.0642633289, -0.0243112948, 0.0460645147, -0.1101038083, 0.0847950578, -0.0254049413, -0.0124938488, -0.0430660322, 0.0352963135, -0.0252120681, 0.1066136584, -0.0150226690, -0.1130788177, 0.0378820971, 0.0794831589, -0.0535706393, -0.0519863702, 0.0458782837, 0.0733915940, -0.1070486605, -0.0202485435, 0.0674130842, 0.0354733616, -0.0446862653, 0.0031885039, -0.0018224162, -0.0330047123, 0.0204181522, 0.0057374318, 0.0816267431, -0.0345281400, 0.0270466879, -0.0689229146, -0.0828161612, 0.0255742054, -0.0348298922, 0.0278638136, -0.0245896094, 0.0943173692, 0.0201360304, 0.1075958759, -0.0669263750, 0.0347015187, 0.1702756286, -0.0160164963, -0.0733961314, 0.0216475502, 0.0400257409, 0.0357352160, 0.0507828332, -0.0470432267, -0.0009189456, -0.0344362147, -0.0632624850, 0.0401763469, -0.0053113177, 0.0516149141, 0.0023531045, -0.0453815758, -0.0015942771, -0.0263268333, -0.0006465189, -0.0667538568, 0.0133071644, 0.0701204017, -0.0449951999, -0.0292819347, 0.0142915165, -0.0630313978, 0.0264962632, -0.0215564817, -0.0314173736, -0.0664618090, 0.0563604794, -0.0498620383, 0.0281172786, -0.0343604460, -0.1145299524, 0.0353209227, -0.0501644947, -0.0300751068, -0.0104256384, 0.0708175004, 0.0473578908, 0.0062427903, 0.0844684020, -0.0293420739, 0.0111947423, -0.0512369685, -0.0713695064, -0.0606310330, 0.0092583001, 0.0667066053, 0.0127817085, -0.0645273104, -0.0097508337, -0.0283990894, 0.0298853461, -0.0116762128, -0.0112976721, 0.0450247638, 0.0771359652, 0.0824708566, -0.0643241107, 0.1341232657, 0.0394730456, 0.0860702097, 0.1227771640, 0.0045062876, 0.0142053580, 0.0235086139, 0.0250290222, -0.0761833191, 0.0373833589, -0.0649190545, 0.0462111160, 0.0481814407, -0.0496996418, -0.0545708053, -0.0498923175, -0.0326962136, 0.0279279742, 0.0462955087, 0.0491320677, -0.0677258223, -0.0316524431, -0.0247423369, -0.0238010231, 0.0530398823, -0.0081674587, 0.0189101230, 0.0031177106, 0.0022359560, -0.0217155144, 0.0521094911, -0.0491721332, 0.0152519802, 0.1024184749, 0.0238762237, -0.0001064575, -0.1656809300, -0.1024891511, -0.0625546947, 0.0856173411, 0.0515555516, -0.0527564436, -0.0527536422, -0.0039235852, -0.0587689020, 0.0217656400, -0.0165632386, -0.0455223992, 0.0058981390, 0.0215087831, -0.0320836492, 0.0506242067, 0.1360492855, 0.0734807551, -0.0414880030, -0.0796715245, 0.0684464574, 0.0877678841, 0.1412072033, 0.1027435884, -0.0064181956, 0.1282993555, 0.1133956611, -0.0426059775, 0.1461672187, -0.0245644618, 0.0543340780, 0.1443989575, 0.0138956141, -0.0532984100, 0.0223814920, -0.0100386785, -0.0764632896, 0.0893997550, -0.0407639667, 0.0383442454, 0.1083016396, 0.0181690417, 0.0510535426, 0.0223522838, -0.0131886844, -0.0522596389, 0.1058272943, 0.0486708805, 0.0032462478, -0.0024508215, 0.0576357991, 0.0254145395, 0.0741933137, 0.0250772182, -0.0534099005, 0.0459785499, 0.0369834825, 0.0379279181, -0.0390836224, 0.0277533382, 0.0674333796, 0.0879150480, 0.1099662930, -0.0297994353, -0.0058174245, 0.0045067207, -0.0717698187, 0.0946091712, 0.0509732366, -0.0203126036, 0.0710532218, 0.0905455053, 0.0104433652,