//Numpy array shape [64]
//Min -0.068638049066
//Max 0.068044923246
//Number of zeros 0

#ifndef B10_H_
#define B10_H_

#ifndef __SYNTHESIS__
conv2d_2_default_t b10[64];
#else
conv2d_2_default_t b10[64] = {0.0537393205, 0.0224947277, 0.0680449232, -0.0324553698, 0.0163154602, -0.0230113454, -0.0246243980, 0.0131301479, 0.0091992337, -0.0097578624, -0.0422597975, -0.0287600663, 0.0202774201, 0.0161772966, -0.0607245192, -0.0050454689, -0.0050659101, 0.0212616697, 0.0189412516, -0.0405686051, 0.0226751864, 0.0146843940, -0.0471773855, -0.0510937013, 0.0213853810, -0.0032358051, 0.0423090011, 0.0426803641, 0.0120147867, 0.0176311452, 0.0516122319, -0.0686380491, -0.0150305862, -0.0206474122, 0.0186493360, 0.0572068840, -0.0028929531, 0.0099252025, -0.0145739205, -0.0112077352, -0.0386763439, 0.0376184583, -0.0048433463, -0.0336958729, -0.0215632990, -0.0023467722, 0.0130996034, -0.0197383687, 0.0399019383, 0.0017201159, 0.0135755548, -0.0023665288, -0.0077434708, -0.0284910165, 0.0167190358, 0.0196599960, -0.0207826793, -0.0050792168, 0.0267773736, 0.0061125867, 0.0562441051, -0.0214730334, 0.0081189396, 0.0350013562};
#endif

#endif
