//Numpy array shape [64]
//Min -0.068621248007
//Max 0.099768452346
//Number of zeros 0

#ifndef B14_H_
#define B14_H_

#ifndef __SYNTHESIS__
conv2d_3_default_t b14[64];
#else
conv2d_3_default_t b14[64] = {0.0411485396, -0.0211563297, 0.0313444249, -0.0686212480, 0.0588236786, 0.0431443229, -0.0419142842, 0.0613432378, -0.0015216164, -0.0135271978, 0.0444642305, 0.0167248081, -0.0138244750, 0.0223130826, 0.0278147254, 0.0136442017, 0.0307399128, 0.0311499983, -0.0457325242, 0.0997684523, -0.0259374827, 0.0235177185, 0.0977953374, -0.0023699843, 0.0185632017, 0.0164008271, -0.0310585108, -0.0205050129, 0.0681063160, 0.0472591966, -0.0238682851, -0.0034640392, -0.0009675731, 0.0113388943, 0.0161470305, -0.0200985875, 0.0265835077, 0.0543975420, 0.0158094205, 0.0211878307, 0.0350205377, 0.0099374792, 0.0056730765, 0.0380732827, 0.0686790124, -0.0427807979, 0.0259060599, -0.0031031033, 0.0679302663, 0.0002838798, -0.0249503572, 0.0523858294, -0.0307751577, 0.0348562896, 0.0519511215, 0.0245302375, 0.0332035832, 0.0478790551, 0.0028558702, 0.0438977182, -0.0191122834, 0.0976984426, 0.0562199727, 0.0295016821};
#endif

#endif
