//Numpy array shape [64]
//Min -0.059883933514
//Max 0.151998311281
//Number of zeros 0

#ifndef B2_H_
#define B2_H_

#ifndef __SYNTHESIS__
conv2d_default_t b2[64];
#else
conv2d_default_t b2[64] = {0.0129395016, 0.1519983113, -0.0155386832, -0.0150391376, -0.0101450440, 0.0008739469, 0.0128542492, -0.0459278859, -0.0237300508, 0.0219170023, -0.0462354012, 0.0199685916, -0.0268419348, 0.0156237883, 0.0269937832, 0.0165104028, 0.0178700387, -0.0010875611, 0.0008791119, 0.0002879068, 0.0096653616, -0.0009176654, 0.0061031119, -0.0011131279, -0.0098269545, 0.0000386821, 0.0056485864, 0.0069268839, -0.0598839335, 0.0266522337, -0.0240487196, -0.0328468494, 0.0071920920, 0.0321637392, 0.0201433841, 0.0054479479, 0.0201211702, -0.0078977309, -0.0230736174, 0.0245255493, 0.0055918405, 0.0166122578, -0.0048921937, 0.0004066359, -0.0407744795, -0.0050009359, -0.0211654194, 0.0102971410, 0.0128647182, 0.0095377062, 0.0274531618, 0.0183127373, 0.0073485016, 0.0249257479, 0.0154448124, -0.0085609891, -0.0003428861, 0.0045600156, -0.0383917131, 0.0502472967, 0.0024141870, 0.0028664214, -0.0109836431, -0.0064189802};
#endif

#endif
