//Numpy array shape [64]
//Min -0.060315031558
//Max 0.087305456400
//Number of zeros 0

#ifndef B6_H_
#define B6_H_

#ifndef __SYNTHESIS__
conv2d_1_default_t b6[64];
#else
conv2d_1_default_t b6[64] = {0.0097866300, 0.0248845071, 0.0175128337, 0.0290898234, 0.0366426967, -0.0211148188, -0.0147864269, 0.0323403366, -0.0253605191, 0.0367762260, 0.0028489695, -0.0134129468, -0.0117717255, -0.0090164831, 0.0257586893, -0.0279077925, 0.0040864684, 0.0341367014, 0.0056264829, -0.0067461636, 0.0063379421, 0.0647674277, -0.0030350748, -0.0282806661, 0.0116882082, 0.0092230318, 0.0353260525, -0.0223484300, -0.0006996770, -0.0155286593, -0.0244150888, -0.0377528258, 0.0039498331, 0.0314156525, -0.0092407931, -0.0352944396, 0.0139160017, 0.0144476285, -0.0094759287, 0.0052665239, -0.0343637019, -0.0134005286, -0.0186781771, 0.0071199755, -0.0429628566, 0.0272907484, 0.0235862751, -0.0190107282, 0.0009687892, 0.0213572700, 0.0422017835, 0.0223143958, 0.0039262944, 0.0066119418, -0.0003532496, -0.0487445332, -0.0311585460, 0.0708994791, -0.0314275585, -0.0194242373, 0.0873054564, -0.0004490407, -0.0073795733, -0.0603150316};
#endif

#endif
