//Numpy array shape [64]
//Min -0.089438125491
//Max 0.092216491699
//Number of zeros 0

#ifndef B14_H_
#define B14_H_

#ifndef __SYNTHESIS__
conv2d_3_default_t b14[64];
#else
conv2d_3_default_t b14[64] = {0.0406086817383766174, -0.0894381254911422729, -0.0084718484431505203, 0.0474489443004131317, -0.0044167712330818176, -0.0328202918171882629, 0.0138487732037901878, -0.0692827776074409485, -0.0068801017478108406, -0.0137042384594678879, 0.0319994539022445679, -0.0228348802775144577, 0.0585529543459415436, 0.0488242805004119873, 0.0473333671689033508, -0.0108793908730149269, -0.0414084158837795258, 0.0298843905329704285, -0.0843445435166358948, 0.0590463578701019287, 0.0072576631791889668, -0.0092662321403622627, 0.0000469933074782602, -0.0102131757885217667, -0.0620873086154460907, -0.0233698729425668716, 0.0566090792417526245, 0.0208837874233722687, -0.0510660298168659210, 0.0325302332639694214, -0.0152307292446494102, 0.0262489505112171173, -0.0089147891849279404, 0.0396891497075557709, 0.0172581579536199570, 0.0303577519953250885, -0.0151392994448542595, 0.0047856834717094898, 0.0530695095658302307, -0.0278702303767204285, 0.0280658658593893051, -0.0229014456272125244, 0.0327288210391998291, 0.0922164916992187500, -0.0125264003872871399, -0.0044744871556758881, -0.0123655861243605614, -0.0408963076770305634, 0.0330419130623340607, -0.0699612200260162354, 0.0689769163727760315, 0.0077683832496404648, 0.0148000987246632576, -0.0303273089230060577, 0.0466800853610038757, -0.0152562921866774559, 0.0193090848624706268, -0.0176499299705028534, 0.0424398034811019897, 0.0092038689181208611, 0.0208901464939117432, -0.0510797947645187378, 0.0396435558795928955, 0.0523376725614070892};
#endif

#endif
