//Numpy array shape [3, 3, 64, 64]
//Min -0.421590566635
//Max 0.409895628691
//Number of zeros 0

#ifndef W10_H_
#define W10_H_

#ifndef __SYNTHESIS__
conv2d_2_default_t w10[36864];
#else
conv2d_2_default_t w10[36864] = {-0.0418476462364196777, -0.0326196104288101196, -0.0912498682737350464, -0.0115009061992168427, -0.0486281141638755798, -0.0516495183110237122, -0.0662603601813316345, -0.0990428179502487183, -0.0979783013463020325, -0.0004881349741481245, -0.0573425255715847015, -0.1012368053197860718, 0.0518685430288314819, 0.0362348444759845734, -0.0144861824810504913, -0.0941056683659553528, -0.0626085773110389709, -0.0949955508112907410, 0.0001244732557097450, -0.0614985674619674683, -0.0081384684890508652, -0.0656225606799125671, -0.0374394841492176056, 0.0414726547896862030, 0.0092782815918326378, -0.0381293408572673798, -0.1363858878612518311, 0.0941466763615608215, 0.0401348546147346497, 0.0009968958329409361, -0.0997163355350494385, -0.1363119035959243774, -0.0407337173819541931, 0.0359850563108921051, 0.2303844392299652100, -0.1372215747833251953, -0.0431527271866798401, -0.0457882769405841827, -0.0755115374922752380, -0.0466995388269424438, -0.0314615219831466675, 0.0206907298415899277, -0.0013036418240517378, 0.1015673130750656128, 0.0467436872422695160, -0.0573329664766788483, 0.0790812298655509949, -0.0109615344554185867, -0.0406249351799488068, -0.0504155196249485016, -0.0519464612007141113, -0.0142980068922042847, -0.0947179570794105530, 0.0445317663252353668, 0.0451699532568454742, -0.0428909808397293091, -0.0006013424135744572, -0.0672373101115226746, 0.0866018533706665039, -0.0530719310045242310, -0.0619267635047435760, 0.0525247640907764435, 0.0654145106673240662, 0.0994886085391044617, 0.0284507889300584793, 0.1321867257356643677, -0.0340236611664295197, 0.0412794277071952820, -0.0718496367335319519, 0.1572979688644409180, -0.1262469887733459473, -0.0220139678567647934, -0.0806659758090972900, 0.0871216431260108948, -0.0721301287412643433, 0.0420632660388946533, -0.0114134224131703377, 0.0092771174386143684, -0.0257210433483123779, -0.0685635507106781006, -0.0767352804541587830, -0.0458744019269943237, 0.0328875258564949036, 0.1494532525539398193, 0.0113035608083009720, -0.0561428852379322052, 0.0079330485314130783, 0.0142517304047942162, -0.0839809849858283997, -0.0427893474698066711, 0.0019952259026467800, -0.0291042961180210114, -0.0257913246750831604, -0.0933879464864730835, 0.0283023156225681305, -0.1132491007447242737, -0.0203663762658834457, 0.0283928699791431427, 0.0187121834605932236, -0.0921617448329925537, -0.0122034549713134766, -0.0147439856082201004, 0.0177195705473423004, -0.0535163208842277527, -0.0832477062940597534, 0.0796412527561187744, -0.2876983582973480225, -0.1127091869711875916, -0.0500577986240386963, -0.1802842915058135986, 0.1025864779949188232, -0.0004791482933796942, -0.0773037746548652649, -0.0984417572617530823, 0.0612010136246681213, 0.0351958274841308594, -0.1637003421783447266, 0.0062374463304877281, 0.0694688856601715088, -0.0330029353499412537, -0.0759169980883598328, 0.0036232706625014544, -0.0110800862312316895, -0.0260043200105428696, -0.2126274108886718750, -0.0942119434475898743, -0.0181173328310251236, -0.0525519289076328278, -0.1005391776561737061, -0.0311749503016471863, 0.0127348583191633224, 0.0018426242750138044, -0.0104251774027943611, -0.0754684209823608398, 0.0651939213275909424, 0.0494731739163398743, -0.0035358867608010769, -0.0102357203140854836, 0.0654823109507560730, 0.0309157595038414001, -0.0504482910037040710, 0.0522818677127361298, -0.1142362728714942932, 0.0066736089065670967, -0.0584758743643760681, -0.0486338064074516296, -0.0176311340183019638, -0.0194310508668422699, -0.0536700524389743805, -0.0787641704082489014, -0.0672727376222610474, -0.0213968846946954727, -0.0218805298209190369, -0.0081821968778967857, -0.0189935006201267242, 0.0321184471249580383, -0.0237139258533716202, 0.0408141203224658966, 0.0764892399311065674, 0.0453608371317386627, -0.0671785175800323486, -0.0098214214667677879, 0.0607582516968250275, -0.0333260446786880493, -0.0722403228282928467, 0.0097609125077724457, 0.0348156318068504333, 0.0417080707848072052, -0.0740569904446601868, -0.0518310368061065674, 0.2026759386062622070, -0.1139375269412994385, -0.0256869215518236160, -0.0152103211730718613, 0.0468949899077415466, -0.0531501770019531250, -0.1414144635200500488, 0.0247178841382265091, -0.0446519590914249420, -0.0836312547326087952, -0.1204129904508590698, -0.0161980912089347839, 0.0095271039754152298, -0.0137730287387967110, 0.0217838622629642487, 0.0346957072615623474, -0.0417568460106849670, -0.0069055296480655670, 0.0417495369911193848, -0.0199275650084018707, 0.0651432648301124573, -0.0022869354579597712, -0.0916057676076889038, -0.0704325512051582336, 0.1438937187194824219, -0.1095162853598594666, -0.0647945106029510498, 0.0370122380554676056, 0.1702539026737213135, 0.1241961345076560974, 0.0274852924048900604, 0.1605270802974700928, -0.0053513362072408199, 0.0146722849458456039, 0.0644115582108497620, -0.0860373824834823608, 0.0984410867094993591, 0.0027201825287193060, 0.0755010619759559631, 0.0891133993864059448, 0.1391943693161010742, -0.0940405502915382385, 0.1082437857985496521, 0.0337946414947509766, 0.1191935390233993530, 0.0303733814507722855, -0.1715819090604782104, 0.0235518869012594223, -0.0062958747148513794, -0.0079300254583358765, 0.0321555584669113159, 0.0798284634947776794, -0.0379158668220043182, 0.0411993525922298431, 0.0290875174105167389, -0.0672170147299766541, -0.0033232087735086679, 0.1002465933561325073, 0.0835458263754844666, -0.0677209571003913879, -0.0611428506672382355, 0.0723692104220390320, 0.0287301130592823029, 0.0270158033818006516, -0.0161184929311275482, 0.0849971771240234375, -0.0192928165197372437, 0.1031258404254913330, 0.0331782139837741852, 0.0502482950687408447, 0.0751979425549507141, -0.0729509145021438599, -0.0339894741773605347, -0.0708553567528724670, 0.0336706042289733887, 0.0524102486670017242, 0.1233539581298828125, -0.0357483588159084320, -0.0094948178157210350, -0.0148240989074110985, -0.0106340236961841583, -0.1968471556901931763, -0.0396286807954311371, 0.1293976455926895142, -0.0348256453871726990, 0.0390658713877201080, 0.0294870026409626007, -0.0582156442105770111, 0.0232745297253131866, -0.0757525637745857239, -0.0627105757594108582, -0.0488866865634918213, 0.0061612739227712154, -0.0734401792287826538, -0.0393371284008026123, 0.1247993484139442444, 0.0005618317518383265, -0.0720163285732269287, -0.1342205256223678589, -0.1205647587776184082, -0.0939773842692375183, -0.0350901111960411072, -0.0696983709931373596, 0.0048280619084835052, -0.0329882763326168060, 0.0011071303160861135, -0.0098162246868014336, -0.0581027120351791382, 0.0085623171180486679, -0.0859867855906486511, -0.0909651145339012146, 0.0480057224631309509, -0.0171905513852834702, 0.0920926257967948914, -0.0890799164772033691, -0.1221857368946075439, -0.1435493081808090210, -0.0603890679776668549, 0.0195907093584537506, -0.0508345291018486023, -0.0310546588152647018, -0.0452994592487812042, -0.0180389713495969772, -0.0423280633985996246, -0.0349335595965385437, -0.1193506494164466858, -0.0389127284288406372, -0.1297889947891235352, 0.0242894459515810013, 0.1097229793667793274, -0.0612922385334968567, -0.1820796430110931396, -0.0472041182219982147, -0.0767150670289993286, 0.0094049591571092606, -0.0438450239598751068, -0.0962041467428207397, -0.0947659537196159363, 0.0715674012899398804, -0.0424935221672058105, 0.0820558220148086548, 0.1108277812600135803, 0.0219354648143053055, -0.0318731479346752167, 0.1158876493573188782, -0.0818699076771736145, -0.0333902388811111450, -0.0622498504817485809, -0.0365424528717994690, 0.0345147997140884399, -0.0749271139502525330, -0.0540674105286598206, -0.0005801850347779691, -0.0292391385883092880, 0.0924438014626502991, -0.1394132375717163086, 0.2029258012771606445, 0.0283823832869529724, 0.0448632091283798218, 0.1976149678230285645, -0.0773115977644920349, 0.0762619376182556152, 0.0742851048707962036, 0.0205024648457765579, 0.0028256026562303305, -0.0336404703557491302, -0.0537692941725254059, -0.0942043066024780273, 0.0585910454392433167, -0.0675804615020751953, -0.0076520191505551338, -0.0876736789941787720, 0.1141429170966148376, -0.0132093923166394234, 0.0538323558866977692, 0.0501943640410900116, 0.1361550390720367432, 0.1458852142095565796, 0.0711590126156806946, 0.0214124210178852081, -0.0139841176569461823, -0.0193925034254789352, -0.1360452324151992798, -0.0287683159112930298, -0.0202669650316238403, 0.0117538319900631905, 0.0725280717015266418, -0.1230976358056068420, 0.0232576373964548111, -0.0084004886448383331, -0.0419734567403793335, 0.0060704289935529232, 0.0756968110799789429, -0.0313985534012317657, 0.0953930616378784180, 0.0258439648896455765, 0.1193146556615829468, -0.0382094494998455048, -0.0037888130173087120, 0.1447328627109527588, -0.0013054135488346219, -0.0088071050122380257, 0.1452521681785583496, 0.1304680854082107544, -0.0031552214641124010, -0.0163403991609811783, 0.1015212237834930420, 0.0160942543298006058, -0.0577973090112209320, -0.0414455309510231018, 0.0644946023821830750, 0.1174588128924369812, -0.0428034439682960510, -0.0384332612156867981, -0.0510227456688880920, 0.1130436882376670837, 0.0406830646097660065, -0.0146221984177827835, -0.0041600768454372883, -0.1241905689239501953, 0.1769928336143493652, -0.0279642976820468903, 0.0688090473413467407, 0.0062434119172394276, -0.1487325578927993774, 0.0525933839380741119, -0.0053215692751109600, -0.1318171620368957520, -0.0084681892767548561, -0.0230421405285596848, 0.0589776821434497833, -0.0453240349888801575, 0.1318857371807098389, 0.1049469932913780212, 0.0519075021147727966, -0.0400965400040149689, 0.0652727410197257996, -0.1424728929996490479, -0.0087296497076749802, -0.0332326255738735199, -0.1117954775691032410, -0.0695446580648422241, 0.0364182926714420319, 0.1389147192239761353, -0.1694881767034530640, 0.0904057919979095459, 0.1029185876250267029, 0.1220050081610679626, 0.1836965680122375488, 0.0198680572211742401, 0.1234898790717124939, 0.0371885783970355988, -0.0752858370542526245, 0.0387703515589237213, -0.0061266017146408558, -0.0192049760371446609, 0.0387281663715839386, 0.0318134464323520660, -0.1102355718612670898, 0.0485360585153102875, -0.0013915847521275282, 0.0229756776243448257, 0.0571070089936256409, 0.1610711216926574707, 0.0490910112857818604, 0.0034688310697674751, 0.1109971404075622559, 0.0389364175498485565, -0.0736220702528953552, 0.0126395672559738159, -0.0060321614146232605, 0.0956168845295906067, 0.1134775057435035706, 0.0125455241650342941, -0.0690062865614891052, 0.0452035591006278992, 0.0723041892051696777, -0.0691116154193878174, -0.0047684935852885246, 0.0858584344387054443, 0.0724269896745681763, -0.0263984147459268570, -0.0515213944017887115, 0.1450257748365402222, 0.0920658931136131287, -0.0682228654623031616, 0.0616569519042968750, 0.0819376260042190552, 0.0845510140061378479, -0.0103825163096189499, 0.0727795287966728210, -0.0371642187237739563, -0.1129631400108337402, 0.0330154411494731903, 0.0323418341577053070, -0.0389797165989875793, 0.0769001990556716919, 0.0213218163698911667, 0.0469354949891567230, -0.0006919682491570711, -0.0543589219450950623, -0.0024050034116953611, 0.0504298545420169830, 0.0565611049532890320, -0.0568727031350135803, -0.0013288318878039718, 0.0531542003154754639, 0.0488753728568553925, 0.0781306028366088867, 0.1026797369122505188, 0.1275395154953002930, 0.0076034022495150566, 0.0272014327347278595, -0.0091660404577851295, -0.0194432232528924942, -0.0424994230270385742, -0.0452947802841663361, -0.0188010241836309433, 0.0220210887491703033, -0.0132301999256014824, 0.2113018780946731567, -0.0852266848087310791, 0.0646483823657035828, -0.0522371008992195129, -0.0722048655152320862, -0.0376389138400554657, 0.1278767883777618408, 0.0700420588254928589, 0.0339235700666904449, 0.0732417106628417969, 0.0605000294744968414, -0.0662361383438110352, 0.0245330501347780228, 0.1507961899042129517, 0.0842199996113777161, -0.0004516789340414107, 0.0545297823846340179, 0.0623624995350837708, 0.0708174705505371094, -0.0142573341727256775, 0.0214473921805620193, -0.0050834985449910164, -0.0510210916399955750, -0.0392165146768093109, 0.1208103075623512268, 0.0279689691960811615, 0.0148023907095193863, -0.0493213944137096405, 0.0077860811725258827, 0.1276010125875473022, -0.0042072259820997715, 0.1331470459699630737, -0.0108465468510985374, -0.0417976751923561096, 0.0433057211339473724, 0.0872793793678283691, 0.0007829165551811457, -0.0359702706336975098, -0.0386238023638725281, -0.0652328878641128540, 0.1191752478480339050, -0.0116301933303475380, 0.0548144578933715820, 0.0814888924360275269, -0.0094554377719759941, 0.0156944599002599716, -0.0323564857244491577, 0.0627616941928863525, -0.0784366950392723083, 0.1824954748153686523, 0.0013343539321795106, 0.0459841713309288025, 0.0414210893213748932, -0.0029618507251143456, 0.1525412052869796753, -0.0421403795480728149, -0.0414337255060672760, 0.0542195066809654236, -0.0059001292102038860, 0.0602146610617637634, 0.0011785967508330941, -0.0649468824267387390, 0.0258709695190191269, 0.0282529983669519424, -0.1964910328388214111, 0.0990013852715492249, 0.2077364027500152588, 0.1731520146131515503, 0.0289320070296525955, -0.0495964437723159790, 0.0462299138307571411, 0.0895294919610023499, 0.1033576130867004395, -0.0669850558042526245, 0.0821851715445518494, -0.0175540968775749207, -0.0891526564955711365, 0.1481179594993591309, -0.0032752749975770712, 0.1273850202560424805, 0.0214045234024524689, -0.0091315153986215591, -0.0514535419642925262, 0.0447828769683837891, 0.0907911881804466248, 0.0672332644462585449, 0.0441246330738067627, 0.0080783292651176453, -0.0858224257826805115, -0.1171064823865890503, -0.0423330664634704590, 0.0057585653848946095, -0.0252048689872026443, -0.0440084040164947510, 0.0214581917971372604, -0.0205651577562093735, -0.0012523266486823559, 0.0341586060822010040, 0.0560193583369255066, 0.0322467051446437836, -0.0326744839549064636, -0.0743448212742805481, -0.0107069760560989380, 0.0084581375122070312, 0.0966416746377944946, -0.0132699226960539818, -0.0399589203298091888, 0.0425543449819087982, -0.0000528970267623663, 0.1206635534763336182, -0.0146875074133276939, -0.0020955333020538092, -0.0569644309580326080, -0.1249932944774627686, -0.0320642255246639252, 0.0658059269189834595, 0.0530688986182212830, -0.0637080520391464233, 0.0400000475347042084, -0.0225434023886919022, -0.0580848082900047302, 0.1346768289804458618, -0.0089609418064355850, 0.0525098256766796112, 0.0245858784765005112, 0.0912764593958854675, -0.0492462478578090668, 0.0175097566097974777, -0.0166909005492925644, 0.0414102002978324890, 0.1596058011054992676, -0.1009152680635452271, -0.0377257801592350006, 0.0342060849070549011, 0.0009118588641285896, -0.0842752382159233093, 0.0169094037264585495, 0.0698882043361663818, 0.0260178558528423309, 0.0686072185635566711, -0.0347662083804607391, 0.0256217624992132187, -0.0219001863151788712, 0.0589911565184593201, -0.0601566210389137268, 0.0142239155247807503, -0.0351923778653144836, -0.0717266872525215149, 0.0389765948057174683, 0.0027416860684752464, 0.0419505015015602112, -0.0113053824752569199, 0.0057807713747024536, -0.0733742341399192810, -0.0534122623503208160, 0.0656329691410064697, -0.0363763496279716492, 0.0001202325656777248, 0.0101716760545969009, 0.0061773853376507759, -0.0256925411522388458, -0.0526267960667610168, -0.0741276517510414124, -0.0985004752874374390, 0.0421165302395820618, -0.0025617501232773066, -0.0463238172233104706, 0.0422355160117149353, 0.0432966798543930054, -0.0517235808074474335, 0.0366572029888629913, 0.0231148432940244675, 0.0425977185368537903, 0.0078612081706523895, -0.0804668441414833069, 0.0674688741564750671, -0.0966109782457351685, 0.0042245783843100071, -0.0151791879907250404, -0.0020982224959880114, 0.0753122717142105103, -0.0741902887821197510, 0.0146940546110272408, 0.0931512862443923950, 0.0194350853562355042, 0.0382185429334640503, -0.0404864847660064697, -0.0607041306793689728, 0.0760354846715927124, -0.0178957264870405197, -0.0268108230084180832, -0.0541991516947746277, -0.3001678586006164551, -0.0879904106259346008, 0.2350602447986602783, 0.0254793930798768997, -0.0683667287230491638, 0.1173272430896759033, -0.0893926322460174561, -0.0075236586853861809, 0.0087954560294747353, -0.0757877156138420105, -0.0427710860967636108, 0.0156317092478275299, -0.0373021066188812256, -0.0515865199267864227, -0.0051124189049005508, -0.0350605361163616180, 0.0539893582463264465, -0.0867380350828170776, 0.0659280270338058472, -0.0721777901053428650, -0.1028328314423561096, -0.0263285171240568161, -0.0007722567534074187, -0.0379704944789409637, -0.1488981992006301880, -0.1132260635495185852, -0.0408397540450096130, 0.1111156418919563293, -0.0578886754810810089, -0.0317855589091777802, 0.0242378003895282745, -0.0004967174609191716, -0.0275856032967567444, -0.0742423981428146362, -0.0402671024203300476, 0.0612809956073760986, -0.0383521504700183868, -0.0402389392256736755, -0.0459366329014301300, -0.0338523536920547485, -0.0535661168396472931, -0.0075304862111806870, -0.0343286842107772827, 0.0925229191780090332, -0.0690591558814048767, 0.0200516209006309509, 0.0236279852688312531, 0.0046112504787743092, -0.0649660676717758179, -0.0227334611117839813, -0.0532460995018482208, -0.0505962409079074860, -0.0827971845865249634, -0.0648358166217803955, -0.0011992914369329810, -0.0101475585252046585, 0.0023868957068771124, 0.1078568175435066223, 0.0465707108378410339, -0.0672888904809951782, 0.0684347525238990784, 0.1019960567355155945, -0.0402260571718215942, -0.0266992896795272827, -0.0296181421726942062, 0.0673611611127853394, 0.2377751171588897705, -0.1010409742593765259, -0.0363300666213035583, -0.0610103607177734375, -0.0759315714240074158, -0.0725464895367622375, 0.0152371395379304886, 0.0078335506841540337, -0.0645359978079795837, 0.0239673759788274765, -0.0218338519334793091, 0.0342863053083419800, -0.0232766773551702499, 0.0436169318854808807, -0.0320214778184890747, 0.0046254587359726429, -0.1125608161091804504, -0.0601719580590724945, -0.1117606461048126221, 0.0370319299399852753, 0.0096078459173440933, 0.0108148371800780296, 0.0506198443472385406, 0.0171113386750221252, 0.0650790780782699585, -0.0206939708441495895, 0.0068312082439661026, 0.0142651582136750221, -0.0252402871847152710, -0.0615615546703338623, 0.0644115358591079712, 0.0635621771216392517, -0.0344932600855827332, -0.0248452778905630112, -0.0840212181210517883, 0.0424451380968093872, 0.0582761764526367188, 0.0327043980360031128, 0.0359174646437168121, -0.0161625016480684280, -0.0391323678195476532, 0.1662350147962570190, 0.0048739244230091572, 0.1122002154588699341, -0.0131388828158378601, 0.0143165728077292442, -0.0033266120590269566, -0.2114173173904418945, -0.1020509526133537292, 0.0534223392605781555, 0.1635942310094833374, -0.0068766297772526741, 0.1401562988758087158, 0.0678986459970474243, -0.0519433356821537018, 0.0037717325612902641, 0.0216824356466531754, -0.0721986144781112671, 0.1301940381526947021, -0.0044177882373332977, 0.0898218229413032532, -0.1531227529048919678, -0.1421399265527725220, -0.1278758496046066284, 0.1039309874176979065, -0.1021587848663330078, -0.0403615199029445648, 0.0025983008090406656, -0.0890116319060325623, -0.0571738258004188538, 0.0680489093065261841, -0.0104105407372117043, -0.0938902720808982849, -0.0632694810628890991, -0.1004241928458213806, 0.0099789872765541077, -0.0406713150441646576, 0.0871018618345260620, 0.0129411527886986732, 0.0698797628283500671, -0.0126227755099534988, -0.0940837860107421875, -0.0503830388188362122, -0.0747229084372520447, -0.0179230589419603348, 0.0160449407994747162, -0.0989760830998420715, -0.1516323536634445190, 0.0075405957177281380, 0.0484870672225952148, -0.0397284738719463348, -0.0514628067612648010, 0.0086490986868739128, -0.1222554817795753479, -0.0303796287626028061, -0.0204991251230239868, -0.0956782773137092590, -0.0123252868652343750, 0.0020512074697762728, 0.0429272800683975220, -0.0695377737283706665, 0.0282623469829559326, -0.0310165472328662872, -0.0416284054517745972, 0.0642924010753631592, 0.0741491392254829407, -0.0501488968729972839, -0.0663871616125106812, -0.0342761427164077759, -0.0633988380432128906, -0.0146266082301735878, 0.0770671144127845764, -0.0953926146030426025, 0.0026698759756982327, 0.0372997596859931946, 0.0470670163631439209, 0.0483494736254215240, -0.0321165397763252258, -0.1311058253049850464, -0.0835186094045639038, 0.0524170882999897003, 0.0112281218171119690, 0.1221108660101890564, -0.0028671945910900831, 0.0749570652842521667, 0.0238329507410526276, -0.0777906775474548340, -0.1114549562335014343, 0.2265472561120986938, -0.0821216255426406860, 0.0825039148330688477, 0.0797573253512382507, -0.0839458331465721130, -0.0369466245174407959, 0.0401409231126308441, -0.0216046683490276337, -0.0074971704743802547, -0.0185523349791765213, -0.0872165337204933167, 0.0261504147201776505, -0.0220547206699848175, 0.1072663143277168274, 0.0931739509105682373, -0.0669978559017181396, 0.0206072367727756500, -0.1041772812604904175, -0.1396637260913848877, 0.0064839571714401245, 0.1064278930425643921, 0.0685459822416305542, -0.0996421054005622864, -0.0747888982295989990, 0.0350699275732040405, 0.1032612845301628113, 0.0111250542104244232, 0.0077060074545443058, -0.0199311971664428711, 0.0323337204754352570, 0.0754921510815620422, -0.0310100726783275604, 0.0143208196386694908, 0.1247614249587059021, 0.0402351282536983490, -0.0392640605568885803, 0.0805969536304473877, 0.0297769866883754730, 0.0542286708950996399, 0.0458389408886432648, 0.0906574055552482605, 0.0924857333302497864, 0.0397483333945274353, 0.0465039946138858795, 0.0535931959748268127, 0.0427080914378166199, -0.0085180774331092834, -0.0019522598013281822, -0.0998763889074325562, -0.0070522143505513668, 0.0275902748107910156, -0.0050740512087941170, 0.0059678792022168636, 0.0556298159062862396, -0.1011588275432586670, -0.0169526226818561554, 0.0449342019855976105, 0.0668459832668304443, 0.0898211300373077393, 0.1003074198961257935, -0.0310146640986204147, 0.0393224731087684631, 0.0449569076299667358, -0.0503141321241855621, 0.0929869785904884338, 0.0262081604450941086, 0.0488806180655956268, -0.1120677962899208069, -0.0949069187045097351, 0.0210216268897056580, 0.0541121363639831543, 0.0398528873920440674, -0.0196106210350990295, 0.0310115590691566467, 0.0538805387914180756, -0.0436102710664272308, 0.0498336106538772583, 0.0945722982287406921, 0.0225836690515279770, -0.0171386711299419403, 0.0029045112896710634, -0.0647389665246009827, -0.0703448206186294556, -0.0379259809851646423, 0.0298940651118755341, 0.0835824161767959595, 0.0811654254794120789, -0.0946514829993247986, -0.0230254661291837692, 0.1782946884632110596, -0.0405656807124614716, 0.0057561197318136692, 0.0415840707719326019, -0.0676328316330909729, 0.0652174577116966248, 0.0369046628475189209, -0.0265118647366762161, 0.0949151962995529175, -0.1018298640847206116, -0.0107153626158833504, 0.0423296019434928894, 0.0700028687715530396, -0.0195569321513175964, 0.0077683189883828163, 0.0024766838178038597, 0.0805485770106315613, 0.0461772345006465912, 0.1166567727923393250, 0.0984846353530883789, 0.0508954003453254700, -0.0428115315735340118, -0.1452444195747375488, 0.0440248250961303711, 0.0048035685904324055, 0.1003221198916435242, 0.0408697538077831268, -0.0097170593217015266, 0.0222332347184419632, -0.0353725887835025787, -0.0178638212382793427, -0.0077704014256596565, -0.0146993370726704597, 0.0997768044471740723, -0.0097731864079833031, 0.0863977521657943726, -0.0411500185728073120, -0.1051510125398635864, 0.0299244076013565063, -0.1585595309734344482, 0.0841995403170585632, -0.0843689590692520142, 0.0520450696349143982, -0.0383458435535430908, -0.1119391992688179016, 0.0114648174494504929, -0.0234975405037403107, 0.0206278841942548752, -0.0993898734450340271, 0.0423931740224361420, -0.0474709533154964447, -0.0559743568301200867, 0.0332621112465858459, -0.0093203801661729813, 0.0172641612589359283, 0.0282523725181818008, 0.0412028916180133820, -0.0728584155440330505, -0.0105406707152724266, 0.1263946145772933960, 0.0409081354737281799, -0.0200270116329193115, -0.1537822335958480835, 0.0099490806460380554, 0.0410888604819774628, 0.0616484209895133972, -0.1021765470504760742, 0.0200406871736049652, -0.0279370695352554321, -0.0116903390735387802, -0.0020558503456413746, -0.0044761225581169128, 0.0147935058921575546, 0.0690425783395767212, 0.0354283787310123444, 0.0188881158828735352, -0.0743075534701347351, -0.0290921628475189209, 0.0014951108023524284, -0.0142774777486920357, 0.0687553212046623230, 0.1179090812802314758, -0.0011013384209945798, -0.0022290132474154234, 0.0273792520165443420, -0.0144343841820955276, -0.0949954241514205933, 0.0618318580090999603, -0.0976902991533279419, 0.0695551782846450806, -0.0122246965765953064, 0.0553402788937091827, 0.0499958097934722900, -0.0661243721842765808, -0.0662605538964271545, 0.0623738318681716919, 0.0329568088054656982, 0.0763483718037605286, 0.0269704908132553101, 0.0794689953327178955, -0.0323717817664146423, -0.0082305287942290306, -0.0331017002463340759, 0.1029820814728736877, 0.0743955075740814209, -0.0605159662663936615, -0.0111316218972206116, 0.0410094596445560455, 0.0274617560207843781, 0.0728940293192863464, 0.0761829167604446411, 0.0928642451763153076, 0.0318780578672885895, -0.0062049976550042629, 0.0443213060498237610, 0.0740868747234344482, 0.0316653922200202942, 0.0070878788828849792, -0.0336112529039382935, -0.1327494680881500244, 0.0154647687450051308, -0.0299401506781578064, -0.0170813314616680145, 0.0019941080827265978, 0.0141134019941091537, 0.0620129816234111786, -0.0132335890084505081, 0.0011321519268676639, -0.0270892325788736343, -0.0160408336669206619, -0.0635709092020988464, -0.0018135737627744675, 0.1168024465441703796, 0.0469865687191486359, 0.0747619643807411194, 0.0090652238577604294, -0.0269257500767707825, 0.0159212388098239899, 0.0924065932631492615, 0.0861311554908752441, 0.0517838262021541595, -0.0126180602237582207, 0.0336919128894805908, 0.1169696673750877380, -0.0435082092881202698, -0.0280988682061433792, -0.0659686326980590820, -0.0010508716804906726, -0.0681244060397148132, -0.0322543643414974213, 0.0773078948259353638, 0.0795217454433441162, -0.0093012088909745216, -0.0175663158297538757, 0.1038901284337043762, 0.1264932006597518921, 0.0758502706885337830, -0.1319693475961685181, -0.0363318398594856262, -0.0257319267839193344, 0.1151900961995124817, -0.0491458177566528320, 0.0931912139058113098, -0.0351371020078659058, -0.0716207996010780334, 0.0193083491176366806, 0.0533738918602466583, 0.0500708706676959991, 0.0530635602772235870, 0.0304315779358148575, -0.0568125508725643158, 0.1183545142412185669, 0.0048404191620647907, 0.1111139580607414246, 0.0829723179340362549, 0.0364054962992668152, -0.0572584643959999084, 0.0533810220658779144, 0.0338022038340568542, 0.0225556250661611557, 0.0832728743553161621, 0.0720914676785469055, -0.0194979421794414520, -0.0292819496244192123, -0.0286283697932958603, -0.0146613214164972305, 0.0132543547078967094, -0.0289200022816658020, -0.0343751162290573120, -0.0226746480911970139, 0.0561728253960609436, 0.0735019892454147339, -0.0306754317134618759, -0.1936658918857574463, -0.0401436537504196167, 0.0416459254920482635, -0.0706632062792778015, 0.0265611186623573303, 0.0470735915005207062, 0.0424623191356658936, 0.1537369042634963989, 0.0871128365397453308, -0.0688141956925392151, 0.0149137452244758606, -0.0037115127779543400, -0.0253855213522911072, -0.0393758229911327362, 0.0495309717953205109, 0.0715108290314674377, -0.0358211062848567963, 0.0193111188709735870, 0.0536316484212875366, -0.0211774241179227829, 0.1156126633286476135, -0.0297513529658317566, -0.0289912242442369461, -0.1965503692626953125, -0.0088433334603905678, -0.0173886772245168686, 0.0729517936706542969, 0.0694145038723945618, -0.1661733537912368774, -0.0898150503635406494, 0.0035379936452955008, 0.1054955720901489258, 0.1043986231088638306, 0.0070156734436750412, 0.0974050313234329224, 0.0479030795395374298, -0.1147058457136154175, -0.0586671940982341766, 0.2165007144212722778, -0.0980145633220672607, 0.0631568804383277893, -0.0332464613020420074, -0.0579691752791404724, -0.0721990168094635010, 0.0165745932608842850, 0.0697408691048622131, -0.1416181176900863647, 0.0647678822278976440, -0.0645571798086166382, -0.0150704532861709595, -0.0000893205942702480, 0.1080477312207221985, -0.0548363327980041504, 0.2055632472038269043, 0.0173782166093587875, 0.0141930254176259041, -0.0245051402598619461, -0.0270484983921051025, -0.0417775064706802368, -0.0563257038593292236, -0.0389214307069778442, -0.0624491125345230103, 0.0451859235763549805, 0.0431617647409439087, -0.0470610931515693665, -0.0417862683534622192, 0.0867931321263313293, -0.0607279762625694275, -0.0065242270939052105, 0.0411889776587486267, -0.0864505097270011902, 0.0753757134079933167, 0.1059484481811523438, 0.0109536917880177498, 0.0469236373901367188, -0.0771604478359222412, -0.0536715388298034668, 0.0098242359235882759, -0.1373110115528106689, -0.0999919995665550232, -0.0030888603068888187, -0.0509211421012878418, -0.0952850505709648132, 0.0331611223518848419, -0.0029419034253805876, -0.0130953136831521988, -0.0722813978791236877, -0.0869502201676368713, -0.0981434807181358337, 0.0345700159668922424, -0.0080050574615597725, 0.0495389774441719055, -0.0688148885965347290, -0.1425366699695587158, 0.0385170094668865204, -0.0703591704368591309, -0.0104577085003256798, -0.0473634935915470123, -0.0238859169185161591, -0.0519736483693122864, -0.0233855191618204117, -0.0247819013893604279, 0.1715842932462692261, -0.1619692891836166382, -0.0165691133588552475, -0.0377706997096538544, -0.0638612359762191772, 0.0012820903211832047, 0.0167712699621915817, -0.0249939970672130585, -0.0099236015230417252, -0.0668640509247779846, -0.0124708721414208412, -0.0366513058543205261, 0.0214970018714666367, -0.0317247770726680756, 0.0177163314074277878, -0.0426284335553646088, -0.0264573767781257629, -0.0152328396216034889, -0.0747522115707397461, 0.0210525430738925934, -0.0326854810118675232, -0.0538612976670265198, -0.0401822626590728760, -0.1551645249128341675, 0.0482804812490940094, -0.1955198645591735840, 0.0479999333620071411, 0.1192146018147468567, 0.0063725160434842110, -0.0355681851506233215, -0.0222435481846332550, 0.0042599332518875599, -0.0102031230926513672, -0.0011111655039712787, 0.0600422546267509460, -0.0843737423419952393, -0.0490285828709602356, -0.0434416048228740692, -0.0456058569252490997, 0.0419309996068477631, -0.1174949407577514648, 0.0153166698291897774, 0.0438526757061481476, -0.0029897382482886314, -0.0527435354888439178, -0.0112718455493450165, 0.0009378700633533299, 0.1603180170059204102, -0.0197791513055562973, -0.1228257566690444946, 0.0818389356136322021, -0.0270714927464723587, 0.0166688393801450729, -0.0408797971904277802, 0.0027360047679394484, -0.0466440692543983459, -0.0126651646569371223, -0.0734827816486358643, 0.0394921936094760895, -0.0469081066548824310, 0.0441619902849197388, 0.0404992625117301941, 0.0198728386312723160, 0.0481761507689952850, 0.1238512322306632996, -0.0336182601749897003, 0.0080714114010334015, -0.0460884384810924530, 0.0129323415458202362, -0.0564456507563591003, -0.0626619234681129456, -0.0065822950564324856, 0.0465518198907375336, -0.0143504329025745392, 0.0635108128190040588, 0.0322310701012611389, 0.0093603348359465599, -0.0028781034052371979, -0.0426649004220962524, -0.0663790628314018250, -0.0568942911922931671, 0.0526408031582832336, -0.1719014942646026611, 0.0958216488361358643, -0.0536266602575778961, 0.0000723768171155825, 0.0206072498112916946, -0.0668151006102561951, -0.0575939305126667023, 0.1921693086624145508, -0.0002604050387162715, 0.1592478454113006592, 0.0382427237927913666, 0.0023262733593583107, 0.0314937531948089600, 0.0105329351499676704, -0.0271762814372777939, -0.0387232042849063873, -0.0068346220068633556, 0.0864545553922653198, 0.0804904699325561523, 0.0799777433276176453, 0.0138888424262404442, 0.0321177542209625244, 0.0771357640624046326, -0.0172443874180316925, -0.0762475728988647461, 0.0324968695640563965, 0.0646710619330406189, -0.0085241012275218964, 0.0845104083418846130, -0.0370269753038883209, 0.0380946993827819824, 0.0542770400643348694, 0.0481789745390415192, 0.0216986294835805893, 0.0061107669025659561, -0.0508004687726497650, -0.1158782988786697388, 0.0493922792375087738, -0.0380037538707256317, 0.1160020902752876282, 0.0751789957284927368, -0.0745612159371376038, 0.0500134639441967010, 0.0373892001807689667, -0.0909887775778770447, -0.0942266434431076050, -0.1762033998966217041, -0.0598978325724601746, -0.0493565872311592102, 0.1348118335008621216, 0.0967235714197158813, -0.0239302869886159897, 0.0013519180938601494, 0.0254144594073295593, -0.1543546169996261597, 0.0359720848500728607, -0.0718077048659324646, -0.0237058755010366440, -0.0343320667743682861, 0.0317671447992324829, -0.0922148004174232483, 0.1758556962013244629, 0.1023297160863876343, -0.0826234072446823120, 0.1425948590040206909, -0.0154562285169959068, -0.0020504377316683531, 0.1287165284156799316, 0.0458809919655323029, -0.0000798513356130570, -0.0770869255065917969, 0.0767685472965240479, -0.0448298975825309753, 0.0141073539853096008, -0.0363773219287395477, 0.0587881952524185181, 0.0161396991461515427, 0.0426134727895259857, 0.1261654049158096313, 0.0717668458819389343, 0.0299145989120006561, 0.0415353998541831970, -0.0044305985793471336, 0.0641412958502769470, 0.0626289099454879761, 0.0740881189703941345, 0.0537378266453742981, -0.0648029893636703491, 0.0113816680386662483, 0.0019427856896072626, -0.0445746704936027527, -0.0462586283683776855, 0.0608297958970069885, -0.1782408356666564941, -0.0132106775417923927, -0.0369317531585693359, 0.0540295578539371490, 0.0191067066043615341, 0.0621511861681938171, 0.0523579195141792297, -0.0630416423082351685, 0.0388366319239139557, 0.0170958749949932098, -0.0130132129415869713, -0.0302696358412504196, 0.1012692227959632874, 0.0659679770469665527, 0.0612320452928543091, 0.0018042313167825341, -0.0253584608435630798, -0.2098456174135208130, -0.0647511333227157593, 0.0179005134850740433, 0.0310857016593217850, -0.0811144635081291199, -0.0804474577307701111, 0.1345992237329483032, -0.0019096361938863993, 0.0987933799624443054, 0.0328739285469055176, -0.0578988641500473022, -0.0696263238787651062, 0.0591196380555629730, -0.0000680851080687717, -0.0529678091406822205, 0.0197637490928173065, 0.0487513169646263123, 0.0916325151920318604, -0.0019663313869386911, 0.0695069506764411926, 0.0575830154120922089, 0.0497547276318073273, 0.0292366947978734970, -0.1598496288061141968, -0.1409724503755569458, 0.0514046140015125275, -0.0831892266869544983, 0.0337807945907115936, 0.0288664679974317551, 0.0593534037470817566, -0.0555785708129405975, 0.0291055981069803238, 0.0196735374629497528, 0.0280451532453298569, -0.0551223494112491608, 0.0689545869827270508, -0.0612029768526554108, 0.0613039918243885040, -0.0065928911790251732, 0.0111255124211311340, 0.0324725732207298279, 0.0213974751532077789, -0.0099828345701098442, -0.0272736139595508575, 0.1059495061635971069, 0.0306631829589605331, 0.0261979959905147552, -0.1515385955572128296, 0.0308702066540718079, -0.1325058490037918091, 0.1752151101827621460, -0.0316704995930194855, 0.0836401060223579407, -0.0913310572504997253, 0.1089152917265892029, 0.0629847422242164612, 0.0371975675225257874, -0.0032950125169008970, -0.0049619646742939949, 0.0074347797781229019, -0.0451264344155788422, 0.1045845896005630493, -0.1569483578205108643, -0.0669200867414474487, 0.0583249703049659729, -0.2096469253301620483, -0.0307297781109809875, 0.0204256176948547363, 0.0196266677230596542, -0.0331362076103687286, 0.0818760246038436890, -0.0542640276253223419, 0.0661137327551841736, -0.0190576370805501938, -0.0593530386686325073, 0.1055231466889381409, 0.0783430337905883789, 0.0689644739031791687, 0.1160711795091629028, -0.0215327125042676926, 0.1150476485490798950, 0.0311311855912208557, 0.0442853905260562897, 0.0473403036594390869, 0.1086349040269851685, -0.1075141876935958862, 0.0659393966197967529, -0.0499270074069499969, -0.0027695093303918839, 0.1111129000782966614, 0.0070098810829222202, 0.0490296036005020142, 0.0463322885334491730, 0.0846434980630874634, 0.1228185072541236877, 0.0119248069822788239, -0.0163604412227869034, 0.0668014436960220337, 0.1052189767360687256, -0.0366835929453372955, -0.0446341410279273987, 0.0573301427066326141, -0.0417302511632442474, -0.0926483944058418274, 0.0075935339555144310, 0.0310579873621463776, -0.0188351348042488098, -0.0164112877100706100, 0.0047856867313385010, 0.0677299574017524719, 0.0216012932360172272, -0.0046078758314251900, -0.0499220453202724457, -0.0259927250444889069, 0.1369032263755798340, -0.0310984067618846893, -0.0178682301193475723, 0.1236087605357170105, -0.1288969516754150391, -0.0179285444319248199, -0.0567576475441455841, -0.0796860158443450928, -0.0303929559886455536, 0.0288603957742452621, -0.0089127710089087486, -0.0386621579527854919, -0.1677123755216598511, -0.1761338710784912109, 0.0659936070442199707, 0.0119248703122138977, -0.0282958112657070160, 0.0437314659357070923, 0.0602023266255855560, -0.0782437026500701904, 0.0714976713061332703, -0.0329980738461017609, -0.0860680416226387024, 0.0253120660781860352, -0.0506613291800022125, -0.1069989725947380066, -0.0749542936682701111, -0.0690826177597045898, -0.0710104182362556458, 0.0511392094194889069, 0.1356003582477569580, 0.0367967672646045685, -0.1089406460523605347, -0.0203533843159675598, 0.0570161379873752594, -0.1247580498456954956, 0.0512431561946868896, 0.1583881974220275879, -0.0428206399083137512, -0.0722411125898361206, -0.0917728021740913391, 0.0888279229402542114, -0.0436485111713409424, -0.0717607885599136353, 0.0510149747133255005, -0.0851874053478240967, 0.1047416850924491882, 0.0539730414748191833, -0.1524217426776885986, 0.0308159701526165009, 0.0463468469679355621, 0.0137912500649690628, -0.0777616873383522034, -0.0885438844561576843, -0.0396936982870101929, -0.0364314354956150055, -0.0122694689780473709, 0.0269492398947477341, 0.0796547085046768188, -0.0575551092624664307, 0.0176597982645034790, 0.0592395141720771790, 0.0272007863968610764, -0.0173793751746416092, -0.0535001307725906372, -0.0217355787754058838, 0.0353955477476119995, 0.0003074349078815430, -0.0558902025222778320, 0.0231727473437786102, -0.0221676453948020935, -0.1129727438092231750, -0.0126781212165951729, 0.0174249801784753799, -0.0073842271231114864, -0.0729555189609527588, 0.1271459311246871948, 0.0059732734225690365, -0.0030152071267366409, 0.1394729167222976685, -0.0723533257842063904, 0.0935877412557601929, -0.1637393534183502197, 0.0127122737467288971, -0.0200899802148342133, 0.0207352899014949799, 0.0101654399186372757, 0.0299387164413928986, -0.0005498994723893702, -0.1224828064441680908, -0.0684726312756538391, 0.0279734395444393158, 0.0222192890942096710, 0.1094233468174934387, -0.0684744939208030701, -0.1420373320579528809, -0.0691477134823799133, 0.0804957300424575806, -0.0724754109978675842, 0.0592946521937847137, 0.0430746898055076599, 0.0196821633726358414, 0.0519818253815174103, 0.0087595265358686447, -0.0170230567455291748, 0.0165767949074506760, 0.0266333986073732376, 0.0891594365239143372, -0.0438717342913150787, 0.0014771569985896349, -0.0239227432757616043, -0.0495882555842399597, -0.0792657211422920227, 0.0234169885516166687, 0.0229653473943471909, -0.0426639318466186523, -0.0015882416628301144, -0.0619894824922084808, -0.0172459650784730911, 0.0582933798432350159, 0.0167572554200887680, 0.0713973864912986755, 0.0138075472787022591, -0.0153318392112851143, 0.0210808906704187393, -0.0694631710648536682, 0.0276175383478403091, 0.1122575998306274414, 0.0765224322676658630, -0.0352510698139667511, 0.0325656384229660034, -0.0913901999592781067, -0.0974958017468452454, 0.0209944229573011398, -0.0783064812421798706, -0.0887793079018592834, 0.0620655529201030731, 0.0289890170097351074, 0.0721938461065292358, -0.1124044731259346008, 0.0067966920323669910, -0.0486591905355453491, 0.1852578371763229370, -0.0586767792701721191, -0.0593528598546981812, 0.0341259017586708069, -0.1221369430422782898, -0.0331543050706386566, -0.0477000251412391663, 0.1530661582946777344, 0.0170458145439624786, -0.0239703767001628876, 0.0217466484755277634, 0.0129560017958283424, 0.0779597833752632141, 0.0976770147681236267, 0.1792828589677810669, -0.0812142789363861084, 0.0601726323366165161, -0.0725973322987556458, -0.1421760022640228271, 0.0330077335238456726, -0.0248231589794158936, 0.0768031403422355652, 0.0517613962292671204, 0.0405718199908733368, 0.0458701327443122864, 0.0619202330708503723, -0.0264300964772701263, 0.0558546483516693115, 0.1119627058506011963, -0.0644504129886627197, 0.0645491480827331543, -0.0316386744379997253, -0.0182992089539766312, 0.0865845158696174622, -0.1672023832798004150, 0.1025282740592956543, 0.0509783215820789337, 0.0371219478547573090, 0.0216989442706108093, -0.0197629518806934357, 0.0492336414754390717, 0.0873313322663307190, -0.0713229104876518250, 0.1346389055252075195, 0.0228262972086668015, -0.0400287322700023651, 0.0951352491974830627, -0.0827863961458206177, 0.0927936658263206482, -0.0718924701213836670, -0.0034641902893781662, 0.0763863846659660339, -0.0091017391532659531, -0.0144866881892085075, -0.0275643058121204376, 0.1148717775940895081, -0.0012832037173211575, 0.0515550673007965088, -0.0298032891005277634, 0.0827012732625007629, 0.0615914501249790192, 0.0270144715905189514, 0.0419287085533142090, -0.1028020605444908142, -0.1149464771151542664, -0.0390052683651447296, -0.0575561039149761200, -0.1057250648736953735, 0.1245304420590400696, 0.1979463994503021240, 0.0554610863327980042, 0.1000281423330307007, -0.0262853950262069702, -0.0621691197156906128, 0.0256874077022075653, 0.0319353900849819183, 0.0495937578380107880, 0.0779166072607040405, 0.1123666167259216309, -0.0009471367811784148, 0.0834646970033645630, -0.0741884186863899231, -0.0060834083706140518, 0.0265094377100467682, 0.0017106443410739303, 0.1321677863597869873, 0.1093510687351226807, -0.0676555708050727844, 0.0058662700466811657, 0.1365951150655746460, 0.0182060953229665756, 0.0155692463740706444, 0.0882489979267120361, -0.0790314227342605591, -0.1008282601833343506, 0.0166653431951999664, -0.0688103660941123962, 0.0292288437485694885, 0.0285251475870609283, -0.1315713971853256226, 0.0400465019047260284, 0.0634823888540267944, 0.0552830584347248077, -0.0104542402550578117, 0.0424248129129409790, -0.1342522948980331421, -0.0968179032206535339, -0.0242470577359199524, 0.0256802197545766830, -0.0355970039963722229, -0.0260194018483161926, 0.0562347099184989929, -0.0341922007501125336, -0.1012174710631370544, -0.0280759315937757492, -0.0621406473219394684, -0.0554052740335464478, -0.0221183672547340393, 0.0843497067689895630, 0.0351110771298408508, -0.0282158143818378448, 0.0165177788585424423, 0.0102952746674418449, 0.0348512046039104462, 0.0720313340425491333, -0.0780323147773742676, -0.0508447289466857910, -0.0118869040161371231, -0.0547244101762771606, 0.0189841166138648987, -0.0647490099072456360, -0.0474514700472354889, -0.1335425823926925659, -0.0012106060748919845, 0.0556847676634788513, -0.0050825369544327259, -0.1115157306194305420, -0.0602890774607658386, -0.0154468435794115067, 0.0776140242815017700, -0.0030055081006139517, -0.0354545675218105316, -0.0549570918083190918, 0.0126272374764084816, 0.0795145407319068909, -0.0098215751349925995, -0.1559874713420867920, 0.0100780297070741653, -0.0512817874550819397, 0.1039274185895919800, 0.0618814677000045776, -0.0349622592329978943, -0.0131752965971827507, 0.1696006059646606445, 0.0138376504182815552, 0.0310874022543430328, 0.0331093035638332367, 0.0826146826148033142, 0.0224139411002397537, 0.0333001911640167236, 0.0797506347298622131, -0.1212484389543533325, 0.0185456648468971252, -0.1124707162380218506, 0.0454505980014801025, 0.0002609951770864427, 0.0550733730196952820, -0.0324898399412631989, -0.0229699630290269852, -0.0266498196870088577, 0.0166386533528566360, -0.1129833012819290161, -0.0401759073138237000, -0.0284173432737588882, 0.0987989827990531921, 0.1314720660448074341, 0.0746851041913032532, -0.0418444760143756866, -0.0678995177149772644, -0.0370262712240219116, -0.0075696534477174282, 0.0147811891511082649, 0.0409966893494129181, -0.0394559428095817566, -0.0273486431688070297, 0.0542088188230991364, 0.0460458360612392426, -0.0436294972896575928, -0.0139024481177330017, 0.0870508402585983276, 0.0414118543267250061, 0.0244781598448753357, -0.0100478325039148331, -0.1474915742874145508, -0.0240216795355081558, -0.0259838830679655075, -0.0357995219528675079, 0.0671013221144676208, 0.0546061694622039795, -0.0613258183002471924, -0.0897108912467956543, -0.0298516340553760529, 0.0070872553624212742, 0.0254734195768833160, 0.0482291281223297119, 0.1035383418202400208, -0.0559921190142631531, 0.0862822979688644409, 0.0387901067733764648, -0.0509181022644042969, 0.0674708262085914612, -0.0491700693964958191, 0.1031223461031913757, 0.0372041203081607819, -0.0022723297588527203, -0.1482516974210739136, -0.0946247577667236328, -0.1250177919864654541, -0.0020987167954444885, -0.0674876570701599121, 0.0138444760814309120, -0.0421356856822967529, 0.0685707703232765198, 0.0209373123943805695, -0.0994662120938301086, 0.0601536333560943604, -0.0973420813679695129, -0.0088138282299041748, 0.0586909353733062744, 0.0804966539144515991, -0.1569126993417739868, -0.0230373423546552658, 0.0771246477961540222, 0.1765836477279663086, -0.0352013111114501953, 0.1209414005279541016, 0.0872640907764434814, -0.0343083590269088745, 0.0074304458685219288, -0.1805342137813568115, 0.0866078138351440430, 0.0145208183676004410, 0.0615378171205520630, 0.0270820930600166321, 0.0434587746858596802, 0.0081746475771069527, -0.0303246527910232544, 0.0170448925346136093, -0.0519716404378414154, 0.0121375741437077522, -0.0675361901521682739, 0.0872972160577774048, -0.0100429737940430641, -0.0983153581619262695, 0.0235080886632204056, -0.0309200435876846313, -0.1336626112461090088, -0.1024114340543746948, -0.0273207817226648331, 0.0050042769871652126, -0.0065493732690811157, -0.0126722855493426323, -0.0559027977287769318, -0.0411429777741432190, 0.0323405042290687561, -0.0106159280985593796, 0.0781420469284057617, -0.0209063049405813217, 0.0070988396182656288, 0.0028829493094235659, 0.0244358871132135391, 0.0678307339549064636, -0.0875223651528358459, -0.0694388672709465027, -0.0370549820363521576, 0.0191328208893537521, -0.0001644985022721812, 0.0586560778319835663, 0.1529931575059890747, 0.0329466573894023895, 0.0233451817184686661, -0.0853671133518218994, -0.0308811292052268982, -0.0197263024747371674, -0.0503844954073429108, -0.0394846014678478241, 0.0162795800715684891, 0.0494096390902996063, 0.0964227989315986633, 0.0166901852935552597, -0.0170064363628625870, 0.0506802201271057129, -0.0349780358374118805, 0.0703964829444885254, 0.0655263215303421021, 0.0189733710139989853, 0.0120372558012604713, 0.0913233384490013123, -0.0873971134424209595, -0.0604984350502490997, 0.0070885154418647289, 0.0452784895896911621, -0.0462740808725357056, -0.0079424157738685608, 0.0996394008398056030, -0.0931766405701637268, -0.0467127077281475067, 0.0430424287915229797, 0.0200175307691097260, 0.0598152093589305878, -0.0382073894143104553, 0.0586119890213012695, -0.1569671630859375000, 0.0128112705424427986, -0.1146145835518836975, 0.0320370458066463470, -0.0051589393988251686, 0.0132218869403004646, -0.1983883827924728394, -0.0100088203325867653, 0.0738118886947631836, -0.0384950749576091766, -0.0973209515213966370, -0.1390446871519088745, -0.0663410872220993042, 0.0489582121372222900, 0.0096474951133131981, -0.0115339495241641998, -0.0230324734002351761, 0.0214215889573097229, -0.0544809699058532715, 0.1208582893013954163, 0.0580032877624034882, 0.0200249031186103821, -0.0060968608595430851, 0.0794592872262001038, 0.0213859863579273224, 0.0476185940206050873, -0.1106880679726600647, 0.0340506546199321747, -0.0607328899204730988, 0.0304730944335460663, 0.0041373204439878464, 0.0763471126556396484, 0.0333420298993587494, -0.0082401679828763008, 0.0639444813132286072, -0.0097374171018600464, 0.0231922026723623276, -0.0381372496485710144, -0.0610059872269630432, 0.0639373734593391418, 0.0398199334740638733, -0.0501736104488372803, -0.0340639948844909668, -0.1048738881945610046, -0.0664267241954803467, 0.0052231578156352043, -0.0220046602189540863, -0.1051114574074745178, 0.0796975940465927124, -0.0862319320440292358, -0.0812288746237754822, 0.0909942537546157837, -0.1521799117326736450, 0.0343017093837261200, -0.0358199477195739746, 0.0217020157724618912, -0.0117552895098924637, 0.0786279737949371338, -0.1914325654506683350, 0.0250106193125247955, 0.0116021716967225075, 0.0098075130954384804, -0.1041407734155654907, -0.0846549198031425476, -0.0626778975129127502, 0.0516136437654495239, -0.1209298670291900635, 0.0676626339554786682, 0.0121908141300082207, 0.0767694637179374695, 0.0324591547250747681, -0.0882242247462272644, 0.0634116157889366150, 0.0506806261837482452, -0.0199494771659374237, -0.0079973954707384109, -0.0708316490054130554, -0.0136737972497940063, -0.0001432395947631449, -0.1167414188385009766, -0.0558059439063072205, 0.0511840097606182098, -0.0099334791302680969, -0.0622805170714855194, 0.0055403648875653744, -0.1000674515962600708, -0.0056531247682869434, -0.0276114437729120255, 0.0167837385088205338, 0.1032388135790824890, -0.1297426968812942505, 0.0090958978980779648, -0.0055626803077757359, -0.0549735128879547119, -0.0427561588585376740, -0.0118629578500986099, -0.1042537614703178406, -0.0930541157722473145, 0.0613121762871742249, -0.0072744344361126423, -0.1042817607522010803, -0.0090857893228530884, 0.0378607697784900665, 0.0050991019234061241, -0.0130027355626225471, 0.1617041677236557007, 0.0450203344225883484, 0.1482528299093246460, -0.0687102302908897400, -0.0265742596238851547, 0.1046750098466873169, 0.0689759775996208191, 0.1022501662373542786, 0.1041378974914550781, -0.0564387626945972443, 0.0525374561548233032, 0.0438956990838050842, 0.0533617138862609863, 0.0072247814387083054, -0.1033530309796333313, 0.0127064576372504234, -0.0210552792996168137, 0.1270008534193038940, 0.0576335899531841278, 0.1166938468813896179, -0.0835670977830886841, 0.0048170564696192741, 0.0520222671329975128, 0.0570285879075527191, -0.0594707354903221130, -0.0900134220719337463, 0.0317159555852413177, 0.0346405133605003357, 0.0215251632034778595, 0.0606289431452751160, -0.0263047683984041214, -0.1605867147445678711, -0.1696446537971496582, -0.0856808945536613464, -0.0416885502636432648, -0.1188382878899574280, -0.0308577138930559158, 0.0429518260061740875, 0.1069849804043769836, 0.0157107058912515640, -0.0163918230682611465, 0.0425872206687927246, -0.0772019028663635254, -0.0495835207402706146, -0.1126160696148872375, -0.1341457515954971313, -0.0398854725062847137, 0.0037554756272584200, -0.0333478450775146484, 0.0037332167848944664, -0.0528049655258655548, 0.0094874752685427666, 0.0108778579160571098, 0.0302135646343231201, -0.0974531024694442749, -0.0069889263249933720, -0.1774315387010574341, 0.0316886566579341888, -0.0566067248582839966, -0.0305478051304817200, -0.0095071699470281601, 0.1052762120962142944, 0.0198465231806039810, -0.0287900287657976151, 0.0461205802857875824, 0.0411368757486343384, 0.0587653554975986481, -0.0207517966628074646, 0.0767736658453941345, -0.0108819138258695602, 0.0705330520868301392, 0.0157517902553081512, 0.1572817713022232056, -0.0172540806233882904, -0.0478977002203464508, 0.1353916972875595093, -0.0088806012645363808, -0.0077441837638616562, -0.1844644993543624878, 0.1244123727083206177, -0.0357383377850055695, 0.1759045124053955078, -0.0735970810055732727, 0.1319812834262847900, 0.0580712482333183289, 0.1158097758889198303, -0.0754705443978309631, -0.1324343681335449219, 0.1048137322068214417, -0.0874951556324958801, 0.0582677014172077179, -0.0726985260844230652, 0.0020135545637458563, 0.0790552198886871338, 0.0385825000703334808, 0.0178519431501626968, 0.0034812695812433958, -0.0563160590827465057, 0.0988925620913505554, 0.0300406105816364288, 0.0798900574445724487, -0.0245163161307573318, 0.1387006044387817383, -0.1184092909097671509, -0.1707050204277038574, -0.0417320206761360168, 0.0351394079625606537, 0.0344052053987979889, 0.0139864366501569748, -0.0283431690186262131, 0.1451149135828018188, 0.0393663980066776276, 0.0967015847563743591, 0.0032163525465875864, -0.0159476306289434433, -0.0506742410361766815, 0.1085061728954315186, 0.0663916915655136108, 0.0726624578237533569, -0.0306557081639766693, 0.0332643315196037292, 0.0717140957713127136, -0.0618451982736587524, 0.0621822662651538849, -0.0070077124983072281, 0.0136875137686729431, 0.0379765853285789490, 0.1445322483777999878, 0.0858325511217117310, -0.0577041208744049072, 0.0724116414785385132, 0.0232116878032684326, 0.1006944179534912109, -0.0082534076645970345, 0.0800716355443000793, 0.1059283316135406494, 0.1588388681411743164, 0.0440596491098403931, -0.1375085264444351196, -0.0559494644403457642, 0.0407729223370552063, 0.0418450720608234406, -0.0137315783649682999, 0.1170660853385925293, 0.0332409963011741638, 0.0563625320792198181, 0.0563720241189002991, 0.0130834141746163368, 0.0847661346197128296, 0.0265123713761568069, -0.0950583368539810181, -0.0653670728206634521, 0.0379936322569847107, -0.0855906158685684204, 0.0448757819831371307, -0.0241593401879072189, 0.0177924130111932755, -0.2001013159751892090, 0.0193735025823116302, -0.0268674362450838089, -0.0053397798910737038, -0.0801432728767395020, 0.0934574678540229797, 0.0679120123386383057, 0.0324563235044479370, -0.0185462124645709991, 0.0467397905886173248, -0.0229731462895870209, -0.0454552620649337769, 0.0496577806770801544, -0.0012363316491246223, 0.0323393493890762329, -0.0541479066014289856, -0.0122054787352681160, 0.1877345889806747437, 0.0763524994254112244, -0.0299420058727264404, -0.0308814905583858490, -0.0482312068343162537, 0.0135554075241088867, 0.0446204505860805511, -0.0328928977251052856, -0.0762958154082298279, 0.0042710569687187672, -0.1155280321836471558, 0.0570890195667743683, 0.0143486363813281059, 0.0091061256825923920, 0.0882505327463150024, 0.0619423426687717438, 0.0702880173921585083, -0.0642430037260055542, 0.0485732816159725189, -0.0664183720946311951, 0.1097130700945854187, 0.0626451596617698669, -0.0361071489751338959, 0.0916078090667724609, 0.0003650084836408496, -0.0220048781484365463, -0.0293106306344270706, -0.0614459551870822906, 0.0618982985615730286, 0.0472638607025146484, -0.0201269518584012985, 0.0542884580790996552, 0.1011648774147033691, 0.0572161264717578888, 0.1196081042289733887, -0.1238464415073394775, 0.0447921678423881531, -0.0562448650598526001, -0.0865305364131927490, -0.1287739127874374390, 0.0414815358817577362, -0.0367857776582241058, 0.0224151704460382462, 0.0479271374642848969, -0.0944569855928421021, 0.0373071543872356415, -0.0294348187744617462, -0.0041530909948050976, 0.0931375548243522644, 0.1257231980562210083, 0.0493377447128295898, 0.0270418394356966019, 0.0060284603387117386, -0.0111243566498160362, -0.0272744875401258469, -0.0472683571279048920, -0.0126628531143069267, 0.0021211733110249043, 0.0408897437155246735, 0.0558638013899326324, 0.0016990738222375512, 0.0533861815929412842, 0.0086771259084343910, -0.0184841714799404144, -0.0815152823925018311, 0.1017423197627067566, -0.0755141898989677429, 0.0190147422254085541, -0.0459979400038719177, 0.0282681416720151901, -0.0067140101455152035, 0.0494808405637741089, -0.0354579985141754150, -0.0045383730903267860, 0.1463165432214736938, 0.0408066399395465851, 0.0471949949860572815, -0.0129102449864149094, -0.0641619414091110229, -0.1017560437321662903, -0.0136674717068672180, 0.0455934517085552216, -0.0399895273149013519, 0.0358177125453948975, -0.0319218337535858154, -0.0189194232225418091, 0.0256265662610530853, 0.0484348088502883911, -0.0312448833137750626, 0.0204077400267124176, 0.0196414887905120850, 0.0677599906921386719, -0.0058003780432045460, 0.0138062378391623497, -0.0547144748270511627, -0.0201440211385488510, 0.0648084655404090881, 0.0538902878761291504, 0.0991542190313339233, -0.0116553548723459244, -0.0044324300251901150, -0.0424074195325374603, 0.0001891844149213284, -0.1194498762488365173, 0.0453056246042251587, 0.0235768184065818787, -0.0855468735098838806, -0.0992732271552085876, -0.0511214584112167358, 0.0267060529440641403, -0.0256525222212076187, 0.0157811995595693588, -0.0330930761992931366, 0.1251866519451141357, -0.0375944562256336212, 0.0675513744354248047, 0.0566588416695594788, 0.0463741198182106018, 0.0078884465619921684, -0.0484627261757850647, -0.0688927546143531799, 0.0736951828002929688, 0.0348201990127563477, 0.1136538833379745483, -0.0149634033441543579, 0.0567919015884399414, -0.0649748072028160095, -0.1407356560230255127, -0.0310119017958641052, -0.0134307108819484711, 0.0063098226673901081, 0.0948849692940711975, -0.0292440038174390793, -0.0223453976213932037, 0.0185586567968130112, -0.0624794885516166687, 0.0491006560623645782, -0.0067105242051184177, 0.1833072602748870850, 0.0180826857686042786, 0.0483300313353538513, 0.0020583497826009989, 0.1031563431024551392, 0.0390212237834930420, 0.0481807366013526917, 0.0444772988557815552, -0.0609037615358829498, 0.1739016771316528320, 0.0808565095067024231, 0.0565223470330238342, 0.0025004239287227392, 0.0777165964245796204, 0.0549326166510581970, 0.0772573277354240417, 0.0421364754438400269, 0.0082390960305929184, -0.0667176097631454468, -0.0252042971551418304, 0.0453785359859466553, -0.0686449408531188965, 0.0676763877272605896, 0.0778896436095237732, -0.1049484312534332275, -0.0345007963478565216, 0.0033968116622418165, 0.0678597539663314819, 0.0066131404601037502, -0.0556604787707328796, -0.0271802768111228943, 0.0108617320656776428, 0.0238642226904630661, 0.0416513457894325256, 0.0144423022866249084, 0.0618902072310447693, 0.0454729609191417694, -0.1173592209815979004, -0.0381882227957248688, 0.1361890435218811035, -0.0497720278799533844, 0.0310660637915134430, 0.1369553953409194946, 0.0285421740263700485, -0.0111222248524427414, 0.0310448240488767624, -0.0910258069634437561, 0.0182625669986009598, 0.0100780175998806953, -0.0447551012039184570, -0.0229162853211164474, -0.0554460659623146057, 0.0184234734624624252, 0.0662866011261940002, 0.0804946944117546082, 0.0023853166494518518, 0.1081374436616897583, 0.0337414778769016266, 0.0119669642299413681, 0.0177018716931343079, -0.0901519581675529480, -0.0620154514908790588, -0.0508124083280563354, -0.0577828660607337952, -0.0072701801545917988, -0.0921731591224670410, -0.0276392996311187744, 0.0389780029654502869, -0.0487521365284919739, -0.0120072280988097191, -0.0008535955566912889, 0.0696625337004661560, 0.0551457293331623077, 0.0495737716555595398, -0.0226248819380998611, 0.0834125801920890808, 0.0604581013321876526, 0.0375270172953605652, -0.0775706693530082703, -0.0604093149304389954, -0.0060484348796308041, -0.0377748087048530579, 0.0566892884671688080, 0.0248298067599534988, 0.0636185184121131897, -0.0680958256125450134, -0.1032569333910942078, -0.0478117577731609344, 0.0474021583795547485, 0.0644692108035087585, -0.0329758971929550171, 0.0341699942946434021, 0.0503357946872711182, -0.1389995515346527100, -0.0047053699381649494, -0.0029057313222438097, 0.0387117937207221985, 0.1028470471501350403, -0.0212875455617904663, 0.0792362689971923828, 0.0730126649141311646, -0.0285207815468311310, 0.0063643502071499825, 0.1711156815290451050, -0.1091069206595420837, -0.0204092115163803101, 0.0251427348703145981, 0.0386448390781879425, -0.0502377115190029144, -0.0193131119012832642, 0.0123922945931553841, -0.0084809837862849236, 0.1015308350324630737, -0.0470185466110706329, 0.0916188359260559082, -0.0101757654920220375, 0.0547479055821895599, -0.0022551091387867928, 0.0171817000955343246, 0.0140815945342183113, -0.0621307417750358582, -0.0012176166055724025, 0.0361174046993255615, 0.0115420296788215637, -0.0652593374252319336, 0.0092314891517162323, 0.0136221181601285934, -0.0596017353236675262, 0.1529426127672195435, -0.1255429536104202271, -0.0055401464924216270, -0.0390874817967414856, 0.0809522867202758789, -0.0362683087587356567, -0.0877451002597808838, 0.0465102493762969971, 0.0000372973590856418, -0.0421640798449516296, 0.0521672479808330536, -0.0234904810786247253, -0.0177618674933910370, 0.0042293658480048180, 0.0754612237215042114, 0.0224331766366958618, -0.0493352152407169342, -0.0611294843256473541, 0.0253785289824008942, -0.0130832968279719353, 0.0370887629687786102, -0.0198826733976602554, 0.0639934092760086060, -0.0629745125770568848, -0.0143900662660598755, 0.1103939861059188843, 0.0032618609257042408, -0.0833943635225296021, -0.0905312225222587585, -0.0181087944656610489, -0.0251735318452119827, -0.1039370372891426086, 0.0220318976789712906, 0.0098741920664906502, 0.0089480625465512276, 0.0627890825271606445, 0.0253107715398073196, 0.0230626091361045837, -0.0668661072850227356, 0.0674591287970542908, -0.0155039019882678986, -0.1036597341299057007, 0.0291774552315473557, 0.0149905849248170853, -0.0211934000253677368, 0.0657686963677406311, 0.0422772206366062164, 0.0038416308816522360, -0.0106896739453077316, 0.0563743226230144501, 0.0809904485940933228, -0.0287634208798408508, 0.0488944537937641144, 0.0165269766002893448, -0.0135440481826663017, 0.0999666750431060791, -0.0308433901518583298, 0.0068939956836402416, -0.0447410643100738525, 0.0601681247353553772, -0.0126294810324907303, -0.0047585577704012394, 0.0990113765001296997, 0.0338441655039787292, 0.1901999562978744507, 0.0401154160499572754, -0.0811203867197036743, -0.0717306584119796753, 0.0151238059625029564, 0.0884403958916664124, -0.0563993193209171295, -0.0065517215989530087, -0.0142723452299833298, -0.0105896815657615662, 0.0688074082136154175, 0.0990099459886550903, 0.0903224647045135498, -0.0565922521054744720, -0.0948718935251235962, 0.0933847799897193909, -0.0530496500432491302, -0.0533502250909805298, 0.0037537957541644573, 0.0753413885831832886, -0.0254605244845151901, -0.0552641376852989197, -0.1224968358874320984, -0.0234737582504749298, -0.0999468341469764709, 0.0601263754069805145, 0.0073375455103814602, -0.0241401344537734985, -0.0332506932318210602, -0.0709968432784080505, 0.0145734809339046478, -0.0722650215029716492, -0.0068293730728328228, 0.0861943960189819336, 0.0523120053112506866, -0.0323402732610702515, 0.0381327942013740540, -0.0189722459763288498, 0.0921874567866325378, -0.0107393153011798859, -0.0771041214466094971, -0.0593675188720226288, -0.0117828724905848503, -0.0876493230462074280, -0.0934719964861869812, 0.0281583983451128006, 0.1034561395645141602, -0.0531628653407096863, 0.0650793537497520447, 0.0914599671959877014, -0.0371865294873714447, -0.0683410689234733582, -0.0141767691820859909, -0.0147137884050607681, -0.0258026402443647385, 0.0679484680294990540, 0.0964579805731773376, -0.1041307896375656128, 0.0194782763719558716, 0.0248366910964250565, -0.0519138388335704803, 0.0051052472554147243, 0.0629129633307456970, -0.0360920950770378113, 0.0111365085467696190, -0.0330869331955909729, -0.0728579387068748474, -0.0104143647477030754, -0.0794900655746459961, -0.0633912384510040283, -0.0328681729733943939, 0.0636495128273963928, 0.0203096773475408554, -0.1100360527634620667, -0.0213380567729473114, 0.0151854734867811203, -0.0141156539320945740, -0.0513383410871028900, 0.0108595117926597595, -0.0022749351337552071, 0.0911429598927497864, 0.0616410002112388611, 0.0103485425934195518, -0.1043079271912574768, -0.0692701488733291626, -0.1789673715829849243, 0.0436913035809993744, 0.0803332701325416565, -0.0273283738642930984, 0.0643499717116355896, 0.0009438748238608241, -0.0293110217899084091, -0.0693093314766883850, -0.1607559621334075928, 0.0960933044552803040, 0.0104710496962070465, 0.0176922678947448730, 0.1190889105200767517, 0.0103153204545378685, 0.0060248766094446182, -0.0784543529152870178, -0.0110593894496560097, 0.0190979279577732086, 0.0833311229944229126, -0.1371496617794036865, 0.0821561142802238464, 0.0670853406190872192, -0.0216315351426601410, -0.0141138443723320961, 0.0450241677463054657, -0.0582129023969173431, -0.0072513041086494923, -0.0068665342405438423, -0.0610842965543270111, 0.0082258908078074455, 0.0700713470578193665, 0.0254178736358880997, -0.0219264701008796692, -0.0446528568863868713, 0.0361991859972476959, 0.0347084254026412964, -0.1235219016671180725, -0.0057800943031907082, -0.0785737633705139160, -0.0327044501900672913, -0.0972035899758338928, -0.0412860065698623657, 0.0177790299057960510, 0.0245684273540973663, 0.0387835353612899780, -0.0012030574725940824, -0.0300637371838092804, -0.0206054244190454483, -0.0445889905095100403, 0.0009387394529767334, -0.0335280746221542358, 0.0095224082469940186, -0.1166854798793792725, -0.0197227932512760162, -0.0643229112029075623, -0.0107417860999703407, -0.0216395370662212372, 0.0173852704465389252, -0.0699964389204978943, -0.1239694505929946899, 0.0014528743922710419, -0.0314653813838958740, 0.0182467345148324966, -0.0382177606225013733, -0.1128162518143653870, 0.1075707823038101196, -0.0265683252364397049, -0.0452636294066905975, 0.0746889412403106689, 0.0590627752244472504, -0.0786800533533096313, -0.0671603158116340637, -0.0398361645638942719, 0.0123730553314089775, -0.0425817109644412994, -0.0164725556969642639, 0.0958195254206657410, 0.0214826650917530060, -0.0182508882135152817, -0.0407213903963565826, -0.0459185242652893066, 0.1190593689680099487, 0.0483198799192905426, -0.2399691194295883179, -0.0654656961560249329, -0.0888762995600700378, -0.0521849393844604492, -0.0369649231433868408, -0.0121123054996132851, 0.0270230248570442200, 0.0287219975143671036, -0.1013694703578948975, 0.0312372054904699326, 0.0787423998117446899, 0.0125068649649620056, 0.0506585538387298584, -0.0008480320684611797, 0.0206551477313041687, -0.0798435509204864502, -0.0390446595847606659, 0.0212056916207075119, 0.0618529915809631348, -0.0881069228053092957, -0.0404299944639205933, -0.0994777828454971313, 0.0654923915863037109, 0.0459762364625930786, -0.0023179186973720789, -0.0479037649929523468, 0.0531568638980388641, 0.0369264632463455200, -0.1896201670169830322, -0.0783343538641929626, -0.0607157982885837555, -0.0706031247973442078, 0.0349983461201190948, 0.0240635368973016739, -0.0468863733112812042, 0.0285483766347169876, 0.0788519158959388733, 0.0493617504835128784, 0.0734532400965690613, -0.0031918983440846205, -0.0194112155586481094, -0.0719571635127067566, 0.0464431159198284149, -0.0410294532775878906, -0.0310719981789588928, -0.0595106519758701324, -0.0459758825600147247, 0.0415792278945446014, -0.0167508330196142197, 0.0532878078520298004, 0.0251571666449308395, -0.0417046621441841125, 0.0077699697576463223, -0.0371263511478900909, 0.0803748592734336853, -0.0768449157476425171, -0.0247141420841217041, 0.0087082572281360626, -0.1387172341346740723, 0.0818499699234962463, 0.0313831157982349396, 0.0072388350963592529, 0.0904835313558578491, -0.0335915535688400269, -0.3846863508224487305, 0.0279246792197227478, -0.0387165136635303497, -0.0172186680138111115, -0.0823241993784904480, 0.0454712472856044769, 0.0570636168122291565, -0.0933559462428092957, 0.0605243220925331116, -0.0150381950661540031, -0.0691099762916564941, -0.0505993776023387909, 0.0536008290946483612, 0.0352851115167140961, -0.0145071316510438919, 0.1099645644426345825, -0.0102615719661116600, 0.0864152833819389343, -0.0873106196522712708, 0.0938736796379089355, -0.0262980777770280838, 0.0804709419608116150, 0.0169599764049053192, 0.0293814297765493393, -0.0232431478798389435, 0.0062017957679927349, 0.0318477489054203033, -0.0256883483380079269, -0.0243460442870855331, 0.0335447974503040314, 0.0511604584753513336, 0.1200529783964157104, 0.0249423291534185410, -0.2000774592161178589, -0.0141344191506505013, 0.0943064093589782715, 0.0942488312721252441, -0.0038699309807270765, -0.0325196832418441772, 0.1071413755416870117, -0.0661898776888847351, -0.0404491722583770752, -0.0432497709989547729, -0.0040094577707350254, 0.0527886189520359039, -0.0162491668015718460, 0.0429365001618862152, 0.0939899235963821411, -0.0507723279297351837, -0.1464993804693222046, 0.0304336268454790115, 0.0534563399851322174, 0.0585480816662311554, 0.0145155256614089012, -0.0231824424117803574, 0.1445868164300918579, 0.1069240868091583252, 0.0255381930619478226, 0.0493131913244724274, 0.0043827383778989315, 0.0794400572776794434, 0.1354651153087615967, 0.0428055748343467712, -0.1649195551872253418, -0.0307223070412874222, 0.0443728268146514893, -0.0545885264873504639, -0.0788360983133316040, 0.0584635734558105469, -0.0238686855882406235, -0.0001383557828376070, 0.0364229269325733185, -0.0667503923177719116, 0.0152601227164268494, -0.0310496632009744644, 0.0507130585610866547, 0.0111540649086236954, 0.0111128082498908043, -0.1029898151755332947, 0.0246226917952299118, -0.1018694937229156494, -0.0825400128960609436, 0.0014068193268030882, -0.0086743328720331192, -0.0213561654090881348, 0.0849508941173553467, -0.0260142255574464798, 0.0526918657124042511, -0.0175343398004770279, -0.1189979016780853271, -0.0703888460993766785, -0.0010654082288965583, 0.0092468187212944031, 0.0444156304001808167, -0.0518906749784946442, 0.0749793201684951782, 0.0978657379746437073, 0.0145793315023183823, 0.0966483354568481445, 0.0314844325184822083, 0.1144918054342269897, -0.0017676193965598941, -0.0111913783475756645, 0.0297693833708763123, 0.0170096810907125473, 0.0608729235827922821, -0.1737536340951919556, -0.0294440984725952148, -0.0075732367113232613, -0.1141310036182403564, 0.0109326634556055069, 0.0199054628610610962, 0.0850943848490715027, 0.0890189483761787415, 0.0853213518857955933, 0.0860655233263969421, 0.0165705643594264984, 0.1260822117328643799, -0.0409975796937942505, -0.0196177307516336441, 0.1602018326520919800, -0.0620833486318588257, -0.0215261261910200119, 0.0652335584163665771, 0.0965442284941673279, -0.0092550581321120262, 0.0273464750498533249, -0.1315917521715164185, 0.0317153260111808777, -0.0659174323081970215, 0.0835183560848236084, 0.0165236648172140121, 0.0993332862854003906, 0.0015040565049275756, -0.0784101933240890503, 0.0269300732761621475, 0.0708761513233184814, -0.0348557904362678528, 0.0937545374035835266, 0.0043285619467496872, 0.1323885619640350342, 0.1322798579931259155, -0.1064022704958915710, 0.0241858623921871185, -0.0683625787496566772, -0.0064280549995601177, 0.1352991908788681030, -0.0603555329144001007, 0.0861051380634307861, 0.1216731145977973938, 0.0090766167268157005, -0.1356900334358215332, 0.0069264769554138184, -0.0718319937586784363, 0.0436580553650856018, -0.0065665170550346375, -0.0842808857560157776, -0.0285952091217041016, 0.0856339856982231140, 0.0025666065048426390, -0.0919395387172698975, -0.1050338447093963623, 0.1631058901548385620, 0.0450343824923038483, -0.0758860483765602112, -0.1152000799775123596, -0.0094339940696954727, 0.0131420558318495750, -0.0110012609511613846, -0.0021639275364577770, -0.1125652864575386047, -0.0626461058855056763, 0.0494001805782318115, 0.0457362644374370575, 0.0303455907851457596, 0.0459706671535968781, 0.0874390304088592529, 0.0486976131796836853, 0.0328536592423915863, 0.0054075787775218487, 0.0530176609754562378, 0.1568942666053771973, -0.0331606455147266388, -0.0603603236377239227, -0.0018944498151540756, -0.0643076822161674500, -0.1287644207477569580, 0.0784699097275733948, -0.0513660386204719543, -0.0850974321365356445, 0.0674086287617683411, -0.0905429422855377197, -0.1747197061777114868, -0.1210792809724807739, -0.0591802857816219330, 0.0630218982696533203, 0.0315291360020637512, -0.0043653151951730251, 0.0196703895926475525, 0.0296345110982656479, -0.1066100448369979858, 0.0192019902169704437, -0.0197928957641124725, 0.0404600538313388824, -0.0718417614698410034, 0.0313159674406051636, -0.1057795211672782898, -0.0255073532462120056, -0.0756161883473396301, 0.0204250961542129517, 0.0921861454844474792, -0.0320233181118965149, -0.0588004663586616516, -0.0349267944693565369, -0.0621850378811359406, -0.0325372256338596344, 0.1251223683357238770, 0.1063525900244712830, 0.0155059657990932465, -0.0396809056401252747, 0.1017689183354377747, -0.0587888397276401520, -0.0888322070240974426, -0.0043322462588548660, 0.0150790251791477203, 0.0884359553456306458, -0.0084158107638359070, -0.0097041726112365723, -0.0993012934923171997, -0.1046280562877655029, 0.0001808194210752845, -0.0605519078671932220, -0.0848815813660621643, 0.0120302187278866768, -0.1389218717813491821, -0.0620304159820079803, 0.0554492622613906860, -0.1546360403299331665, -0.0913814455270767212, 0.0009631215361878276, -0.0828720033168792725, -0.0644926130771636963, 0.0830794274806976318, -0.0327477380633354187, 0.0066391979344189167, 0.0220235176384449005, 0.0124666215851902962, 0.0725798308849334717, 0.0394083298742771149, -0.0906472951173782349, 0.1175040751695632935, -0.0243232864886522293, 0.0371627509593963623, 0.0646174848079681396, -0.0092058349400758743, -0.1337880045175552368, -0.0708559826016426086, 0.0704473033547401428, 0.0489166565239429474, -0.0127314273267984390, 0.0208685509860515594, 0.0805286988615989685, 0.0445403046905994415, -0.1693012416362762451, -0.0362652540206909180, 0.0564507730305194855, -0.0321626439690589905, 0.0270664598792791367, -0.0267587434500455856, -0.0083193816244602203, -0.1377892047166824341, 0.0579499155282974243, -0.0320928320288658142, 0.0702750012278556824, 0.1254765391349792480, 0.0448702275753021240, -0.0293021053075790405, 0.0755212903022766113, -0.0115774264559149742, -0.0294650308787822723, -0.1968693435192108154, 0.0478825233876705170, -0.0310159586369991302, 0.0761122032999992371, 0.0237073805183172226, -0.0054117054678499699, 0.0907442346215248108, -0.0184440091252326965, 0.0465787202119827271, 0.0499487817287445068, 0.0808658674359321594, 0.0572756454348564148, 0.0823658108711242676, 0.0611220411956310272, 0.0253915507346391678, 0.0116295125335454941, 0.0849408283829689026, 0.0640145912766456604, -0.0447579100728034973, 0.0308974590152502060, -0.0174208898097276688, -0.0245988517999649048, 0.1377172470092773438, 0.1251946985721588135, 0.0334224663674831390, -0.0442471578717231750, -0.0086269034072756767, -0.0872286558151245117, 0.0508142970502376556, -0.0775078013539314270, -0.0999780893325805664, 0.0216676685959100723, 0.0290174838155508041, 0.0236067548394203186, 0.0097133666276931763, 0.0086721116676926613, -0.1245564073324203491, 0.0872648358345031738, 0.1242674514651298523, -0.1299443542957305908, -0.0511585362255573273, 0.0121990088373422623, -0.0999546572566032410, -0.0681852996349334717, -0.0044223484583199024, -0.0525013543665409088, 0.0134796770289540291, -0.0988509282469749451, 0.1154343485832214355, 0.0834198296070098877, -0.1038919240236282349, -0.0156341977417469025, 0.0343050435185432434, -0.0410152822732925415, -0.2032673209905624390, 0.0476407408714294434, 0.0213402155786752701, -0.0320423729717731476, 0.1122562214732170105, -0.0515122637152671814, 0.0243275444954633713, 0.0920424237847328186, 0.0892621949315071106, -0.0781221985816955566, -0.0610211938619613647, 0.0237774997949600220, -0.0862682387232780457, -0.0726374238729476929, -0.1246079728007316589, -0.0991902947425842285, -0.0077957822941243649, 0.0232680067420005798, -0.0982604324817657471, 0.0551082789897918701, -0.0464191325008869171, -0.0514764599502086639, -0.0557473450899124146, 0.1054423898458480835, 0.1337184906005859375, 0.0249088164418935776, 0.0826849415898323059, -0.0255191717296838760, -0.0125745246186852455, -0.1647357493638992310, -0.0014898342778906226, -0.1426693797111511230, 0.0676536262035369873, 0.1182677522301673889, 0.1464215964078903198, -0.1345059871673583984, -0.0376228503882884979, 0.0434298478066921234, -0.1436424255371093750, 0.1285943835973739624, -0.0937851816415786743, -0.0935749113559722900, 0.1020437404513359070, -0.0778958126902580261, -0.2499923408031463623, 0.0533689111471176147, -0.0403906106948852539, -0.0899790376424789429, -0.0019976485054939985, -0.1756161600351333618, 0.0112915569916367531, -0.0821019932627677917, -0.0400444865226745605, 0.0300260111689567566, -0.0491218604147434235, 0.0196362268179655075, -0.0782211646437644958, 0.0614929907023906708, 0.0184400249272584915, -0.0384839847683906555, 0.0664796084165573120, -0.0422394350171089172, 0.0616083368659019470, -0.0854689627885818481, 0.0583141818642616272, -0.0387016050517559052, -0.0477602444589138031, 0.0530249252915382385, -0.0328840538859367371, -0.0079721938818693161, 0.0383289903402328491, -0.0181640069931745529, 0.0835778713226318359, 0.0448679327964782715, 0.0790059342980384827, 0.0454266928136348724, -0.1037019193172454834, -0.0033283873926848173, -0.1390615105628967285, -0.1046686843037605286, 0.0393247157335281372, -0.0231918524950742722, -0.0163490306586027145, -0.0163314212113618851, -0.0248719491064548492, -0.0046210535801947117, 0.0122712487354874611, -0.0128231924027204514, -0.0165654662996530533, 0.0239326227456331253, 0.0572771653532981873, 0.0936043635010719299, 0.0477640964090824127, -0.0283698346465826035, -0.0038222959265112877, -0.1327076554298400879, -0.1342309564352035522, -0.0696018263697624207, 0.1461544185876846313, 0.0170428007841110229, 0.0547928921878337860, 0.0507896319031715393, -0.0348471850156784058, -0.2642814815044403076, 0.0175440441817045212, 0.0573541298508644104, -0.0894314795732498169, 0.1306298524141311646, -0.0227637290954589844, 0.0227668955922126770, 0.0979076176881790161, 0.0498227067291736603, 0.0748685151338577271, -0.0560241490602493286, 0.0909248888492584229, 0.1083249375224113464, 0.0831318795680999756, 0.1039521992206573486, 0.0331787802278995514, 0.0010048530530184507, -0.0114667061716318130, 0.0734649598598480225, 0.0753601267933845520, 0.0161603838205337524, 0.0250717289745807648, 0.1305113583803176880, 0.1428009420633316040, 0.1341517418622970581, -0.0856595411896705627, 0.0487827137112617493, 0.0920393168926239014, -0.0971686691045761108, 0.0839231163263320923, 0.0355823002755641937, 0.0436667427420616150, -0.0383940450847148895, 0.1758622527122497559, -0.0388023406267166138, -0.0867686867713928223, -0.0487324409186840057, 0.0166696384549140930, -0.0667819455265998840, 0.0231516528874635696, -0.0792093798518180847, 0.0323759019374847412, -0.0364942997694015503, -0.0237795691937208176, 0.0222202651202678680, 0.0730513185262680054, -0.0856910347938537598, -0.0083852866664528847, -0.0051502948626875877, 0.0016511151334270835, -0.0672875717282295227, 0.0243710540235042572, 0.0377223864197731018, -0.1413694173097610474, -0.0256763026118278503, 0.0032215369865298271, -0.0956312194466590881, 0.0209083352237939835, 0.0189546179026365280, 0.0928084030747413635, -0.1429922878742218018, -0.0685130506753921509, -0.0059216190129518509, 0.1808233559131622314, -0.0859260186553001404, -0.1283422261476516724, 0.0716076642274856567, -0.0795817077159881592, 0.0544181279838085175, -0.1697064042091369629, 0.0337863266468048096, -0.1181020736694335938, -0.1360294073820114136, 0.0190554466098546982, -0.0632069110870361328, -0.0569061823189258575, 0.0422082878649234772, 0.0308092962950468063, 0.0684836581349372864, 0.0583849810063838959, -0.0656298473477363586, -0.1182368919253349304, 0.0091256126761436462, -0.1020270437002182007, -0.0067121111787855625, -0.1568899005651473999, -0.0895150750875473022, 0.0400505550205707550, 0.0662937164306640625, -0.0369056425988674164, -0.0780786424875259399, -0.0329135544598102570, 0.0801004171371459961, -0.0282836295664310455, 0.0914180204272270203, 0.1128683015704154968, 0.0631737336516380310, 0.2291032671928405762, -0.0473519675433635712, 0.0775762945413589478, 0.0459795109927654266, 0.1067223250865936279, -0.0872769430279731750, 0.0779538154602050781, -0.0198993980884552002, 0.0074775894172489643, 0.0207834243774414062, -0.0798667892813682556, 0.0258984975516796112, 0.0262896530330181122, -0.0106912180781364441, 0.1018869057297706604, -0.0460934117436408997, 0.1344203501939773560, 0.1060282588005065918, 0.0729832947254180908, -0.0566485710442066193, -0.0167911536991596222, -0.0433131195604801178, -0.0255170594900846481, -0.1240839958190917969, -0.0873829126358032227, 0.1501252949237823486, 0.1204122602939605713, -0.0770833715796470642, -0.0194781702011823654, -0.0196226797997951508, 0.0482673272490501404, 0.0387838818132877350, -0.0959929823875427246, -0.2203551232814788818, -0.0543552488088607788, -0.1185738891363143921, -0.0666759461164474487, 0.0243556443601846695, 0.0380449593067169189, -0.3329237103462219238, 0.0550273135304450989, -0.3719691336154937744, -0.1374329030513763428, 0.0077948495745658875, 0.1279007047414779663, 0.0696592554450035095, -0.1576305478811264038, 0.0204860046505928040, -0.1739246845245361328, -0.0032201793510466814, 0.0057663484476506710, -0.0341027528047561646, -0.0869318246841430664, 0.0844676718115806580, 0.0086781736463308334, -0.1037957221269607544, 0.0348037406802177429, 0.0098158996552228928, 0.0053445617668330669, 0.2462206333875656128, -0.0373636670410633087, 0.0778129100799560547, 0.0060781729407608509, -0.0647158324718475342, -0.0791105404496192932, 0.0475864596664905548, 0.0349536165595054626, -0.0413966961205005646, -0.0409201048314571381, -0.0482721105217933655, -0.0468569882214069366, -0.0548443980515003204, 0.0367216281592845917, 0.1075127348303794861, 0.0380178056657314301, 0.1146071627736091614, 0.0467878170311450958, 0.0129951601848006248, -0.0403477773070335388, 0.1123110204935073853, -0.0729607716202735901, -0.0094524230808019638, 0.0833956450223922729, -0.0664077252149581909, -0.0933942645788192749, 0.0211937986314296722, -0.0542543940246105194, 0.0685036331415176392, 0.0001665794261498377, 0.0773431733250617981, 0.0386791303753852844, -0.0788836777210235596, -0.0091120712459087372, 0.0409768521785736084, 0.0136418761685490608, 0.1218777671456336975, -0.0529981367290019989, -0.0090759629383683205, -0.0059665306471288204, 0.0487868897616863251, 0.0626143217086791992, 0.0297826826572418213, 0.0244741160422563553, -0.0386711284518241882, -0.0056496136821806431, 0.0602800920605659485, 0.1444635838270187378, 0.0436929017305374146, -0.1281532943248748779, 0.0550089031457901001, 0.0807006284594535828, 0.1042049378156661987, -0.0166446696966886520, 0.0921954289078712463, -0.0524382926523685455, -0.1071841791272163391, 0.0121437693014740944, 0.0619967877864837646, 0.0603625178337097168, 0.0001734326360747218, -0.0815518349409103394, -0.0535927526652812958, -0.0916530787944793701, 0.0380128361284732819, -0.0140617443248629570, -0.0104883182793855667, -0.0812826901674270630, -0.0128723988309502602, -0.2160128653049468994, 0.0971661135554313660, 0.0849657878279685974, 0.0579311214387416840, 0.0485578440129756927, -0.0174919199198484421, -0.0908564552664756775, -0.0628200992941856384, -0.0737824216485023499, 0.0958003401756286621, 0.0466420762240886688, 0.1074107363820075989, -0.0860886052250862122, 0.0448118597269058228, 0.0447359532117843628, 0.0084788557142019272, -0.0792615264654159546, -0.0015674505848437548, 0.0069422549568116665, -0.0066248085349798203, -0.0969868823885917664, -0.0173275265842676163, 0.0087070371955633163, 0.0123001439496874809, -0.0022790289949625731, 0.0020405517425388098, -0.0000849021889735013, -0.0977160632610321045, 0.0120956916362047195, 0.0027634818106889725, -0.0399627499282360077, 0.0604832805693149567, 0.0155616290867328644, 0.0259606745094060898, 0.0008606338524259627, 0.0714704990386962891, -0.0105225145816802979, 0.0700954049825668335, -0.0127380313351750374, -0.0045253639109432697, 0.0744606852531433105, -0.0840797871351242065, 0.0785884484648704529, 0.1056950315833091736, -0.1045778468251228333, 0.0162208769470453262, 0.0468166284263134003, -0.0206214394420385361, -0.1329529732465744019, 0.0493925921618938446, -0.0301470272243022919, 0.0656876415014266968, -0.0401477292180061340, 0.0815443694591522217, -0.0665802881121635437, -0.0231445077806711197, -0.0173080507665872574, 0.1044794470071792603, 0.0225237458944320679, 0.0342526212334632874, 0.0165927428752183914, -0.0004781103052664548, 0.0309179946780204773, 0.0445944331586360931, 0.0459744371473789215, 0.0435865297913551331, 0.2475553303956985474, 0.0026630416978150606, 0.0528418496251106262, -0.0707741826772689819, -0.0862944424152374268, 0.0112550379708409309, 0.0468443259596824646, 0.1372074335813522339, 0.1486536264419555664, -0.0892103835940361023, -0.0254370588809251785, -0.0107499882578849792, 0.0252329260110855103, 0.0267371051013469696, 0.0470388494431972504, 0.0406689904630184174, 0.1179733797907829285, -0.0627238377928733826, -0.0845609977841377258, 0.0928167030215263367, 0.0534422844648361206, 0.1153311580419540405, -0.0011260821484029293, -0.0048542912118136883, -0.1013688296079635620, 0.0140400081872940063, -0.0022286486346274614, 0.1065538823604583740, 0.0741572901606559753, -0.0622937157750129700, 0.0251652263104915619, -0.0999018028378486633, -0.0426486879587173462, 0.0149140274152159691, 0.0332778356969356537, 0.0169664453715085983, 0.0952021256089210510, 0.0297122132033109665, -0.0385805740952491760, -0.1401084363460540771, -0.0298518352210521698, -0.0632447898387908936, 0.0177563186734914780, 0.0757841840386390686, 0.0375324934720993042, 0.0497228465974330902, 0.0521506033837795258, -0.0045738257467746735, 0.0200989563018083572, 0.0952575132250785828, 0.0287464074790477753, 0.0058228620328009129, 0.0300687067210674286, -0.0942928344011306763, -0.0218431670218706131, 0.0251145698130130768, 0.1064874231815338135, 0.0076057938858866692, 0.0579645261168479919, 0.0822873041033744812, -0.0098945563659071922, 0.0252183619886636734, 0.0782036408782005310, 0.0915825814008712769, 0.1094817072153091431, -0.0472988337278366089, -0.0767071098089218140, 0.0260375160723924637, 0.0079836770892143250, -0.0689281076192855835, -0.0026937082875519991, 0.1113935634493827820, 0.0721120163798332214, 0.0268217530101537704, -0.0259738154709339142, -0.0646837875247001648, -0.0072650853544473648, -0.0475369542837142944, -0.0477204769849777222, -0.0096972975879907608, 0.1944925934076309204, -0.0342043153941631317, -0.0020564135629683733, 0.0932363718748092651, -0.0274005997925996780, -0.0941804051399230957, -0.0806511119008064270, -0.0064155161380767822, 0.0555786043405532837, -0.0111546684056520462, 0.0786455795168876648, -0.0073726200498640537, 0.0761219337582588196, 0.1259799897670745850, 0.0254337824881076813, -0.0381365194916725159, -0.0419747121632099152, 0.0266507901251316071, 0.0249175205826759338, -0.0176965724676847458, 0.0215797144919633865, 0.0688148811459541321, 0.0636813938617706299, 0.0503484196960926056, 0.0445207878947257996, 0.0767258629202842712, -0.0037220737431198359, -0.0240427907556295395, 0.0947339460253715515, -0.0532438978552818298, 0.0765011385083198547, 0.0554033443331718445, -0.0846589282155036926, -0.0111389644443988800, -0.0356892906129360199, 0.0176035370677709579, 0.1102887466549873352, -0.0796789824962615967, 0.0064185583032667637, 0.0033215268049389124, -0.0050789667293429375, 0.0218820609152317047, 0.0098171746358275414, 0.0061553204432129860, -0.0267112087458372116, 0.0612813197076320648, -0.0764725729823112488, 0.0928085595369338989, 0.0996150150895118713, -0.0314867421984672546, -0.1602023243904113770, -0.1170216500759124756, -0.0994809418916702271, -0.0044749770313501358, 0.0418070927262306213, 0.0008446158608421683, 0.0592976398766040802, 0.0536810755729675293, 0.0476961955428123474, -0.0415065996348857880, 0.0408919677138328552, 0.0125055992975831032, 0.0731489881873130798, -0.0175574216991662979, 0.0335073322057723999, -0.0299750734120607376, 0.0481539331376552582, 0.0185816045850515366, -0.0025353021919727325, -0.1584195196628570557, -0.0325616262853145599, 0.0157518796622753143, 0.0177960470318794250, 0.0673206150531768799, -0.0618156529963016510, 0.0918358117341995239, -0.0021352202165871859, 0.0751347765326499939, -0.0829726830124855042, -0.0163130722939968109, -0.0982918441295623779, 0.0951939523220062256, 0.0319670550525188446, -0.0058101559989154339, 0.0428091064095497131, 0.0688788592815399170, -0.0342226922512054443, -0.1219029203057289124, 0.1455901712179183960, 0.0273927692323923111, -0.0993708968162536621, -0.0011538584949448705, 0.0799882635474205017, 0.0641630664467811584, -0.0326477922499179840, 0.1163303032517433167, -0.0761276334524154663, -0.1059565395116806030, -0.0278599485754966736, -0.0265423972159624100, -0.0312652625143527985, -0.0824091657996177673, -0.0264778155833482742, 0.0356166623532772064, 0.0061301137320697308, 0.0006628285045735538, -0.0771022289991378784, -0.0620525181293487549, -0.0421156994998455048, 0.0035971305333077908, 0.0585900358855724335, -0.0613355301320552826, 0.1571314185857772827, -0.0203095655888319016, -0.0719615891575813293, 0.0430250987410545349, -0.0525576584041118622, -0.0569397173821926117, 0.0160377770662307739, 0.0832991302013397217, 0.0073571149259805679, -0.0344878621399402618, -0.0231549534946680069, -0.0243745110929012299, 0.0686457306146621704, 0.0843698754906654358, -0.0247604195028543472, -0.0067542246542870998, 0.1430820226669311523, -0.0182050243020057678, 0.1298852562904357910, 0.0387743301689624786, 0.0246499590575695038, -0.1651779711246490479, -0.2157993018627166748, 0.0691906362771987915, 0.0466751195490360260, -0.0142624462023377419, -0.0714573115110397339, -0.0310180634260177612, -0.1350701302289962769, -0.0383024439215660095, 0.0205728355795145035, -0.0991487726569175720, -0.0405164770781993866, 0.1304689347743988037, 0.1837193220853805542, 0.0432842262089252472, 0.0933588445186614990, -0.0047100358642637730, 0.0430873259902000427, -0.1828882396221160889, -0.0108458669856190681, 0.0681457147002220154, 0.0429150573909282684, -0.0446571893990039825, -0.1018597111105918884, 0.0873491019010543823, 0.0077934814617037773, 0.0889605656266212463, 0.0420695841312408447, -0.0377985872328281403, 0.0324884951114654541, 0.0602145045995712280, -0.0279773250222206116, -0.0995502620935440063, -0.0505269132554531097, 0.1030827164649963379, 0.0948186144232749939, -0.1007424816489219666, 0.0016197883524000645, 0.0734741985797882080, 0.0863761603832244873, 0.1096897274255752563, 0.0593278035521507263, -0.0425836145877838135, 0.0233436580747365952, -0.0142164258286356926, -0.0976173207163810730, -0.0499788075685501099, -0.1057325676083564758, 0.0830641239881515503, -0.0829119831323623657, -0.0436288639903068542, 0.1043126061558723450, 0.0540470331907272339, -0.0045956722460687160, -0.0407024919986724854, -0.0411696992814540863, -0.1099523752927780151, 0.0425122752785682678, 0.0482968501746654510, 0.2068796455860137939, -0.1514123976230621338, 0.0744519084692001343, 0.0314452424645423889, -0.0336648225784301758, -0.0997808948159217834, -0.2758720517158508301, 0.1150922477245330811, -0.0808321014046669006, -0.0056620016694068909, -0.0199125390499830246, -0.0048675956204533577, 0.0912350490689277649, 0.1286192238330841064, -0.0841848999261856079, -0.1016107946634292603, 0.0031885355710983276, -0.0574709214270114899, 0.0635071247816085815, 0.0434193089604377747, -0.0773793831467628479, 0.0696786493062973022, -0.0931316986680030823, 0.0570007748901844025, 0.0783144980669021606, 0.0707531422376632690, 0.0429434739053249359, 0.0108823701739311218, 0.0422815047204494476, 0.0304005611687898636, 0.0402305983006954193, -0.0877532213926315308, -0.0032653112430125475, -0.0657152608036994934, -0.0611531287431716919, 0.0175898279994726181, -0.0889616161584854126, -0.0700313523411750793, 0.0908840000629425049, 0.0530417412519454956, 0.0573334321379661560, 0.0703582689166069031, -0.0423275716602802277, 0.0290773343294858932, 0.0278367195278406143, 0.0302759651094675064, -0.1207823380827903748, 0.1295991092920303345, -0.0969082713127136230, 0.1247679367661476135, -0.2262610644102096558, -0.0122457295656204224, -0.0324616990983486176, -0.0024549292866140604, -0.0619492530822753906, -0.0297189541161060333, -0.0304406620562076569, -0.0199693180620670319, -0.0961954221129417419, -0.0461900681257247925, -0.0083543695509433746, 0.0704919323325157166, 0.0773994624614715576, -0.0489387214183807373, 0.0465594455599784851, -0.0353427752852439880, 0.0421878322958946228, 0.1011506766080856323, 0.0259793102741241455, -0.1579861938953399658, -0.1827889978885650635, 0.0289036724716424942, 0.0121065564453601837, 0.0604693256318569183, -0.0501676537096500397, 0.0770517811179161072, -0.0138402255252003670, -0.0063361749053001404, 0.0041087362915277481, 0.0541770420968532562, -0.0904823616147041321, 0.0273838080465793610, 0.0647122785449028015, -0.1065582260489463806, 0.0790427923202514648, -0.0794254317879676819, 0.0789692401885986328, -0.1902214437723159790, -0.0540146529674530029, 0.0315758846700191498, -0.0144239692017436028, 0.0183952711522579193, -0.0886590182781219482, 0.0232576560229063034, 0.0410162545740604401, 0.0830127522349357605, 0.0674656033515930176, -0.1423715949058532715, 0.0773823559284210205, -0.0516391843557357788, -0.1542830765247344971, -0.1009745150804519653, 0.0240201335400342941, 0.0410246662795543671, 0.0942666381597518921, -0.0066442922689020634, -0.0528029054403305054, -0.0284548290073871613, 0.0787043496966362000, 0.0207357369363307953, -0.1012836173176765442, 0.1490573137998580933, 0.1194027066230773926, 0.0628602430224418640, 0.0009004510357044637, -0.0568773522973060608, -0.1338891685009002686, -0.0226879753172397614, -0.0135119352489709854, 0.0833318233489990234, 0.1370674818754196167, -0.1371963024139404297, -0.0327167212963104248, -0.0054073520004749298, 0.0088443579152226448, -0.0135818645358085632, 0.0584347993135452271, 0.0054744426161050797, 0.0313751995563507080, -0.0312922410666942596, 0.0863124877214431763, 0.0808113664388656616, -0.0544666200876235962, -0.0950432270765304565, -0.0849573016166687012, -0.0552119277417659760, 0.0260757207870483398, 0.1731079965829849243, -0.0280607026070356369, 0.1093497350811958313, -0.0348243340849876404, -0.0327338986098766327, 0.0941833630204200745, -0.0051324404776096344, -0.0420610196888446808, 0.1553164869546890259, 0.0891587510704994202, -0.0435868874192237854, 0.0867585390806198120, 0.1252084821462631226, 0.0868822485208511353, -0.1513500362634658813, -0.0696134716272354126, -0.0450835265219211578, 0.0812350437045097351, 0.0078194709494709969, -0.1587287932634353638, 0.0703328847885131836, 0.0543946437537670135, 0.0952912643551826477, 0.0274094454944133759, -0.0676831156015396118, 0.0003241231606807560, -0.0621909834444522858, -0.0849750563502311707, -0.1365830898284912109, 0.1415652334690093994, 0.1018514782190322876, 0.1669469028711318970, 0.0270588062703609467, -0.0805659890174865723, -0.0403037331998348236, 0.0822875127196311951, 0.1212094426155090332, -0.1190665140748023987, 0.0126703083515167236, -0.0442868396639823914, 0.0459049008786678314, 0.0126310121268033981, 0.0305847935378551483, 0.0395965650677680969, 0.0511454530060291290, 0.0628856495022773743, 0.1423301547765731812, 0.1030780225992202759, 0.0729723945260047913, -0.0809485763311386108, 0.0638371482491493225, 0.1214781701564788818, 0.0270573887974023819, 0.0465476289391517639, 0.0057603931054472923, 0.0323919057846069336, 0.0877461656928062439, 0.0630380436778068542, 0.0038729917723685503, 0.0676280036568641663, 0.1203091144561767578, -0.0719261169433593750, 0.0138884643092751503, -0.0558669455349445343, 0.0123287215828895569, -0.0135194668546319008, 0.0068468893878161907, -0.0439233630895614624, 0.0118588060140609741, -0.0069692092947661877, 0.0112499911338090897, 0.1214689761400222778, 0.0515603199601173401, 0.0600535757839679718, 0.0344401933252811432, 0.0217458829283714294, 0.0591149665415287018, -0.0072650881484150887, 0.0288678295910358429, -0.1231298968195915222, -0.0808883458375930786, -0.0949457138776779175, 0.0252632908523082733, -0.0156565830111503601, -0.0001897231559269130, 0.0534617714583873749, -0.1081601008772850037, 0.0616072230041027069, -0.0086348978802561760, -0.0295505821704864502, -0.0722630470991134644, 0.0365054644644260406, 0.0591873787343502045, 0.0895569100975990295, 0.1018808037042617798, 0.0666396170854568481, 0.0264921803027391434, 0.0200682729482650757, 0.0339798368513584137, 0.0400978140532970428, -0.0380265899002552032, -0.0239303857088088989, 0.0418940521776676178, -0.0303998179733753204, -0.0857551693916320801, 0.0083264186978340149, 0.0108843324705958366, -0.0806333869695663452, 0.0087224338203668594, 0.0417366847395896912, -0.0428046137094497681, 0.0573379173874855042, 0.0508691333234310150, -0.0014561532298102975, 0.0418668650090694427, -0.0163842625916004181, -0.0491870343685150146, -0.1110673770308494568, -0.0354673862457275391, -0.0022650158498436213, 0.0352595783770084381, 0.0767349749803543091, -0.0511296056210994720, 0.0057679926976561546, 0.0720879733562469482, 0.0033946218900382519, 0.0065241260454058647, -0.1761695295572280884, 0.0658244639635086060, -0.0134651921689510345, -0.0017598868580535054, -0.0360569357872009277, -0.0360901765525341034, 0.0284915119409561157, -0.0243572052568197250, 0.1195475086569786072, 0.0655967593193054199, 0.0376757346093654633, 0.0739383846521377563, -0.0475094728171825409, -0.0051150009967386723, -0.0713310763239860535, -0.0678645968437194824, -0.0040803314186632633, 0.0131007600575685501, -0.0703617334365844727, -0.0035810102708637714, -0.0371892824769020081, -0.0739232003688812256, 0.0232167728245258331, -0.0262860693037509918, -0.0876628458499908447, -0.0706002637743949890, 0.0565540678799152374, -0.0949636325240135193, -0.0891359001398086548, -0.0453748144209384918, -0.1406037658452987671, -0.0275241453200578690, 0.0029872679151594639, -0.0358037352561950684, -0.0047571635805070400, 0.0588198937475681305, 0.0176250860095024109, -0.0392683595418930054, 0.0197732374072074890, 0.0713173002004623413, -0.1752041727304458618, -0.0447079949080944061, -0.0692699998617172241, 0.0613077357411384583, -0.0344688259065151215, -0.0724716931581497192, -0.0508498288691043854, -0.0286042615771293640, 0.0381793454289436340, -0.0182286072522401810, -0.0222973711788654327, -0.0797319114208221436, 0.0358022563159465790, 0.0232459492981433868, -0.0268890801817178726, -0.0773333981633186340, 0.1009577810764312744, 0.0818469449877738953, 0.0984333232045173645, 0.0247132126241922379, -0.0699479058384895325, 0.0949757173657417297, -0.0375252589583396912, -0.0639045611023902893, 0.1643178611993789673, 0.1299173384904861450, 0.0568415410816669464, -0.0134944114834070206, -0.0985220372676849365, -0.0639699026942253113, -0.0163468699902296066, -0.0391730256378650665, -0.0805187523365020752, 0.0541509762406349182, -0.0318445526063442230, 0.0315379127860069275, 0.0149577371776103973, 0.0177263692021369934, -0.1429523974657058716, -0.1145011186599731445, 0.0937686488032341003, -0.0276755448430776596, -0.0050208638422191143, 0.0854481533169746399, 0.0663487762212753296, -0.0176648981869220734, -0.0026707188226282597, 0.0716354921460151672, -0.0788529962301254272, -0.0511268340051174164, -0.0119694387540221214, 0.0247779600322246552, 0.0514115840196609497, 0.0062901261262595654, -0.1318015009164810181, 0.0021915303077548742, -0.0419716127216815948, -0.0747630521655082703, 0.0285910740494728088, -0.0040749725885689259, 0.0464088283479213715, 0.0625867247581481934, 0.0090896356850862503, -0.0905418992042541504, 0.0669578164815902710, 0.2066201716661453247, 0.0775873959064483643, 0.0347155407071113586, -0.0478702746331691742, 0.0216804239898920059, 0.0861817300319671631, 0.2065377533435821533, 0.0813711509108543396, 0.0884195789694786072, 0.1123998984694480896, 0.0764075070619583130, 0.0034780213609337807, 0.0225726347416639328, 0.0418464317917823792, -0.0099500315263867378, 0.1170591637492179871, -0.0044920477084815502, 