//Numpy array shape [3, 3, 64, 64]
//Min -0.865541458130
//Max 0.678028404713
//Number of zeros 0

#ifndef W18_H_
#define W18_H_

#ifndef __SYNTHESIS__
conv2d_4_default_t w18[36864];
#else
conv2d_4_default_t w18[36864] = {-0.0111493635922670364, -0.0710674002766609192, 0.0649113431572914124, -0.0584888309240341187, -0.0492361262440681458, 0.0206526853144168854, -0.0805535316467285156, -0.0116251911967992783, 0.1457284688949584961, 0.0031736297532916069, -0.0111871957778930664, 0.0512556061148643494, -0.1286416500806808472, 0.0424412898719310760, -0.0207557547837495804, 0.0811737254261970520, -0.0716027244925498962, -0.0802869722247123718, -0.0257813818752765656, 0.0496872626245021820, 0.0576210245490074158, 0.0728053152561187744, -0.0347538851201534271, 0.1223056316375732422, -0.0368545390665531158, -0.1151550263166427612, -0.0253809355199337006, 0.0708955153822898865, -0.0607981495559215546, -0.0578797385096549988, -0.0658617168664932251, -0.0595606379210948944, 0.0761799961328506470, -0.0155096063390374184, 0.0089313359931111336, -0.0361885279417037964, 0.0583045259118080139, -0.0374629274010658264, -0.0807812660932540894, -0.0284127015620470047, 0.0978786647319793701, -0.0157082658261060715, -0.0320783667266368866, -0.2019708603620529175, 0.0388052873313426971, 0.0089996894821524620, 0.0821271240711212158, 0.0515661127865314484, 0.0736199617385864258, 0.1217073425650596619, 0.0300290416926145554, 0.0383388511836528778, -0.0652534365653991699, 0.1004386320710182190, 0.0360452905297279358, -0.0197265483438968658, 0.0633615925908088684, -0.0064287185668945312, 0.0314853042364120483, 0.1110694259405136108, -0.1300113648176193237, -0.0370998606085777283, -0.0786338746547698975, -0.0200315732508897781, 0.0956228822469711304, -0.1137564182281494141, -0.0835367068648338318, -0.1387343555688858032, 0.1180961504578590393, -0.0021924006287008524, -0.0006835323292762041, 0.0681557580828666687, 0.0063198572024703026, 0.0624385848641395569, -0.0173089876770973206, 0.0784474760293960571, -0.0001138343359343708, -0.0369502305984497070, 0.1357041001319885254, -0.0490268245339393616, -0.0797289162874221802, 0.0621457695960998535, -0.0143362423405051231, 0.0740943700075149536, -0.0728404819965362549, 0.0925480648875236511, 0.0703101530671119690, 0.0436491928994655609, 0.0466645546257495880, 0.0315526053309440613, -0.0132805518805980682, 0.0163826383650302887, -0.0561432875692844391, 0.0428810082376003265, 0.0300707407295703888, 0.0572694577276706696, 0.0519467294216156006, -0.0252416413277387619, -0.0683743730187416077, -0.0766537785530090332, -0.0029528085142374039, -0.0041494970209896564, -0.0768479779362678528, 0.0058804764412343502, -0.0545248240232467651, -0.0532820858061313629, 0.1821749508380889893, -0.0480342805385589600, 0.1574265360832214355, -0.0692442730069160461, -0.0475742295384407043, 0.0154627170413732529, -0.0639912337064743042, -0.0110019100829958916, 0.0017727239755913615, 0.0864139050245285034, 0.0336403734982013702, 0.0575137846171855927, 0.0085866656154394150, -0.1182591840624809265, -0.0257207918912172318, 0.0397168435156345367, 0.0149708343669772148, -0.0966296121478080750, 0.0263806506991386414, -0.0727937817573547363, 0.0585552379488945007, 0.0885618850588798523, 0.0560150705277919769, -0.0241350084543228149, 0.0856673344969749451, -0.0681753829121589661, 0.0749542638659477234, -0.0577046833932399750, 0.0537020862102508545, -0.0954465493559837341, -0.1436666250228881836, 0.0697531327605247498, 0.1073336750268936157, 0.0558549612760543823, 0.1060887128114700317, 0.0813357084989547729, 0.0274645984172821045, 0.0013932602014392614, -0.0802244320511817932, -0.0767407864332199097, -0.0281917955726385117, -0.0419346094131469727, -0.0695753321051597595, -0.0082006836310029030, -0.0292994007468223572, 0.0136590357869863510, -0.0007731352816335857, 0.0505023635923862457, 0.0505230836570262909, 0.0984299257397651672, -0.1127801463007926941, 0.0088808452710509300, 0.0683462098240852356, -0.0034279818646609783, -0.0517958886921405792, 0.0119275581091642380, 0.0121594388037919998, 0.0389710031449794769, -0.0515240915119647980, 0.0259178411215543747, 0.0254736635833978653, 0.0012234435416758060, -0.1010946631431579590, 0.0032985331490635872, 0.0437046401202678680, -0.1295930892229080200, 0.0421660169959068298, -0.1035935208201408386, -0.0612241104245185852, -0.0492534600198268890, 0.0380670279264450073, -0.0425225533545017242, -0.0459390729665756226, -0.1010455116629600525, 0.1076446026563644409, 0.0426052436232566833, -0.0241252966225147247, -0.0286836251616477966, 0.0634355470538139343, -0.0442821756005287170, 0.0374267995357513428, 0.0180370714515447617, -0.0072169560007750988, 0.0207878742367029190, 0.0651583448052406311, 0.1566082388162612915, -0.0387469604611396790, -0.0616076700389385223, -0.0236330144107341766, 0.0418405495584011078, -0.0368332155048847198, 0.0420004688203334808, -0.0332069359719753265, 0.0892936661839485168, -0.0934487208724021912, 0.0220402795821428299, -0.0210672467947006226, -0.0808605179190635681, -0.0009046805789694190, -0.1300654113292694092, 0.1245900690555572510, -0.0446740426123142242, 0.0514522157609462738, 0.0457055978477001190, 0.0080774594098329544, 0.0239207353442907333, 0.0713169500231742859, 0.0916765108704566956, 0.0028057487215846777, 0.0856445804238319397, -0.0415764637291431427, -0.0439697168767452240, -0.0850513651967048645, 0.0033904686570167542, 0.0735953971743583679, 0.0962749347090721130, 0.0333571098744869232, 0.0647702291607856750, -0.0830763131380081177, 0.0932438075542449951, 0.0357857458293437958, 0.0044223857112228870, 0.1261917352676391602, -0.0804733857512474060, -0.0100854272022843361, 0.0087896576151251793, 0.0691147670149803162, 0.0616055093705654144, 0.0015069955261424184, 0.0003263548132963479, -0.0810151398181915283, 0.1244694516062736511, 0.0419823899865150452, -0.0440405160188674927, 0.1065744608640670776, 0.0830675512552261353, -0.0504041239619255066, 0.0523859634995460510, 0.0214837249368429184, 0.0318278782069683075, -0.0161201711744070053, 0.0512022152543067932, -0.0752652361989021301, 0.0400530099868774414, -0.0452928692102432251, 0.0607083924114704132, -0.0399552211165428162, -0.0259912889450788498, -0.0874770656228065491, 0.1024563312530517578, -0.0346797630190849304, -0.0931705459952354431, -0.1259692013263702393, 0.0374818071722984314, -0.0128112239763140678, 0.0624089576303958893, -0.0525425262749195099, 0.0653779357671737671, 0.1354855895042419434, -0.0358022823929786682, 0.0337006635963916779, -0.1003815680742263794, -0.0398559123277664185, 0.0870486646890640259, 0.0380786433815956116, 0.0109267337247729301, -0.0554412491619586945, 0.0469123162329196930, -0.0032128815073519945, -0.1569923162460327148, 0.0262640547007322311, -0.0634420961141586304, 0.0269368868321180344, -0.0398339629173278809, -0.0582200922071933746, -0.0122503647580742836, -0.0161407031118869781, -0.0350148268043994904, 0.0916011482477188110, -0.0293506234884262085, 0.0038560335524380207, 0.1108648255467414856, 0.0731593742966651917, -0.0014520911499857903, 0.1307062804698944092, 0.0559820495545864105, -0.0437314435839653015, 0.1606371551752090454, -0.0268859174102544785, 0.0876505970954895020, 0.0151503551751375198, -0.0470108352601528168, 0.0137183703482151031, -0.0894442573189735413, -0.0004272465303074569, 0.0689795464277267456, 0.0052219033241271973, -0.0055038486607372761, -0.0354059934616088867, -0.0784338787198066711, 0.1264341622591018677, -0.0080884248018264771, -0.0052461358718574047, 0.0497793816030025482, 0.0554297752678394318, 0.0607338957488536835, 0.0895613133907318115, -0.0952554643154144287, -0.0641558319330215454, -0.0653812289237976074, 0.0106146577745676041, 0.0169385112822055817, 0.0075483447872102261, -0.0520921982824802399, -0.0540414415299892426, 0.1288316994905471802, 0.0651960074901580811, 0.1599916517734527588, -0.0171629805117845535, 0.0030308086425065994, -0.0864097252488136292, 0.1220418959856033325, 0.0725437030196189880, -0.0625659525394439697, -0.0466628707945346832, 0.0491389818489551544, 0.0197721682488918304, -0.0725384056568145752, -0.1226108521223068237, -0.0158349908888339996, 0.0509294234216213226, -0.0636446774005889893, -0.1125565245747566223, 0.0295710414648056030, -0.0282169487327337265, 0.0541293397545814514, 0.0762975886464118958, 0.0271075256168842316, -0.0859335958957672119, -0.0085235415026545525, -0.1069289669394493103, 0.0706890150904655457, 0.0195899866521358490, 0.0557708144187927246, 0.0508381314575672150, 0.0594217292964458466, -0.0721659958362579346, 0.0984292328357696533, 0.0940925180912017822, 0.0230079013854265213, -0.1188578531146049500, -0.0056635416112840176, 0.1193024367094039917, -0.0359202250838279724, -0.0628901571035385132, 0.0314849205315113068, 0.1130986139178276062, 0.0770113840699195862, 0.0226614233106374741, 0.0721657946705818176, -0.0226809158921241760, -0.0519183762371540070, -0.0318076163530349731, 0.0005539139965549111, -0.0147606441751122475, 0.0302991792559623718, 0.0399410910904407501, 0.0441777482628822327, -0.0341662466526031494, 0.1495543420314788818, 0.0310449488461017609, -0.0294434297829866409, -0.1113234013319015503, 0.0603064447641372681, -0.0576528757810592651, -0.0335700213909149170, 0.1791473180055618286, 0.1238809153437614441, 0.0061769941821694374, -0.0170847792178392410, -0.0325684994459152222, -0.0548940412700176239, 0.0468371026217937469, 0.0048845186829566956, -0.0239244922995567322, 0.0783551186323165894, -0.0226894244551658630, 0.0761780962347984314, -0.1123670712113380432, 0.0171828046441078186, 0.0967856198549270630, -0.0346892885863780975, 0.0408800132572650909, -0.0708722770214080811, -0.0263050254434347153, 0.0218444559723138809, 0.0705849081277847290, -0.0125574376434087753, -0.0556256584823131561, 0.1389296054840087891, 0.1592440158128738403, 0.0828480720520019531, 0.1291541010141372681, 0.0383244194090366364, -0.0933793857693672180, -0.1385752856731414795, -0.0371667928993701935, 0.1373195648193359375, 0.0217886529862880707, -0.0288770031183958054, 0.0701849684119224548, -0.0750078335404396057, 0.1225298494100570679, 0.0033564618788659573, -0.0153036601841449738, -0.0111650014296174049, -0.0578519627451896667, -0.0136401830241084099, -0.0950484871864318848, -0.1275431066751480103, -0.0870236232876777649, 0.0881100371479988098, 0.0484540499746799469, -0.0570031590759754181, -0.0685173347592353821, 0.0992425680160522461, 0.0617909952998161316, -0.0116397459059953690, -0.0070146964862942696, 0.0048439893871545792, -0.0796241685748100281, 0.0134839834645390511, -0.0471668653190135956, -0.0334647111594676971, 0.0633029341697692871, 0.0123516889289021492, -0.1996134966611862183, -0.0492067448794841766, -0.0316430181264877319, 0.0452603846788406372, -0.1345646232366561890, -0.1191873401403427124, -0.0226262509822845459, 0.0203224103897809982, 0.2834953665733337402, -0.1301743388175964355, -0.0291166454553604126, 0.1045956611633300781, -0.1034036502242088318, -0.0888306945562362671, -0.0552212893962860107, -0.0903985500335693359, -0.0042476421222090721, 0.0280100200325250626, -0.1291729509830474854, 0.1153938546776771545, 0.0336034037172794342, -0.0691359713673591614, 0.1296161860227584839, 0.0507266707718372345, -0.0480774007737636566, 0.1238435804843902588, 0.0003453295794315636, -0.0930289700627326965, 0.0214409846812486649, -0.0548344589769840240, 0.0093526663258671761, -0.0489167943596839905, -0.0436888113617897034, -0.0374521091580390930, 0.0236878562718629837, 0.0810959637165069580, -0.0905974134802818298, 0.0848133042454719543, 0.0834582969546318054, 0.0963837429881095886, -0.0516630969941616058, -0.1625996232032775879, 0.0767103359103202820, -0.0158640649169683456, 0.1352687031030654907, -0.0023464963305741549, 0.0161100365221500397, 0.0096597783267498016, 0.0061326124705374241, -0.1784266531467437744, -0.1540139764547348022, -0.0394997783005237579, -0.0475796833634376526, 0.0099389636889100075, -0.1100579649209976196, 0.0804051458835601807, 0.0239906441420316696, 0.1362494230270385742, -0.0407755896449089050, -0.0440494269132614136, -0.0762703716754913330, 0.0339848324656486511, 0.0388806723058223724, 0.0166727155447006226, 0.0063555408269166946, 0.0129395741969347000, -0.1233279407024383545, -0.0450585708022117615, -0.0431179441511631012, -0.1410353928804397583, 0.0344443507492542267, -0.1279959380626678467, -0.3399167656898498535, 0.0257867090404033661, -0.0687836259603500366, 0.0275905467569828033, 0.0096638873219490051, -0.0187563057988882065, 0.0324353836476802826, -0.0108502684161067009, 0.0536892004311084747, -0.1302006095647811890, 0.0205186642706394196, 0.1400793790817260742, -0.1813683807849884033, 0.0409084744751453400, -0.0595494322478771210, 0.1078561469912528992, -0.0854720249772071838, -0.0207039359956979752, -0.2332874089479446411, 0.0102039165794849396, -0.0313884988427162170, 0.0678652822971343994, 0.0934997349977493286, -0.1035919710993766785, 0.0772795602679252625, 0.2356346398591995239, 0.0183402244001626968, 0.1131066605448722839, 0.0259010177105665207, -0.0171247888356447220, 0.0387461632490158081, 0.2436520308256149292, 0.0386786870658397675, -0.0697970017790794373, -0.1591863930225372314, 0.0337142869830131531, -0.1389330029487609863, -0.1095164939761161804, -0.0162321794778108597, 0.0607628896832466125, 0.3090822398662567139, 0.0199595466256141663, -0.1806762516498565674, -0.0392099320888519287, -0.0032320788595825434, 0.1181789860129356384, 0.0883446261286735535, 0.1204052492976188660, -0.1295002996921539307, -0.0588800609111785889, -0.1241328716278076172, -0.0000624117892584763, -0.0066229435615241528, -0.0293252374976873398, 0.0611132681369781494, -0.0141764692962169647, 0.0131457177922129631, 0.0448432341217994690, -0.1007570773363113403, 0.1307525187730789185, 0.0381206311285495758, 0.2519168257713317871, -0.0522262752056121826, -0.1316980421543121338, -0.1089925989508628845, -0.1394076943397521973, -0.1157975867390632629, -0.1060190200805664062, 0.0575006566941738129, -0.0378882251679897308, 0.0064318091608583927, 0.0008904029382392764, -0.0372098833322525024, 0.0592647567391395569, 0.0039085615426301956, 0.0894190892577171326, -0.0351375862956047058, 0.0482569597661495209, -0.0137106515467166901, -0.1059085354208946228, 0.0600390508770942688, 0.0008660724852234125, -0.0276534296572208405, 0.0397748053073883057, 0.0626419261097908020, 0.0375213585793972015, 0.0169413574039936066, -0.0245899744331836700, -0.0635041072964668274, 0.0152371739968657494, -0.1123796999454498291, -0.0783305987715721130, 0.0246621929109096527, 0.0063565415330231190, -0.0549341626465320587, 0.1045590341091156006, 0.0590381510555744171, -0.1057410165667533875, -0.0730670765042304993, -0.1018279194831848145, 0.0472656339406967163, -0.1107767969369888306, -0.0352177955210208893, 0.0567760542035102844, 0.1847847104072570801, 0.0996770337224006653, 0.0325720198452472687, -0.0359969250857830048, -0.0076690334826707840, 0.0573487207293510437, 0.0093677155673503876, -0.0165353324264287949, -0.0095976842567324638, -0.0088681178167462349, 0.0364278890192508698, -0.0714458376169204712, 0.0561225116252899170, 0.1399656981229782104, -0.2041374891996383667, 0.0339422561228275299, 0.0251374058425426483, -0.0108694378286600113, 0.0366625785827636719, -0.0202105529606342316, 0.0113042751327157021, -0.0583425536751747131, 0.0824025198817253113, -0.1034704148769378662, 0.0262365061789751053, -0.1132116913795471191, -0.0235047116875648499, -0.0010473490692675114, 0.0384638309478759766, -0.0139681575819849968, 0.1594315320253372192, 0.0284051802009344101, -0.0877965688705444336, -0.0161638669669628143, -0.1500828713178634644, -0.0451470240950584412, -0.0341770872473716736, -0.0365811288356781006, 0.0163334142416715622, 0.0283265840262174606, 0.0916672199964523315, 0.0114021534100174904, 0.0760095268487930298, 0.1153446510434150696, 0.0322745777666568756, 0.1236269921064376831, -0.0114600043743848801, -0.0241769906133413315, 0.0024346464779227972, 0.0545214600861072540, -0.1340304613113403320, -0.0569086186587810516, -0.1034141555428504944, -0.0718307495117187500, 0.0451451465487480164, 0.0163372624665498734, -0.0684186145663261414, 0.0721412748098373413, -0.1329630464315414429, -0.0374652035534381866, 0.0952547863125801086, 0.0730018317699432373, 0.0089661525562405586, 0.0885144546627998352, 0.0240000449120998383, 0.0201832279562950134, -0.0801692977547645569, -0.0408219285309314728, 0.0037339257542043924, -0.0792642608284950256, 0.0339212715625762939, -0.0595906004309654236, 0.0158399231731891632, -0.0397595204412937164, -0.0024957112036645412, -0.0707259252667427063, 0.1149434596300125122, 0.0941866636276245117, -0.0122522078454494476, -0.0554505176842212677, 0.0000979093674686737, 0.1054847463965415955, -0.1656214743852615356, 0.0246323291212320328, 0.0842993408441543579, 0.0775457620620727539, 0.0680706799030303955, -0.0155499801039695740, 0.0540052503347396851, -0.0364869236946105957, -0.0684094876050949097, 0.1129002571105957031, 0.1000922098755836487, 0.0191010758280754089, 0.1667162328958511353, 0.0692299678921699524, -0.0298905968666076660, 0.0574508905410766602, -0.0814548805356025696, -0.0188461840152740479, -0.0557503104209899902, -0.0050241514109075069, 0.0272996071726083755, -0.0450260154902935028, 0.0054262587800621986, 0.1252116411924362183, 0.0072476351633667946, -0.0342907793819904327, 0.1033645048737525940, 0.0725048631429672241, -0.0445081070065498352, 0.0702961459755897522, -0.0524093061685562134, 0.0180385112762451172, -0.0177930444478988647, -0.0043987082317471504, -0.0555526949465274811, 0.0964638367295265198, -0.0119846379384398460, 0.0662294775247573853, 0.0901141539216041565, 0.0975942239165306091, -0.0661401599645614624, 0.2304227352142333984, 0.0216559972614049911, -0.1349726170301437378, 0.0811470970511436462, 0.0377844683825969696, 0.2156250327825546265, 0.0377458445727825165, -0.0885653421282768250, 0.0856272876262664795, 0.0624573379755020142, -0.0162813737988471985, -0.0539860539138317108, -0.0082284146919846535, 0.0604804828763008118, 0.0416719354689121246, 0.0020833702292293310, -0.0524347312748432159, 0.0250682421028614044, -0.0404420942068099976, -0.0044813095591962337, -0.0586029365658760071, -0.0428492873907089233, 0.0157151035964488983, 0.0075390478596091270, 0.0247484892606735229, 0.1222587227821350098, -0.0588638521730899811, 0.0444355085492134094, -0.0548148043453693390, -0.1019934266805648804, -0.0751089081168174744, 0.0678958296775817871, -0.0532633066177368164, 0.0893920063972473145, -0.0096425507217645645, -0.0786407217383384705, -0.0400155410170555115, -0.0240966491401195526, 0.0190795809030532837, 0.0762764140963554382, 0.0993896648287773132, -0.0000485051059513353, 0.0981633812189102173, -0.0722567886114120483, 0.0285645052790641785, 0.0710771605372428894, 0.0829481855034828186, 0.0673805400729179382, 0.1188922002911567688, 0.1065496131777763367, 0.0394558869302272797, -0.0554551333189010620, -0.0120940208435058594, 0.0455582477152347565, 0.0109509294852614403, 0.0635716468095779419, 0.0915075093507766724, 0.0147255389019846916, 0.0158705860376358032, -0.0270910039544105530, -0.0143545623868703842, -0.0876292660832405090, -0.0595583207905292511, 0.0107821868732571602, -0.0906723812222480774, 0.0321234613656997681, -0.0137103796005249023, 0.1151966005563735962, -0.1207987517118453979, -0.0473497323691844940, 0.0681998953223228455, 0.0048271133564412594, -0.0049953814595937729, -0.0295243561267852783, 0.0148124564439058304, 0.1149664223194122314, 0.0437446571886539459, 0.0185721535235643387, 0.0392216518521308899, 0.0745808184146881104, -0.0693344324827194214, 0.0326927304267883301, -0.0190432071685791016, 0.0426895841956138611, -0.0436276271939277649, 0.0165458470582962036, 0.0009733749320730567, -0.0479082390666007996, 0.0743000730872154236, 0.0483751147985458374, -0.0728562772274017334, -0.1468712389469146729, 0.0497544892132282257, 0.0660567283630371094, 0.0704784393310546875, 0.0406337715685367584, -0.0830040872097015381, -0.0346350632607936859, 0.0246811360120773315, -0.0295259710401296616, -0.0367184691131114960, 0.0255885515362024307, 0.0541083849966526031, 0.0123671330511569977, -0.0576049983501434326, 0.0967298597097396851, 0.0584422238171100616, 0.0625962466001510620, 0.0778501629829406738, -0.0321535877883434296, 0.0156366564333438873, 0.0505469366908073425, -0.0228759199380874634, 0.1381217688322067261, 0.1374560743570327759, 0.0841060727834701538, -0.0549743659794330597, -0.0671515166759490967, 0.0709357112646102905, -0.0399250350892543793, 0.0724013373255729675, 0.1194897368550300598, -0.0249997247010469437, 0.0704469978809356689, 0.0500011667609214783, -0.0062585519626736641, -0.0161574222147464752, 0.0158662796020507812, -0.1058269664645195007, 0.0280070770531892776, 0.0628839209675788879, 0.0008649801020510495, 0.0710019022226333618, 0.0248125828802585602, -0.0753480121493339539, 0.0465757958590984344, -0.0546892248094081879, -0.0460771508514881134, 0.0395542196929454803, 0.0679010301828384399, 0.0504127219319343567, 0.0865765288472175598, 0.0005028510349802673, 0.0815247744321823120, 0.0218329746276140213, -0.0135137727484107018, 0.0444548092782497406, -0.0903560519218444824, -0.0234866365790367126, 0.0800221115350723267, -0.0266101285815238953, 0.0024673019070178270, -0.0234056618064641953, 0.0647061169147491455, 0.1509458422660827637, -0.1715340316295623779, -0.0013770883670076728, -0.2360435724258422852, 0.0086812451481819153, 0.0418059825897216797, 0.0076717184856534004, 0.1087425574660301208, -0.0394219048321247101, -0.0318368151783943176, -0.0670538097620010376, -0.0477270819246768951, -0.0925289541482925415, -0.0040274122729897499, 0.1117367669939994812, -0.0128973796963691711, 0.0216380469501018524, -0.0757872089743614197, 0.0219086334109306335, 0.0105459000915288925, -0.0225157532840967178, -0.0616731122136116028, -0.0498871654272079468, -0.0024054886307567358, 0.1018523946404457092, 0.0219939406961202621, -0.0809345617890357971, 0.1549661606550216675, 0.0993430241942405701, 0.0156672950834035873, -0.0145917907357215881, 0.0899884551763534546, 0.1205965280532836914, -0.0888960957527160645, -0.0169869922101497650, 0.0196863897144794464, 0.0536244697868824005, -0.0386820547282695770, 0.0052303932607173920, -0.0620570331811904907, 0.2266600281000137329, -0.0639888644218444824, 0.0246195532381534576, -0.0682436302304267883, 0.0028397061396390200, 0.0319201685488224030, 0.1304445862770080566, 0.1007676497101783752, -0.0268134344369173050, 0.0707934424281120300, 0.0658092424273490906, -0.0235860031098127365, 0.0173665564507246017, -0.0767750516533851624, -0.0324605628848075867, -0.0201793387532234192, -0.0253277309238910675, -0.0787187144160270691, -0.1095836758613586426, 0.0411882437765598297, 0.0440606325864791870, 0.0698612332344055176, 0.0056578326039016247, 0.0264314133673906326, -0.1772420704364776611, 0.0344735346734523773, -0.0029797682072967291, -0.4103034734725952148, 0.0018326544668525457, -0.0089246835559606552, 0.0046807434409856796, 0.0011274997377768159, 0.0684941187500953674, 0.0525113716721534729, -0.0648433119058609009, 0.0416572019457817078, -0.0529649183154106140, 0.0169388446956872940, -0.0027457920368760824, -0.0331730470061302185, 0.1148069724440574646, -0.0254390817135572433, 0.0669512003660202026, -0.0337959937751293182, -0.0805024951696395874, -0.0299589559435844421, 0.1510295867919921875, -0.0283590760082006454, 0.1014997214078903198, -0.0157555397599935532, 0.0086085544899106026, 0.0623570568859577179, -0.0672410577535629272, 0.0867186412215232849, 0.0104590384289622307, 0.1003576815128326416, 0.0259125046432018280, 0.0086420774459838867, 0.0298017673194408417, 0.0179348066449165344, 0.0900223925709724426, -0.0427866503596305847, 0.0072311866097152233, 0.0227201133966445923, -0.0858938619494438171, 0.0714398249983787537, 0.0595909208059310913, -0.0542244203388690948, 0.0215929429978132248, -0.0539767667651176453, -0.0411602742969989777, -0.0044154138304293156, 0.0299479141831398010, -0.0011496995575726032, 0.0135580562055110931, 0.0069904024712741375, -0.0338042192161083221, 0.0839081704616546631, 0.0742057412862777710, -0.0022339515853673220, -0.0379422828555107117, -0.0285468976944684982, 0.0888505429029464722, -0.0344488956034183502, -0.0507506988942623138, 0.0520454533398151398, 0.0636700764298439026, 0.1178188547492027283, 0.1366987824440002441, 0.0427960827946662903, 0.0805174484848976135, -0.0028650038875639439, 0.0126850064843893051, -0.0550964474678039551, 0.0080065298825502396, 0.0041838455945253372, 0.0623226240277290344, 0.0384168475866317749, -0.0561322122812271118, -0.0632677823305130005, 0.0350401550531387329, 0.0395743139088153839, 0.0033869286999106407, 0.0045816325582563877, 0.0124020958319306374, 0.0311232116073369980, 0.0054700090549886227, -0.0813711881637573242, 0.0798113197088241577, -0.0111893406137824059, 0.0212869159877300262, 0.0666505619883537292, -0.0290072411298751831, 0.0775162279605865479, -0.0378487482666969299, -0.0471813641488552094, -0.0705426111817359924, -0.0469044037163257599, -0.0318966172635555267, 0.0460804477334022522, -0.0756768062710762024, -0.0180116016417741776, -0.0774334445595741272, -0.0513077415525913239, 0.1091234833002090454, -0.0889222919940948486, -0.0034128108527511358, 0.1026853322982788086, 0.0569169595837593079, -0.0305221509188413620, -0.0196515470743179321, 0.0310779120773077011, 0.0241872631013393402, 0.0088934255763888359, -0.0444272160530090332, -0.1466537714004516602, -0.0184768475592136383, 0.0690902397036552429, -0.0292437989264726639, 0.1505395174026489258, 0.1097856163978576660, -0.0749774575233459473, 0.0801759362220764160, 0.0316030532121658325, -0.0427095778286457062, 0.1016363352537155151, 0.0000869810392032377, -0.0015852752840146422, 0.0512758754193782806, 0.0361373871564865112, 0.1203910633921623230, -0.0296478886157274246, -0.0898131877183914185, 0.0350793115794658661, 0.0505517385900020599, 0.0615438818931579590, 0.0236020032316446304, 0.0249212719500064850, -0.0070379176177084446, -0.0896881520748138428, -0.0082500567659735680, 0.0143940253183245659, -0.0330458357930183411, -0.0602716170251369476, 0.0621194429695606232, 0.0894978716969490051, 0.0392848215997219086, -0.0099713765084743500, 0.0911226943135261536, 0.0028237493243068457, 0.0170406699180603027, 0.0585914775729179382, 0.0825865268707275391, 0.0018727357964962721, 0.0843466967344284058, 0.0866024643182754517, -0.1373848319053649902, 0.0755742937326431274, -0.0142483524978160858, -0.1123789474368095398, 0.0511651374399662018, -0.0459563136100769043, -0.0406868681311607361, 0.0130323693156242371, 0.0716863498091697693, -0.0125445164740085602, -0.0581426247954368591, -0.0002258579188492149, -0.0198215637356042862, 0.0017231762176379561, -0.0858322679996490479, 0.0857558101415634155, 0.0513074137270450592, 0.0069060986861586571, 0.0811262950301170349, -0.0655640810728073120, 0.0190818980336189270, 0.0108432993292808533, 0.0160810388624668121, -0.0677465572953224182, -0.0022392116952687502, -0.0485647693276405334, 0.0730144679546356201, 0.1293255537748336792, 0.0416150130331516266, 0.0309200845658779144, -0.0191606618463993073, -0.0321805067360401154, 0.1004497930407524109, 0.0641674473881721497, 0.1380133181810379028, 0.0705799832940101624, 0.0440587215125560760, -0.0791246145963668823, -0.0104939127340912819, 0.0068754316307604313, -0.0676110759377479553, -0.0263240784406661987, 0.1191055476665496826, -0.0647693946957588196, 0.1183499544858932495, -0.0767359435558319092, 0.0204092282801866531, 0.0414467491209506989, 0.0342722944915294647, 0.0474149622023105621, 0.0384197458624839783, 0.0591579154133796692, -0.1058944314718246460, -0.1924254149198532104, -0.0929375663399696350, 0.0524156689643859863, 0.1020212844014167786, 0.0556069128215312958, -0.0406296178698539734, 0.0170785356312990189, -0.0026974200736731291, 0.0609356202185153961, -0.0783907547593116760, -0.1384536921977996826, -0.0095205698162317276, -0.0194814223796129227, -0.2310164123773574829, -0.2567996084690093994, 0.0044975401833653450, -0.0100251371040940285, 0.0360251776874065399, 0.0498032830655574799, -0.0991298481822013855, 0.1004042699933052063, -0.1000177115201950073, 0.0278853289783000946, 0.1184133812785148621, 0.1070033907890319824, 0.1121274530887603760, -0.0352982543408870697, -0.0273205842822790146, -0.0639002993702888489, 0.1546527892351150513, 0.1622681468725204468, -0.0986765101552009583, -0.2713530361652374268, 0.0295699406415224075, 0.0429108738899230957, -0.0494719967246055603, 0.0551149845123291016, -0.0660107359290122986, 0.0536105073988437653, -0.0084471013396978378, 0.1402752995491027832, 0.0210350006818771362, 0.0271935351192951202, -0.0399654470384120941, -0.0285750478506088257, -0.0535330325365066528, -0.2064487934112548828, -0.0492996908724308014, -0.0910992324352264404, 0.0574928671121597290, 0.0879218876361846924, -0.0024753129109740257, 0.0701488107442855835, 0.1173149868845939636, -0.0605562590062618256, 0.0160858612507581711, 0.0252541676163673401, 0.0321904160082340240, -0.1129931285977363586, 0.1328449398279190063, -0.0728050395846366882, 0.0250011831521987915, -0.0147680211812257767, 0.1052714735269546509, -0.2026202976703643799, -0.0597029030323028564, 0.1839921325445175171, 0.1166166290640830994, 0.0350155867636203766, -0.0771103501319885254, 0.1101145148277282715, -0.0281306728720664978, 0.0975051224231719971, -0.0301594436168670654, 0.0282626319676637650, 0.0242218282073736191, -0.0680023357272148132, -0.0412130393087863922, -0.0640729069709777832, 0.1171260848641395569, 0.0266933962702751160, -0.0780644416809082031, 0.1067992001771926880, -0.1630766838788986206, -0.0054895738139748573, -0.0944777131080627441, -0.1306160986423492432, -0.1298368871212005615, -0.1026628911495208740, -0.0708202719688415527, -0.0822570621967315674, 0.0132045913487672806, 0.0428959354758262634, 0.0042241527698934078, -0.0786477327346801758, -0.0243892874568700790, 0.0900020897388458252, -0.1215060725808143616, 0.0211057160049676895, -0.0464108623564243317, 0.0295420940965414047, 0.0186529140919446945, -0.1832278668880462646, -0.0413287281990051270, -0.1354703307151794434, -0.0978423729538917542, -0.0297964494675397873, -0.1416052281856536865, 0.0322577059268951416, -0.0373554974794387817, 0.0586182177066802979, -0.0943003892898559570, -0.0389437526464462280, 0.0875900983810424805, 0.0004082337254658341, -0.0277855657041072845, -0.0976902022957801819, -0.0731799080967903137, -0.2945047020912170410, 0.1174391806125640869, -0.0844307467341423035, 0.0331537723541259766, 0.0738101378083229065, -0.1168951615691184998, -0.0787634998559951782, -0.0010179323144257069, 0.0738109573721885681, -0.0014824195532128215, 0.0755129680037498474, 0.1202224344015121460, -0.0966003760695457458, 0.0024948352947831154, 0.1485556960105895996, 0.0778964832425117493, 0.0297532305121421814, 0.0816312432289123535, 0.0485365949571132660, -0.0591527260839939117, -0.2562449574470520020, 0.0966479107737541199, 0.0423850975930690765, 0.0382751449942588806, -0.0071241306141018867, 0.0829854607582092285, -0.1346620917320251465, -0.0576777942478656769, 0.1036895364522933960, 0.1614168137311935425, -0.0758087113499641418, 0.0100315585732460022, -0.0140196112915873528, 0.0798125565052032471, -0.0999457687139511108, -0.2678766846656799316, 0.1234238445758819580, 0.1557451337575912476, 0.0318058729171752930, -0.0684713348746299744, 0.0860323384404182434, 0.1467499285936355591, 0.1127071902155876160, -0.0550821535289287567, -0.0595193244516849518, -0.0624353550374507904, 0.0681176409125328064, 0.0114020798355340958, -0.0643872842192649841, 0.0025739055126905441, 0.0867738872766494751, -0.0460459217429161072, -0.0028378262650221586, 0.0440367199480533600, 0.0539840050041675568, 0.0305297914892435074, 0.0887468829751014709, 0.1482285261154174805, -0.1068242713809013367, 0.0177372563630342484, -0.0549728833138942719, -0.0643101930618286133, -0.0668410956859588623, 0.0063540553674101830, 0.0773975178599357605, 0.0604809448122978210, 0.0175791084766387939, 0.0199016612023115158, 0.1273557543754577637, 0.0017074845964089036, -0.0960167720913887024, -0.0571521855890750885, -0.0103346975520253181, -0.0009044145699590445, -0.0953835546970367432, 0.0333381220698356628, -0.0381714925169944763, -0.1028978750109672546, -0.0093642417341470718, -0.0367635004222393036, -0.0640115439891815186, 0.0326752588152885437, 0.0280059110373258591, -0.0949811339378356934, -0.0860786661505699158, -0.0372537150979042053, -0.0874554440379142761, -0.0639474168419837952, 0.0104045588523149490, -0.0031589141581207514, 0.0378047488629817963, 0.0139879323542118073, -0.0517503507435321808, 0.1085820123553276062, 0.0452551208436489105, -0.0429831668734550476, 0.0191426519304513931, 0.1269917935132980347, 0.1039827391505241394, -0.0989135503768920898, 0.0305036436766386032, 0.0178441386669874191, 0.0642805173993110657, -0.0479211695492267609, -0.0142448209226131439, -0.0266837570816278458, -0.0460552237927913666, 0.0458830967545509338, -0.0372049920260906219, -0.0415780767798423767, -0.0088453898206353188, -0.0657776743173599243, -0.0175862628966569901, 0.1144670844078063965, -0.0337990224361419678, -0.0218110568821430206, -0.0924884676933288574, -0.0433056838810443878, 0.0117759732529520988, 0.0196681115776300430, 0.0591489151120185852, -0.1071087419986724854, -0.2644983232021331787, -0.1838019788265228271, -0.0445450693368911743, -0.0203883163630962372, -0.1189665496349334717, -0.0036460510455071926, -0.0570045597851276398, 0.0180989354848861694, 0.1324902921915054321, -0.0182632189244031906, -0.0385651290416717529, 0.0633803680539131165, -0.0681212693452835083, 0.0227084048092365265, -0.1229278221726417542, 0.0188133362680673599, -0.0729569271206855774, -0.2753443121910095215, 0.0103943813592195511, -0.0650337114930152893, 0.1011696085333824158, 0.0318660102784633636, -0.0677421241998672485, 0.0423697791993618011, 0.1153457388281822205, 0.1016499027609825134, 0.0186367612332105637, 0.0101587725803256035, -0.0592341162264347076, -0.0753298997879028320, 0.0724794045090675354, 0.0314399451017379761, -0.0397939532995223999, 0.0530238300561904907, 0.0032973447814583778, -0.0777324065566062927, -0.1076010391116142273, -0.0530006811022758484, 0.0880044549703598022, 0.0906838327646255493, -0.0213099680840969086, -0.0658765733242034912, -0.0224942490458488464, -0.0994522571563720703, 0.0986090973019599915, 0.1562286615371704102, 0.0093745272606611252, 0.0955860838294029236, 0.0498069785535335541, 0.0349495001137256622, 0.1045627146959304810, -0.0126665458083152771, 0.0241748746484518051, 0.0804893076419830322, -0.0087195858359336853, -0.0483441315591335297, 0.0020665598567575216, -0.0464323684573173523, -0.0681935325264930725, 0.0944855362176895142, 0.1076324805617332458, -0.1433743536472320557, -0.0488204956054687500, 0.0858134701848030090, 0.1269586682319641113, 0.0650932863354682922, 0.0943588614463806152, 0.0657284632325172424, 0.1189930886030197144, 0.0197870768606662750, -0.1647029519081115723, 0.0287262648344039917, 0.0163711998611688614, -0.1273512691259384155, -0.1529218405485153198, 0.0093496842309832573, -0.0517326369881629944, -0.0762522667646408081, -0.1045624092221260071, 0.0131543688476085663, -0.0141365649178624153, -0.0610209293663501740, -0.0743418261408805847, -0.0644200965762138367, 0.0530697405338287354, 0.0001388529053656384, -0.0222739465534687042, 0.1474270224571228027, 0.1164338439702987671, 0.0194075927138328552, -0.1488582491874694824, -0.0635583475232124329, -0.0517493523657321930, -0.0248464867472648621, -0.1651501655578613281, -0.0778548792004585266, -0.0125139551237225533, 0.0953181758522987366, 0.0677552893757820129, 0.0072875921614468098, 0.0072014387696981430, -0.2126346230506896973, 0.0754258930683135986, 0.1861003637313842773, 0.0686327591538429260, -0.1138060092926025391, 0.0282155759632587433, -0.0060537154786288738, 0.0681841075420379639, 0.0367248877882957458, -0.0052093886770308018, 0.0033099094871431589, -0.0693861097097396851, 0.1196082159876823425, 0.0503875464200973511, -0.0069203567691147327, 0.0305589251220226288, -0.0625981837511062622, -0.0218265913426876068, -0.0420202463865280151, 0.0351511687040328979, 0.0126314023509621620, -0.1195086166262626648, 0.0142205217853188515, 0.0655882954597473145, -0.0129024162888526917, 0.0025512119755148888, -0.0267275180667638779, 0.0551213063299655914, -0.0230389349162578583, 0.0705856978893280029, -0.1405439972877502441, 0.0732917934656143188, 0.0133394375443458557, -0.0931175500154495239, 0.0781439170241355896, -0.0007794885314069688, -0.0273837633430957794, -0.0331301614642143250, -0.0079607367515563965, -0.0086998306214809418, -0.0622161515057086945, 0.0065747047774493694, -0.0091547360643744469, 0.0213200263679027557, -0.0196717549115419388, -0.0519933328032493591, 0.0362165197730064392, -0.0392102897167205811, -0.0035032490268349648, -0.0504970103502273560, -0.0288822408765554428, 0.0561248250305652618, -0.0339305214583873749, 0.0689164698123931885, 0.0899080634117126465, 0.0512144044041633606, -0.0319045409560203552, 0.0783412754535675049, -0.0250281766057014465, -0.0922524482011795044, -0.0441077090799808502, 0.0520352087914943695, 0.0250624995678663254, 0.0896343067288398743, 0.0121446410194039345, -0.0161518957465887070, -0.1959321945905685425, 0.0426495596766471863, 0.0510572046041488647, 0.0057242834009230137, -0.0548679381608963013, -0.0237457789480686188, 0.0504280030727386475, 0.0722012072801589966, 0.0487696304917335510, -0.0753146559000015259, 0.0202876720577478409, -0.1237374916672706604, -0.0464616604149341583, 0.1299329549074172974, -0.0221815183758735657, 0.2049556076526641846, 0.0859599933028221130, 0.0763455256819725037, -0.0534235462546348572, 0.0086186351254582405, -0.1511639207601547241, -0.0048160604201257229, -0.0781318619847297668, 0.0012995714787393808, 0.0529398806393146515, -0.0553514994680881500, -0.0665801391005516052, 0.0331905819475650787, -0.1128835827112197876, -0.0702373459935188293, 0.0766958072781562805, 0.4213510453701019287, -0.0206001978367567062, -0.0477668456733226776, 0.0735819265246391296, -0.0956144332885742188, 0.0051471735350787640, 0.0118825016543269157, 0.0794808939099311829, 0.0201774351298809052, 0.0161555521190166473, -0.0079553676769137383, 0.1530832350254058838, -0.1137078776955604553, 0.0565777383744716644, 0.0160201955586671829, 0.0708286613225936890, -0.0837729945778846741, -0.0164211187511682510, -0.0273949988186359406, -0.1605680435895919800, -0.0231045540422201157, -0.0240034405142068863, 0.0383402295410633087, 0.1486129164695739746, -0.0766235068440437317, -0.1221639588475227356, -0.0028520084451884031, -0.0615675039589405060, -0.0251881889998912811, -0.0206775441765785217, -0.0169332660734653473, 0.0626815930008888245, -0.1453102082014083862, 0.1136016473174095154, -0.0033731919247657061, 0.0547210201621055603, -0.0461413301527500153, -0.0074208141304552555, -0.1926035583019256592, 0.0459129661321640015, 0.0978141874074935913, 0.0728527158498764038, 0.0366492047905921936, -0.0834657996892929077, -0.0075735780410468578, -0.0121930008754134178, 0.0356170758605003357, -0.1013060286641120911, -0.0896293446421623230, -0.0125498929992318153, -0.0642672777175903320, 0.0205404646694660187, 0.0138658359646797180, 0.0034717041999101639, 0.0510694235563278198, 0.0330926254391670227, 0.1214320063591003418, -0.0616874210536479950, -0.0848707929253578186, -0.0961020886898040771, -0.1024704352021217346, 0.0802194401621818542, 0.0156984757632017136, 0.0671138092875480652, 0.3596167266368865967, -0.0488172695040702820, 0.0894274637103080750, -0.0866461992263793945, -0.0057269306853413582, -0.0524055436253547668, -0.0241294894367456436, -0.0207694601267576218, 0.1404966413974761963, 0.0759589150547981262, -0.0108495038002729416, -0.0770672932267189026, 0.0698098167777061462, 0.0376810468733310699, 0.0771041288971900940, -0.1707017123699188232, -0.0614548735320568085, -0.0469351075589656830, 0.0145782409235835075, -0.0394896641373634338, 0.1776093840599060059, 0.0200806520879268646, -0.0685977339744567871, 0.0459463223814964294, 0.0642637163400650024, -0.0065395087003707886, 0.0173821523785591125, -0.1214043125510215759, -0.1377801597118377686, -0.0211903676390647888, 0.0215179473161697388, 0.0299649685621261597, -0.0521261915564537048, 0.0159622188657522202, 0.0845233052968978882, -0.1058896556496620178, 0.0008586233598180115, 0.0452992320060729980, -0.0469645969569683075, -0.0098426686599850655, -0.0383979566395282745, 0.0868392735719680786, -0.0261904876679182053, -0.0762002393603324890, 0.0035389016848057508, 0.0430753827095031738, -0.1607012599706649780, -0.0906733050942420959, -0.0003974457213189453, 0.0015135068679228425, -0.0021081413142383099, -0.0330767370760440826, 0.0345587506890296936, -0.0700732544064521790, 0.0323065966367721558, -0.1240836307406425476, -0.0343110002577304840, 0.0938979089260101318, -0.0017473135376349092, 0.1225742623209953308, -0.0807986035943031311, 0.0552472956478595734, 0.1273542046546936035, 0.0890267342329025269, 0.0337581411004066467, 0.1141681745648384094, -0.1585949957370758057, -0.0018737704958766699, 0.0009961135219782591, 0.0254005696624517441, 0.0118962414562702179, 0.0041228858754038811, 0.0538006685674190521, 0.0421862974762916565, -0.0054067182354629040, -0.0880465880036354065, -0.4184169769287109375, 0.1244140267372131348, 0.0478498078882694244, 0.0367040522396564484, 0.0043120775371789932, 0.0193606056272983551, 0.0186631027609109879, 0.1594064086675643921, -0.0934233292937278748, 0.0971992015838623047, -0.1040794327855110168, 0.0293249972164630890, -0.0027480968274176121, 0.0678658038377761841, -0.0264121405780315399, -0.0453683398663997650, 0.1874008774757385254, 0.1561483740806579590, 0.0197607390582561493, -0.0686695128679275513, 0.0199800953269004822, -0.0081836367025971413, -0.1212965846061706543, 0.2033375948667526245, -0.0040716314688324928, 0.0557934790849685669, 0.0589464679360389709, 0.0501082055270671844, -0.1366549283266067505, -0.2732761502265930176, 0.1019742786884307861, -0.0162946600466966629, 0.0094991251826286316, 0.0050410763360559940, 0.0038759936578571796, -0.1196370571851730347, 0.0554108731448650360, -0.0125565566122531891, 0.0430608019232749939, -0.0004554082988761365, -0.0303369443863630295, 0.0112030915915966034, -0.0579869151115417480, -0.1140138953924179077, -0.3077981770038604736, -0.0066270548850297928, -0.1662373989820480347, -0.0665869265794754028, 0.1163087561726570129, 0.1048802956938743591, -0.0097786206752061844, -0.0619904957711696625, 0.1352529972791671753, 0.0375479608774185181, -0.2046327441930770874, 0.1023154184222221375, -0.0635198280215263367, 0.0798056572675704956, -0.0147964116185903549, 0.0391300544142723083, 0.0392446778714656830, -0.0732151046395301819, -0.4854598641395568848, -0.0725351274013519287, -0.1919556707143783569, 0.1273901313543319702, 0.0640501827001571655, 0.1262036859989166260, -0.0496103204786777496, 0.1305449455976486206, 0.1109028160572052002, -0.0350612886250019073, -0.1910802274942398071, -0.0093650417402386665, -0.0205286014825105667, -0.0310734938830137253, 0.0438678450882434845, 0.0993368849158287048, 0.0359905473887920380, -0.0574959516525268555, 0.0400777496397495270, 0.1275506615638732910, -0.0645086765289306641, -0.0629690587520599365, -0.0496689155697822571, -0.0037815347313880920, -0.1097532212734222412, -0.1361196339130401611, 0.0118623152375221252, -0.0552358292043209076, -0.0523528121411800385, -0.0010903752408921719, 0.0836732089519500732, -0.0036679673939943314, 0.0586820431053638458, -0.0020350753329694271, -0.0699443668127059937, -0.2910072803497314453, 0.0723012015223503113, 0.0511327795684337616, -0.0794682353734970093, -0.0499082356691360474, -0.1080835834145545959, 0.0904753580689430237, -0.0551422163844108582, 0.0834374576807022095, 0.0046281865797936916, -0.2240774631500244141, -0.2245903611183166504, -0.0117586804553866386, -0.0658307373523712158, -0.0186298470944166183, 0.0048250099644064903, 0.1536735743284225464, -0.3087219893932342529, 0.0788946226239204407, -0.1330314576625823975, -0.0110537940636277199, -0.1510566920042037964, -0.0075338860042393208, 0.0021416828967630863, -0.0643643662333488464, -0.3131794333457946777, -0.0656776502728462219, -0.2179803401231765747, 0.0503942668437957764, -0.1526403725147247314, -0.1440564244985580444, -0.0795174092054367065, -0.0558231994509696960, -0.0685599371790885925, -0.0294263847172260284, 0.1107622385025024414, 0.0157514121383428574, 0.0143095338717103004, -0.0175457652658224106, -0.1422798931598663330, -0.0684759393334388733, -0.0430824831128120422, 0.0083826016634702682, 0.1003146395087242126, 0.0383279323577880859, 0.0516813322901725769, -0.1465780586004257202, 0.0914590507745742798, -0.1042755097150802612, -0.0565089248120784760, -0.0165371838957071304, -0.0293773468583822250, 0.0818858146667480469, -0.1437607258558273315, 0.1233115643262863159, -0.0899252593517303467, 0.0214099306613206863, 0.0103034824132919312, 0.0263521336019039154, 0.1197111457586288452, -0.0485445298254489899, 0.0835093408823013306, -0.0285687204450368881, 0.0734795853495597839, -0.1467830389738082886, -0.0418780334293842316, -0.0824982821941375732, -0.0515961684286594391, -0.0004620412946678698, -0.0924061164259910583, 0.0544659122824668884, 0.0986707359552383423, 0.0058464719913899899, -0.1512431353330612183, -0.2415693104267120361, -0.0907202363014221191, 0.0048116892576217651, -0.0132953543215990067, -0.0184056963771581650, 0.1030898317694664001, -0.0116550968959927559, 0.0650351792573928833, -0.1528135389089584351, 0.1306735575199127197, 0.0747858583927154541, 0.0816477909684181213, -0.1342690736055374146, 0.0357731692492961884, -0.0217468496412038803, 0.0274766851216554642, -0.0471351742744445801, -0.0305835865437984467, -0.0066394791938364506, -0.1858554333448410034, 0.1083827093243598938, -0.0207686200737953186, 0.0364522412419319153, -0.0023002976085990667, -0.0847502872347831726, -0.0534924715757369995, -0.0501968748867511749, 0.0475553274154663086, -0.0438392758369445801, -0.0065353340469300747, -0.0016003202181309462, -0.0021361240651458502, 0.0688112303614616394, 0.0077064316719770432, 0.0209685228765010834, -0.0194476433098316193, -0.0565950050950050354, -0.0874799191951751709, 0.0180576238781213760, 0.0390215851366519928, 0.0848368331789970398, -0.0821119621396064758, 0.1009262800216674805, 0.0583591982722282410, 0.0184583403170108795, 0.1547555774450302124, -0.0390068143606185913, 0.0082487296313047409, 0.1570403277873992920, -0.1204874590039253235, 0.0254548341035842896, -0.0227285865694284439, -0.0093638729304075241, 0.0120142884552478790, -0.0670047253370285034, 0.0135446442291140556, 0.0034817147534340620, 0.0870941653847694397, 0.0749131217598915100, -0.1459504365921020508, -0.0168232284486293793, -0.1400117874145507812, 0.0153069104999303818, 0.0314103811979293823, 0.0568194426596164703, 0.1569828242063522339, 0.0574148222804069519, 0.0267883893102407455, -0.1159694045782089233, -0.0119066322222352028, -0.0695532411336898804, -0.0945225730538368225, -0.0806226655840873718, 0.0032096514478325844, 0.0465671271085739136, 0.0206067301332950592, 0.0274312421679496765, -0.0729667544364929199, 0.0256347637623548508, 0.0885861366987228394, -0.0376216657459735870, -0.0315032564103603363, -0.0258343759924173355, -0.0835127905011177063, -0.0436968617141246796, -0.0537741407752037048, 0.0808904618024826050, -0.0006604449590668082, 0.0090068811550736427, -0.1450090110301971436, 0.0406166352331638336, 0.0345923937857151031, -0.0196121316403150558, -0.0634929835796356201, -0.0561020970344543457, -0.0451847799122333527, -0.0699096322059631348, 0.0123115349560976028, -0.0429155342280864716, -0.0378280021250247955, 0.0540655739605426788, -0.0464507788419723511, 0.0115134129300713539, 0.1003599613904953003, 0.0559194907546043396, 0.0637497678399085999, 0.0982499420642852783, 0.0159903988242149353, 0.0536104068160057068, 0.0590286888182163239, 0.0362224280834197998, 0.0670931339263916016, 0.0174262598156929016, 0.1217548400163650513, 0.1198666617274284363, 0.0162343475967645645, -0.0302289221435785294, 0.0038519583176821470, 0.0349805392324924469, 0.0065900427289307117, -0.0592355430126190186, 0.0842030197381973267, 0.0776788741350173950, -0.0171995554119348526, -0.0547306537628173828, 0.1055420711636543274, -0.0004311323573347181, 0.1343422085046768188, 0.0245180539786815643, 0.0003755200887098908, -0.0132657652720808983, -0.0342575460672378540, -0.0006845897296443582, 0.0399546362459659576, -0.2127215564250946045, 0.1765494346618652344, 0.1342299878597259521, -0.4595667123794555664, 0.0060182898305356503, 0.1688383221626281738, -0.0180147234350442886, -0.0167981181293725967, -0.0290226433426141739, 0.0594144091010093689, 0.0360494591295719147, 0.0297983922064304352, -0.0019536174368113279, 0.0482041276991367340, -0.1537511199712753296, -0.0061245327815413475, -0.1105952635407447815, 0.0552137792110443115, 0.0496715828776359558, -0.0303162895143032074, -0.0155440997332334518, -0.0126093570142984390, -0.0864221751689910889, 0.1271525472402572632, 0.0121693303808569908, 0.0549627803266048431, 0.1592437475919723511, -0.0099810045212507248, 0.0453051812946796417, -0.0757194757461547852, 0.0734391659498214722, -0.0888494178652763367, -0.1019565314054489136, 0.0266095250844955444, 0.0351185090839862823, 0.0759543180465698242, -0.0048967767506837845, 0.0169551949948072433, -0.0080083282664418221, -0.0302028451114892960, -0.1156302168965339661, 0.0622536353766918182, -0.0381413325667381287, 0.1291173994541168213, 0.0942655727267265320, 0.0966801196336746216, 0.1043001115322113037, 0.0864814743399620056, -0.0031357004772871733, -0.1048731282353401184, -0.0084433387964963913, 0.1632165610790252686, 0.1307274252176284790, 0.0507233664393424988, 0.0402242206037044525, -0.0896289050579071045, -0.0116269616410136223, -0.1050969064235687256, -0.0571908280253410339, 0.0280754882842302322, -0.1259948164224624634, 0.0158166624605655670, 0.0113283693790435791, -0.0057398770004510880, -0.0623732842504978180, 0.0581912919878959656, 0.0416376478970050812, 0.3133391141891479492, 0.0422982573509216309, -0.0323417522013187408, 0.0717304944992065430, 0.1458403617143630981, -0.0190254021435976028, -0.0881270691752433777, 0.0218286644667387009, 0.0380542986094951630, -0.0153174027800559998, 0.0805223062634468079, -0.0534234829246997833, 0.0328040309250354767, 0.0181079227477312088, 0.0221318006515502930, -0.0174811389297246933, -0.0888585075736045837, 0.0348417535424232483, 0.0624836012721061707, 0.0146639840677380562, 0.0020271120592951775, 0.0975287482142448425, 0.0095362821593880653, -0.0234476905316114426, 0.0180225465446710587, 0.0256807040423154831, 0.0594727694988250732, 0.0134951919317245483, -0.0762211829423904419, 0.0362205579876899719, -0.0371184274554252625, 0.0359744392335414886, -0.0529189035296440125, 0.0421821027994155884, 0.1370154619216918945, -0.0515390932559967041, 0.0331847742199897766, 0.0254645235836505890, 0.0926555916666984558, 0.0606687217950820923, 0.0238589178770780563, -0.0209999457001686096, -0.0505209304392337799, 0.0135282585397362709, 0.0067159030586481094, 0.0039109867066144943, -0.0491876974701881409, -0.0073150955140590668, 0.0369624346494674683, -0.0634087398648262024, 0.0757894515991210938, -0.0604864098131656647, 0.0513401217758655548, -0.0332466401159763336, -0.0536315292119979858, 0.0516577921807765961, 0.0103332782164216042, 0.0604997687041759491, -0.0525077283382415771, -0.0301483646035194397, 0.0101996157318353653, -0.0972634404897689819, 0.0116704571992158890, 0.0543193668127059937, -0.0582263916730880737, 0.0959563180804252625, -0.0338548570871353149, -0.0997228249907493591, 0.1628589332103729248, -0.0584918297827243805, -0.1074178516864776611, 0.0613372102379798889, 0.1096130609512329102, 0.0273776929825544357, -0.0304417666047811508, -0.1188939213752746582, 0.0028728819452226162, 0.0009022605372592807, -0.0656891390681266785, 0.0530238710343837738, -0.1039969101548194885, -0.0089491810649633408, -0.0884266644716262817, 0.0341068543493747711, -0.1241538897156715393, 0.1164456978440284729, -0.0671107918024063110, -0.0229172669351100922, 0.0120678562670946121, 0.0589951425790786743, 0.0368847623467445374, -0.0037549892440438271, -0.0081152757629752159, -0.1028792634606361389, 0.0355392508208751678, 0.0255906675010919571, -0.0298139899969100952, -0.0569129586219787598, 0.0434423238039016724, -0.0140957990661263466, -0.0538475364446640015, 0.0042888782918453217, 0.0154805863276124001, -0.0121611263602972031, -0.0538959130644798279, 0.0390557907521724701, 0.0506706461310386658, -0.0273850187659263611, 0.1180824711918830872, -0.0697715580463409424, -0.0304015669971704483, 0.0588299706578254700, -0.0601606257259845734, -0.0500439181923866272, 0.0028799313586205244, -0.0042526237666606903, 0.0011028767330572009, -0.1055022925138473511, 0.0504140742123126984, -0.0297742895781993866, 0.0133645189926028252, -0.0493915416300296783, 0.0358641482889652252, -0.0658603981137275696, -0.1140339449048042297, 0.1061829701066017151, -0.1296197474002838135, 0.1129154264926910400, -0.8655414581298828125, -0.0851649567484855652, -0.0175996590405702591, 0.0812340453267097473, -0.0453481115400791168, 0.0535374283790588379, -0.0252097435295581818, -0.0408674068748950958, -0.0916234403848648071, -0.0375224426388740540, -0.1124292463064193726, 0.2118575274944305420, -0.0532625019550323486, -0.0544456914067268372, 0.0688118636608123779, 0.0581146776676177979, 0.0071926033124327660, -0.0385428220033645630, 0.0117277391254901886, 0.0357602089643478394, -0.1239888295531272888, 0.0160034969449043274, -0.0354484282433986664, -0.0672549977898597717, 0.0338592603802680969, 0.0701386034488677979, 0.0077031473629176617, -0.0640283152461051941, 0.0994202494621276855, 0.0268345847725868225, 0.0002115966344717890, -0.0224570669233798981, -0.0514104291796684265, 0.0040914104320108891, -0.0077901491895318031, 0.0463232100009918213, -0.0885817036032676697, -0.0357108116149902344, -0.0800996348261833191, -0.0479347184300422668, 0.0709598734974861145, 0.2037203758955001831, 0.1378014534711837769, 0.0670910179615020752, 0.1356929987668991089, -0.0603196956217288971, -0.0854080840945243835, -0.0044732145033776760, -0.0955654159188270569, 0.0646691247820854187, 0.0304520390927791595, 0.0338210165500640869, -0.0749650076031684875, -0.0332313254475593567, 0.0298685729503631592, -0.0299632940441370010, -0.1659982204437255859, 0.0849580988287925720, 0.1180971711874008179, 0.1072852537035942078, -0.1926485002040863037, 0.0370041057467460632, 0.0263639409095048904, 0.0553023666143417358, 0.0091726742684841156, -0.0098784202709794044, -0.0036875265650451183, -0.0452986732125282288, 0.1061010733246803284, 0.0754786431789398193, -0.0665079280734062195, 0.0553133115172386169, -0.0546198040246963501, -0.0013279579579830170, 0.0112926838919520378, 0.1109864935278892517, 0.0188563633710145950, 0.0722143873572349548, -0.0537814050912857056, 0.0036835526116192341, -0.0297230258584022522, 0.0005804825341328979, 0.0256915185600519180, -0.0302792657166719437, -0.1111125126481056213, -0.0467789135873317719, 0.0357303619384765625, -0.0617334768176078796, 0.0339913368225097656, -0.0230260957032442093, 0.0769358575344085693, -0.0039128623902797699, 0.0027768469881266356, -0.1079175621271133423, 0.0489190779626369476, 0.0151208220049738884, -0.0132483709603548050, -0.0247348044067621231, -0.0036422575358301401, 0.1035045757889747620, -0.0614718161523342133, 0.0560514330863952637, -0.0597828216850757599, -0.0250354297459125519, -0.0597966574132442474, 0.0802218616008758545, 0.0481414534151554108, 0.0320014804601669312, 0.0216661486774682999, 0.0767706632614135742, -0.0512399673461914062, -0.0023731540422886610, 0.0307191740721464157, 0.0084033170714974403, 0.0089718578383326530, 0.0021416638046503067, -0.0272044315934181213, -0.0105715589597821236, -0.0080752791836857796, -0.0572806596755981445, 0.0907071307301521301, 0.1040074229240417480, -0.0916018486022949219, -0.0433245226740837097, 0.0706824362277984619, -0.1165690869092941284, 0.0210097860544919968, -0.0915304794907569885, 0.0309973396360874176, -0.0073244976811110973, -0.0025430310051888227, 0.0098557947203516960, -0.0225842520594596863, 0.0158857367932796478, 0.0408801063895225525, 0.0480117648839950562, -0.0658549070358276367, 0.0070715956389904022, -0.0762967020273208618, -0.0250972043722867966, -0.0516800172626972198, 0.0741740912199020386, -0.0260996371507644653, -0.0449213981628417969, -0.0060396189801394939, 0.1112862750887870789, -0.0156261511147022247, 0.1342125982046127319, 0.0245524905622005463, 0.0347170457243919373, -0.0438350774347782135, 0.0471904687583446503, 0.0036643194034695625, 0.0003089934762101620, -0.0150627028197050095, 0.0375287421047687531, -0.1532767415046691895, -0.1509553343057632446, 0.0481651648879051208, 0.0407823286950588226, 0.0300258081406354904, -0.0709373503923416138, 0.0455356203019618988, -0.0127178803086280823, 0.0276563186198472977, -0.0974518433213233948, 0.0851327776908874512, -0.0203069187700748444, -0.0202896427363157272, 0.1020698472857475281, -0.1723426878452301025, 0.0805259123444557190, 0.0277181062847375870, -0.0247351005673408508, -0.0207955259829759598, 0.0257313121110200882, 0.0004874622100032866, 0.0640022009611129761, -0.0366387106478214264, -0.0651584863662719727, 0.1191910654306411743, 0.1409722268581390381, 0.0546879507601261139, 0.1015669032931327820, -0.0138910813257098198, -0.0615031570196151733, 0.0202615316957235336, -0.0865484848618507385, 0.0702786445617675781, 0.0096495719626545906, 0.0841052830219268799, -0.0031571099534630775, 0.2232841849327087402, -0.1285951882600784302, -0.0375080741941928864, 0.0305561143904924393, 0.0298955459147691727, 0.0331304036080837250, 0.1276111602783203125, 0.0358336977660655975, -0.0443015806376934052, -0.0129374833777546883, 0.0190625693649053574, -0.0756891146302223206, -0.0672290623188018799, 0.0080395443364977837, 0.0289413277059793472, -0.0871005654335021973, 0.1022418141365051270, 0.0620839223265647888, -0.0298608615994453430, 0.0160187669098377228, 0.1553239673376083374, -0.0389479584991931915, -0.0102676451206207275, 0.0321841128170490265, 0.0668266266584396362, -0.1021958738565444946, -0.0029496417846530676, 0.0829008445143699646, -0.0815285071730613708, -0.0884633585810661316, -0.0227324180305004120, 0.0426986515522003174, 0.0109383398666977882, -0.0107490178197622299, 0.0342931859195232391, 0.0177607368677854538, -0.0865489169955253601, -0.0309457145631313324, -0.0031984932720661163, -0.0044639147818088531, 0.2018121480941772461, -0.1493063122034072876, -0.0291014537215232849, -0.0163331981748342514, -0.0489874444901943207, 0.1045720279216766357, -0.0206580776721239090, -0.1336496174335479736, 0.1487922221422195435, 0.1098897457122802734, -0.0304497461766004562, -0.0355750918388366699, 0.0695684477686882019, 0.0045255469158291817, -0.0846990495920181274, 0.0462776049971580505, 0.0456527993083000183, -0.0194784663617610931, -0.1407530903816223145, -0.0250671263784170151, 0.0726836547255516052, 0.0262162107974290848, 0.0775912851095199585, -0.0274233780801296234, -0.0888750702142715454, -0.1190527975559234619, -0.0157323833554983139, 0.1003080606460571289, 0.0477160066366195679, -0.0715590342879295349, 0.1365866661071777344, -0.0344786271452903748, 0.0958331748843193054, 0.1236846894025802612, -0.0406454764306545258, 0.0988226383924484253, 0.0575438328087329865, 0.0145894028246402740, -0.0355109833180904388, 0.0603924170136451721, 0.0362327136099338531, 0.0651625394821166992, -0.1005201786756515503, -0.0602765604853630066, 0.0291578881442546844, 0.0041329055093228817, -0.0585706159472465515, -0.0334319435060024261, 0.0708108916878700256, 0.0584064833819866180, -0.0867561697959899902, 0.0777772963047027588, -0.0361784957349300385, 0.0282722525298595428, 0.0525359176099300385, 0.0504550151526927948, 0.0271749459207057953, -0.0389168038964271545, 0.0687722489237785339, 0.0375273339450359344, 0.0285476017743349075, 0.0397538654506206512, 0.0896490216255187988, -0.0962296053767204285, 0.0334656052291393280, -0.0849497392773628235, 0.1072231307625770569, 0.1208580359816551208, 0.0479397624731063843, -0.0997151061892509460, -0.1441968679428100586, -0.0815010145306587219, -0.0510541088879108429, 0.0893644168972969055, 0.0243456140160560608, 0.0094105880707502365, 0.0221088454127311707, 0.0486556477844715118, -0.0761809051036834717, -0.0528885759413242340, 0.0804633423686027527, 0.0627309009432792664, -0.0723096430301666260, -0.0561030283570289612, 0.0087286941707134247, 0.0369730852544307709, 0.0250593423843383789, -0.0909144133329391479, 0.0184243395924568176, 0.0540216751396656036, -0.0394697971642017365, -0.0713528022170066833, 0.0547293759882450104, -0.0376805700361728668, -0.0021390418987721205, -0.0238652080297470093, 0.1016213670372962952, -0.0146854892373085022, 0.0404938347637653351, -0.0171587672084569931, 0.0735613107681274414, 0.0421773940324783325, 0.0097822798416018486, -0.0045856768265366554, -0.0049160206690430641, 0.0369972139596939087, -0.0124785928055644035, -0.0807614475488662720, 0.1031152382493019104, 0.0544961504638195038, 0.0561275035142898560, 0.0211485773324966431, -0.0783314257860183716, -0.0062791220843791962, -0.0816288664937019348, 0.0386214479804039001, 0.0362883433699607849, 0.0153667256236076355, 0.0299028474837541580, 0.0559939965605735779, 0.0048340791836380959, -0.0627901852130889893, 0.0937078967690467834, -0.0695133134722709656, 0.0541688837110996246, -0.0820844769477844238, -0.0168050788342952728, 0.1091806367039680481, 0.0613127723336219788, 0.0146059729158878326, 0.0104202795773744583, -0.0598328262567520142, 0.1618090122938156128, -0.0935505181550979614, 0.1004726737737655640, 0.0390572883188724518, 0.0676854550838470459, -0.0711396336555480957, 0.0016643856652081013, -0.0563880056142807007, 0.0794431641697883606, -0.0275848302990198135, 0.0269287563860416412, -0.0963966473937034607, 0.0596276894211769104, 0.0729433968663215637, 0.0523652508854866028, -0.0138784814625978470, 0.0220910869538784027, 0.1613843291997909546, 0.0711024180054664612, -0.0181611161679029465, 0.0684437826275825500, 0.0460283830761909485, 0.0227336958050727844, -0.1260473728179931641, 0.0299928765743970871, -0.0074305697344243526, -0.0920448750257492065, -0.0003215273318346590, 0.0721493884921073914, 0.0418966710567474365, -0.0450034402310848236, -0.0217198394238948822, 0.0861267074942588806, -0.0632156431674957275, 0.0258967000991106033, 0.0108216525986790657, -0.0634295046329498291, 0.0583095960319042206, -0.0809254795312881470, -0.0292736291885375977, 0.0070818853564560413, 0.0180433038622140884, -0.0852172672748565674, -0.0784794017672538757, 0.0382593460381031036, 0.0630492493510246277, 0.0775714442133903503, 0.0225538164377212524, -0.0227885507047176361, -0.0433488562703132629, 0.0001215790616697632, -0.1029820218682289124, 0.0519338324666023254, 0.0854670852422714233, 0.0562436468899250031, -0.0339969322085380554, -0.0143202068284153938, 0.0448682308197021484, 0.0276617873460054398, 0.0152064580470323563, -0.1183011382818222046, 0.0096863359212875366, 0.0727919116616249084, 0.0046983035281300545, 0.0306861605495214462, -0.0155670698732137680, 0.0852167531847953796, -0.0343955047428607941, -0.0135449245572090149, 0.0504184141755104065, -0.0835463851690292358, -0.0036054949741810560, -0.0133540555834770203, -0.0835070833563804626, -0.0401795916259288788, -0.0655058771371841431, -0.0024544042535126209, 0.0696010589599609375, -0.0264467187225818634, 0.0199062433093786240, 0.0842064768075942993, 0.1184174492955207825, 0.0359054319560527802, -0.0962979719042778015, -0.1997042149305343628, 0.0196028947830200195, 0.0644601285457611084, -0.1131278052926063538, 0.0037833822425454855, 0.0119276354089379311, 0.0804745182394981384, -0.0275099240243434906, -0.0583531074225902557, -0.0283395536243915558, 0.0285367760807275772, -0.0003072176768910140, -0.0232468061149120331, -0.0039881132543087006, 0.0263107270002365112, 0.0305759720504283905, -0.0437476411461830139, -0.1446685492992401123, 0.0215802807360887527, 0.0425362847745418549, -0.0516719333827495575, 0.0527759641408920288, -0.0202615596354007721, -0.0167889054864645004, 0.0487518310546875000, -0.1005323901772499084, 0.0583652667701244354, 0.0146379088982939720, 0.0136362975463271141, 0.0213555339723825455, -0.0039402823895215988, -0.0163019765168428421, -0.0859231874346733093, 0.0459382124245166779, -0.0492950268089771271, -0.1459998637437820435, -0.1028736308217048645, -0.0136911785230040550, 0.0485794097185134888, 0.0717517510056495667, 0.1179499477148056030, 0.0239432975649833679, -0.0405883044004440308, 0.1117560267448425293, 0.1093125194311141968, -0.0399371609091758728, 0.0331348851323127747, -0.0834006741642951965, -0.0253277737647294998, 0.0255195572972297668, 0.0058794775977730751, -0.0992532894015312195, 0.0287590790539979935, 0.0197563879191875458, -0.0538580082356929779, -0.0671220719814300537, -0.0779907554388046265, 0.0268149524927139282, -0.0261486414819955826, -0.0538225769996643066, 0.0595480166375637054, 0.1121985465288162231, 0.0263719968497753143, 0.0252104252576828003, 0.0051592495292425156, 0.1276140362024307251, 0.0401071272790431976, -0.0971643701195716858, -0.0387661643326282501, 0.0846402719616889954, -0.0650430694222450256, 0.0437792949378490448, -0.0038755012210458517, -0.0700811892747879028, 0.0242256540805101395, -0.0053340680897235870, -0.0446932055056095123, -0.0432800203561782837, -0.0730826258659362793, 0.0583906657993793488, -0.0353516265749931335, -0.0151204178109765053, 0.0233733747154474258, 0.0507689416408538818, -0.0192446541041135788, -0.1342571973800659180, -0.0186017248779535294, 0.0660227611660957336, 0.0656524598598480225, 0.0733585059642791748, 0.0104001155123114586, -0.0628304183483123779, -0.0022436212748289108, -0.0840419977903366089, -0.1060676947236061096, -0.0140009522438049316, -0.1073067709803581238, 0.1110782399773597717, -0.1025323122739791870, 0.0271786134690046310, 0.0254307314753532410, 0.0153799615800380707, 0.0267923641949892044, 0.0997015014290809631, 0.0525596290826797485, 0.0692364275455474854, -0.1042242497205734253, 0.0774080753326416016, 0.0400011613965034485, -0.0085342656821012497, 0.1141620799899101257, -0.0012386689195409417, -0.0299012400209903717, 0.0587273314595222473, -0.0842139720916748047, -0.0039191525429487228, 0.0233747530728578568, 0.0157006103545427322, 0.0773121267557144165, -0.0018280486110597849, -0.0476947054266929626, -0.0883146226406097412, 0.0629842132329940796, 0.0347051247954368591, 0.0560592673718929291, 0.1268571764230728149, -0.0260982587933540344, -0.0045354506000876427, 0.2040215134620666504, 0.0106318769976496696, 0.0160368680953979492, -0.0227640997618436813, -0.0038636238314211369, 0.0870174095034599304, 0.0314481370151042938, -0.1050970852375030518, 0.0662084072828292847, -0.0522502362728118896, 0.0606398098170757294, 0.0592325553297996521, 0.0793759152293205261, -0.0013667274033650756, 0.0047279191203415394, -0.1375102996826171875, -0.0237270016223192215, 0.0255178548395633698, -0.0475061945617198944, 0.0388234332203865051, 0.0281230676919221878, -0.1250449270009994507, -0.0719533115625381470, 0.0179724618792533875, 0.0698843970894813538, 0.0109800649806857109, -0.0374865271151065826, -0.0192886460572481155, -0.1026063188910484314, 0.0061929281800985336, -0.0714540109038352966, -0.0449992157518863678, 0.0501118153333663940, -0.0395802110433578491, 0.0576671026647090912, 0.0465198121964931488, 0.1620448231697082520, 0.0230021756142377853, 0.0241066049784421921, -0.0248107481747865677, -0.0297608282417058945, 0.0495266057550907135, -0.0787743106484413147, -0.0166825186461210251, -0.1176522970199584961, -0.0590141080319881439, -0.0364671573042869568, 0.0234364438802003860, 0.1810338199138641357, 0.0062365666963160038, -0.0538710914552211761, -0.0481545329093933105, 0.1112196296453475952, -0.0028973438311368227, -0.0482252277433872223, 0.1304344981908798218, -0.1735024899244308472, 0.0243961997330188751, 0.0002051255141850561, -0.0568057931959629059, 0.0822016894817352295, 0.0544685907661914825, 0.0705974772572517395, -0.1058819070458412170, 0.1063593998551368713, 0.0145542696118354797, 0.0976424366235733032, 0.0839964896440505981, 0.0231735408306121826, 0.0834751054644584656, -0.0221870318055152893, -0.0492076389491558075, 0.0516638197004795074, -0.0129722878336906433, 0.0558536164462566376, -0.0211292859166860580, 0.0583291463553905487, -0.0877021327614784241, 0.0360749810934066772, -0.0670268833637237549, 0.0785155072808265686, 0.0529840253293514252, -0.1410188078880310059, 0.0241559632122516632, -0.0320051051676273346, 0.0681875720620155334, -0.0058365510776638985, -0.0956755802035331726, -0.0504171103239059448, -0.0147740999236702919, 0.0479987263679504395, -0.0034263641573488712, 0.0526030436158180237, 0.1664181798696517944, -0.0003906755300704390, 0.0733099356293678284, 0.1040371656417846680, -0.1028657108545303345, 0.1559931933879852295, -0.0969485267996788025, -0.0917594879865646362, 0.0091407345607876778, 0.0884739831089973450, -0.0418645255267620087, -0.0294595658779144287, -0.1870359182357788086, -0.1484366506338119507, 0.0255078244954347610, 0.0061847358010709286, 0.1006064936518669128, -0.0404706336557865143, 0.1005315482616424561, 0.0092043643817305565, 0.1144903898239135742, -0.0065150908194482327, -0.0836861655116081238, -0.0660280883312225342, -0.0337640009820461273, 0.0362181663513183594, 0.0905615091323852539, 0.0699355900287628174, 0.0516841001808643341, -0.0820932462811470032, 0.0577401667833328247, 0.0894782617688179016, -0.0398038178682327271, -0.0431826673448085785, 0.0490021705627441406, -0.0487549304962158203, -0.0571843907237052917, -0.0220115687698125839, -0.0254867300391197205, 0.0565588921308517456, 0.0361342914402484894, -0.0813995823264122009, 0.0060330494306981564, -0.0206269305199384689, -0.0682538226246833801, 0.0397540591657161713, -0.0663459822535514832, 0.0411842018365859985, 0.0695696994662284851, -0.1054474711418151855, -0.1090041175484657288, -0.0387057438492774963, -0.0573112778365612030, -0.0175608992576599121, -0.0031309474725276232, 0.0153848668560385704, 0.0558781474828720093, -0.0680367201566696167, -0.1270369738340377808, 0.0119894342496991158, 0.0852418988943099976, 0.0794627964496612549, -0.0248884931206703186, -0.1423817127943038940, 0.1543187946081161499, -0.0487167090177536011, -0.0199615713208913803, 0.0016714467201381922, 0.1014080420136451721, -0.0946844667196273804, -0.0617830082774162292, -0.0650499612092971802, 0.1326526999473571777, 0.0613828524947166443, -0.0371117070317268372, -0.0281539130955934525, -0.0087399920448660851, -0.0766791477799415588, -0.0840272903442382812, -0.0483554415404796600, 0.1165770664811134338, -0.0378487743437290192, -0.0895895585417747498, 0.1144254058599472046, -0.0575899891555309296, -0.0160461347550153732, -0.0003037839778698981, -0.0513898022472858429, -0.0821368843317031860, 0.1136854216456413269, -0.0646299719810485840, -0.0208848416805267334, -0.0676670297980308533, -0.0628952607512474060, -0.0166013333946466446, 0.2140844911336898804, -0.1736201345920562744, 0.1084890365600585938, 0.0988338291645050049, -0.1872278153896331787, 0.0705326646566390991, -0.0257137026637792587, 0.1805370151996612549, 0.0949721112847328186, 0.1227533519268035889, 0.0199646931141614914, 0.0428085476160049438, 0.0094558782875537872, 0.0213348437100648880, 0.0188334658741950989, -0.0483959093689918518, -0.0547958090901374817, 0.0768001601099967957, -0.0247133243829011917, -0.0336957722902297974, 0.0260060988366603851, 0.0284036751836538315, -0.0100632840767502785, -0.0352598913013935089, -0.2151213288307189941, -0.0058121196925640106, 0.0721037238836288452, 0.1290601640939712524, -0.0975336134433746338, 0.0861311629414558411, 0.0090460786595940590, 0.0185960009694099426, -0.0560338422656059265, -0.0221409443765878677, -0.0941207781434059143, 0.0375598743557929993, -0.0307555068284273148, 0.0200205855071544647, -0.1022189259529113770, 0.0599316470324993134, 0.2500125765800476074, -0.0578660853207111359, 0.1103340312838554382, -0.0433030985295772552, 0.1622056066989898682, 0.1820117831230163574, -0.0001488661509938538, 0.0333198308944702148, 0.0283087901771068573, 0.0210114270448684692, -0.0664959549903869629, -0.0733357816934585571, -0.0207916088402271271, 0.0458130612969398499, -0.0150043126195669174, -0.1175293326377868652, 0.0169404409825801849, 0.0915035605430603027, 0.1316905468702316284, -0.0265653338283300400, -0.0280751492828130722, -0.0461097285151481628, -0.0027229625266045332, 0.0040688705630600452, 0.0031423014588654041, -0.1386321783065795898, -0.0496282726526260376, -0.0359926335513591766, -0.0195435099303722382, 0.0214416868984699249, -0.0630081295967102051, -0.0826386064291000366, -0.1481342315673828125, -0.0503994859755039215, -0.0149314049631357193, 0.0286782588809728622, -0.0607891827821731567, 0.1628275662660598755, -0.0835227668285369873, -0.0637614727020263672, -0.0579998120665550232, -0.1170231178402900696, -0.0327257253229618073, -0.0638282671570777893, -0.0977643132209777832, -0.0140953445807099342, 0.0443722084164619446, -0.0322936475276947021, 0.0773966684937477112, -0.1655728071928024292, 0.1755661815404891968, 0.0062554418109357357, 0.0764761120080947876, -0.0155146252363920212, -0.0332141779363155365, -0.0593767911195755005, -0.0659761354327201843, -0.1677349954843521118, 0.0270639434456825256, 0.0123665211722254753, 0.1724360585212707520, 0.0208099503070116043, 0.0717654153704643250, 0.1952971220016479492, 0.0463200919330120087, -0.0746805742383003235, -0.0428138971328735352, -0.0779829546809196472, 0.0210837982594966888, 0.2039200812578201294, -0.0378265790641307831, -0.0398188792169094086, 0.0629787445068359375, 0.1272737979888916016, 0.0018614844884723425, -0.0576045103371143341, 0.0830522775650024414, 0.0680295974016189575, -0.1494358032941818237, 0.1052149012684822083, -0.1010753810405731201, 0.0517931133508682251, 0.1457602530717849731, -0.0193994343280792236, 0.1563573777675628662, -0.0134221026673913002, -0.0246749706566333771, 0.0357598774135112762, -0.0923636555671691895, -0.1019358187913894653, 0.0759253203868865967, -0.0245567318052053452, 0.0878590494394302368, -0.1138792559504508972, -0.0579826273024082184, 0.0366439558565616608, -0.0758533254265785217, 0.0043054432608187199, 0.0714014247059822083, -0.1263544261455535889, 0.0169816836714744568, -0.0496109947562217712, 0.0878637656569480896, 0.0746040642261505127, 0.1440802067518234253, -0.0303347352892160416, -0.0174683388322591782, 0.0370501652359962463, 0.0226296931505203247, -0.0497983433306217194, 0.0351661033928394318, 0.0100923189893364906, -0.0255264360457658768, -0.0596809573471546173, 0.0602699741721153259, 0.1047423854470252991, -0.0268900021910667419, -0.0009686293778941035, -0.0631336793303489685, 0.0934027507901191711, -0.0050818901509046555, -0.0633950084447860718, 0.0103546399623155594, -0.0124633982777595520, 0.1171055436134338379, -0.1658848971128463745, 0.1140814796090126038, -0.0236144382506608963, -0.1319707632064819336, 0.0480949841439723969, 0.0301622860133647919, 0.1674119681119918823, 0.0946880131959915161, -0.0371367596089839935, -0.0481647886335849762, 0.0429579168558120728, -0.0323816463351249695, -0.0650456249713897705, -0.0242157001048326492, -0.1069328859448432922, -0.0362965427339076996, -0.0090645840391516685, 0.1201524361968040466, 0.0760193690657615662, 0.0356047488749027252, 0.0559910535812377930, -0.0196313131600618362, 0.1092792898416519165, 0.0307097192853689194, 0.0935463160276412964, -0.0495445877313613892, -0.0454200208187103271, -0.1167886555194854736, 0.1185901015996932983, -0.0315382890403270721, 0.0842369347810745239, -0.0062382090836763382, 0.0443526729941368103, 0.0295442007482051849, -0.0867258831858634949, 0.1519283950328826904, -0.0689599141478538513, -0.0525979809463024139, 0.0037004940677434206, -0.0666502341628074646, -0.0785076916217803955, -0.0088039590045809746, -0.0199887324124574661, -0.0434172861278057098, 0.0254388786852359772, 0.0353807136416435242, 0.1047473326325416565, 0.0022563997190445662, 0.0325217992067337036, -0.0222546458244323730, 0.0676748380064964294, 0.0780472233891487122, 0.0460027344524860382, 0.0323059521615505219, -0.0692323520779609680, -0.0031028217636048794, -0.0291839018464088440, -0.0079974066466093063, 0.1056134626269340515, 0.0424732901155948639, 0.0078184008598327637, 0.0299385841935873032, -0.0691679418087005615, 0.0270435865968465805, 0.0456099621951580048, -0.0322777628898620605, -0.0113366199657320976, -0.0944513007998466492, -0.0105419158935546875, -0.0315928384661674500, -0.0774492993950843811, 0.1281412988901138306, 0.0036272169090807438, -0.0642211511731147766, -0.0179907847195863724, -0.0204903390258550644, -0.0662824437022209167, -0.0003900878364220262, -0.0695259869098663330, -0.0015101818135008216, -0.0116078658029437065, 0.0159793104976415634, 0.0163798853754997253, 0.0786046758294105530, 0.0127839613705873489, -0.0357822440564632416, -0.0170623809099197388, -0.0538481287658214569, -0.0249695554375648499, 0.0200419221073389053, 0.0732330530881881714, 0.0400631576776504517, 0.0665310919284820557, 0.0573070012032985687, -0.0753238648176193237, -0.1608615517616271973, -0.0259620584547519684, 0.0935551822185516357, -0.0235879030078649521, 0.0527572184801101685, 0.0581725947558879852, 0.1016269624233245850, -0.0476763471961021423, -0.0135897155851125717, -0.0880571752786636353, -0.0786250010132789612, 0.0598193556070327759, 0.0395008251070976257, -0.0084319151937961578, -0.0091694779694080353, 0.0022044817451387644, 0.1103067770600318909, -0.0188704933971166611, 0.0417824462056159973, -0.0186744760721921921, -0.0536770597100257874, -0.0904234349727630615, -0.0004250139754731208, 0.0405817739665508270, -0.0280943699181079865, -0.1314780265092849731, 0.0356528647243976593, 0.0544234327971935272, -0.0513572618365287781, 0.1088087484240531921, 0.0035370059777051210, -0.0070048337802290916, -0.0615232028067111969, 0.0629161670804023743, 0.0064851194620132446, 0.0678709372878074646, 0.0148640880361199379, 0.0823777094483375549, -0.1108732968568801880, 0.0579876452684402466, -0.0888466984033584595, -0.1061799973249435425, 0.0864738523960113525, -0.0108873294666409492, 0.0418880432844161987, 0.0572551861405372620, 0.0027668783441185951, -0.0687379986047744751, -0.2553937733173370361, -0.0476949214935302734, 0.0927311256527900696, 0.0037145239766687155, -0.0719935446977615356, -0.0232171826064586639, 0.0144934169948101044, -0.1280591189861297607, -0.0812534317374229431, -0.0301702413707971573, 0.0833848193287849426, -0.0397551357746124268, 0.0583248399198055267, 0.0040187793783843517, -0.0287605579942464828, -0.0478183925151824951, 0.3605772554874420166, -0.0024334595073014498, -0.0181994531303644180, -0.0008701512706466019, -0.0640927031636238098, 0.1177191734313964844, -0.0913169607520103455, 0.2279935479164123535, -0.0476188249886035919, 0.1811922788619995117, -0.0263526197522878647, -0.0934903249144554138, 0.0435386076569557190, 0.1388000696897506714, 0.0154371056705713272, 0.0596726126968860626, -0.0874961465597152710, -0.0429647490382194519, -0.1068817153573036194, 0.0661501586437225342, -0.0167785864323377609, 0.1981406509876251221, 0.1127960160374641418, -0.0818195939064025879, 0.0252682417631149292, -0.1391972154378890991, -0.0031061491463333368, 0.0863774344325065613, 0.0441845804452896118, -0.1123889684677124023, 0.1074814349412918091, -0.0166402347385883331, 0.0554181337356567383, -0.0015011861687526107, -0.0675609558820724487, 0.0612913407385349274, 0.0539046898484230042, -0.0429563410580158234, 0.1350471675395965576, -0.2282775789499282837, 0.1765264719724655151, 0.0815165862441062927, 0.0181649625301361084, -0.0073091336525976658, 0.0690185725688934326, 0.0551300570368766785, -0.0921664461493492126, -0.0967373624444007874, 0.0272377151995897293, 0.0010187500156462193, -0.1652585417032241821, -0.0023654182441532612, -0.0044267652556300163, 0.0632406100630760193, -0.0260489210486412048, 0.1068368405103683472, 0.1756333261728286743, -0.0623084343969821930, -0.0350678861141204834, -0.0569590888917446136, -0.0230532214045524597, -0.0147801311686635017, -0.0156081896275281906, 0.0840220227837562561, -0.3954215049743652344, 0.0546242892742156982, 0.0139057049527764320, 0.1268549412488937378, 0.0104983607307076454, -0.0256067700684070587, 0.0914878845214843750, -0.1199761703610420227, -0.0528046637773513794, 0.0137147158384323120, 0.0565774552524089813, -0.0798076242208480835, -0.0090563846752047539, -0.0413140654563903809, 0.1549115926027297974, 0.0129433162510395050, 0.0382565408945083618, 0.0637944638729095459, 0.0076760929077863693, 0.0119597865268588066, 0.1164392381906509399, -0.0792927816510200500, 0.0456338636577129364, 0.0582689084112644196, -0.1036799997091293335, 0.0404122546315193176, 0.0372258126735687256, 0.0173751786351203918, -0.0213758032768964767, 0.0212889872491359711, 0.0504668876528739929, 0.0314554870128631592, 0.0545469224452972412, 0.0275391340255737305, 0.0321597717702388763, -0.0138732735067605972, -0.1253190189599990845, -0.0100938472896814346, 0.0075263311155140400, 0.1088322848081588745, -0.0780984014272689819, 0.0065864799544215202, 0.0225426759570837021, 0.1030239760875701904, -0.0030797088984400034, -0.0588332451879978180, 0.0004195401852484792, 0.0889628231525421143, 0.2230524867773056030, 0.0498621426522731781, 0.0772860124707221985, 0.0752842947840690613, 0.0354647561907768250, -0.0098577160388231277, -0.0174961742013692856, -0.0399425327777862549, 0.0936393812298774719, -0.0103697208687663078, -0.0267136842012405396, -0.0088344393298029900, -0.0153673030436038971, -0.0278430953621864319, -0.0942562445998191833, 0.0909990221261978149, 0.0856532528996467590, 0.0523257777094841003, -0.0538426712155342102, 0.0016891241539269686, 0.0233214646577835083, 0.0650137886404991150, -0.0362497270107269287, 0.0022284095175564289, -0.0945565402507781982, -0.0367757678031921387, 0.0272784885019063950, 0.0221300479024648666, -0.0352409370243549347, -0.0336312055587768555, 0.0240900684148073196, 0.0481223315000534058, -0.0481823123991489410, -0.0118966447189450264, 0.0355302989482879639, -0.1455900520086288452, 0.0325636230409145355, 0.0307472646236419678, 0.0285727754235267639, -0.0168568864464759827, -0.0189181361347436905, 0.0083795003592967987, -0.0022715590894222260, -0.0753853768110275269, 0.0790384039282798767, 0.0280187297612428665, -0.0995237305760383606, -0.0583680011332035065, -0.0139032267034053802, 0.0197869911789894104, -0.0504278466105461121, 0.0546446554362773895, 0.0877913758158683777, 0.0180757623165845871, -0.0999064967036247253, 0.1450375467538833618, -0.0448457412421703339, 0.1520610749721527100, -0.1121373772621154785, -0.0589976534247398376, -0.0504917465150356293, 0.0861514881253242493, 0.0040461639873683453, 0.0541897006332874298, 0.0838377997279167175, 0.0075038932263851166, 0.0852843225002288818, 0.0590227507054805756, 0.0639577284455299377, 0.0840027034282684326, -0.0327342823147773743, -0.0456889197230339050, 0.0754139870405197144, 0.0367382727563381195, 0.0753617361187934875, -0.0300140548497438431, 0.0535303503274917603, -0.0237258151173591614, 0.0220950488001108170, 0.0158392284065485001, -0.1376783400774002075, 0.1745738238096237183, 0.1263022869825363159, -0.0599554516375064850, 0.0142947873100638390, 0.0533092953264713287, -0.0543337501585483551, 0.0252793598920106888, -0.0522854775190353394, 0.0634033679962158203, -0.0166881866753101349, 0.1084410101175308228, -0.0324749685823917389, -0.0285043325275182724, -0.0649000182747840881, -0.0077902777120471001, -0.0032466482371091843, -0.0406504645943641663, 0.0639312863349914551, 0.1094183549284934998, -0.0748150274157524109, -0.0184125415980815887, -0.0349112972617149353, 0.0914188027381896973, 0.0693626105785369873, -0.0548365451395511627, -0.0095038907602429390, 0.0032887100242078304, -0.0176112949848175049, -0.1957515031099319458, 0.0547132976353168488, -0.0054695322178304195, -0.0891151353716850281, -0.0690793544054031372, -0.0058340919204056263, -0.0572769716382026672, -0.1265351921319961548, 0.0167344622313976288, 0.0688121318817138672, -0.0061282995156943798, -0.0828494057059288025, 0.0131137324497103691, 0.0588268674910068512, 0.0504101924598217010, -0.0144347846508026123, 0.0128527767956256866, -0.0385885536670684814, 0.0344379134476184845, 0.0767757296562194824, -0.0080540953204035759, -0.0488818846642971039, -0.0500499308109283447, 0.0634214952588081360, 0.0556100197136402130, -0.0364120602607727051, 0.0632541179656982422, -0.0234078299254179001, -0.0171776488423347473, -0.0411520600318908691, 0.0548593327403068542, -0.0113522037863731384, -0.0469389967620372772, 0.0043031983077526093, -0.0279392469674348831, 0.0228420961648225784, -0.0391206629574298859, 0.0360006429255008698, -0.0343715213239192963, -0.0624519139528274536, -0.0222238209098577499, -0.2152409553527832031, -0.0055073071271181107, -0.0390441417694091797, -0.0907529070973396301, -0.0397979132831096649, 0.0180357657372951508, 0.0746667534112930298, -0.0256334412842988968, -0.0173014234751462936, -0.0780804604291915894, -0.0434123203158378601, -0.1312096416950225830, -0.0961022973060607910, 0.1086944937705993652, 0.0029692577663809061, -0.0547077879309654236, -0.0313806273043155670, 0.0645244643092155457, 0.0687328204512596130, -0.0159329678863286972, -0.0646369233727455139, 0.0094618052244186401, 0.1062821373343467712, -0.0453569702804088593, 0.0545548014342784882, 0.0421410948038101196, 0.0234801992774009705, 0.0052856802940368652, 0.0153031665831804276, 0.0567932277917861938, -0.0902553573250770569, -0.0009117958252318203, -0.0715487748384475708, -0.0095617529004812241, -0.1410979777574539185, 0.0445700399577617645, -0.1687863320112228394, 0.0767847076058387756, -0.0674563199281692505, -0.0470999591052532196, -0.0659580752253532410, -0.0316430516541004181, 0.0652902200818061829, 0.0281435456126928329, 0.0586184225976467133, 0.0227555409073829651, 0.0236582513898611069, 0.0327648892998695374, -0.1213058233261108398, -0.0069557088427245617, 0.0838280692696571350, 0.0365866087377071381, -0.0154081983491778374, 0.1228870823979377747, 0.0736407339572906494, 0.1952562779188156128, 0.1451564133167266846, 0.0574652589857578278, -0.0054620886221528053, 0.0608403794467449188, 0.0342269912362098694, 0.0031773212831467390, -0.1152070313692092896, 0.0365110486745834351, -0.0634917765855789185, -0.1252840906381607056, -0.0279189813882112503, 0.0467689819633960724, -0.0091799432411789894, 0.0179450809955596924, -0.0117288958281278610, 0.0517015494406223297, 0.0384270437061786652, -0.0538657419383525848, 0.0114580746740102768, -0.0847092345356941223, 0.0128108784556388855, -0.0134122064337134361, 0.0964598730206489563, 0.0363547243177890778, -0.0182955488562583923, 0.1078945770859718323, 0.0353383645415306091, 0.0019305165624246001, -0.0381573364138603210, 0.0563429482281208038, -0.0204696189612150192, 0.0110643357038497925, 0.0272290632128715515, -0.0072153909131884575, -0.0478406548500061035, 0.0414874665439128876, -0.0688011571764945984, 0.0588153786957263947, 0.0916271731257438660, 0.1215603128075599670, -0.1326836645603179932, 0.0675132349133491516, 0.0600838847458362579, 0.0502411387860774994, 0.0900125354528427124, -0.0935015678405761719, -0.1225402355194091797, -0.0288300812244415283, 0.0633543357253074646, -0.0863224267959594727, -0.0916038081049919128, -0.1467367708683013916, 0.1417646557092666626, -0.0256421118974685669, 0.0322493091225624084, 0.0409196503460407257, 0.0918809324502944946, -0.0270900018513202667, -0.0803998708724975586, 0.0854745954275131226, 0.0094590783119201660, 0.0985281616449356079, 0.0056304116733372211, 0.0306358728557825089, 0.1035864427685737610, 0.0465399511158466339, -0.0558021813631057739, -0.1198463737964630127, -0.0534537658095359802, 0.0746240690350532532, -0.0602774955332279205, -0.0308936238288879395, -0.0610956475138664246, -0.0133298104628920555, 0.0439662076532840729, 0.0980671346187591553, -0.0420098565518856049, -0.0132246976718306541, -0.0429353490471839905, 0.1073810160160064697, 0.0430444702506065369, 0.0328952074050903320, -0.0880051627755165100, 0.0496776252985000610, -0.1080129146575927734, -0.1131241098046302795, 0.1004048362374305725, -0.0188862234354019165, 0.0050023784860968590, 0.0495419949293136597, 0.0564335323870182037, 0.0473940037190914154, -0.0462378934025764465, 0.0081134317442774773, -0.0038193028885871172, -0.0157858990132808685, -0.0692252740263938904, 0.0128273293375968933, 0.0762545987963676453, -0.0468845628201961517, -0.1099924221634864807, 0.0268260631710290909, 0.0257351864129304886, -0.1113060340285301208, 0.0312341339886188507, -0.0011634973343461752, -0.0250202100723981857, -0.0155591145157814026, 0.0664995759725570679, -0.0775675252079963684, 0.0834756493568420410, -0.0356781706213951111, -0.0420942939817905426, -0.0003340925031807274, 0.0046425536274909973, -0.0175871234387159348, -0.0682555139064788818, -0.0789818018674850464, 0.0133889960125088692, 0.0324044264853000641, -0.0571513734757900238, 0.0759773924946784973, 0.0880414173007011414, 0.0121930381283164024, 0.0772735774517059326, -0.0527715943753719330, 0.0432246215641498566, 0.0790242925286293030, -0.0937053635716438293, -0.0681607350707054138, 0.0630800426006317139, 0.0637254565954208374, 0.0433936156332492828, 0.0146788256242871284, 0.0338099971413612366, 0.1245466098189353943, 0.2830993831157684326, -0.0153499422594904900, 0.0479181967675685883, 0.0408083088696002960, -0.0298815444111824036, -0.0148230735212564468, 0.1484797149896621704, -0.1168380603194236755, -0.0287537407130002975, 0.0414510481059551239, 0.0444412045180797577, 0.0262759905308485031, 0.1333395987749099731, -0.0400009267032146454, 0.0912377610802650452, -0.0973404273390769958, 0.0237289182841777802, 0.0116713400930166245, -0.0233368426561355591, -0.0341029688715934753, 0.0422761105000972748, -0.1145214661955833435, 0.0018134551355615258, -0.1485695242881774902, 0.0330498516559600830, 0.0841512009501457214, 0.0443093329668045044, 0.1145479977130889893, 0.0871193110942840576, 0.1104299500584602356, -0.0822724923491477966, 0.0003367124591022730, 0.0572926253080368042, 0.0045142527669668198, -0.0127302240580320358, 0.0323547758162021637, 0.0309662036597728729, 0.0799188166856765747, -0.0351077839732170105, -0.0118807246908545494, -0.0182209853082895279, 0.0155204292386770248, 0.1189775764942169189, 0.0602310337126255035, 0.1257904320955276489, 0.0269251037389039993, -0.0652761384844779968, 0.0554896257817745209, 0.0025790098588913679, -0.0453020185232162476, 0.0181163214147090912, 0.0791259706020355225, 0.0438228882849216461, -0.0231089796870946884, -0.0008602374582551420, 0.0353962779045104980, -0.0650489777326583862, 0.0619737654924392700, 0.2060671299695968628, -0.0091227842494845390, -0.0093985078856348991, -0.1030097305774688721, -0.2252104282379150391, 0.0971862524747848511, -0.0406301729381084442, 0.0056114047765731812, -0.0745424926280975342, 0.0524033345282077789, 0.0838365480303764343, 0.0520965084433555603, -0.0860844478011131287, -0.0481342151761054993, -0.0657135769724845886, -0.0684477239847183228, -0.0121267409995198250, 0.1281798481941223145, -0.0589530467987060547, -0.0538915656507015228, 0.0616739057004451752, 0.1226621791720390320, -0.0080719757825136185, 0.0660319700837135315, 0.0280512552708387375, 0.0894252285361289978, -0.0563251376152038574, -0.0967668071389198303, 0.0102761620655655861, -0.1700850427150726318, -0.0074009927920997143, 0.0256961155682802200, -0.0660354495048522949, -0.0238171722739934921, -0.0388754755258560181, -0.1299676448106765747, 0.0594516582787036896, -0.0531842522323131561, -0.0458659231662750244, -0.0655605271458625793, 0.1567396223545074463, -0.0336432456970214844, 0.0706748291850090027, 0.1164164990186691284, -0.0081432014703750610, -0.0208739750087261200, 0.0383868291974067688, -0.0848721563816070557, 0.1667860448360443115, -0.1789626181125640869, -0.0083550894632935524, 0.0689250454306602478, -0.0121379597112536430, 0.0836596712470054626, 0.0675851330161094666, 0.0203874930739402771, 0.0016641882248222828, 0.1055265292525291443, 0.0873476490378379822, -0.0182924624532461166, -0.0067426324822008610, -0.1294387429952621460, 0.0299385841935873032, 0.0105245672166347504, 0.0009639612399041653, 0.0226348284631967545, 0.1427364498376846313, -0.0844995826482772827, 0.0752025544643402100, 0.0034994783345609903, -0.0117766298353672028, -0.0766139328479766846, -0.0695443302392959595, 0.0098281204700469971, 0.0109059736132621765, 0.1180607527494430542, -0.0000193815540114883, 0.0155917899683117867, 0.0410788133740425110, 0.0482741855084896088, 0.0801486745476722717, 0.0104050608351826668, 0.0421352274715900421, -0.0756460949778556824, 0.0609767697751522064, -0.0367892757058143616, 0.0193512104451656342, 0.0971925258636474609, 0.0829274132847785950, 0.1401762664318084717, 0.1195806339383125305, -0.0499493815004825592, 0.0537431724369525909, 0.1134944260120391846, -0.0341089516878128052, -0.0813637599349021912, 0.0131243281066417694, 0.0494373515248298645, 0.0189521480351686478, -0.0352458208799362183, 0.0526144169270992279, 0.0121267978101968765, 0.0576275400817394257, 0.0955537632107734680, -0.1467804163694381714, -0.0311389751732349396, 0.0331964902579784393, -0.0053285947069525719, -0.0691102370619773865, -0.0393579192459583282, 0.0660133808851242065, 0.0186292678117752075, -0.0508329533040523529, 0.0321747474372386932, 0.1479759812355041504, -0.0649915263056755066, 0.1104892343282699585, -0.0245256163179874420, 0.0763947591185569763, -0.0800220817327499390, -0.0786360800266265869, -0.0025501062627881765, 0.0480905547738075256, 0.0473131649196147919, 0.0935399308800697327, 0.0015414911322295666, -0.0451073348522186279, 0.0060283388011157513, 0.2380720078945159912, -0.0020475441124290228, 0.0751011893153190613, -0.0608930699527263641, 0.0267912596464157104, 0.0545038953423500061, -0.0079261325299739838, 0.0448084585368633270, 0.1187661811709403992, 0.0535554252564907074, -0.0793265476822853088, 0.0617793463170528412, 0.1274341344833374023, 0.0080097187310457230, 0.0076040835119783878, -0.0535455569624900818, -0.0330229364335536957, -0.0177011284977197647, -0.0436502769589424133, 0.1021370440721511841, -0.0497408919036388397, -0.0089898407459259033, -0.0157961882650852203, -0.0637047812342643738, 0.1374798566102981567, -0.1457958817481994629, -0.0460460782051086426, 0.0601180084049701691, -0.0602657236158847809, 0.0110517069697380066, 0.0521957725286483765, -0.1328699290752410889, -0.0460010543465614319, 0.0387331768870353699, 0.0124731296673417091, -0.0467407144606113434, 0.0550514236092567444, 0.0405710190534591675, 0.1058377102017402649, -0.0286846924573183060, -0.0883249193429946899, -0.1230144500732421875, 0.0140487458556890488, 0.0383266620337963104, 0.0429679825901985168, 0.0366904176771640778, -0.0926268920302391052, 0.0163432136178016663, -0.1474507302045822144, -0.0571436621248722076, 0.0134158898144960403, -0.1053713485598564148, -0.0113073568791151047, 0.0276403594762086868, -0.0628715977072715759, 0.0594579726457595825, -0.0745317786931991577, -0.0444643795490264893, -0.0079359188675880432, -0.0759885907173156738, 0.0000454483197245281, -0.0103202573955059052, -0.1068010777235031128, 0.1256126910448074341, 0.0425513312220573425, 0.0949605330824851990, -0.0011615719413384795, -0.0636781305074691772, 0.1583864092826843262, 0.0118424119427800179, 0.2300981581211090088, -0.0146252410486340523, 0.1074480712413787842, -0.0135532980784773827, 0.0245507378131151199, 0.1397126317024230957, -0.0145859252661466599, 0.0155570926144719124, 0.0149705344811081886, 0.0198907591402530670, -0.0507244653999805450, 0.1179798617959022522, 0.0047307359054684639, 0.0455078855156898499, -0.1517027318477630615, -0.0082155866548418999, -0.0043648015707731247, -0.0232609920203685760, 0.0670662596821784973, -0.0083527769893407822, 0.1219062581658363342, -0.0098634222522377968, -0.0590127371251583099, 0.0610594525933265686, 0.0526149794459342957, 0.0375752262771129608, 0.0485523454844951630, 0.0325282290577888489, 0.0308889281004667282, -0.2231421768665313721, 0.0837736576795578003, -0.0127144800499081612, 0.0025386367924511433, -0.0675982311367988586, -0.1125114560127258301, 0.0756442621350288391, 0.1067370027303695679, -0.1262131482362747192, -0.0600273720920085907, -0.0830031260848045349, 0.0571264661848545074, 0.0234947316348552704, -0.1793386191129684448, -0.0069929715245962143, 0.0039528990164399147, 0.0249345041811466217, -0.0021259745117276907, -0.0027042627334594727, 0.0496340952813625336, 0.0068734642118215561, -0.0166460555046796799, 0.0284195765852928162, -0.1607443392276763916, -0.0109143881127238274, 0.0800120681524276733, 0.0853156745433807373, 0.0198126565665006638, -0.0834675803780555725, -0.1087384298443794250, -0.0739697962999343872, 0.0204030778259038925, 0.0416268296539783478, -0.0210814327001571655, 0.0436850413680076599, -0.0293025001883506775, -0.0848492532968521118, 0.0765049159526824951, 0.1271463781595230103, -0.2538085281848907471, -0.0648376643657684326, 0.0962155684828758240, 0.0160217639058828354, 0.1099466681480407715, -0.0166357047855854034, -0.0647833570837974548, 0.0833503827452659607, -0.0978127196431159973, 0.1085329204797744751, 0.1630218774080276489, -0.0611174665391445160, -0.1286565214395523071, 0.1299358606338500977, -0.0025576676707714796, -0.1326759904623031616, -0.0345839187502861023, 0.1577637344598770142, -0.1497601866722106934, 0.1043266505002975464, -0.0486287064850330353, -0.0034264766145497561, 0.0373375602066516876, 0.0505050458014011383, 0.0142930783331394196, 0.0907103940844535828, 0.1681217998266220093, -0.0658716782927513123, 0.0224075913429260254, 0.0908779278397560120, 0.1435623615980148315, -0.0213155988603830338, -0.0056070839054882526, 0.0580299273133277893, -0.0314208455383777618, -0.0918851718306541443, 0.0517828390002250671, -0.0843491628766059875, 0.0194689575582742691, 0.1321654319763183594, 0.0459758490324020386, -0.0849543139338493347, 0.0658650472760200500, 0.0072924871928989887, 0.0006004898459650576, 0.2128977179527282715, -0.0262648072093725204, -0.0227582920342683792, 0.0393444746732711792, 0.0846859812736511230, -0.1402277201414108276, 0.0178480278700590134, 0.0776270627975463867, -0.0305580291897058487, -0.1857692152261734009, -0.0808232277631759644, 0.0221811123192310333, -0.0381324812769889832, -0.0330582223832607269, 0.0757279396057128906, -0.1543385535478591919, -0.0104857431724667549, 0.0256559196859598160, 0.0977155864238739014, -0.0058035142719745636, 0.0407073311507701874, -0.0266283731907606125, -0.0550045743584632874, -0.0475788153707981110, -0.0415590964257717133, -0.1404916048049926758, 0.0380295962095260620, -0.0606211423873901367, -0.1230105236172676086, 0.0750643163919448853, 0.0404223166406154633, 0.0563257336616516113, -0.0437416583299636841, 0.0505999736487865448, -0.0009364537545479834, -0.0231678076088428497, -0.0141019038856029510, 0.1092060357332229614, 0.2257796376943588257, -0.0835441574454307556, 0.0164914820343255997, -0.0086900740861892700, 0.1193443611264228821, -0.0257808919996023178, 0.0194315072149038315, 0.0280506238341331482, 0.0627411305904388428, -0.0629692003130912781, 0.0294121522456407547, 0.1484796553850173950, 0.0392924249172210693, -0.1556715518236160278, 0.1097536832094192505, 0.0392387807369232178, -0.0062214778736233711, -0.0982836410403251648, 0.0255016107112169266, 0.0468808785080909729, -0.0328096188604831696, 0.0836318507790565491, -0.0590580441057682037, -0.0958087146282196045, -0.0299173351377248764, -0.0756810307502746582, -0.0295803509652614594, -0.0014025049749761820, 0.0766877084970474243, 0.0465716645121574402, -0.0040858332067728043, -0.0183287803083658218, -0.0470434464514255524, -0.1547272503376007080, -0.1696068197488784790, -0.0394635759294033051, -0.1785366535186767578, -0.0660718828439712524, -0.0846290737390518188, 0.0201278347522020340, 0.0643931627273559570, 0.1219796538352966309, 0.0570352189242839813, -0.0675702244043350220, -0.0795149803161621094, 0.0621199794113636017, 0.0134216416627168655, -0.0171930752694606781, -0.1406882554292678833, 0.0568786673247814178, -0.0379878506064414978, 0.0992052033543586731, -0.0807276740670204163, -0.0817725807428359985, -0.0448269657790660858, 0.0396814569830894470, 0.0426720939576625824, 