//Numpy array shape [256, 32]
//Min -0.899918198586
//Max 0.885662794113
//Number of zeros 0

#ifndef W22_H_
#define W22_H_

#ifndef __SYNTHESIS__
dense_default_t w22[8192];
#else
dense_default_t w22[8192] = {-0.1387747675180435181, 0.1465609967708587646, -0.2290040999650955200, -0.2276433110237121582, -0.0722714215517044067, 0.0558136478066444397, 0.1164274886250495911, 0.0389359965920448303, -0.0641388595104217529, 0.0268721189349889755, -0.1323886364698410034, -0.0001415989681845531, -0.0912054777145385742, -0.0158182401210069656, 0.1939925551414489746, 0.0200056098401546478, 0.0425805561244487762, 0.1220888718962669373, -0.5547649860382080078, -0.2587020695209503174, 0.0183898471295833588, 0.0314823761582374573, 0.2056269943714141846, 0.1290504038333892822, 0.1433399617671966553, -0.0402973368763923645, 0.0212949011474847794, 0.1038541644811630249, -0.0635110884904861450, 0.1451101005077362061, -0.1409283429384231567, 0.0580205135047435760, -0.1664883494377136230, -0.1720577180385589600, 0.1994180530309677124, 0.1255166977643966675, 0.2481543570756912231, -0.7269036769866943359, 0.0989532396197319031, 0.0302921403199434280, -0.0061801737174391747, 0.0544451624155044556, 0.1960849761962890625, 0.0667623206973075867, -0.1862668991088867188, -0.0112158721312880516, -0.2311669886112213135, 0.4719175100326538086, -0.0065031386911869049, -0.3152727186679840088, 0.1516979783773422241, 0.0646497234702110291, -0.6473609209060668945, 0.0449850037693977356, -0.1491733640432357788, 0.1756974905729293823, -0.0293467249721288681, 0.2161586135625839233, -0.0523566491901874542, 0.1505039483308792114, -0.3431327044963836670, -0.2859605550765991211, -0.1412388235330581665, 0.1253907382488250732, 0.2507311999797821045, -0.0134137971326708794, 0.0125232720747590065, -0.0529915876686573029, 0.1506477445363998413, -0.0158541724085807800, 0.1822362244129180908, -0.0620437040925025940, 0.5744858384132385254, -0.3073046803474426270, 0.0461407303810119629, -0.2138878256082534790, 0.0794923976063728333, 0.1502934098243713379, -0.0958487913012504578, 0.0817376896739006042, -0.0988275706768035889, -0.1842257231473922729, -0.0613093599677085876, -0.1062581315636634827, -0.1492793560028076172, -0.0778704881668090820, -0.0180020295083522797, 0.1958344727754592896, 0.0730523318052291870, 0.1383500844240188599, 0.1048057377338409424, 0.0450289174914360046, -0.1909292638301849365, -0.1425187587738037109, 0.1546715199947357178, -0.0174603480845689774, -0.2926081120967864990, -0.0289678499102592468, 0.0166570059955120087, -0.0085746403783559799, -0.0341292060911655426, 0.0760458111763000488, -0.1541619896888732910, -0.0150235779583454132, -0.1872499734163284302, -0.0505318082869052887, 0.1254315823316574097, 0.1545633524656295776, 0.1207267567515373230, -0.1158184707164764404, 0.0834244266152381897, -0.1185505539178848267, -0.2359926998615264893, -0.0713129118084907532, 0.3436577320098876953, -0.3631211817264556885, -0.0558749623596668243, -0.0656695291399955750, 0.1022406071424484253, 0.0443937741219997406, 0.1548893898725509644, -0.0582473054528236389, 0.0347701050341129303, -0.0489712059497833252, 0.1022527962923049927, 0.0624523833394050598, 0.1660584211349487305, 0.0981471538543701172, 0.0660857409238815308, 0.0775643065571784973, 0.3358661830425262451, 0.5406562685966491699, -0.1020538955926895142, -0.2264366745948791504, -0.1208230257034301758, 0.2385640442371368408, 0.4403375387191772461, 0.0427860915660858154, -0.0692929327487945557, -0.0347604192793369293, -0.0523959062993526459, 0.1618038564920425415, -0.0121949426829814911, -0.1585149019956588745, -0.0966971963644027710, -0.0325454324483871460, -0.1426534205675125122, -0.0111676752567291260, 0.1920523792505264282, 0.0147827863693237305, 0.1193519532680511475, -0.0542709305882453918, -0.2440544366836547852, -0.0324721895158290863, -0.0245405752211809158, -0.0032229239586740732, 0.1203349828720092773, -0.3160429596900939941, -0.1298522055149078369, -0.0793544426560401917, -0.2473884224891662598, 0.0043756025843322277, 0.1668721735477447510, 0.1638709902763366699, 0.2225872427225112915, 0.0555184148252010345, 0.0943948924541473389, -0.2939283549785614014, 0.0729622617363929749, 0.1117110699415206909, 0.1820360273122787476, 0.0910678058862686157, 0.0070343799889087677, -0.0739240124821662903, -0.0557884648442268372, -0.5474199056625366211, 0.0219053383916616440, -0.3265022635459899902, -0.0771347507834434509, 0.0484735444188117981, -0.3314179182052612305, 0.0227632392197847366, 0.0109367715194821358, -0.0599851347506046295, -0.0236440207809209824, -0.1604193001985549927, 0.4769241809844970703, -0.1247584521770477295, 0.3027279078960418701, 0.1013289839029312134, -0.1412308812141418457, 0.0743469074368476868, -0.0131119964644312859, -0.1095240786671638489, -0.2906011641025543213, 0.2938754558563232422, -0.1114669293165206909, 0.2275408953428268433, -0.1175651773810386658, 0.0072612860240042210, -0.1072014793753623962, -0.2334018051624298096, -0.0909963846206665039, 0.1446220874786376953, 0.0305643975734710693, -0.0381226874887943268, 0.0761028230190277100, -0.2339584827423095703, -0.0968898236751556396, 0.0575175918638706207, -0.0824415683746337891, -0.0776602998375892639, -0.1741109192371368408, 0.3481428921222686768, -0.2336214035749435425, 0.1067886129021644592, -0.1713441461324691772, 0.1851087212562561035, -0.4927150309085845947, -0.0158891584724187851, -0.0894911736249923706, 0.0746481120586395264, 0.2853296995162963867, 0.1043865978717803955, 0.0175458323210477829, 0.4114832580089569092, 0.1320269107818603516, 0.1481338143348693848, -0.0904587358236312866, 0.1699057817459106445, 0.0480611510574817657, 0.1515648216009140015, 0.1390175670385360718, 0.0728861764073371887, -0.0531318262219429016, -0.0407477617263793945, -0.0992467477917671204, 0.0556242279708385468, 0.1381319910287857056, 0.2443801909685134888, 0.2541229128837585449, 0.5482622385025024414, -0.4542434811592102051, 0.1042031869292259216, -0.2020454257726669312, 0.1291489154100418091, 0.0772647261619567871, 0.1748426705598831177, 0.0890357792377471924, -0.1278076767921447754, -0.2507577240467071533, 0.1038505733013153076, 0.1731414645910263062, -0.0181236527860164642, -0.1388830989599227905, -0.0210484284907579422, -0.0469945631921291351, 0.0644777566194534302, -0.0767849311232566833, -0.0624504722654819489, -0.1897451728582382202, -0.0369109585881233215, 0.1645395159721374512, -0.0672050416469573975, -0.0448330081999301910, -0.2011144608259201050, 0.0571419000625610352, -0.1125978231430053711, 0.1031083911657333374, 0.0112211992964148521, -0.0625399425625801086, 0.1227894127368927002, 0.0035674446262419224, -0.2175501435995101929, -0.0716902166604995728, 0.0819130018353462219, -0.0006765839643776417, 0.0831778347492218018, -0.0560044720768928528, 0.0341901965439319611, 0.1537120193243026733, 0.1459624022245407104, 0.1243629530072212219, -0.1886356174945831299, 0.0844468995928764343, -0.0629045814275741577, 0.0316134504973888397, 0.2402593791484832764, -0.0377883836627006531, -0.0012781484983861446, 0.3002751767635345459, -0.0849485322833061218, 0.0624836087226867676, 0.0976027026772499084, 0.1496828794479370117, 0.1312583833932876587, 0.1049308851361274719, -0.1570964008569717407, -0.0140749318525195122, -0.0249356459826231003, 0.0642977207899093628, 0.1110424324870109558, 0.1210908070206642151, -0.1116476431488990784, 0.0900215134024620056, -0.6887059807777404785, -0.0537675023078918457, -0.0946456417441368103, -0.0980506539344787598, -0.2128983587026596069, 0.0660211369395256042, 0.0131454281508922577, -0.1334616094827651978, -0.0158476345241069794, 0.0054107937030494213, -0.0988997891545295715, 0.0437425822019577026, 0.3640431165695190430, 0.1111196652054786682, -0.0517077445983886719, 0.0445919148623943329, -0.0703489780426025391, 0.0825560539960861206, 0.0565846860408782959, -0.1512061506509780884, -0.0048733865842223167, -0.1411405503749847412, 0.2749878466129302979, 0.0811895653605461121, -0.0750605463981628418, -0.0414209030568599701, -0.0510654486715793610, 0.0683113709092140198, 0.1173308417201042175, 0.0558246783912181854, -0.1532464027404785156, 0.1110017970204353333, -0.1314585208892822266, -0.2149527221918106079, 0.0762508437037467957, 0.0591484494507312775, -0.0504924021661281586, -0.1103148162364959717, -0.1772598475217819214, 0.1380388289690017700, -0.1379804164171218872, 0.1968955993652343750, 0.1391585171222686768, -0.0721462965011596680, 0.0578539036214351654, -0.3395397961139678955, -0.0195158235728740692, -0.2369797378778457642, -0.0411813594400882721, -0.0538608953356742859, -0.0211703311651945114, 0.0375973992049694061, 0.0636533647775650024, 0.0157315004616975784, -0.0476306565105915070, -0.0454396009445190430, 0.1710131466388702393, -0.0650741532444953918, -0.0172500293701887131, -0.3095464110374450684, -0.3620423674583435059, -0.3338837623596191406, 0.0022968016564846039, 0.0133928647264838219, 0.3401152789592742920, 0.1110750734806060791, 0.1843565851449966431, -0.2640093266963958740, 0.1315779834985733032, -0.0498171597719192505, 0.1422993689775466919, 0.0547020733356475830, -0.1425703763961791992, 0.1588108539581298828, -0.0286661777645349503, -0.0018277826020494103, -0.0865219533443450928, -0.0986770614981651306, 0.0998502075672149658, -0.1627179086208343506, -0.1564571410417556763, 0.2169041484594345093, -0.0172826908528804779, -0.1555117070674896240, -0.0351423248648643494, -0.0833246931433677673, 0.1957986801862716675, -0.1731718629598617554, 0.1072069555521011353, -0.0628074184060096741, 0.1811988055706024170, 0.0107119902968406677, 0.1598100662231445312, 0.0140951331704854965, -0.0477430336177349091, -0.0022698158863931894, 0.1225722283124923706, -0.2433370500802993774, -0.1863805502653121948, -0.1396337896585464478, 0.0946272313594818115, 0.0853691920638084412, -0.1271257549524307251, 0.1378380954265594482, 0.2332259416580200195, -0.1052030399441719055, -0.0035351491533219814, 0.1038841009140014648, 0.3785298168659210205, -0.1639180779457092285, -0.4367457926273345947, -0.0326415859162807465, 0.2999860346317291260, -0.0541044399142265320, -0.1509048938751220703, 0.0949857831001281738, -0.2295957803726196289, 0.0379460863769054413, -0.2242159843444824219, 0.0834728702902793884, -0.0699396207928657532, 0.0653945356607437134, 0.1072572246193885803, -0.0331790745258331299, 0.0083951307460665703, 0.0913849472999572754, 0.4658532440662384033, 0.1735880672931671143, 0.4088889658451080322, 0.1060352772474288940, 0.0449748970568180084, -0.3839401602745056152, -0.1680455356836318970, 0.1363530009984970093, -0.0835173726081848145, 0.1062389314174652100, -0.1493946015834808350, 0.0723102763295173645, -0.1185991466045379639, 0.5745726823806762695, -0.1249429434537887573, 0.0166569091379642487, -0.0920415893197059631, -0.0684083104133605957, -0.0089054200798273087, -0.2143861800432205200, 0.0230267979204654694, 0.1092412397265434265, 0.0106595829129219055, 0.1284037828445434570, -0.1599432975053787231, -0.1412124931812286377, 0.1736563891172409058, -0.0021925121545791626, 0.0913449227809906006, 0.1028559133410453796, 0.0472574159502983093, -0.0015964757185429335, 0.2607684731483459473, -0.0538863651454448700, -0.2510526180267333984, 0.2036160826683044434, -0.1372541487216949463, -0.1493710726499557495, 0.1327860206365585327, -0.0318787842988967896, 0.2135044634342193604, -0.1551057547330856323, 0.1385679244995117188, -0.1823701560497283936, -0.0014047776348888874, 0.1034217849373817444, 0.0313886217772960663, 0.2732043862342834473, 0.1729866266250610352, 0.2906514406204223633, -0.1869442462921142578, -0.1532380133867263794, -0.1181139200925827026, -0.0650778636336326599, -0.1720688343048095703, -0.0522437170147895813, 0.0067878356203436852, -0.1385229825973510742, -0.0631299018859863281, -0.0383541397750377655, 0.1048009917140007019, 0.2521961629390716553, 0.0945917442440986633, -0.1051572784781455994, -0.1674472391605377197, -0.2224336415529251099, 0.3305634856224060059, 0.0469384863972663879, 0.1248370185494422913, 0.1779299080371856689, 0.0871377810835838318, 0.0833591222763061523, 0.0503551438450813293, -0.0287324097007513046, -0.0822104141116142273, -0.0115615120157599449, 0.0752811059355735779, -0.2957452833652496338, -0.0502787716686725616, 0.1342412233352661133, 0.1105209439992904663, -0.0421408824622631073, -0.0187199804931879044, -0.1071776598691940308, -0.0673432499170303345, -0.0282632168382406235, 0.0407525077462196350, 0.0099860327318310738, -0.0399708785116672516, 0.0235480591654777527, -0.1496552526950836182, -0.1109857559204101562, -0.0324434302747249603, -0.1252111345529556274, -0.0507386736571788788, 0.1177292466163635254, 0.0794797390699386597, -0.1432838439941406250, -0.0488767586648464203, -0.0760685727000236511, -0.0468149781227111816, 0.0518197491765022278, -0.0543589852750301361, -0.0120244165882468224, 0.0915085598826408386, 0.0146949142217636108, 0.0453965812921524048, -0.1647891402244567871, -0.1206986978650093079, -0.1315450519323348999, -0.1019782051444053650, -0.0506111606955528259, -0.0951035767793655396, -0.1628917008638381958, -0.0891322195529937744, -0.1162399947643280029, 0.0794511958956718445, -0.0027569234371185303, -0.0115906596183776855, -0.1528817415237426758, -0.0687503591179847717, -0.1467211544513702393, 0.0903081521391868591, -0.1526697427034378052, 0.1088004186749458313, 0.0242453366518020630, -0.0411290712654590607, 0.0094986893236637115, -0.1094064041972160339, 0.0920844972133636475, -0.0788175761699676514, 0.0903143212199211121, -0.0405025221407413483, -0.0399639829993247986, 0.0115695400163531303, 0.0838154405355453491, 0.1121414899826049805, -0.0642881691455841064, 0.0218687541782855988, 0.1062638238072395325, -0.1466152667999267578, -0.1227726116776466370, -0.0315678045153617859, -0.1362739354372024536, 0.1102002337574958801, 0.0206305701285600662, 0.0684019178152084351, -0.0072932392358779907, 0.0286080092191696167, -0.0007872121059335768, -0.0558539703488349915, 0.1182447597384452820, 0.0063588335178792477, -0.0649553388357162476, 0.0021298637147992849, 0.0006017386913299561, 0.0422215834259986877, -0.0838566198945045471, 0.0858948528766632080, -0.0046424572356045246, -0.1364309787750244141, -0.1597884148359298706, -0.1554501950740814209, 0.0293203089386224747, -0.0887792110443115234, -0.0365105867385864258, -0.0292310509830713272, -0.0060262149199843407, 0.0061778128147125244, -0.1433972269296646118, 0.0662996098399162292, 0.0919430702924728394, 0.0041319909505546093, -0.0426904931664466858, -0.1028971225023269653, -0.1017327085137367249, -0.0608279630541801453, -0.0177330467849969864, -0.1025940701365470886, 0.0119936084374785423, -0.0721304938197135925, -0.1365448534488677979, 0.0017783481162041426, -0.0619959831237792969, -0.0174507889896631241, 0.1134870573878288269, 0.0903446003794670105, -0.1053206697106361389, 0.0317739471793174744, -0.0442961826920509338, 0.1156395226716995239, -0.1013763472437858582, 0.1197539716958999634, -0.1552967280149459839, 0.0852968022227287292, -0.1217028647661209106, -0.1542248278856277466, 0.1059032306075096130, 0.0149722872301936150, -0.1138598918914794922, -0.1415871083736419678, 0.0640634149312973022, -0.0613692551851272583, 0.0711478814482688904, 0.0301777888089418411, 0.0958006232976913452, 0.1240853145718574524, 0.0771895796060562134, 0.0695129483938217163, -0.1038924902677536011, -0.0368456505239009857, -0.0453238785266876221, -0.1047497913241386414, 0.0009541210019960999, -0.1091226339340209961, 0.1014648452401161194, 0.0525633692741394043, 0.0715603977441787720, -0.1070674657821655273, -0.0215900521725416183, 0.1096336767077445984, 0.1242062225937843323, -0.1340700685977935791, -0.0194179080426692963, 0.0098683433607220650, -0.0255438461899757385, 0.0291697643697261810, 0.0303358267992734909, -0.1042201519012451172, -0.1061540096998214722, 0.0961049646139144897, 0.0219653546810150146, 0.0422402918338775635, -0.1012458503246307373, 0.0505202822387218475, -0.0072362623177468777, -0.1317904591560363770, 0.0475346334278583527, 0.0695973932743072510, -0.1563402861356735229, -0.0464999079704284668, -0.0115851853042840958, 0.0889801755547523499, -0.0679340660572052002, 0.0389280430972576141, -0.1408740282058715820, 0.0507907979190349579, -0.1323489844799041748, -0.1571062952280044556, -0.0319471620023250580, -0.0820770934224128723, -0.0940510928630828857, 0.0905192345380783081, -0.1334456056356430054, 0.1050844714045524597, -0.1197495684027671814, -0.0831562653183937073, 0.1071716696023941040, -0.0380232557654380798, -0.0881262123584747314, 0.1095462366938591003, 0.0436547100543975830, -0.0391504168510437012, -0.1432419568300247192, -0.1315592378377914429, -0.0852905288338661194, 0.0107104433700442314, 0.0785518065094947815, -0.1247694939374923706, -0.1177527531981468201, -0.1085570678114891052, -0.0641822516918182373, -0.1405302584171295166, 0.0589738897979259491, 0.0703008398413658142, -0.0735923349857330322, -0.0848955363035202026, -0.0650255009531974792, 0.0855083316564559937, -0.1232003420591354370, -0.1625592857599258423, -0.0121733685955405235, 0.1136343404650688171, 0.0928736627101898193, -0.0247724689543247223, -0.1427796334028244019, -0.0744383335113525391, -0.0376013293862342834, 0.0111571727320551872, -0.0711832717061042786, -0.0928279012441635132, 0.0537541210651397705, -0.1324650198221206665, 0.0980799123644828796, -0.0184995867311954498, -0.1052120849490165710, 0.1206181943416595459, -0.1055102273821830750, 0.0614502802491188049, 0.1185034662485122681, -0.0139700761064887047, -0.0817098468542098999, 0.0727951899170875549, 0.0584133416414260864, 0.0482085011899471283, 0.0847173258662223816, 0.1280598640441894531, -0.0463135428726673126, 0.1245470494031906128, -0.0011225118068978190, 0.0682887881994247437, -0.1248541921377182007, 0.0111342249438166618, 0.1258255094289779663, -0.1098463907837867737, -0.1190289333462715149, 0.0982311740517616272, 0.0135232498869299889, 0.0217090584337711334, -0.0749613270163536072, 0.0756876617670059204, 0.1190868765115737915, -0.1266480833292007446, -0.0121199376881122589, -0.1415548920631408691, -0.0471621714532375336, 0.0625774860382080078, -0.0086969323456287384, -0.0809683427214622498, 0.0708179175853729248, 0.0309126395732164383, -0.1167176142334938049, 0.0102690728381276131, -0.0822797194123268127, -0.1547540128231048584, -0.0067703332751989365, 0.0035558207891881466, -0.1277860850095748901, 0.0460335463285446167, 0.0865108370780944824, 0.0887303948402404785, -0.0138837723061442375, -0.1516951024532318115, 0.0519955344498157501, 0.1383062601089477539, -0.1124421134591102600, 0.1315700709819793701, 0.0972542315721511841, -0.0635795369744300842, 0.1106687411665916443, 0.0170007199048995972, -0.1606116294860839844, 0.0809529945254325867, 0.1338603794574737549, 0.1383381187915802002, 0.1625750511884689331, -0.0044428920373320580, -0.0336982719600200653, -0.0068509564734995365, -0.1355505883693695068, -0.1323271095752716064, -0.1245229020714759827, -0.1375691890716552734, -0.1543891280889511108, 0.0708388164639472961, 0.0493527762591838837, -0.1674243062734603882, 0.0863593816757202148, -0.0441953465342521667, -0.0883295834064483643, -0.0341949872672557831, -0.1572696864604949951, 0.0921157076954841614, 0.0921259596943855286, 0.0246736202389001846, -0.1615208834409713745, -0.1447557061910629272, -0.0303953308612108231, -0.0226985383778810501, -0.1630796045064926147, -0.0410290807485580444, -0.0783900842070579529, -0.1175320520997047424, 0.0821825936436653137, -0.0516767315566539764, -0.0316016636788845062, 0.0943865254521369934, 0.1453556716442108154, -0.0068482621572911739, 0.0149494297802448273, 0.0543726049363613129, 0.0979282706975936890, -0.1183875724673271179, -0.0112006524577736855, -0.0842529460787773132, -0.0832366719841957092, -0.0579881034791469574, -0.0361979790031909943, -0.1374697983264923096, 0.0430139601230621338, 0.0796634182333946228, -0.2291863411664962769, -0.1464082747697830200, -0.0481297299265861511, -0.1159817129373550415, -0.0786565616726875305, 0.1321017891168594360, -0.0780776962637901306, -0.1328200995922088623, -0.0039306744001805782, -0.1122919470071792603, -0.1430819779634475708, -0.0038379076868295670, 0.0223667491227388382, 0.0994631126523017883, -0.1299817860126495361, -0.0172756835818290710, 0.0982631221413612366, -0.0853016525506973267, -0.0019757456611841917, 0.1086270362138748169, -0.0394102558493614197, 0.0074406946077942848, -0.1567914783954620361, 0.0164478737860918045, 0.0614965185523033142, -0.0837943851947784424, -0.0695618689060211182, 0.0260083582252264023, -0.0431529916822910309, -0.0687331333756446838, -0.0992221534252166748, 0.0406498648226261139, -0.0819097831845283508, 0.0527003072202205658, -0.0515002831816673279, 0.0946624651551246643, -0.1347587406635284424, -0.1678366512060165405, -0.0983025208115577698, 0.0289675183594226837, -0.0751224160194396973, 0.0830484181642532349, -0.0126541107892990112, 0.1082555279135704041, -0.0078862169757485390, 0.0010124315740540624, 0.0134830512106418610, 0.0279558449983596802, 0.0843499302864074707, 0.0276275686919689178, 0.1338977664709091187, 0.0626229718327522278, 0.0389133021235466003, 0.0839403942227363586, -0.1219513341784477234, -0.1367138028144836426, -0.0282619018107652664, 0.0724389106035232544, 0.0108351344242691994, -0.0033914675004780293, -0.1515595763921737671, -0.0830926597118377686, 0.1348106861114501953, 0.0777369588613510132, -0.1618289798498153687, 0.0323153696954250336, 0.0883376896381378174, 0.0205366723239421844, 0.0274279285222291946, 0.1324882954359054565, 0.0070736012421548367, 0.0477534718811511993, -0.1097700521349906921, -0.0890007391571998596, -0.0595973879098892212, 0.0380681939423084259, -0.1628219187259674072, -0.1463527083396911621, 0.0595458336174488068, -0.0065798908472061157, -0.0487294383347034454, 0.0628709867596626282, -0.0101534444838762283, -0.0624102056026458740, -0.1554063558578491211, 0.0681559219956398010, -0.0938305184245109558, -0.0700425207614898682, 0.0377630256116390228, 0.0267979372292757034, 0.0591426193714141846, 0.0776327550411224365, -0.0869267657399177551, 0.0174855682998895645, -0.1441406756639480591, 0.0025942579377442598, 0.0756818652153015137, -0.1359168887138366699, -0.0424859188497066498, -0.0564701072871685028, -0.0163428653031587601, 0.1363087594509124756, 0.0000851199511089362, 0.0085798315703868866, -0.0887405052781105042, -0.1304015815258026123, -0.0747875422239303589, -0.0887944996356964111, 0.1091828867793083191, -0.1362623423337936401, -0.0458843931555747986, -0.0563989579677581787, -0.2081734389066696167, 0.0636264756321907043, -0.1105438768863677979, -0.1111461594700813293, 0.1620613187551498413, -0.1103076785802841187, 0.0035992229823023081, -0.1135767847299575806, -0.0108921825885772705, -0.1282038539648056030, 0.0698936358094215393, 0.0061911800876259804, -0.0758804827928543091, 0.1498505622148513794, -0.0583695024251937866, -0.0789128392934799194, -0.1093843504786491394, 0.0190957896411418915, -0.0141863720491528511, -0.0016540652140974998, 0.1329751759767532349, -0.1023033410310745239, -0.0302993357181549072, 0.1028924360871315002, -0.1168577149510383606, -0.0944150313735008240, -0.0444827526807785034, -0.0601226612925529480, 0.0537825785577297211, 0.0436282604932785034, 0.0099949240684509277, -0.1191000565886497498, 0.0811641141772270203, -0.0687357336282730103, 0.0502769388258457184, -0.0781686529517173767, -0.0552236847579479218, 0.0734141767024993896, 0.1420636922121047974, -0.1307808607816696167, -0.1432140618562698364, 0.0852606892585754395, -0.0030811820179224014, 0.0420982018113136292, -0.1251780688762664795, -0.0050124162808060646, -0.0015397169627249241, -0.0710692256689071655, 0.0955588072538375854, -0.1639211177825927734, 0.1484145969152450562, -0.1233589649200439453, -0.0282997805625200272, -0.0290884189307689667, -0.1633143126964569092, -0.0211430806666612625, -0.0945390015840530396, -0.0188008043915033340, 0.0958821028470993042, 0.0108664399012923241, 0.1567353755235671997, -0.1188154965639114380, 0.1059847176074981689, 0.1309003382921218872, -0.1274717301130294800, -0.0949377343058586121, 0.0480706132948398590, 0.0854653790593147278, -0.0949501767754554749, 0.0664648637175559998, 0.0702754706144332886, 0.0814099088311195374, 0.0677012801170349121, -0.0204850547015666962, -0.1035872474312782288, 0.0632795020937919617, -0.0507033765316009521, 0.0386308953166007996, 0.0254240445792675018, -0.0333903059363365173, 0.3818719089031219482, -0.0439790450036525726, -0.2942065596580505371, -0.0684245154261589050, -0.0317191779613494873, -0.0269350260496139526, -0.0839061290025711060, 0.1099066659808158875, -0.0522091239690780640, -0.0224269609898328781, 0.1305427551269531250, -0.0311375353485345840, 0.0641520321369171143, -0.0860707461833953857, 0.1483875662088394165, 0.1199572458863258362, 0.0110294688493013382, -0.0108538055792450905, -0.6577138900756835938, 0.3692840039730072021, 0.0433863885700702667, -0.0289949793368577957, 0.1619917005300521851, -0.0506692901253700256, 0.1168988198041915894, 0.0975400134921073914, -0.1176872253417968750, 0.0181185174733400345, 0.2080123126506805420, -0.0525019317865371704, -0.3391680419445037842, -0.2168025225400924683, -0.0336323045194149017, -0.1004696786403656006, -0.2692335247993469238, -0.0087526990100741386, 0.1514923274517059326, -0.3255250751972198486, 0.1936026960611343384, 0.0961935967206954956, 0.0941215753555297852, 0.2083514928817749023, -0.0124748283997178078, 0.1331051588058471680, -0.1508487164974212646, -0.1225295290350914001, -0.0101935602724552155, 0.3456396460533142090, 0.0551409348845481873, -0.3099041879177093506, -0.0911796912550926208, -0.0570225007832050323, -0.2245655357837677002, -0.1283493041992187500, -0.0906339138746261597, 0.1785065084695816040, 0.0930581465363502502, 0.0406011268496513367, -0.0635880008339881897, 0.1223166435956954956, -0.1107262969017028809, -0.2079164981842041016, -0.1949354261159896851, 0.2548550963401794434, -0.1650798916816711426, 0.1505389213562011719, 0.1762755960226058960, 0.1027793288230895996, 0.2101683318614959717, 0.0618239864706993103, -0.0349409021437168121, 0.2905383110046386719, 0.3559727668762207031, -0.1491240561008453369, 0.1385746896266937256, -0.0825911983847618103, 0.0079614128917455673, 0.1440096050500869751, 0.0504146032035350800, 0.0089973360300064087, 0.1032286211848258972, 0.1370406150817871094, 0.1016826927661895752, 0.0266509409993886948, -0.1307395547628402710, -0.0477243289351463318, -0.3108712732791900635, -0.2304499745368957520, -0.1723918467760086060, 0.0311819911003112793, -0.1397068500518798828, -0.0845220088958740234, 0.2833042144775390625, -0.7288694381713867188, -0.0460973717272281647, 0.0835538655519485474, 0.0111869061365723610, 0.1113549172878265381, 0.0883346572518348694, -0.0973358154296875000, 0.0127245914191007614, -0.2127122133970260620, -0.0492907576262950897, 0.0873629525303840637, 0.0786159187555313110, 0.1385978460311889648, -0.1841807067394256592, 0.0468190275132656097, 0.4749701619148254395, 0.1193261891603469849, 0.2740058302879333496, -0.3859488368034362793, -0.3486343920230865479, -0.2622951269149780273, 0.6124266982078552246, -0.0197499636560678482, 0.0698871836066246033, -0.1175221428275108337, 0.1851963102817535400, -0.1622961461544036865, 0.1362827569246292114, 0.1424670368432998657, -0.1605977416038513184, -0.5319406986236572266, 0.1391244977712631226, -0.1480969190597534180, -0.1251640766859054565, -0.1063257381319999695, 0.1305076777935028076, -0.0526946261525154114, 0.5847054719924926758, 0.2399673610925674438, -0.0167948547750711441, -0.0620748065412044525, -0.0288239084184169769, 0.1006429418921470642, 0.5433819890022277832, 0.0094771338626742363, -0.0815665051341056824, -0.1822953075170516968, 0.3821558952331542969, -0.2428756505250930786, -0.1808191835880279541, 0.1101617813110351562, 0.0323258005082607269, 0.0472286045551300049, -0.1420125365257263184, -0.0414002686738967896, 0.0849363431334495544, 0.0383884795010089874, 0.0240628104656934738, -0.0677879527211189270, -0.2492322921752929688, -0.1802485436201095581, 0.2164291292428970337, 0.1591998487710952759, 0.0185261983424425125, 0.0259192790836095810, 0.1179426386952400208, 0.1713007837533950806, -0.1020813137292861938, 0.2780573368072509766, 0.0189243424683809280, 0.0254029277712106705, 0.0135346250608563423, 0.3582528531551361084, -0.0326409600675106049, -0.2008275836706161499, -0.1562756448984146118, -0.0172285400331020355, 0.4158421754837036133, 0.1716955304145812988, -0.1161222606897354126, 0.0427153334021568298, -0.1163794845342636108, -0.8386443257331848145, -0.1685016900300979614, -0.3607907891273498535, 0.1123264953494071960, -0.0495227389037609100, -0.4191294610500335693, 0.1325238645076751709, 0.1555266082286834717, -0.1409452855587005615, 0.1765234917402267456, 0.0292896423488855362, 0.4500999450683593750, 0.1318053454160690308, -0.1273710280656814575, 0.3685519099235534668, 0.0887893736362457275, 0.0952119156718254089, 0.0774109438061714172, 0.0446209274232387543, -0.3210372328758239746, 0.3466017544269561768, 0.0330407470464706421, -0.0558759868144989014, -0.1532492339611053467, 0.0512514673173427582, -0.0371370874345302582, -0.1551507562398910522, 0.0081329047679901123, -0.0776325985789299011, 0.1647195816040039062, -0.0258680135011672974, -0.1426591575145721436, 0.0198526121675968170, 0.1245518922805786133, -0.4751357734203338623, 0.1735153794288635254, -0.0345501080155372620, -0.0103297047317028046, 0.1942555308341979980, -0.2880200743675231934, -0.0177232827991247177, -0.3139687776565551758, -0.1525801718235015869, -0.5317673683166503906, -0.1530148833990097046, -0.1189629137516021729, 0.0326615087687969208, 0.3691999912261962891, 0.1796886920928955078, -0.0648149102926254272, 0.1423714011907577515, -0.0817002877593040466, -0.0122371176257729530, -0.3607262670993804932, -0.0502820163965225220, -0.0243951678276062012, -0.0482199080288410187, -0.1172227561473846436, -0.0905650705099105835, 0.0085461940616369247, -0.0621604397892951965, -0.1392383277416229248, -0.0078143188729882240, 0.1012721210718154907, 0.2334834486246109009, 0.2532582581043243408, 0.5199428796768188477, -0.3354757428169250488, 0.0751808956265449524, -0.3477987051010131836, 0.0549016408622264862, 0.1595725566148757935, -0.0876144543290138245, -0.0414875261485576630, 0.0711143612861633301, -0.2442217916250228882, 0.1319674253463745117, -0.0746649131178855896, -0.0142825637012720108, 0.1171273216605186462, 0.1690437495708465576, 0.3126521110534667969, -0.1144345775246620178, -0.6213232874870300293, 0.1589837521314620972, -0.1095291823148727417, 0.0426380485296249390, -0.0525040887296199799, -0.0985222831368446350, 0.1128075793385505676, 0.0846101716160774231, -0.0905993282794952393, 0.0359958074986934662, 0.0466016978025436401, -0.1169782727956771851, -0.0414494536817073822, 0.1056089922785758972, -0.0327489450573921204, 0.0273935087025165558, 0.0687388479709625244, -0.0438225977122783661, 0.1548933237791061401, -0.0895071923732757568, -0.0792021155357360840, -0.0557360537350177765, -0.2021807283163070679, -0.1435688585042953491, -0.0097688389942049980, -0.0909848511219024658, 0.1780153363943099976, 0.1037354841828346252, -0.0858885794878005981, -0.3623993396759033203, -0.0311581511050462723, -0.0751715153455734253, 0.3210523724555969238, -0.1333764493465423584, 0.2046850025653839111, -0.3955653309822082520, 0.0034644682891666889, 0.1184002831578254700, 0.1581485867500305176, 0.1206111088395118713, -0.0760266408324241638, -0.1803559064865112305, -0.0202264655381441116, -0.1562910825014114380, 0.6880303025245666504, 0.2877877056598663330, 0.0933233499526977539, 0.6614620685577392578, 0.1197563633322715759, -0.0776390582323074341, 0.2793444693088531494, 0.1048273742198944092, -0.1149665489792823792, 0.0944819524884223938, -0.0127851916477084160, -0.1314162164926528931, -0.0488537549972534180, 0.1111864373087882996, 0.2336848825216293335, -0.0324302315711975098, -0.1143923774361610413, 0.1767655164003372192, 0.0707372799515724182, 0.0660815015435218811, -0.2800852358341217041, 0.1924852430820465088, -0.0475179962813854218, -0.1455186605453491211, 0.2062874734401702881, 0.2870772182941436768, -0.3665316402912139893, 0.0685700848698616028, 0.0109213478863239288, 0.6317759752273559570, 0.0782319456338882446, 0.0557988174259662628, 0.1996272057294845581, 0.1281312704086303711, 0.0812301263213157654, -0.1189841553568840027, -0.1462231874465942383, -0.0041813002899289131, -0.0929608494043350220, 0.0386335216462612152, 0.2133237421512603760, -0.1571704596281051636, 0.1076047495007514954, 0.0499728135764598846, -0.0160709992051124573, -0.1111044064164161682, 0.0161141268908977509, 0.2819756567478179932, 0.1115684062242507935, -0.0818252936005592346, 0.0846669971942901611, -0.0247033070772886276, 0.0027391628827899694, -0.1666242778301239014, 0.0907437950372695923, -0.8999181985855102539, 0.0402853265404701233, 0.0950555205345153809, 0.1948166340589523315, 0.0359761193394660950, 0.0523293018341064453, 0.1939026415348052979, 0.2221664935350418091, 0.3019171953201293945, -0.2377594113349914551, -0.2844647765159606934, -0.2024808228015899658, 0.0311585683375597000, -0.3402167856693267822, -0.1842713057994842529, 0.0575631968677043915, -0.0049059144221246243, 0.0920185446739196777, -0.0094725079834461212, 0.2010386139154434204, -0.1618427932262420654, -0.0823518037796020508, 0.2321864515542984009, 0.1140356138348579407, -0.0461349859833717346, 0.2927242815494537354, 0.0042155836708843708, -0.1041507571935653687, 0.1820553690195083618, -0.2023450285196304321, 0.0678294897079467773, -0.0755020678043365479, 0.2906258404254913330, -0.1163897588849067688, -0.0499204583466053009, 0.2172959297895431519, 0.0513689070940017700, -0.0921267494559288025, -0.1845752596855163574, 0.3976579010486602783, 0.2476602196693420410, 0.1318694949150085449, -0.1283270269632339478, -0.0598301254212856293, 0.1675665974617004395, -0.0065380125306546688, -0.1123572513461112976, 0.1118662282824516296, 0.1872068941593170166, 0.1548484265804290771, -0.1179995164275169373, -0.1790655404329299927, 0.0269445460289716721, 0.2379345148801803589, -0.0130071677267551422, 0.0653999373316764832, -0.0353711210191249847, 0.1853073686361312866, -0.0815054029226303101, 0.0389195606112480164, 0.2058113813400268555, 0.1920102387666702271, 0.1267887800931930542, 0.4630337953567504883, 0.0497146174311637878, -0.0459310635924339294, -0.0265008546411991119, 0.1077827662229537964, 0.2209457159042358398, 0.3799114227294921875, 0.0258930884301662445, 0.1204022392630577087, 0.1142362058162689209, 0.0280487965792417526, 0.0540227144956588745, -0.3045679032802581787, 0.1042015179991722107, 0.1309575438499450684, 0.0668628960847854614, -0.5241757631301879883, -0.0913300663232803345, -0.0821356996893882751, -0.1188241839408874512, 0.1408722996711730957, -0.1401835083961486816, -0.4722529947757720947, 0.0465353243052959442, -0.5961352586746215820, -0.0357582122087478638, 0.0724271386861801147, 0.1063037440180778503, -0.0362753495573997498, 0.0558910965919494629, 0.0349762439727783203, 0.5284689664840698242, 0.0705993026494979858, -0.1747139096260070801, 0.0859942659735679626, 0.1836318075656890869, -0.1375005543231964111, -0.2738108634948730469, -0.0039121061563491821, -0.2202769666910171509, -0.3644834458827972412, -0.0751403272151947021, 0.0612377934157848358, 0.1073325946927070618, 0.0044946596026420593, 0.1027888804674148560, 0.2366967797279357910, 0.1128292158246040344, -0.0373853482306003571, -0.0330735258758068085, -0.0724612846970558167, -0.0947381183505058289, 0.2988471090793609619, 0.0706058815121650696, -0.2452833354473114014, -0.0371089056134223938, 0.0998599082231521606, 0.1231730133295059204, 0.0404416583478450775, -0.0855488106608390808, 0.5536041855812072754, -0.0626346021890640259, -0.1529881060123443604, 0.0775154978036880493, 0.1624930202960968018, 0.0774586498737335205, -0.1262436509132385254, 0.0892783328890800476, 0.1915201544761657715, -0.1924250423908233643, 0.0387980416417121887, 0.0785660967230796814, 0.1066878959536552429, -0.0156519841402769089, -0.0274635162204504013, 0.2826870381832122803, 0.2560788989067077637, 0.3414255082607269287, 0.2614673674106597900, 0.1537739187479019165, 0.4043808281421661377, 0.2971765100955963135, -0.1176755204796791077, 0.0214792955666780472, -0.1799832731485366821, -0.0382240712642669678, -0.3131597042083740234, 0.0638744682073593140, -0.0612596906721591949, 0.0781247094273567200, 0.1067634299397468567, -0.0319739654660224915, 0.1020021364092826843, -0.1629724204540252686, -0.1377800405025482178, -0.0111505175009369850, -0.0500743649899959564, -0.0215709097683429718, -0.0736589133739471436, 0.0611369647085666656, -0.1048917770385742188, 0.0114432098343968391, 0.0830332040786743164, -0.0916095077991485596, -0.1081397384405136108, 0.0801140666007995605, 0.0615207590162754059, -0.0232579074800014496, 0.0620173364877700806, -0.0269585791975259781, -0.1311463713645935059, -0.1509398221969604492, -0.0173789821565151215, 0.0844130069017410278, -0.0854835733771324158, 0.0674594715237617493, -0.0336187407374382019, 0.0765039548277854919, -0.1010445728898048401, -0.0140152890235185623, -0.0425779484212398529, -0.0892538875341415405, 0.1233837231993675232, 0.0400124751031398773, -0.1127412542700767517, -0.1098848506808280945, 0.0402325056493282318, 0.0377285704016685486, -0.1682214885950088501, 0.0483040027320384979, -0.0338097847998142242, -0.0038726343773305416, -0.0189624205231666565, -0.1189474761486053467, 0.0188159868121147156, -0.1588580757379531860, 0.1290251463651657104, 0.0457720048725605011, -0.0860926881432533264, -0.0698202922940254211, -0.0370408743619918823, 0.0869418159127235413, -0.1082160472869873047, -0.0719234943389892578, 0.0839989706873893738, 0.0862697511911392212, -0.1109877526760101318, -0.0289618875831365585, 0.0347392000257968903, -0.1230568960309028625, -0.1369310915470123291, 0.0126219373196363449, -0.0811014920473098755, -0.0335799716413021088, -0.0837643519043922424, -0.0507715903222560883, -0.1003697738051414490, -0.1699599474668502808, -0.0557782500982284546, 0.0427750051021575928, 0.0334006473422050476, -0.1378826349973678589, 0.0782675966620445251, -0.1089163497090339661, 0.0601660311222076416, 0.1277715563774108887, -0.1020779758691787720, -0.1082312166690826416, 0.1515647470951080322, 0.1421159058809280396, 0.0072069643065333366, 0.0882347971200942993, 0.0760648399591445923, 0.0711694881319999695, 0.0321591570973396301, 0.0914566144347190857, -0.0144388182088732719, 0.0253375396132469177, 0.0062008425593376160, 0.0521978326141834259, -0.0581187829375267029, -0.0722889378666877747, -0.1325079947710037231, -0.0323334708809852600, -0.1470337510108947754, -0.1650373488664627075, -0.0624384544789791107, -0.0231250040233135223, 0.0448084138333797455, -0.1166756451129913330, 0.0786339342594146729, 0.0701450258493423462, -0.1043399721384048462, 0.0832446590065956116, -0.0979011356830596924, 0.1249204948544502258, -0.1244455277919769287, -0.0201638098806142807, -0.1113355457782745361, -0.0160799324512481689, -0.0630538389086723328, 0.0961351469159126282, 0.0586254112422466278, 0.1422975063323974609, -0.1218288093805313110, -0.0203851815313100815, -0.0294001493602991104, -0.1254740506410598755, 0.0362200625240802765, 0.0451598465442657471, 0.0719368383288383484, 0.0364694558084011078, 0.0678159222006797791, 0.1041467189788818359, -0.0344575382769107819, -0.0476525686681270599, -0.0398970656096935272, -0.1189765855669975281, -0.0390721932053565979, 0.0325195081532001495, 0.1101484447717666626, -0.0521093606948852539, -0.1436468809843063354, 0.1278121024370193481, 0.0913906320929527283, -0.0964436531066894531, -0.0717871338129043579, -0.0042628156952559948, -0.0378450602293014526, -0.0040597119368612766, -0.0573248565196990967, -0.0982720851898193359, 0.0617414973676204681, -0.0348374545574188232, -0.0642679855227470398, -0.0587835684418678284, 0.1081359535455703735, 0.1354260593652725220, -0.0876591950654983521, -0.0497270226478576660, -0.0056209298782050610, -0.0617068372666835785, -0.0593764409422874451, 0.1422791928052902222, -0.1482616662979125977, -0.0119490521028637886, -0.0619811899960041046, -0.1074273064732551575, 0.0622858367860317230, -0.1534441858530044556, -0.1205410584807395935, -0.0045558204874396324, 0.1087846010923385620, -0.0970803350210189819, -0.0335638448596000671, -0.0931871086359024048, -0.1580350697040557861, 0.0457001700997352600, -0.1022880598902702332, -0.1287754774093627930, -0.0018356917425990105, 0.0156121263280510902, -0.1660875380039215088, 0.0488488078117370605, -0.0526177436113357544, 0.1150290071964263916, -0.1348271220922470093, 0.0955919250845909119, 0.1266722679138183594, -0.0770149827003479004, 0.0218513961881399155, 0.0152489822357892990, 0.0834283828735351562, -0.0239101219922304153, -0.1240679398179054260, 0.0515843518078327179, 0.0105210160836577415, 0.0859899744391441345, -0.0562824830412864685, 0.0371409244835376740, 0.0328258648514747620, -0.0464277863502502441, 0.0668252483010292053, 0.1089256107807159424, -0.0257028099149465561, -0.0738454237580299377, 0.0251096263527870178, 0.0971886217594146729, -0.0917922705411911011, -0.1200037300586700439, 0.0483265966176986694, -0.0274111293256282806, 0.0536751262843608856, -0.0474852845072746277, -0.0487288758158683777, -0.0911537036299705505, -0.0908592194318771362, -0.0037580109201371670, -0.0048841317184269428, 0.0254952106624841690, 0.1335710734128952026, 0.0018899898277595639, -0.1474440991878509521, -0.1539798229932785034, -0.0961223840713500977, -0.0985155031085014343, -0.0074769114144146442, -0.1098913848400115967, 0.0889308229088783264, 0.0941991135478019714, -0.0911189690232276917, -0.0204617921262979507, 0.0847892984747886658, 0.0239458233118057251, 0.0669635385274887085, 0.0467525869607925415, -0.1255936473608016968, 0.1547038406133651733, 0.0137027716264128685, -0.0264120493084192276, 0.0549664460122585297, -0.0988500937819480896, 0.0562569461762905121, 0.1525946408510208130, -0.1370521336793899536, 0.0368372574448585510, 0.0437571629881858826, 0.1012414693832397461, 0.0621278136968612671, -0.0532765649259090424, 0.0789454206824302673, 0.1216557398438453674, -0.1061664968729019165, 0.1616236865520477295, -0.0017445039702579379, 0.0194540955126285553, -0.1436603516340255737, -0.0422861352562904358, 0.0725216045975685120, -0.1013794690370559692, 0.0268981270492076874, -0.1405730843544006348, 0.1477105766534805298, 0.1203880682587623596, -0.0900221467018127441, 0.0199831295758485794, -0.1143442764878273010, -0.1064437925815582275, 0.0907515734434127808, 0.0063823908567428589, 0.0872096791863441467, 0.0250334907323122025, 0.0078511293977499008, -0.0132278166711330414, -0.1227849647402763367, 0.0516426265239715576, 0.1279420554637908936, -0.0329255945980548859, -0.0106832385063171387, 0.0630078539252281189, 0.1138263866305351257, 0.0499140769243240356, -0.1124289557337760925, -0.0788102522492408752, -0.0196252539753913879, -0.1472692936658859253, 0.0513483434915542603, 0.1067182347178459167, -0.0734143555164337158, -0.1206455305218696594, -0.0668827965855598450, -0.1031089052557945251, -0.1407629698514938354, 0.1168810501694679260, 0.1115828976035118103, -0.0919541269540786743, -0.1368320882320404053, -0.0200172401964664459, 0.1066808626055717468, 0.0688238739967346191, -0.1278271079063415527, 0.0008535718079656363, 0.0683451369404792786, 0.0275293104350566864, 0.1100260093808174133, -0.1380641609430313110, 0.0258708409965038300, -0.0027455678209662437, -0.1038593351840972900, -0.0048645157366991043, 0.0322817824780941010, 0.0272821877151727676, -0.0598044656217098236, 0.0432551689445972443, 0.1121457889676094055, 0.1441079676151275635, 0.0877715796232223511, 0.0896981209516525269, -0.1480261236429214478, -0.0341948829591274261, -0.0215056054294109344, 0.0419759526848793030, -0.1432940810918807983, -0.1242263317108154297, -0.0142216216772794724, -0.1398557722568511963, 0.0516651794314384460, 0.0307532735168933868, -0.1004404649138450623, -0.0512672178447246552, 0.0285800080746412277, -0.0151099693030118942, -0.0099916942417621613, -0.1643135845661163330, -0.0179944243282079697, -0.1469069570302963257, 0.0576006546616554260, -0.0164920575916767120, -0.1481176018714904785, -0.0609100013971328735, 0.1160810142755508423, 0.0438666678965091705, 0.1403222978115081787, -0.0922581478953361511, 0.0465739853680133820, -0.1050914824008941650, -0.0722877532243728638, -0.1066329479217529297, -0.1425616741180419922, -0.1262374669313430786, 0.0845947414636611938, 0.0889227986335754395, 0.1232535839080810547, -0.1703487038612365723, -0.1139596179127693176, 0.1051900535821914673, -0.1270519495010375977, -0.1548667103052139282, 0.0541861057281494141, 0.0905344858765602112, -0.0555922128260135651, -0.1091660186648368835, 0.0287734251469373703, 0.0490940473973751068, -0.0178535170853137970, -0.1424223482608795166, -0.0889183208346366882, -0.0015283203683793545, -0.1111114770174026489, -0.0182378720492124557, -0.1653689146041870117, 0.0668298304080963135, -0.0087062176316976547, 0.0862364470958709717, 0.0178477745503187180, -0.0200295075774192810, 0.0908474922180175781, 0.0060276617296040058, 0.1092791631817817688, -0.1206933632493019104, -0.0948818102478981018, 0.1225292012095451355, -0.0972972139716148376, 0.0860468000173568726, 0.0611702539026737213, 0.0044357427395880222, 0.0886102989315986633, 0.0589503571391105652, -0.1081327497959136963, 0.0161790587007999420, -0.1021865904331207275, -0.1380971968173980713, 0.0779576227068901062, -0.1156645491719245911, -0.0567917376756668091, 0.0373727492988109589, -0.0008227326325140893, -0.0208097696304321289, -0.0719106495380401611, -0.0543084219098091125, -0.0015923128230497241, -0.0390311479568481445, -0.1163114607334136963, -0.0285499356687068939, -0.1153020113706588745, -0.1075010076165199280, -0.1219161823391914368, 0.1283453404903411865, 0.1028012856841087341, -0.0462112314999103546, 0.0810524523258209229, 0.0228238366544246674, 0.0039993100799620152, 0.0306058768182992935, -0.1332944035530090332, 0.0719179213047027588, 0.0184561181813478470, 0.0059287734329700470, -0.1478468477725982666, -0.0043860608711838722, 0.1209522336721420288, -0.1307374238967895508, 0.0470481477677822113, -0.0416398681700229645, -0.1280295699834823608, 0.1050307378172874451, 0.1143170520663261414, 0.0375062897801399231, -0.0743917450308799744, -0.0126690864562988281, -0.0882960483431816101, -0.1126255169510841370, 0.0856767818331718445, -0.0571714565157890320, -0.0437505058944225311, -0.0298591088503599167, 0.0622106865048408508, -0.0111272046342492104, -0.0664007887244224548, -0.0412863865494728088, 0.0033083218149840832, -0.1551049947738647461, -0.0219944585114717484, -0.0264166016131639481, -0.1029054000973701477, 0.0094344597309827805, -0.0328704416751861572, -0.0704194530844688416, -0.0912015810608863831, 0.0553254187107086182, 0.0710688009858131409, -0.1157185137271881104, -0.0959056317806243896, 0.1016793027520179749, 0.0405973382294178009, -0.1673049777746200562, 0.0020827630069106817, 0.0229774340987205505, -0.1230307221412658691, -0.1532537788152694702, -0.0456867776811122894, 0.0520549602806568146, 0.0945220664143562317, 0.0293822567909955978, 0.0891070365905761719, 0.0118194269016385078, -0.1348643451929092407, -0.0882564634084701538, -0.0793474689126014709, -0.0701475143432617188, 0.0674815177917480469, -0.0319095887243747711, 0.0701205283403396606, -0.1164796501398086548, -0.1278074979782104492, 0.1151528507471084595, 0.1067410111427307129, -0.0924182236194610596, 0.0321885906159877777, -0.0496576763689517975, -0.0296884570270776749, -0.0991603806614875793, 0.0499079227447509766, -0.0460418984293937683, 0.0663092657923698425, -0.0617445074021816254, -0.1432704627513885498, 0.1312890350818634033, 0.0442843623459339142, 0.0973650440573692322, 0.0234517157077789307, -0.1069401204586029053, 0.1167080178856849670, -0.0267411917448043823, 0.1133068650960922241, 0.0341637991368770599, -0.1360936760902404785, -0.0685264691710472107, -0.1264997273683547974, -0.0891723707318305969, 0.0262350961565971375, 0.0794019922614097595, 0.0140067199245095253, -0.0650738403201103210, -0.1248306483030319214, -0.1464953571557998657, 0.1087253093719482422, 0.0443363599479198456, 0.0209595691412687302, 0.0660688951611518860, 0.0235287547111511230, 0.1053882688283920288, -0.0140785593539476395, 0.0872023850679397583, -0.0594490505754947662, 0.0747618600726127625, -0.0517691113054752350, 0.0365015231072902679, 0.0082251252606511116, 0.0956016331911087036, 0.0045029050670564175, -0.0669139921665191650, -0.1502924859523773193, 0.0863655433058738708, -0.0375804007053375244, 0.0856608822941780090, 0.3614281415939331055, 0.1873687058687210083, 0.1227782368659973145, -0.0981792584061622620, 0.1027683764696121216, -0.0778757482767105103, -0.2262275815010070801, 0.2089934349060058594, -0.1137623786926269531, 0.0170279219746589661, 0.2082500755786895752, 0.0010558478534221649, -0.1393138468265533447, 0.0824623331427574158, 0.1423255056142807007, 0.0176236126571893692, -0.2060890197753906250, -0.3072166442871093750, 0.0405061393976211548, -0.0237700752913951874, -0.0361328274011611938, -0.2190894633531570435, -0.0628732740879058838, 0.1437624990940093994, 0.1781333833932876587, -0.1257630139589309692, -0.1143784895539283752, 0.3038080632686614990, 0.1722728163003921509, 0.2198573350906372070, 0.0110942032188177109, -0.0168554820120334625, 0.1225281059741973877, 0.1060866937041282654, -0.3115279376506805420, -0.0885692164301872253, 0.0740506649017333984, -0.0546354465186595917, 0.0603287741541862488, 0.1499027609825134277, 0.0380246266722679138, -0.1664998382329940796, 0.0410496219992637634, 0.1302524060010910034, -0.1877521723508834839, -0.1136717051267623901, 0.1053483039140701294, -0.5777240991592407227, 0.1021607667207717896, 0.2588363289833068848, -0.1067245304584503174, -0.1318323165178298950, -0.1296769380569458008, -0.1465889215469360352, 0.1100556030869483948, 0.0540267974138259888, -0.0283730477094650269, 0.1615444570779800415, -0.0938830524682998657, 0.0182839725166559219, 0.0641722828149795532, -0.1336779445409774780, -0.1436964720487594604, -0.0335058979690074921, -0.2148642241954803467, 0.0710036307573318481, 0.1393273770809173584, 0.1109661236405372620, 0.0865742862224578857, 0.2151363343000411987, -0.5049770474433898926, -0.3364295065402984619, -0.1124721616506576538, -0.3989952206611633301, 0.1555464267730712891, 0.1428643316030502319, -0.2310632169246673584, 0.0108259189873933792, 0.0579645894467830658, 0.1178270280361175537, 0.1108883917331695557, -0.1403243243694305420, -0.0552433580160140991, 0.0447727590799331665, -0.0635707899928092957, 0.3653719127178192139, 0.1253195852041244507, -0.1502783149480819702, 0.1986158192157745361, 0.0998613461852073669, -0.5104727149009704590, 0.3205110430717468262, -0.0968650877475738525, 0.0681397840380668640, -0.1527972072362899780, 0.0110940644517540932, -0.0621748901903629303, 0.0687601193785667419, -0.0177013240754604340, 0.3466089069843292236, 0.0642377063632011414, -0.0272677894681692123, -0.4248501360416412354, 0.1345715075731277466, -0.2124013453722000122, 0.1566136777400970459, -0.1292174160480499268, 0.1468838602304458618, 0.1952481418848037720, 0.0141951106488704681, 0.0133009403944015503, 0.5166388154029846191, 0.4137509465217590332, -0.0053055500611662865, -0.0573219656944274902, -0.0731218010187149048, -0.0003397313703317195, -0.0918802469968795776, 0.0009023965685628355, 0.0439928658306598663, 0.1522624790668487549, -0.2414485663175582886, -0.2860018610954284668, 0.0165180489420890808, 0.1574106514453887939, 0.1682314276695251465, 0.0825350284576416016, 0.1385264694690704346, -0.2417203336954116821, 0.0442471355199813843, 0.1221609264612197876, -0.1232403218746185303, -0.1414046138525009155, 0.1075959801673889160, 0.3750582635402679443, -0.1585615426301956177, -0.0535412095487117767, -0.0289377849549055099, 0.0722579061985015869, -0.1560044139623641968, 0.1043816804885864258, 0.1067809164524078369, 0.0912354961037635803, -0.0430753938853740692, 0.2887383699417114258, -0.0818014144897460938, 0.1216012462973594666, -0.1164290606975555420, -0.1198921129107475281, -0.2072397768497467041, 0.1766656190156936646, -0.1062445268034934998, -0.4868271052837371826, -0.0893526300787925720, 0.0865003243088722229, 0.2681080400943756104, -0.0661734491586685181, -0.3737501204013824463, -0.0517732799053192139, -0.0131441885605454445, 0.0355118997395038605, 0.0028790887445211411, 0.0008947657770477235, -0.2280261516571044922, -0.1963785588741302490, 0.1749760210514068604, -0.0539207831025123596, -0.0393062904477119446, 0.0375891625881195068, 0.0990344360470771790, -0.0973698124289512634, 0.0459054596722126007, -0.0444939956068992615, 0.5986881852149963379, 0.1773917973041534424, 0.4099629223346710205, -0.0548439808189868927, -0.0903571546077728271, -0.0101486872881650925, -0.1841599345207214355, 0.0323832109570503235, 0.0033891869243234396, 0.0104795107617974281, -0.1715579479932785034, 0.5284078717231750488, 0.1413283795118331909, 0.5984034538269042969, -0.0696903243660926819, 0.0907634496688842773, 0.0431305095553398132, -0.0916637331247329712, -0.0551680400967597961, -0.0953385755419731140, -0.0529911890625953674, 0.0122983837500214577, -0.0300126802176237106, 0.2001551091670989990, -0.3526934683322906494, -0.2229095697402954102, 0.0770505145192146301, 0.0998991280794143677, -0.0847134590148925781, -0.2098702043294906616, -0.2084091752767562866, 0.4754511415958404541, 0.1147433146834373474, 0.0282383598387241364, 0.1513075828552246094, -0.2217895835638046265, -0.1407830566167831421, -0.1260292977094650269, 0.3353335559368133545, 0.0832268074154853821, -0.1039201170206069946, -0.3550549745559692383, -0.1163499504327774048, -0.0611482560634613037, 0.1294854283332824707, -0.0945033580064773560, -0.0152435414493083954, -0.2265344411134719849, -0.0176173411309719086, -0.0284555926918983459, 0.1356894224882125854, -0.5443283915519714355, -0.1488977372646331787, 0.0782685875892639160, -0.1711610257625579834, -0.0266489721834659576, 0.1271805167198181152, 0.0881197303533554077, 0.0371361672878265381, 0.1302889883518218994, 0.1348274648189544678, 0.2349422574043273926, 0.1363329738378524780, -0.0991970673203468323, 0.1486654132604598999, -0.0207184311002492905, 0.0719682127237319946, 0.4263974726200103760, 0.0215392317622900009, -0.4130699336528778076, -0.3418401777744293213, 0.1493963748216629028, 0.0118216900154948235, -0.1364416182041168213, -0.1881783455610275269, 0.0882680118083953857, 0.0620005652308464050, -0.0296740140765905380, 0.0132835451513528824, -0.0381191112101078033, -0.0218919906765222549, -0.1934814751148223877, 0.0885393247008323669, 0.2606749236583709717, -0.1856079846620559692, 0.0393015109002590179, 0.1538254320621490479, -0.1155940517783164978, 0.2029883861541748047, -0.4815526306629180908, 0.1882900595664978027, 0.0759172886610031128, 0.0217681545764207840, -0.0242794230580329895, 0.0738538876175880432, -0.0511937066912651062, 0.0171179082244634628, 0.0390526317059993744, -0.0126405823975801468, -0.2197470664978027344, 0.2260613441467285156, -0.0836604088544845581, -0.0059007108211517334, -0.0244865994900465012, -0.0498403869569301605, -0.0339190363883972168, 0.2158997058868408203, -0.0199062675237655640, -0.1320985108613967896, 0.0415072813630104065, -0.1576294749975204468, 0.2547117471694946289, 0.3323929607868194580, -0.1417119801044464111, -0.0715465024113655090, -0.4344053268432617188, 0.1968834102153778076, -0.2152946293354034424, -0.2811420559883117676, -0.1030890643596649170, 0.1354574561119079590, 0.0169208571314811707, 0.1550329029560089111, 0.1185956299304962158, 0.0775233060121536255, -0.0432339273393154144, -0.0812306106090545654, -0.2004372328519821167, -0.2456135004758834839, 0.0271131973713636398, -0.2523838281631469727, -0.1425888985395431519, -0.1497639268636703491, 0.2079211920499801636, -0.1055469885468482971, 0.1394818872213363647, 0.0027534614782780409, 0.2111304551362991333, 0.2607051730155944824, -0.0664867907762527466, 0.1257639974355697632, 0.2060744315385818481, -0.2363315969705581665, 0.0426316112279891968, -0.2639342248439788818, -0.0714880749583244324, -0.0134308785200119019, -0.0727423354983329773, -0.0704947933554649353, -0.0745967403054237366, -0.1406611651182174683, 0.1450498849153518677, -0.0270797219127416611, -0.2887358665466308594, -0.3110417723655700684, 0.0985506623983383179, -0.3376299440860748291, 0.1901023983955383301, -0.0307046677917242050, -0.2032600343227386475, 0.1754084974527359009, -0.1445392072200775146, 0.1128165274858474731, 0.1896664947271347046, 0.0531935505568981171, 0.1296998560428619385, 0.0323160290718078613, -0.0886363685131072998, 0.4633272588253021240, -0.0589724853634834290, -0.1520183831453323364, 0.0847124755382537842, -0.0552568659186363220, -0.1743011474609375000, -0.1338030099868774414, -0.4011459946632385254, 0.0636602789163589478, -0.2538367211818695068, -0.1403682827949523926, -0.0338289923965930939, 0.1175206676125526428, 0.2206486165523529053, 0.1740421950817108154, 0.1329863220453262329, 0.0483635701239109039, -0.2581084370613098145, -0.1640819609165191650, -0.0803557112812995911, 0.0812835022807121277, 0.0120435925200581551, -0.1008072867989540100, 0.3877455890178680420, 0.5232065320014953613, 0.2192156612873077393, 0.0410671383142471313, 0.4147801399230957031, 0.1922361403703689575, 0.1104551479220390320, 0.0562046170234680176, 0.0495208203792572021, 0.0342299826443195343, 0.0184436496347188950, -0.1341419368982315063, -0.4160258769989013672, -0.1010405942797660828, -0.1570862829685211182, 0.1918326020240783691, 0.0586862936615943909, -0.0003064357151743025, -0.0840982273221015930, -0.0188804715871810913, 0.1973787248134613037, -0.0187587440013885498, 0.0004142141842748970, -0.2661263048648834229, 0.0722480937838554382, -0.1133314371109008789, 0.3930605053901672363, -0.1250962316989898682, 0.0037212593015283346, 0.7638227343559265137, -0.6347839832305908203, -0.2784659564495086670, -0.1872374862432479858, 0.0850330814719200134, -0.0477187633514404297, -0.1551762819290161133, 0.4078949987888336182, -0.0254774931818246841, 0.1341552734375000000, 0.0334797576069831848, 0.0075179263949394226, 0.2015092223882675171, 0.0335881821811199188, -0.0757162868976593018, -0.3425811529159545898, -0.0669667646288871765, 0.1284117996692657471, -0.1709609329700469971, 0.0738047733902931213, 0.2770632505416870117, 0.1323308944702148438, 0.1704578846693038940, 0.1295743435621261597, -0.0959073156118392944, -0.2602826654911041260, -0.3557326197624206543, -0.1390010565519332886, 0.2482621371746063232, 0.0876816511154174805, 0.0817613154649734497, -0.1545899361371994019, -0.1135422438383102417, 0.0850793197751045227, 0.1468116044998168945, 0.0295920595526695251, 0.5760275125503540039, -0.0008173949900083244, 0.3449076712131500244, 0.0521041825413703918, 0.0730008706450462341, 0.7128970026969909668, -0.1220568940043449402, -0.0307039618492126465, -0.0796187371015548706, -0.0727712064981460571, -0.0421393960714340210, 0.3145328760147094727, -0.0328924991190433502, 0.2875859141349792480, -0.1087164431810379028, -0.0173962321132421494, -0.1361026763916015625, -0.1452413648366928101, -0.0912711545825004578, -0.0088859023526310921, -0.3084681034088134766, 0.0070186760276556015, 0.2225893586874008179, 0.0686255916953086853, -0.1112482920289039612, -0.2241214811801910400, 0.2508123517036437988, -0.0992370322346687317, 0.0426006093621253967, 0.2047626227140426636, 0.1099555715918540955, 0.1855447441339492798, 0.2249145954847335815, -0.1559244245290756226, 0.2483473718166351318, -0.3650939166545867920, -0.0648063346743583679, -0.0306046698242425919, 0.2895551919937133789, 0.0515968129038810730, -0.0487665235996246338, -0.2674104273319244385, 0.1029744297266006470, 0.3997797667980194092, 0.0795606076717376709, -0.0565169602632522583, 0.0629923939704895020, -0.2227535992860794067, 0.1141396388411521912, -0.1894345879554748535, 0.3457031846046447754, 0.0478089675307273865, 0.1569311022758483887, -0.2399243712425231934, -0.1702564209699630737, 0.0245784036815166473, -0.0860009565949440002, 0.2110073715448379517, -0.1093848943710327148, 0.1069700419902801514, 0.1134846955537796021, -0.0109937628731131554, 0.0924871787428855896, -0.1207460388541221619, -0.1069796606898307800, -0.0053866691887378693, -0.1580329090356826782, -0.2940295636653900146, 0.0679695382714271545, -0.0759863629937171936, -0.4349571764469146729, 0.2149814069271087646, 0.0392193607985973358, 0.1214481294155120850, -0.1622131317853927612, 0.1300107538700103760, -0.0223190486431121826, -0.1359912604093551636, 0.1191165447235107422, 0.0072400127537548542, 0.1471444666385650635, 0.0835527107119560242, -0.0038160872645676136, 0.1557870060205459595, 0.0074817561544477940, 0.1060644984245300293, -0.1525700092315673828, 0.0791196897625923157, -0.0008185519254766405, 0.4780569374561309814, 0.0418194681406021118, 0.1324835419654846191, -0.0751558467745780945, -0.0116772986948490143, -0.0017171481158584356, 0.0751653239130973816, -0.1226526722311973572, 0.1255508512258529663, 0.1444333493709564209, -0.1148733496665954590, -0.0684789642691612244, -0.0709908902645111084, 0.1321250945329666138, 0.1662019789218902588, 0.2177747339010238647, 0.0019585499539971352, 0.1348016411066055298, -0.0676465108990669250, -0.1659680008888244629, 0.1131577566266059875, 0.1238088533282279968, -0.0599264204502105713, 0.3519860208034515381, -0.1336082816123962402, 0.0373949222266674042, -0.0322248674929141998, 0.1856291592121124268, 0.2753276526927947998, 0.2172388136386871338, 0.1930932998657226562, 0.1104198917746543884, 0.0103328237310051918, -0.1846018135547637939, 0.0996374636888504028, 0.0512875765562057495, -0.0692063421010971069, -0.0816290676593780518, -0.5895534753799438477, -0.3771920502185821533, -0.1320566833019256592, -0.5390497446060180664, 0.0485974512994289398, 0.0231020394712686539, -0.4549655914306640625, 0.1312846541404724121, 0.0319911539554595947, -0.0151590602472424507, 0.0403138697147369385, 0.0219951178878545761, -0.1249482780694961548, 0.0669601857662200928, -0.2564544677734375000, 0.1241513490676879883, -0.0681107938289642334, -0.2548623085021972656, -0.0092001417651772499, -0.0384819507598876953, -0.1217357441782951355, 0.1585854291915893555, -0.1082177609205245972, 0.2285676002502441406, -0.0513788051903247833, -0.4332678318023681641, 0.3273185193538665771, -0.1689510196447372437, -0.0761170610785484314, 0.1224904656410217285, -0.1250976920127868652, 0.1668212115764617920, 0.0412819497287273407, -0.2147567123174667358, 0.0699963271617889404, 0.0172964893281459808, 0.1382216662168502808, 0.0750336647033691406, 0.1392152011394500732, 0.0458074770867824554, -0.0170041881501674652, -0.0532829612493515015, -0.0769032463431358337, 0.0175770726054906845, -0.0970320701599121094, -0.0739613473415374756, -0.1551666110754013062, 0.1436944752931594849, 0.0602848604321479797, 0.0722829103469848633, -0.1670558154582977295, -0.0991346538066864014, 0.1411563605070114136, -0.0888549610972404480, 0.1318899840116500854, 0.2651177048683166504, -0.1321885883808135986, -0.1146896481513977051, -0.0643908306956291199, 0.1035511195659637451, -0.0165533795952796936, -0.0895000547170639038, -0.3751755058765411377, -0.0807522758841514587, 0.0735075548291206360, -0.1534041613340377808, 0.1783429235219955444, 0.2769056856632232666, 0.2640505433082580566, -0.0171927995979785919, -0.0029941115062683821, -0.0315625257790088654, -0.1038207858800888062, 0.1841075122356414795, -0.1395441144704818726, -0.0570135340094566345, 0.0462260320782661438, -0.1576297134160995483, 0.0030067649204283953, 0.0750762820243835449, -0.1927506029605865479, 0.0675029382109642029, -0.1817099601030349731, -0.0937568843364715576, -0.2653456926345825195, 0.2843119204044342041, -0.1166760176420211792, 0.0564849004149436951, -0.0235812421888113022, -0.1715145111083984375, -0.0650456622242927551, -0.2238859832286834717, 0.0905429869890213013, -0.1858714967966079712, -0.0501483678817749023, -0.2762362062931060791, 0.1995537579059600830, -0.0048791347071528435, -0.0703721567988395691, 0.0512257143855094910, -0.1310797333717346191, -0.1625767350196838379, -0.0579413026571273804, 0.0852408111095428467, -0.0527622960507869720, 0.0767169818282127380, 0.0422738939523696899, -0.0821489468216896057, -0.2848255336284637451, 0.0452048107981681824, 0.1424702703952789307, 0.0500703118741512299, 0.0266020018607378006, -0.1992046833038330078, -0.2461723983287811279, -0.1584569215774536133, -0.2233621031045913696, -0.0119815059006214142, -0.4709369540214538574, 0.1670715361833572388, -0.1566390097141265869, -0.2044704705476760864, -0.0868673920631408691, -0.1835130304098129272, -0.4264383316040039062, -0.2035176455974578857, 0.1402572989463806152, -0.0189614687114953995, 0.2217253446578979492, 0.7146781086921691895, 0.2810911834239959717, -0.1734613180160522461, 0.0199086386710405350, 0.0990892872214317322, -0.0551419593393802643, 0.0744874551892280579, 0.1342537999153137207, -0.1190712153911590576, 0.0908131301403045654, 0.1612969040870666504, 0.4116339385509490967, 0.1073597669601440430, 0.7165162563323974609, 0.1382698416709899902, 0.0357450209558010101, 0.0497815534472465515, -0.0433835498988628387, -0.1647573709487915039, 0.0098934518173336983, 0.2220260798931121826, 0.0430172421038150787, -0.1939630955457687378, 0.1954302787780761719, 0.1464894711971282959, -0.0522526428103446960, -0.0585754252970218658, 0.0798715949058532715, 0.4208271205425262451, -0.0408685989677906036, 0.2000268101692199707, -0.2993463277816772461, -0.2732632160186767578, 0.0537292957305908203, 0.0871870368719100952, 0.1610836237668991089, 0.1294110268354415894, -0.0582194626331329346, 0.0342568643391132355, 0.0391139797866344452, 0.0631308853626251221, -0.3945319056510925293, 0.1538464426994323730, -0.1706028729677200317, 0.2030549645423889160, -0.0275010112673044205, 0.0452213995158672333, -0.1681208461523056030, -0.0710248947143554688, 0.1438902765512466431, -0.3411117494106292725, -0.1713963598012924194, 0.0344858914613723755, 0.0139272175729274750, 0.1070746704936027527, -0.0800581425428390503, 0.0322554260492324829, -0.0035144409630447626, 0.1217382103204727173, 0.1663548201322555542, 0.0490001663565635681, 0.2531683444976806641, 0.1762628257274627686, -0.1321905404329299927, -0.1926313042640686035, 0.0163356978446245193, 0.1173813045024871826, 0.0022419705055654049, 0.0846299380064010620, -0.0410082265734672546, -0.3570655584335327148, 0.0018024704186245799, 0.1199905276298522949, 0.0000399210293835495, -0.0177458915859460831, 0.2414508461952209473, -0.0054315496236085892, 0.0157152358442544937, -0.1074997633695602417, -0.1623783111572265625, 0.1949069201946258545, -0.2761209905147552490, 0.1382880508899688721, -0.1465320885181427002, -0.4018261134624481201, 0.1988295912742614746, 0.1178121864795684814, 0.0494723543524742126, 0.1538942605257034302, -0.2462864518165588379, -0.0470588877797126770, 0.1010761111974716187, -0.0438115596771240234, -0.0987655222415924072, 0.1359450668096542358, 0.1184746846556663513, 0.1509273946285247803, 0.0876077115535736084, -0.1489289849996566772, -0.6920532584190368652, -0.1023338437080383301, 0.0745285153388977051, 0.0638055875897407532, 0.0929678231477737427, 0.2429304122924804688, 0.1768169999122619629, 0.0425164923071861267, -0.0648224875330924988, 0.1808004826307296753, -0.1938351392745971680, 0.1610395461320877075, -0.0593035370111465454, -0.0291210785508155823, -0.0501443147659301758, 0.0094300052151083946, -0.2211083322763442993, 0.1084580272436141968, -0.1848175376653671265, 0.4785885512828826904, -0.1161261275410652161, 0.1098228096961975098, 0.1374908387660980225, -0.1298864632844924927, -0.1239848658442497253, 0.0290277712047100067, -0.1188256219029426575, 0.2162966877222061157, 0.0375192910432815552, 0.1396022439002990723, -0.1023450419306755066, -0.1972914487123489380, 0.0345163345336914062, -0.5066832900047302246, -0.0668291896581649780, 0.0790181383490562439, 0.0470259822905063629, 0.1776745319366455078, 0.1400037407875061035, 0.0458911955356597900, -0.0799250975251197815, -0.1071890145540237427, 0.1037444174289703369, -0.0741237699985504150, -0.0523210465908050537, -0.1006558239459991455, 0.0956973209977149963, 0.1401655077934265137, 0.1688265204429626465, -0.0892850831151008606, 0.0926332920789718628, 0.0308458786457777023, 0.0627779439091682434, -0.1502835601568222046, 0.5550066828727722168, 0.0525729022920131683, 0.1218588650226593018, -0.5816501975059509277, 0.1081889495253562927, 0.1325611323118209839, -0.2907947003841400146, -0.2290093600749969482, -0.0252558086067438126, 0.0050047431141138077, 0.0504973307251930237, 0.0599983111023902893, -0.0205721370875835419, 0.1367531716823577881, -0.1967090070247650146, 0.0153287686407566071, 0.0357556678354740143, 0.1465105712413787842, 0.1052329838275909424, -0.0008238355512730777, -0.0297329016029834747, -0.0033261077478528023, -0.0564540810883045197, 0.1414484977722167969, 0.4882093966007232666, 0.0085188942030072212, 0.1354771256446838379, 0.0061495378613471985, 0.0488045997917652130, 0.1007469594478607178, 0.1761819571256637573, 0.0778124779462814331, 0.0823528170585632324, 0.0315457172691822052, 0.2132907807826995850, -0.0430551134049892426, -0.1752737164497375488, -0.2708499729633331299, 0.1421460211277008057, 0.0700342431664466858, -0.0204498749226331711, -0.0564811378717422485, 0.2200374603271484375, -0.1627515554428100586, 0.0559377558529376984, 0.1696569472551345825, -0.2291361838579177856, 0.0225337892770767212, -0.0152129931375384331, 0.0609987899661064148, 0.1718236207962036133, -0.0738506913185119629, -0.2309029847383499146, -0.0459286086261272430, -0.3465287983417510986, 0.0285189338028430939, 0.2521408200263977051, -0.1443616598844528198, 0.3996493816375732422, -0.0750832483172416687, -0.1597578525543212891, -0.0520843155682086945, 0.1426923573017120361, -0.0793417990207672119, -0.0360385589301586151, 0.1134467348456382751, -0.1082344427704811096, 0.2797039151191711426, -0.1431264728307723999, -0.1113538816571235657, -0.0053583970293402672, -0.0200029201805591583, 0.0311447437852621078, -0.1197848618030548096, -0.1200939863920211792, 0.1791250109672546387, 0.0149133447557687759, 0.1456867158412933350, 0.0586289018392562866, 0.0564350932836532593, 0.0210697744041681290, 0.0944144353270530701, 0.2280868440866470337, 0.1123612523078918457, 0.1395618468523025513, 0.2625280916690826416, -0.1145516112446784973, 0.0871976464986801147, 0.3338424861431121826, 0.2291141748428344727, -0.1843247711658477783, 0.0898334309458732605, -0.1314948648214340210, -0.0767637416720390320, 0.1119653657078742981, -0.2460862994194030762, 0.0858135372400283813, -0.0417632050812244415, -0.3928745388984680176, -0.0883315578103065491, 0.1815603673458099365, -0.1265362650156021118, -0.1049211546778678894, 0.1153167039155960083, -0.0412177443504333496, 0.3721759915351867676, -0.0058668893761932850, 0.1216745078563690186, 0.4381746947765350342, 0.1004434153437614441, 0.1545430868864059448, 0.2031171768903732300, 0.0296473428606987000, 0.0343350879848003387, 0.0116077493876218796, 0.0094127617776393890, 0.4582953453063964844, 0.2083946913480758667, 0.1262595802545547485, 0.0733395069837570190, 0.0018012181390076876, -0.0829169824719429016, -0.0674071088433265686, -0.5325536131858825684, 0.1236712932586669922, 0.1462732702493667603, 0.0706997737288475037, -0.2971211671829223633, 0.2798479497432708740, 0.1695477515459060669, 0.0337951481342315674, -0.4023767411708831787, 0.2171502560377120972, -0.0055345254950225353, 0.1261300593614578247, 0.2343654185533523560, 0.1095730066299438477, -0.5594476461410522461, -0.2066334187984466553, 0.0626103505492210388, -0.0807494819164276123, 0.3621470928192138672, -0.1956644058227539062, 0.0007835724973119795, -0.2988896965980529785, -0.0082158390432596207, -0.2074290812015533447, 0.1116507500410079956, 0.0608990713953971863, -0.1058796495199203491, 0.0679876282811164856, 0.1114965379238128662, -0.5838866829872131348, 0.0085148122161626816, 0.2985672950744628906, 0.0853279754519462585, -0.0949595421552658081, 0.1569539904594421387, 0.1184991225600242615, 0.0284731294959783554, -0.0568669177591800690, -0.0490293353796005249, 0.1064618080854415894, -0.0235041547566652298, -0.2495929002761840820, -0.1214712634682655334, 0.1817140877246856689, 0.0250219441950321198, -0.2582111954689025879, 0.0022469377145171165, -0.3378982841968536377, 0.0843610242009162903, -0.0374355018138885498, 0.2858207225799560547, 0.0308211836963891983, 0.1431674510240554810, 0.0244043022394180298, 0.0033056784886866808, 0.1902553886175155640, -0.1018213927745819092, -0.4919617176055908203, -0.1797987222671508789, 0.0467308759689331055, 0.0619401521980762482, 0.1263585686683654785, 0.0667471811175346375, 0.6097550988197326660, 0.4220614135265350342, 0.1851696521043777466, 0.0375285111367702484, 0.0130690522491931915, -0.1373750716447830200, 0.2146549522876739502, 0.0134990504011511803, -0.0630917325615882874, -0.0903504192829132080, 0.1618576794862747192, -0.1554901450872421265, -0.1600833088159561157, 0.0143867302685976028, -0.0024822677951306105, 0.1562564074993133545, 0.2173707187175750732, 0.1887278854846954346, -0.1125939488410949707, 0.0165843758732080460, -0.1027582809329032898, -0.6221531629562377930, 0.1097462028264999390, 0.0892326682806015015, -0.0103234052658081055, -0.0969317033886909485, 0.3305180072784423828, -0.1848125159740447998, 0.2847112417221069336, -0.0197526328265666962, 0.1629173606634140015, -0.1144976839423179626, 0.0245562586933374405, -0.0446969270706176758, 0.2526445090770721436, -0.0846885740756988525, 0.1313468068838119507, -0.0151052381843328476, 0.0383374467492103577, -0.0339494273066520691, -0.0327991880476474762, -0.1886660605669021606, 0.0797502547502517700, -0.1405366808176040649, -0.2893633246421813965, 0.1472670733928680420, 0.1254042237997055054, -0.7713791728019714355, 0.1599389463663101196, 0.2603882849216461182, 0.0700971335172653198, 0.0270669031888246536, 0.1222730576992034912, -0.0669082403182983398, 0.1542136371135711670, -0.2050782293081283569, 0.0189703963696956635, 0.0860750526189804077, -0.1660418063402175903, -0.1583508253097534180, -0.1773166805505752563, -0.0010929576819762588, -0.3766261935234069824, -0.0004458388721104711, -0.0408242009580135345, -0.0074008284136652946, -0.0552605576813220978, -0.1392399072647094727, -0.0422070026397705078, -0.0511197745800018311, -0.5429250597953796387, 0.0951047018170356750, -0.0443980284035205841, -0.1823957562446594238, -0.0753333643078804016, -0.1514523476362228394, 0.1885268241167068481, -0.0586906671524047852, 0.1445278376340866089, 0.1639925688505172729, 0.0389868728816509247, 0.1241379752755165100, 0.2047497034072875977, -0.0058105974458158016, -0.1065272688865661621, -0.1327550411224365234, -0.1493845582008361816, -0.0757267177104949951, 0.1235206872224807739, 0.0409897007048130035, 0.3364497721195220947, -0.2995322942733764648, -0.1721820086240768433, -0.1417955160140991211, -0.2008863836526870728, 0.1710747331380844116, 0.0849204212427139282, 0.0673786401748657227, 0.0894014015793800354, 0.0002481429837644100, 0.1098151206970214844, 0.0861922949552536011, 0.1615968644618988037, 0.1426663696765899658, -0.1983678787946701050, 0.0624713413417339325, 0.0813141316175460815, -0.0289419777691364288, 0.0293791014701128006, 0.0474170669913291931, -0.1954753100872039795, 0.1289927214384078979, -0.0099573927000164986, 0.2445186227560043335, 0.0378905497491359711, -0.0347795858979225159, 0.3163261711597442627, 0.0332237370312213898, 0.0538895390927791595, -0.0354076772928237915, -0.1553585082292556763, -0.0304206646978855133, 0.4459262490272521973, 0.0382797755300998688, 0.1657339781522750854, -0.1649585664272308350, 0.1392569094896316528, 0.0948124304413795471, -0.2589232325553894043, -0.0643222033977508545, 0.0001769017544575036, -0.0895956382155418396, 0.0005797659396193922, 0.3053983449935913086, -0.0673079937696456909, -0.1474771350622177124, -0.0550866313278675079, -0.2010826319456100464, 0.5181511044502258301, 0.1711860597133636475, 0.1201567798852920532, 0.1314890384674072266, 0.1490852534770965576, 0.0581026300787925720, -0.2375241070985794067, 0.0786125510931015015, -0.0575446523725986481, 0.0768615379929542542, -0.1379227340221405029, 0.0187841411679983139, 0.0540289357304573059, 0.0262268930673599243, -0.0758823677897453308, -0.0380187034606933594, 0.0693946108222007751, 0.1410044282674789429, 0.0569660887122154236, -0.3779104053974151611, 0.0071574063040316105, -0.0231376159936189651, 0.2029133737087249756, -0.0738647729158401489, 0.2938546836376190186, 0.3735210597515106201, -0.0917846560478210449, 0.3207987844944000244, -0.1556708961725234985, -0.0317795798182487488, 0.6181076765060424805, 0.0838129743933677673, 0.0562068261206150055, 0.1171815916895866394, -0.0761613845825195312, -0.1658062487840652466, -0.1515703201293945312, -0.0841594487428665161, -0.0113136647269129753, -0.0531836338341236115, -0.8706229329109191895, 0.2468307912349700928, 0.0546528585255146027, -0.1356178373098373413, 0.1916908770799636841, 0.0325067155063152313, 0.1306394189596176147, -0.0391467101871967316, -0.3255472183227539062, -0.3672415912151336670, 0.0342561118304729462, 0.0793321207165718079, 0.1484696269035339355, -0.1902274340391159058, -0.2980603277683258057, -0.2033942788839340210, -0.0574514605104923248, -0.3450557291507720947, -0.1173001453280448914, -0.2359455525875091553, -0.0646439790725708008, 0.0802816674113273621, -0.1260702461004257202, -0.0166019964963197708, 0.2265984266996383667, -0.0875034853816032410, 0.0275174546986818314, 0.0067014982923865318, 0.0742429122328758240, -0.0987898856401443481, 0.2269207239151000977, -0.1345319598913192749, -0.0652798488736152649, -0.0219832714647054672, 0.0970376655459403992, 0.1273774802684783936, 0.2646607458591461182, 0.0235449075698852539, 0.2160605937242507935, 0.0974990576505661011, -0.0638309642672538757, 0.1148517727851867676, 0.0018966835923492908, 0.1452478617429733276, 0.3139494359493255615, -0.1589923650026321411, -0.2678376734256744385, 0.1337802559137344360, -0.1560430526733398438, -0.0426863245666027069, 0.0583179630339145660, 0.0628838688135147095, -0.0976646468043327332, -0.0573417134582996368, 0.1385407298803329468, 0.1560342758893966675, 0.2553240358829498291, 0.1062515899538993835, 0.0693753063678741455, -0.1269963681697845459, 0.0317604877054691315, 0.0246781520545482635, 0.4762451946735382080, -0.0179973244667053223, -0.1639136821031570435, -0.0114505840465426445, -0.1795967817306518555, -0.0671399608254432678, -0.1424533426761627197, 0.1842834353446960449, -0.2701971232891082764, -0.0147560983896255493, 0.3216384649276733398, -0.0809371545910835266, -0.1354144960641860962, 0.0680922567844390869, 0.2534498572349548340, -0.1940619796514511108, -0.1980666816234588623, -0.1392119824886322021, -0.0736974775791168213, -0.0968341231346130371, 0.1644264459609985352, -0.0132795255631208420, 0.2915969491004943848, -0.0586457289755344391, 0.1272650063037872314, 0.1137675791978836060, -0.0490776598453521729, -0.1781956404447555542, 0.1602751016616821289, 0.1120357066392898560, 0.1539324820041656494, 0.0368990525603294373, 0.0200144723057746887, 0.0570368506014347076, 0.0330015383660793304, 0.1750516295433044434, 0.1410150080919265747, -0.1963276863098144531, 0.0945616737008094788, -0.0228415504097938538, 0.0748544856905937195, 0.1117734014987945557, -0.0624979361891746521, 0.1072189360857009888, -0.0576928965747356415, -0.4443607032299041748, 0.1016506254673004150, -0.0482692345976829529, 0.2968334257602691650, -0.0959370136260986328, -0.1535024344921112061, 0.3550278246402740479, 0.0739387273788452148, 0.0320830158889293671, -0.1434927582740783691, -0.0523869432508945465, 0.0053046415559947491, 0.1421318799257278442, -0.0051070083864033222, 0.0766264945268630981, 0.2419329583644866943, 0.3754886090755462646, 0.0525082089006900787, 0.5195438861846923828, -0.1633455008268356323, 0.1867286711931228638, 0.1612159013748168945, 0.0291227065026760101, 0.0723024308681488037, -0.1285457313060760498, -0.1206538751721382141, -0.2529289722442626953, 0.2033801078796386719, -0.1512500345706939697, 0.1120326668024063110, 0.2747403383255004883, -0.2538747787475585938, 0.1985388398170471191, 0.0723111480474472046, 0.1339849531650543213, -0.2577514648437500000, 0.0389158688485622406, 0.1138213574886322021, 0.2639887928962707520, -0.0693792179226875305, 0.3205271065235137939, -0.4659383296966552734, -0.1751642376184463501, 0.0019788681529462337, 0.1712653636932373047, 0.0096948007121682167, -0.0144503843039274216, -0.1273374557495117188, -0.1150350719690322876, 0.0656588673591613770, 0.1990342289209365845, 0.2243019491434097290, -0.0575676634907722473, -0.0657764375209808350, -0.0959658324718475342, -0.0943937599658966064, -0.1401740014553070068, 0.1506468355655670166, 0.0896268859505653381, -0.1157844141125679016, 0.0164762679487466812, 0.0346208326518535614, 0.2747061848640441895, 0.1803635805845260620, 0.1745575219392776489, 0.3985445797443389893, 0.0274105928838253021, 0.0716963708400726318, -0.1788039952516555786, -0.1846897304058074951, 0.1576226651668548584, 0.0089190211147069931, -0.0151308560743927956, 0.0959588512778282166, 0.0897792279720306396, -0.0636513829231262207, -0.0152903757989406586, 0.0046278703957796097, 0.1595999747514724731, 0.2371726930141448975, -0.5442594289779663086, -0.1669882833957672119, 0.3295256197452545166, -0.1550101637840270996, -0.2317561060190200806, 0.0414974950253963470, 0.0401611998677253723, -0.1733633130788803101, -0.1152773946523666382, -0.1218391284346580505, 0.0177962332963943481, 0.3425034582614898682, -0.1463119387626647949, 0.0549313761293888092, -0.0551113709807395935, 0.1888154894113540649, -0.1095452979207038879, 0.0965638384222984314, 0.0875866115093231201, -0.2124561965465545654, -0.5487195849418640137, 0.1548249125480651855, 0.0416487492620944977, 0.1318457275629043579, 0.0483520478010177612, -0.3661891520023345947, -0.0837654098868370056, 0.0445919074118137360, -0.7882478237152099609, 0.3861612081527709961, 0.0143044935539364815, 0.2237526625394821167, -0.0244707968086004257, -0.1369519084692001343, 0.2229246497154235840, -0.0859454125165939331, 0.2092258483171463013, 0.0301339067518711090, 0.0594044439494609833, 0.1471197456121444702, -0.1812682896852493286, -0.0361103862524032593, -0.1496426165103912354, 0.0374943651258945465, -0.0135024050250649452, 0.0435725972056388855, 0.4779123961925506592, 0.0439817495644092560, -0.0649381130933761597, 0.3845324516296386719, 0.0959310308098793030, 0.0042829867452383041, 0.1767883747816085815, 0.4971421062946319580, 0.0442531965672969818, 0.1731023192405700684, -0.2828373014926910400, -0.0642168149352073669, -0.0545127689838409424, 0.2053051143884658813, 0.1562303751707077026, 0.1462046951055526733, -0.0663649216294288635, 0.1623215079307556152, -0.6702414751052856445, 0.1168375313282012939, 0.0935878828167915344, 0.0989802628755569458, 0.1020733416080474854, -0.0762294605374336243, 0.1072660610079765320, 0.1087619438767433167, -0.0940479114651679993, 0.1161841750144958496, -0.1283598095178604126, -0.1145976036787033081, -0.1416361480951309204, -0.4009964764118194580, 0.1784499436616897583, 0.1520525813102722168, 0.1750737875699996948, 0.0310767926275730133, 0.0646076947450637817, -0.2025405615568161011, -0.3242734074592590332, 0.1398078501224517822, -0.4888043403625488281, 0.0495500266551971436, -0.0184271782636642456, 0.3290444612503051758, 0.0279288608580827713, 0.1041198521852493286, -0.2156658172607421875, -0.1656767874956130981, -0.3031102120876312256, 0.3402097523212432861, 0.1928145587444305420, 0.1183433979749679565, -0.0485134422779083252, 0.2011528313159942627, -0.1259197443723678589, 0.1618646830320358276, -0.0161417517811059952, 0.0701463147997856140, -0.1057708784937858582, 0.1450706422328948975, 0.0279722604900598526, 0.0258606895804405212, 0.1093259602785110474, 0.1514400243759155273, -0.0312200151383876801, -0.0947045236825942993, 0.0956881195306777954, -0.3491621017456054688, -0.2228416800498962402, -0.1354186534881591797, -0.0902540907263755798, 0.0518301762640476227, -0.1079308167099952698, 0.0885070711374282837, 0.0143827358260750771, 0.0166843049228191376, -0.1316829174757003784, 0.1517133414745330811, 0.0187050402164459229, -0.0681847855448722839, 0.1159005910158157349, -0.1570878326892852783, 0.0812795907258987427, -0.0066893231123685837, -0.0679090991616249084, 0.2291381508111953735, -0.0455619692802429199, -0.2916065156459808350, 0.3394101262092590332, -0.0968845635652542114, -0.0652196258306503296, -0.1901475638151168823, 0.0579272843897342682, 0.1801847815513610840, 0.0631867200136184692, -0.2299773246049880981, -0.0783431306481361389, 0.1405038833618164062, 0.0951543152332305908, -0.0931536853313446045, -0.1486947983503341675, 0.1039611771702766418, 0.0327150374650955200, 0.0420292317867279053, 0.0050135408528149128, 0.1127149537205696106, -0.0957772955298423767, -0.0239453185349702835, -0.0544280931353569031, 0.0288904011249542236, -0.1141106039285659790, -0.1220366954803466797, -0.0094744525849819183, -0.0041127162985503674, -0.0146759785711765289, 0.1047157347202301025, 0.0588963627815246582, 0.1362750232219696045, -0.1443987935781478882, -0.0895383581519126892, 0.1061174273490905762, -0.1083213612437248230, -0.1189681068062782288, -0.0539487004280090332, -0.0533346422016620636, -0.1413255929946899414, -0.0844953954219818115, 0.1251541078090667725, 0.1244744956493377686, 0.0027749105356633663, 0.0005874313646927476, -0.0934567302465438843, -0.1005340144038200378, -0.1443769335746765137, 0.1026909202337265015, -0.1532164067029953003, -0.1304198056459426880, -0.0785098820924758911, 0.0752610415220260620, 0.1357195526361465454, -0.0556280240416526794, -0.0240294784307479858, -0.1156655326485633850, -0.1424563527107238770, 0.0294943880289793015, -0.1302075535058975220, 0.1119104847311973572, -0.0570104941725730896, 0.0034357309341430664, 0.0067361304536461830, -0.0954624861478805542, 0.1138290166854858398, -0.1282151043415069580, -0.0193065758794546127, -0.0164187811315059662, 0.0257020648568868637, 0.0816356763243675232, -0.0773859396576881409, 0.0346602313220500946, -0.1044015884399414062, 0.1073024049401283264, 0.0055945804342627525, 0.0728265419602394104, -0.1304221898317337036, 0.1045627295970916748, 0.0329079292714595795, 0.0340934321284294128, 0.0943054109811782837, -0.0980373695492744446, -0.0234888754785060883, -0.0131321828812360764, 0.0058028399944305420, 0.0702764466404914856, 0.0968732237815856934, 0.0749973058700561523, -0.0281887538731098175, -0.0721649006009101868, 0.0989891141653060913, 0.1085554137825965881, 0.0699748992919921875, -0.0571084953844547272, -0.1367505937814712524, 0.1112346127629280090, -0.0439082458615303040, -0.1000330373644828796, -0.0759498476982116699, 0.0116273825988173485, -0.0331523045897483826, -0.0244584362953901291, -0.1149834021925926208, -0.1278764307498931885, -0.0844376906752586365, -0.0844716802239418030, -0.1536045074462890625, 0.0207826178520917892, -0.0543916486203670502, 0.0673921406269073486, -0.0606917217373847961, -0.1455789357423782349, 0.0136887738481163979, 0.0242468118667602539, 0.0176216308027505875, 0.0958687216043472290, 0.0048673627898097038, -0.0655853003263473511, 0.0793471559882164001, 0.1293637603521347046, -0.1183639094233512878, -0.0484417453408241272, 0.0396521054208278656, -0.0246647577732801437, 0.0409481041133403778, -0.1079600304365158081, 0.1120790690183639526, 0.0720012336969375610, -0.1263425797224044800, -0.0442759729921817780, -0.0302844122052192688, 0.0768176987767219543, -0.0796385779976844788, -0.0573092438280582428, -0.1230135709047317505, 0.0386306531727313995, 0.0099598634988069534, -0.0924559980630874634, -0.0117135308682918549, 0.0361740887165069580, -0.1072851642966270447, -0.0892008244991302490, -0.0550853759050369263, -0.0421544797718524933, -0.1366066634654998779, -0.1115941479802131653, 0.1124975904822349548, 0.0453582741320133209, 0.1235428154468536377, 0.0664031356573104858, 0.0513989925384521484, -0.1264337599277496338, -0.0094747878611087799, 0.0021846806630492210, -0.0265777725726366043, 0.0464423373341560364, -0.0737152025103569031, -0.0352505892515182495, -0.0998548418283462524, 0.0217812955379486084, -0.0835995525121688843, 0.0066629326902329922, -0.0475193001329898834, -0.0349838994443416595, -0.1511171758174896240, 0.0656894966959953308, 0.0559394098818302155, -0.0200575124472379684, -0.0652238875627517700, 0.1356025040149688721, -0.0346118174493312836, 0.0608210191130638123, 0.1378813087940216064, 0.0366913937032222748, 0.0712415054440498352, -0.0342052020132541656, -0.1153143569827079773, 0.0355687811970710754, 0.0414030663669109344, 0.1123235970735549927, 0.0891896113753318787, -0.0623769611120223999, 0.0150480307638645172, 0.1432581394910812378, -0.0025460596662014723, -0.0121311908587813377, 0.0340180099010467529, 0.0231770724058151245, -0.0929639935493469238, -0.1298637986183166504, -0.1059878319501876831, 0.0591016076505184174, -0.1283184885978698730, 0.1396728307008743286, -0.0839260593056678772, 0.0836522132158279419, 0.1360784769058227539, -0.0057720229960978031, 0.0073084025643765926, -0.0835573673248291016, 0.0118035273626446724, -0.0772185251116752625, -0.0271478313952684402, 0.0596705786883831024, -0.1022385433316230774, 0.0770548433065414429, 0.1125213056802749634, 0.1160014495253562927, 0.1178788840770721436, -0.0320413671433925629, -0.0367876626551151276, -0.0308428574353456497, 0.1118704304099082947, 0.1224452853202819824, -0.0803293511271476746, -0.0930298566818237305, -0.1160455867648124695, 0.1450415253639221191, -0.0366476327180862427, 0.0084825195372104645, -0.0316934548318386078, 0.0697740539908409119, 0.0125112971290946007, -0.1735278815031051636, 0.0161202959716320038, 0.1114225089550018311, -0.0700987726449966431, -0.0765454322099685669, 0.0115897962823510170, -0.1638752371072769165, -0.0986391827464103699, -0.0544878356158733368, -0.1485723257064819336, -0.0340203568339347839, 0.0682006329298019409, 0.0314889699220657349, 0.0874576121568679810, 0.0729097649455070496, 0.1077303364872932434, 0.1164583638310432434, -0.0333064943552017212, 0.1333877146244049072, -0.1040222793817520142, -0.0596228316426277161, -0.1612104326486587524, 0.0151318181306123734, 0.0565746724605560303, -0.0664199665188789368, 0.0535796843469142914, -0.0347172394394874573, -0.0184523556381464005, -0.1335918158292770386, 0.0340638495981693268, -0.0627879947423934937, 0.0574019961059093475, -0.1219933778047561646, -0.0808279886841773987, -0.0211328174918889999, 0.1184041649103164673, -0.0108813811093568802, -0.0503177531063556671, 0.1390038132667541504, -0.0391509383916854858, -0.0077885859645903111, 0.0411230102181434631, 0.0499632582068443298, -0.0443893708288669586, 0.1005159839987754822, 0.0483617149293422699, -0.0031717992387712002, 0.0576868616044521332, 0.1327741295099258423, -0.0700301975011825562, 0.0527937896549701691, -0.0142366867512464523, 0.1018874570727348328, 0.1448801010847091675, -0.0182361099869012833, -0.0166351646184921265, 0.0895652323961257935, -0.0177509747445583344, 0.0111639453098177910, 0.0503662303090095520, -0.0943259596824645996, 0.1317072361707687378, -0.0816084071993827820, 0.0237223319709300995, -0.0067254872992634773, -0.0890870466828346252, -0.1285341084003448486, 0.0270392950624227524, 0.0256871245801448822, -0.0523111782968044281, -0.0850622206926345825, 0.0532146207988262177, 0.0731018632650375366, -0.0433140583336353302, -0.1480295956134796143, -0.0624696016311645508, 0.1106364950537681580, -0.0088842539116740227, -0.0564695410430431366, 0.0107051515951752663, -0.1278160214424133301, -0.1433691978454589844, -0.0694734305143356323, 0.0882845371961593628, 0.0958695560693740845, 0.0293056294322013855, -0.1216320618987083435, 0.0729089677333831787, 0.0192988477647304535, 0.0676333531737327576, 0.1270858347415924072, -0.0792624354362487793, -0.0553239285945892334, -0.0621832720935344696, 0.0623936727643013000, -0.1064978837966918945, 0.0520927794277667999, 0.0181150585412979126, 0.0105351097881793976, 0.0170262623578310013, 0.0218280479311943054, -0.1275964230298995972, -0.0821935608983039856, -0.1125635430216789246, 0.0264787077903747559, 0.0420602522790431976, -0.1202246248722076416, 0.0800863131880760193, 0.0664788335561752319, 0.1123045757412910461, 0.0114034563302993774, 0.0190467033535242081, -0.1309632956981658936, -0.0353501215577125549, -0.0592673122882843018, 0.0399513915181159973, 0.0334446094930171967, 0.0382020808756351471, 0.0023874833714216948, 0.0783178210258483887, 0.1032605245709419250, -0.0190569963306188583, 0.0429759696125984192, -0.1447665989398956299, -0.1090799123048782349, 0.0630809664726257324, 0.2143735438585281372, 0.0549735724925994873, -0.1397508680820465088, 0.0476739294826984406, -0.0367435589432716370, -0.0740496665239334106, 0.0759462341666221619, 0.0465909838676452637, 0.0742302536964416504, -0.0995503440499305725, -0.0715674608945846558, 0.0368815995752811432, 0.1182862296700477600, -0.1422416269779205322, -0.1413055956363677979, 0.0190585721284151077, 0.0280725844204425812, 0.0864763557910919189, -0.0714204758405685425, -0.0143991699442267418, -0.0046489923261106014, -0.1161529645323753357, -0.0216822102665901184, 0.0298392530530691147, 0.1064068377017974854, -0.0619386993348598480, 0.0440177693963050842, 0.0436515659093856812, 0.0834703966975212097, 0.0147323021665215492, -0.0103294160217046738, -0.1312624365091323853, 0.0419884398579597473, -0.1337718069553375244, -0.0622992627322673798, 0.0473706498742103577, 0.0175883714109659195, 0.1419178396463394165, 0.0457222275435924530, 0.0480746105313301086, -0.0954981818795204163, 0.0937890484929084778, -0.1218492165207862854, -0.0768560618162155151, -0.0841385349631309509, 0.0463960394263267517, 0.0214590020477771759, 0.1015827134251594543, -0.0816460773348808289, 0.0332301259040832520, 0.1384516507387161255, -0.0550966896116733551, 0.1359479129314422607, 0.0133143542334437370, -0.0795275121927261353, 0.0810099765658378601, 0.0408288240432739258, -0.1169121786952018738, -0.0355548299849033356, -0.0503318943083286285, 0.0118305543437600136, -0.0561990439891815186, 0.0777120739221572876, 0.0685172826051712036, -0.0692185610532760620, 0.1121949702501296997, -0.0294848307967185974, 0.0196677632629871368, -0.0419352240860462189, -0.0031312471255660057, 0.0312184244394302368, 0.0950661450624465942, 0.0114876013249158859, 0.1241229698061943054, 0.0397541299462318420, -0.1089972332119941711, -0.1515187323093414307, 0.0297236815094947815, -0.0332632660865783691, 0.0582594871520996094, 0.0908662974834442139, -0.0016810050001367927, -0.0241000652313232422, 0.0730203166604042053, -0.1483053565025329590, 0.0898023843765258789, -0.0228459127247333527, -0.0586054213345050812, -0.0706095546483993530, 0.1294467002153396606, -0.0764832049608230591, 0.0590713173151016235, -0.0212378613650798798, -0.1053776964545249939, 0.0108404066413640976, 0.0949173569679260254, 0.1619556546211242676, -0.0403220802545547485, -0.0285154525190591812, 0.0718934610486030579, 0.0561800971627235413, 0.0892996713519096375, 0.0436814986169338226, 0.0649361759424209595, -0.0427765697240829468, -0.0075633693486452103, -0.1017685532569885254, 0.1222551316022872925, 0.0248996932059526443, -0.0483486168086528778, 0.0068199629895389080, -0.1466121673583984375, -0.0318302474915981293, 0.0209967549890279770, -0.0307129230350255966, 0.0425044298171997070, 0.0250053182244300842, -0.0357343517243862152, -0.0353018082678318024, 0.1118409410119056702, -0.0061395769007503986, 0.1221851706504821777, 0.1852189600467681885, 0.0245566554367542267, 0.0979168489575386047, -0.0314444340765476227, -0.1560960114002227783, 0.0067931460216641426, 0.1372618675231933594, 0.1243810355663299561, -0.1036741137504577637, 0.0257633775472640991, 0.1122530326247215271, -0.1120894700288772583, 0.0514346100389957428, -0.0125841209664940834, -0.1370639652013778687, -0.0743418484926223755, -0.0370837561786174774, -0.1459906250238418579, -0.0617697574198246002, 0.0267930999398231506, 0.0421347171068191528, 0.1206196919083595276, -0.0963966622948646545, -0.0853831544518470764, -0.0895505174994468689, -0.1119482591748237610, 0.0889445245265960693, 0.0032481201924383640, 0.1301687806844711304, -0.1160285249352455139, 0.0400340631604194641, -0.1229607164859771729, -0.0136834727600216866, 0.0840255618095397949, 0.0685011744499206543, -0.0888849943876266479, -0.1154771074652671814, -0.0270313639193773270, 0.0868730470538139343, 0.1305039227008819580, -0.1063483655452728271, 0.1674319356679916382, 0.0300923567265272141, 0.0385484285652637482, -0.0076713943853974342, -0.1005606502294540405, -0.0348448865115642548, -0.0322862826287746429, -0.0512408465147018433, 0.1090789586305618286, -0.0327976271510124207, -0.1461430788040161133, -0.0046174656599760056, -0.1407820284366607666, 0.0465037301182746887, 0.0798142999410629272, 0.1245779767632484436, 0.1094837561249732971, 0.0213911999017000198, 0.0206029955297708511, -0.0724790692329406738, -0.0563622787594795227, 0.0115917455404996872, -0.1396442800760269165, 0.1242773234844207764, -0.1370361894369125366, -0.0340373367071151733, 0.0028776081744581461, -0.0636933743953704834, -0.0278763771057128906, 0.0657642632722854614, 0.0385644882917404175, 0.0371422804892063141, 0.0535992197692394257, -0.0792890191078186035, -0.0143400430679321289, 0.1125785112380981445, 0.0223202537745237350, -0.0702241361141204834, -0.1193193718791007996, -0.0931162089109420776, 0.0784469544887542725, -0.1206966713070869446, 0.0822462886571884155, -0.1471498161554336548, -0.1071520969271659851, 0.0544794835150241852, -0.0442552044987678528, 0.1257073283195495605, -0.0522251427173614502, -0.0323241949081420898, -0.0349813066422939301, -0.0346310772001743317, 0.1024201437830924988, -0.1504618525505065918, -0.0310140401124954224, -0.1165408641099929810, -0.0562303885817527771, -0.0345684587955474854, -0.0408234521746635437, -0.1242347359657287598, 0.0648047924041748047, 0.0558608472347259521, 0.1275508403778076172, 0.0965375900268554688, 0.0312510579824447632, 0.0279596541076898575, -0.1197621822357177734, -0.0304910093545913696, 0.1214790269732475281, 0.0289592798799276352, 0.1033692955970764160, -0.0492055416107177734, -0.0287503581494092941, -0.0255621261894702911, -0.0864430889487266541, 0.1164914071559906006, -0.0245698243379592896, 0.0736164078116416931, -0.0810055732727050781, 0.0783888846635818481, -0.0854855403304100037, -0.0167205072939395905, 0.0633689463138580322, -0.1220128387212753296, -0.0735556632280349731, 0.1057862862944602966, 0.1303486526012420654, -0.0606161616742610931, -0.0139695424586534500, -0.0059579331427812576, 0.1153131350874900818, -0.0587785020470619202, -0.1149086952209472656, -0.0988143607974052429, 0.0355242900550365448, -0.1150542125105857849, -0.0539510324597358704, -0.0651376023888587952, -0.1297664493322372437, 0.1149298250675201416, 0.0080175083130598068, -0.1468110829591751099, 0.0387545861303806305, 0.0539081394672393799, -0.0675139874219894409, -0.0696641504764556885, -0.0800266563892364502, 0.0820453539490699768, 0.0985030755400657654, -0.1059633269906044006, -0.1405852586030960083, 0.1114500239491462708, 0.0824333429336547852, -0.0126036629080772400, 0.0943761393427848816, -0.0342318043112754822, 0.1249251589179039001, 0.0276630669832229614, 0.0047530205920338631, -0.1096065714955329895, 0.0802303627133369446, -0.0327810943126678467, -0.0323064550757408142, -0.1373910754919052124, -0.0625857710838317871, 0.1086789965629577637, -0.1205345690250396729, 0.0139633705839514732, 0.0933702215552330017, -0.0662580206990242004, 0.0681266486644744873, 0.1159037947654724121, -0.1195967644453048706, -0.1353437453508377075, -0.0141740245744585991, 0.0726802647113800049, 0.0739155411720275879, -0.1316943466663360596, -0.0533503405749797821, -0.1124613136053085327, -0.0653451010584831238, -0.1437424868345260620, 0.0567030534148216248, -0.1037101373076438904, -0.0068504107184708118, 0.1328507363796234131, -0.0612010955810546875, 0.1276924759149551392, -0.0560887604951858521, -0.1175661608576774597, -0.0622198507189750671, 0.1393249928951263428, -0.0942049324512481689, -0.0250309836119413376, -0.1267029792070388794, -0.0167272817343473434, -0.1493809372186660767, -0.1438972651958465576, 0.0655971169471740723, -0.0866603627800941467, -0.0481313318014144897, -0.0327960290014743805,