//Numpy array shape [32, 10]
//Min -0.841833114624
//Max 0.757109701633
//Number of zeros 0

#ifndef W25_H_
#define W25_H_

#ifndef __SYNTHESIS__
dense_1_default_t w25[320];
#else
dense_1_default_t w25[320] = {0.5774725675582885742, -0.5406824946403503418, -0.0687867477536201477, 0.1385440677404403687, 0.2707048356533050537, 0.2253359109163284302, 0.2824194729328155518, -0.1926347315311431885, -0.5347703695297241211, -0.2241274118423461914, -0.0195186138153076172, -0.3270429074764251709, -0.2523528039455413818, -0.5853734016418457031, -0.3110789954662322998, 0.1291856169700622559, -0.1158140823245048523, -0.3684810698032379150, 0.4166952967643737793, 0.1650536358356475830, -0.4485490024089813232, 0.4605792164802551270, -0.1985547989606857300, -0.2449930757284164429, -0.1290248036384582520, 0.1130769699811935425, 0.1455489099025726318, 0.4153869152069091797, -0.2875387668609619141, 0.5807415843009948730, -0.0702431499958038330, 0.1644026190042495728, -0.7679038643836975098, -0.4419695436954498291, -0.3560954332351684570, 0.3014231622219085693, 0.3033840656280517578, 0.0260711032897233963, -0.2852507829666137695, -0.2436109632253646851, -0.1870895326137542725, 0.2673055529594421387, -0.4400971531867980957, -0.0229763742536306381, 0.2639024555683135986, -0.1553938984870910645, -0.3319626152515411377, 0.3074846863746643066, -0.1460325568914413452, -0.4258639812469482422, -0.0730959698557853699, 0.3840903043746948242, 0.2906438112258911133, -0.5929347276687622070, -0.4028050005435943604, -0.2208803743124008179, -0.0492982901632785797, -0.1856184750795364380, 0.0187659375369548798, 0.5047173500061035156, 0.3476360738277435303, 0.0491807758808135986, -0.2195890098810195923, -0.3833314180374145508, 0.3632466495037078857, -0.4044113457202911377, -0.1638699173927307129, -0.0419523417949676514, 0.3159140944480895996, -0.1772883683443069458, 0.2232695072889328003, 0.1874017417430877686, 0.0385551936924457550, 0.6632081270217895508, -0.6652616858482360840, 0.3544069528579711914, -0.5048548579216003418, -0.2602241337299346924, -0.1034207493066787720, -0.0586267933249473572, -0.2561986148357391357, -0.5165066719055175781, -0.1490852683782577515, -0.3866314589977264404, 0.7571097016334533691, 0.2597605884075164795, -0.0378074608743190765, 0.4401504993438720703, -0.1511559188365936279, -0.2058141827583312988, 0.3136378526687622070, 0.2472506910562515259, 0.2327785640954971313, 0.1936247795820236206, 0.2432983666658401489, 0.4420289993286132812, -0.3092671632766723633, -0.3629016876220703125, -0.2478188425302505493, 0.1718439906835556030, -0.5645396709442138672, -0.0346364974975585938, -0.2838416099548339844, 0.0762206241488456726, -0.4077940881252288818, -0.3411819338798522949, -0.2145371437072753906, 0.1361142545938491821, -0.4808524250984191895, 0.2729358673095703125, 0.1645478308200836182, 0.2836804986000061035, -0.1596954911947250366, -0.0920240879058837891, 0.2619056105613708496, 0.0802334249019622803, -0.3561346530914306641, -0.1763328909873962402, 0.0807006955146789551, 0.4169579744338989258, 0.0797589421272277832, 0.1030819788575172424, 0.0214051213115453720, -0.3014372885227203369, 0.1808952540159225464, -0.1520490795373916626, -0.0219283979386091232, -0.2306582927703857422, -0.1180498227477073669, -0.0709508731961250305, 0.2145025283098220825, 0.0735575705766677856, -0.6217951774597167969, -0.3587093055248260498, -0.1962264478206634521, -0.0206941161304712296, 0.4801615178585052490, 0.4894217848777770996, 0.2903459370136260986, -0.3470632731914520264, 0.3952301144599914551, -0.4109961390495300293, -0.0655327960848808289, 0.0053010466508567333, -0.2200488001108169556, 0.0575809888541698456, 0.0765141174197196960, -0.2178027480840682983, 0.1961368471384048462, 0.3949583172798156738, 0.4493919909000396729, -0.2172540128231048584, 0.2336526513099670410, 0.4526288211345672607, -0.4556287527084350586, -0.3989419043064117432, -0.0710805580019950867, -0.0209024362266063690, 0.1525803208351135254, 0.6537870764732360840, 0.3029614686965942383, 0.1704463511705398560, 0.2924934029579162598, 0.3394350409507751465, 0.3709388673305511475, -0.2699316740036010742, 0.2416792064905166626, -0.0358114689588546753, 0.4590462148189544678, -0.2980695962905883789, 0.3571674525737762451, 0.3408516645431518555, -0.2158067971467971802, 0.2841076850891113281, -0.1743672043085098267, -0.0659177899360656738, 0.1473782658576965332, -0.0115702319890260696, -0.4928922951221466064, -0.1608504205942153931, -0.1039657741785049438, 0.1490696221590042114, 0.3427322804927825928, 0.3264461457729339600, -0.1453808099031448364, -0.6814907789230346680, -0.1143505498766899109, -0.0457043386995792389, -0.2387500852346420288, 0.4043855071067810059, -0.2992390990257263184, -0.4386268258094787598, 0.0987533479928970337, 0.5675075650215148926, 0.2826223075389862061, 0.2864539325237274170, 0.2198105752468109131, 0.1772650182247161865, 0.3089675903320312500, 0.1602578759193420410, -0.4262622296810150146, -0.8032413721084594727, -0.6924535632133483887, 0.0196555927395820618, 0.5676442384719848633, 0.1013803407549858093, 0.2330465167760848999, -0.3150911629199981689, -0.2632538676261901855, 0.4796035885810852051, -0.1229312121868133545, -0.4840455055236816406, 0.2435311526060104370, 0.3829835951328277588, 0.0449249856173992157, 0.2467368394136428833, -0.0079886857420206070, 0.1261102408170700073, -0.1190557926893234253, 0.5215705633163452148, -0.5152999162673950195, -0.3749125897884368896, 0.2083875834941864014, -0.2525535523891448975, -0.3548666536808013916, 0.7206206917762756348, -0.2699934244155883789, -0.1582677662372589111, -0.8418331146240234375, -0.1425201147794723511, 0.0094728320837020874, 0.0713849812746047974, 0.1774028837680816650, 0.4859512150287628174, 0.3888842761516571045, 0.3542867004871368408, -0.6178843379020690918, -0.4746693670749664307, -0.1404094696044921875, -0.2210376113653182983, -0.3133096694946289062, 0.2075908184051513672, 0.1581740230321884155, 0.4710929095745086670, 0.3173141181468963623, -0.4800762236118316650, -0.1453942656517028809, 0.2016302496194839478, -0.2093564271926879883, -0.4873998761177062988, -0.3395982086658477783, 0.2879505157470703125, -0.4417346715927124023, -0.5232672691345214844, -0.2105927169322967529, -0.1918375641107559204, 0.0488988272845745087, 0.4818888902664184570, -0.2227632403373718262, -0.3270327448844909668, 0.1517135053873062134, 0.4708759188652038574, 0.0438085459172725677, -0.2356639653444290161, 0.3778888881206512451, -0.0831765606999397278, -0.2505655288696289062, -0.4028853178024291992, -0.0833588540554046631, 0.3971050083637237549, 0.1089983209967613220, 0.1200208812952041626, 0.2267615050077438354, -0.4194695651531219482, 0.0712463855743408203, 0.1543083041906356812, -0.2855001389980316162, 0.3008063733577728271, -0.5988397598266601562, 0.4172610938549041748, -0.3843254745006561279, -0.5017207264900207520, 0.3674791753292083740, -0.4674860835075378418, 0.3465625345706939697, -0.4046188592910766602, 0.2717891335487365723, -0.5492205023765563965, -0.1479126065969467163, -0.0434765405952930450, -0.2846365571022033691, 0.1032842323184013367, 0.4883808791637420654, -0.1528081595897674561, 0.2263841480016708374, 0.0445860996842384338, -0.6585922837257385254, 0.1075687333941459656, 0.4769311845302581787, -0.0557267367839813232, -0.0402119345963001251, -0.1939626932144165039, 0.2732568681240081787, 0.0226987600326538086, -0.2355012297630310059, 0.4109669029712677002, 0.0617945902049541473, 0.3574232161045074463, -0.3922948241233825684, -0.2544637322425842285, -0.3363842368125915527, 0.2307442873716354370, -0.4906636476516723633, 0.4997868835926055908, 0.0919540375471115112, -0.2506010830402374268, 0.2071439623832702637, -0.1054882705211639404, 0.2971554398536682129, 0.2157801091670989990};
#endif

#endif
