//Numpy array shape [3, 3, 64, 64]
//Min -0.415121138096
//Max 0.312615156174
//Number of zeros 0

#ifndef W10_H_
#define W10_H_

#ifndef __SYNTHESIS__
conv2d_2_default_t w10[36864];
#else
conv2d_2_default_t w10[36864] = {-0.0209505223, 0.1500848532, -0.0529726632, -0.0122141195, -0.0754814744, -0.0228400305, -0.1336220354, 0.1186884940, -0.0758767501, -0.0731938332, -0.0755456015, -0.0219351724, 0.1174996942, -0.1812032759, 0.0374360234, 0.1127296016, 0.2040736079, -0.0189768430, -0.0722749382, 0.0869725496, 0.1234803796, 0.0023892438, -0.0411418304, 0.0680359304, 0.0497904271, 0.0711938292, 0.0623597689, -0.0469232947, -0.0530927777, -0.0848334506, 0.1367727965, 0.0910613313, -0.1238899007, 0.0322187208, 0.0618689507, -0.0266686920, 0.0074848458, -0.0599496439, -0.1603162140, 0.0387150869, -0.1067850292, -0.0197367650, -0.2429679632, 0.0855027586, -0.0349449888, 0.0503455549, 0.1255082786, 0.0008033505, 0.0400117971, -0.0279615670, -0.0637804046, -0.0286444072, -0.0121734366, -0.0334434286, 0.0119372671, 0.0081236614, -0.0452836342, 0.0247372035, -0.1155118048, 0.0496127494, -0.0482908897, -0.1033268943, 0.0482263118, 0.0530723929, -0.0189651679, 0.1167547032, -0.0388837308, 0.0281291846, -0.0069341883, 0.0513306782, -0.0277406406, -0.0816185325, -0.0833589360, -0.0224578809, -0.0350923128, -0.0668259561, -0.0394040644, -0.0938607678, 0.0822524950, -0.0067108497, -0.0480117761, 0.0332949832, 0.0131656379, 0.1232015416, 0.0907606333, 0.0818443969, 0.0316862166, 0.0045687649, 0.0405639373, -0.0038884582, 0.0410746634, -0.0084227910, -0.1228877008, -0.0665852726, 0.0197868273, 0.0566858761, -0.0360788964, 0.0805919990, 0.0614093989, 0.0626431257, -0.0523811430, 0.0482820459, 0.0308285970, 0.0151367448, -0.0683657825, -0.0398956574, -0.1080072373, 0.1395015568, -0.0692074597, 0.0249675959, -0.0414237492, -0.0418654755, -0.0798960626, -0.1167643741, 0.0671844110, -0.0893577188, -0.0439083502, -0.0272421688, -0.0525689460, 0.1100886762, 0.0958305746, 0.0244240779, 0.0285514127, -0.0364314653, -0.0832217336, -0.1219803244, 0.0610503443, 0.0735250413, 0.1083490402, 0.0840065330, 0.0402886346, 0.0009930320, 0.0166005827, 0.0637893528, 0.0361570157, -0.0704840869, 0.0331598558, -0.0492804162, 0.0160267036, -0.0157013405, 0.0910130665, -0.0487178154, -0.0289151091, 0.1106384844, 0.0321775153, 0.0551320985, -0.0362004302, 0.0812269822, 0.0545949414, 0.0434429310, -0.0262194704, -0.0957878232, -0.0333204344, -0.0456310920, 0.0264929235, 0.0705032349, 0.1038822979, 0.0072535244, 0.0582294278, 0.1076764017, -0.0150562413, -0.0312201437, 0.0300920028, 0.0347894542, -0.0712619647, -0.0528321825, 0.0271264706, 0.0775655657, -0.0673631281, 0.0817424431, -0.0345332772, 0.0553481765, -0.0634602606, -0.0652638301, 0.0780600235, 0.0172046032, 0.0176481940, -0.0257315673, -0.0157583058, 0.0595146269, -0.0463955998, -0.0089825578, -0.0311975554, 0.0818092152, 0.0120451301, 0.0199244004, 0.0051821815, 0.0535786524, -0.0945822373, 0.0103008393, 0.0771207362, -0.0620587058, 0.0107892631, 0.0737987086, 0.0459574051, 0.1562638283, 0.0193975456, -0.0445926972, 0.0675239265, 0.1459601372, 0.0016260727, -0.0243689213, -0.0917540044, -0.0642279685, 0.1317650825, -0.0768329501, -0.0115398224, -0.0231008902, 0.0422236472, -0.0214370657, 0.0534944721, 0.1082576737, -0.0101069128, 0.0189821031, -0.0107795196, -0.0433382653, -0.0314219110, -0.0083297566, -0.0117765879, -0.0341678001, -0.1123251170, 0.1513672620, -0.0266150907, -0.0180547573, -0.0549496301, 0.0354922749, -0.0378775485, 0.0696207434, 0.0811679140, 0.0527293012, 0.0530306697, -0.0089268740, 0.0070715076, -0.0163942035, 0.1205610633, 0.0130947549, -0.0427073613, 0.0398749597, 0.0911623910, 0.0213394687, 0.1024036855, -0.0190927219, -0.0355811976, -0.0653395876, 0.0521718636, 0.0254669096, 0.0683507696, 0.0231947787, -0.1028645560, -0.0266259648, -0.0463480912, 0.0755990818, 0.0273110326, -0.0281255916, -0.0383967236, 0.0379937179, -0.0917192996, 0.0948562324, -0.0352452658, 0.0733972639, 0.0296896156, 0.0622836873, 0.1019661352, -0.0586802624, -0.0523893945, 0.0137718534, -0.0381246917, -0.0692143738, 0.0706864819, -0.0455434062, -0.0229797587, 0.0015608845, -0.1397384107, 0.0532128103, -0.0521532595, 0.0739253089, -0.0976355597, 0.0369199924, -0.0711425543, -0.0427959636, -0.0300993193, -0.0900659636, -0.1019151360, -0.0721571073, -0.0592813753, 0.0951578543, -0.1454162896, -0.0238980372, 0.0726415366, 0.0083597964, 0.0587018244, 0.0748633817, -0.0347483270, -0.0082490901, 0.0755782947, 0.0402262546, -0.0603546500, 0.0196394678, 0.0036915762, 0.0444610938, -0.0346148685, 0.0258243773, -0.0953201875, 0.0087422766, -0.0586903803, 0.0422338694, 0.0814477652, -0.1055797711, -0.0839391202, -0.0624745488, 0.0197696332, 0.0628851280, -0.0151100885, -0.0293572322, -0.0786534250, 0.0725254193, 0.0104968697, -0.0799030587, -0.0625983477, 0.0783068314, 0.0918571725, -0.0376581810, 0.0425845794, 0.0178373456, 0.0565822162, -0.0385145992, 0.1115637720, -0.0042165117, -0.0837174803, 0.0263436679, 0.0095753567, -0.1122752056, 0.0990338326, 0.0262326859, -0.0036863682, -0.0228535626, -0.0590542667, 0.0027990420, 0.0721726343, 0.0048410841, 0.0306434948, 0.0882924348, -0.0817459747, -0.0947934836, 0.0045758863, -0.0946515054, 0.0333352834, -0.1659692824, 0.1398939788, 0.1017604098, -0.0318867415, 0.0248796418, 0.0534610189, 0.0199394543, 0.0211819895, 0.0697774738, -0.0660065562, -0.0132586341, 0.0229477137, -0.0151942121, -0.0350819342, -0.0812074021, 0.1013022512, 0.0621398464, 0.0004058795, -0.1033691168, -0.1015270129, 0.0582038090, -0.1006780863, -0.0799522251, -0.0212561246, 0.0113602206, -0.0185702853, 0.0202834848, 0.0421833582, -0.0253546052, -0.0205397904, 0.0219776817, -0.0000358925, 0.0810767412, 0.0316135027, 0.0498114526, 0.0265308637, -0.0190385375, 0.0790734813, -0.0098500792, 0.0729610696, 0.0973834023, 0.1144864783, 0.0461248532, 0.0905841365, 0.0882943124, 0.1113258898, -0.0202419795, -0.0089230370, -0.0054615145, -0.0742651671, -0.0225384589, 0.0271375310, -0.1268128008, -0.0938172489, 0.0382975638, 0.0446381830, 0.0143037559, 0.0033012868, 0.0393155366, -0.0267032664, 0.0600850210, 0.0522431657, 0.0613540187, -0.0486850329, 0.2273720801, -0.1756622493, 0.1305692345, -0.1164755523, -0.0771501586, 0.0311409403, 0.0177251790, -0.0510977134, 0.0141399885, 0.0539026074, 0.0893658325, 0.0721402615, -0.0216072798, -0.0699773356, 0.0694280639, 0.1065949425, 0.0555919893, -0.0196389128, 0.0712939203, 0.0273179580, -0.0193956010, 0.0757780001, -0.0016533177, -0.1081615016, 0.0005772177, -0.0294301286, -0.0668360591, -0.0563858487, 0.0715243220, -0.0335343033, 0.0150492946, -0.0136378501, 0.0420100167, 0.0226191729, 0.1361059099, -0.0580606870, -0.0127971834, -0.0149245476, -0.0022619453, 0.0857785195, -0.0273706969, 0.0726228058, 0.0461084247, -0.0072866650, 0.0441748910, -0.0443038009, -0.1448980421, 0.0441331491, -0.0223136656, -0.0537733473, -0.0063588731, -0.0425595827, -0.1909146458, -0.1303399652, -0.0411376171, -0.0524791479, -0.0046328572, 0.0094986819, 0.0001364092, -0.0352507420, -0.1234634519, -0.0328515433, -0.0701511353, -0.0544404499, 0.0818112642, -0.1020437554, 0.0458360724, -0.0750329792, -0.0247924421, -0.0421230905, -0.0718401521, -0.0895760506, 0.0115489736, -0.0992732644, 0.0422507636, 0.0404156856, -0.0166375302, 0.0321687460, 0.0867538527, -0.0319409259, 0.0781620145, -0.0221494101, -0.0645739511, -0.0352449082, 0.0437507369, -0.0256599206, 0.1167306900, -0.0517414622, 0.0155252079, -0.0976627097, -0.0438339859, -0.0027010753, 0.0512770750, -0.1622839421, 0.0440049730, 0.0910715237, -0.0195713118, 0.0710232258, 0.0967972279, -0.0063728127, -0.0445100740, -0.0328093171, -0.0225069765, 0.1165279076, -0.0576866493, 0.0202467777, -0.0317065679, -0.0534456298, -0.0365895890, -0.0541515276, -0.1335647106, -0.0822491199, -0.0819010958, -0.1460189521, -0.0754437298, 0.0133582409, -0.1324078739, -0.0134852733, -0.0439705886, -0.0350262560, 0.0206584819, -0.0602266304, 0.0692132935, -0.0479659848, -0.1037706584, -0.0416500494, 0.0374575034, 0.0289814211, -0.0768002570, -0.0234889630, 0.0919157490, -0.1213529259, -0.0407629609, 0.0117064677, 0.0047682342, -0.0033601839, -0.0545162112, 0.0114772590, -0.0410256460, -0.0219363254, 0.0334228314, -0.0562901832, -0.1184970587, -0.0543684326, -0.0324979722, 0.0154891834, 0.0218880251, -0.0288567320, 0.0251868200, -0.0740341023, 0.0854084343, 0.0669149384, 0.0125264144, 0.0642183572, 0.0034973468, -0.0792335793, -0.0990742892, -0.1276383102, 0.0202104114, -0.0759319365, -0.0489112586, 0.0817507133, 0.0762045234, -0.0162648782, -0.0337696075, 0.0086181518, 0.0152595202, 0.0244551972, -0.0463622212, -0.0192651916, -0.0526003651, -0.0153782899, 0.0021335506, 0.0184350517, 0.0917298496, -0.0168750174, -0.0165587664, 0.0786332414, -0.0121429507, 0.0247000083, -0.0153839374, -0.0477933660, -0.0635491386, 0.0403410606, -0.0637289286, -0.0820500106, 0.0488628857, 0.0406947285, -0.0250850376, 0.0159306303, -0.0902626887, 0.0303278808, 0.0535168424, -0.0832733437, -0.0746992603, 0.0270618424, -0.0381648354, 0.0643228367, 0.2191483825, 0.0318017192, -0.0299425349, -0.0218102317, 0.0462269746, 0.0632406697, -0.0277748071, -0.0077601573, 0.0656178966, 0.0802755430, 0.0958034322, -0.0374782383, -0.0739742890, -0.0308821592, -0.0623580143, 0.0175632071, 0.0654045194, -0.0211463869, 0.0152795017, 0.0124924034, 0.0322017632, -0.0282643978, -0.0486533418, 0.0097475480, -0.0134975957, -0.0197085664, 0.0312519968, -0.0802474692, 0.0336561911, 0.0404652692, -0.0401584320, -0.0819283724, -0.0612577274, -0.0553581789, -0.0182982851, 0.0368423760, 0.0700869486, 0.0213253312, 0.0626733005, -0.0683621243, 0.0890130326, 0.0399171934, 0.0345971473, -0.0189117715, 0.0149151124, 0.0673032776, 0.0672594681, -0.0542740226, -0.0726350024, -0.0744321495, -0.0572425686, 0.0113298865, 0.0256201476, -0.0635486171, -0.0055388748, -0.0643199086, -0.0580164790, 0.0732262731, -0.0362551324, -0.0117453346, 0.0265299883, -0.0046622255, 0.0692236125, 0.0590730309, 0.0860310346, -0.0774163604, 0.0410344116, -0.0664319247, -0.0143519659, -0.0294589940, -0.0045754998, -0.0218060836, 0.0648116693, 0.0709000304, 0.1203333139, 0.0128949098, 0.0196361132, 0.0423061997, 0.0048411298, -0.0512247719, -0.0140437875, 0.0181352943, -0.0784801021, -0.0166159905, 0.0728906989, -0.0188528001, 0.0133098559, -0.0019714492, -0.0073336982, -0.0489157662, 0.0146724703, 0.0670483038, -0.0248690061, 0.0455399044, -0.0464681275, -0.0424545445, 0.0570357144, 0.0084953057, -0.0717193410, 0.0251695216, -0.0123184761, 0.1112070978, -0.0249273814, -0.0201535728, 0.0076153451, 0.0286443923, -0.0252470896, 0.0699253753, 0.0507942699, -0.0400468372, -0.0526298322, 0.0367346779, -0.0532625169, 0.0207536612, -0.0019794323, 0.0622510910, 0.0776995718, -0.0710262135, -0.0032096403, -0.0838405192, 0.0252535231, 0.0201761946, -0.0699729770, 0.0514647067, -0.0440648235, 0.0901070982, 0.0024918581, 0.0042167204, -0.0069458988, 0.0388212167, -0.0260214005, 0.0109821763, 0.0744985640, 0.0209706482, 0.1062735766, -0.0316195302, 0.0278916005, 0.0072815390, 0.0660431236, -0.0252841879, -0.0720733106, -0.0192100368, -0.0369542837, -0.0199855547, 0.0544951819, 0.0625983402, 0.0015288229, 0.0679707006, 0.0147998426, -0.0326125808, -0.0389689691, 0.0321974754, -0.0245629400, -0.0225139521, -0.0326359533, -0.0694985464, 0.0478058904, 0.0318372138, -0.0506259799, -0.0569995753, -0.1016926393, 0.0580838583, -0.0548613444, 0.0285667833, -0.0951671153, 0.0137913637, 0.0271277521, -0.0342171937, 0.0240356363, -0.0606242977, -0.0586350858, -0.0574144982, 0.0508994237, -0.0443631560, -0.0282447804, -0.1150957868, -0.0397007689, 0.0204245374, -0.0972436592, -0.0329046436, -0.0158256628, 0.0470693074, 0.0475739166, -0.1080254763, -0.0877662897, 0.0683765113, -0.1047383398, -0.0432707109, 0.0122408904, 0.0260298848, -0.0282535069, 0.0492793359, 0.0371653363, 0.0579605438, -0.0148030538, -0.0435483009, -0.0635176152, -0.0230143312, 0.0585224330, 0.0055556837, -0.0548245795, 0.0602119230, -0.0025238669, 0.0867519602, -0.0629716888, 0.0522128306, 0.0635210350, 0.0702626854, -0.0243443623, -0.0715267807, -0.0793200284, 0.0618179999, -0.0051039220, 0.0151771056, 0.0911974087, -0.0761708841, 0.0509375371, -0.0042114668, 0.0563615263, -0.0343364589, 0.0127206622, 0.0609530024, -0.0621302500, -0.1283894181, -0.1361012161, -0.0502122790, 0.0687824488, 0.0494523942, -0.0408494137, 0.0573592037, -0.0050718039, -0.0657381639, 0.0499297790, 0.0373537354, 0.0470695533, -0.0090084216, 0.0480589494, 0.0349304788, -0.1252611279, -0.0092752855, -0.0250999797, -0.0419210307, 0.0036629431, 0.0237959512, 0.0478907079, -0.0522233397, 0.0420816466, -0.0026671051, -0.0193493664, 0.0803635642, -0.0653410107, -0.0984422863, -0.0807814375, -0.0308912713, 0.0104183424, 0.0394396223, 0.0622970201, -0.0743595436, 0.0571221001, 0.0558048375, 0.0449997783, -0.0407146029, 0.0197016876, -0.0163140781, 0.0280875750, 0.0105885910, 0.0467689857, 0.0115328124, -0.0527371168, 0.0695526525, 0.0390095524, -0.0189528875, 0.0387888066, -0.0546193495, -0.0411977023, 0.1093413308, 0.0705413595, 0.0613466464, 0.0125779239, -0.0536747091, 0.0638410226, -0.0233346429, 0.0393899567, -0.0403415710, 0.0106827635, -0.0339927711, 0.0592341386, 0.0888547450, -0.0540411994, 0.0265858043, 0.0041257064, 0.0558052808, -0.0812981203, 0.0296638589, 0.0132921217, 0.0275324360, 0.0419100970, 0.0316807590, -0.0483178534, -0.0607590228, 0.0557193533, -0.0085283937, -0.0322331488, 0.1124053672, 0.0526470989, 0.0365742967, -0.0144914174, 0.0248226114, 0.0119255036, 0.0732001513, 0.0277300738, -0.0306841359, -0.0196495689, 0.0372543633, -0.1612166017, 0.0442391261, -0.0693329871, 0.0350417159, 0.0516461805, 0.0502401665, -0.1643985808, -0.0550684221, 0.0123743005, -0.0080766557, -0.0438462719, -0.0411812812, 0.0875056162, -0.0561812967, -0.0088647641, 0.0325803086, -0.0781656876, 0.0323592201, 0.0041829008, -0.0877752304, -0.0010333632, 0.0612357333, -0.0113476859, 0.0076242038, -0.0202186201, 0.0518022962, 0.0440613963, 0.0118881697, 0.0434359908, 0.0192293953, 0.0810507238, -0.0278458539, 0.0510230623, 0.0328077637, 0.0336919464, 0.0591731444, -0.0349462070, -0.0213502888, 0.0140546011, -0.0456697606, -0.0423338637, -0.0282045938, 0.1066126227, 0.0094607575, 0.0595681332, 0.0054092240, -0.0486917570, -0.0132257072, -0.0010144653, -0.0195923634, -0.0346015096, -0.0509149283, 0.0742108375, -0.0390493833, -0.0594404265, 0.0073471637, 0.0324376300, -0.0716371164, 0.0720357075, -0.0564312972, -0.0120177483, 0.0702694580, 0.0521319956, -0.0467475280, -0.0727174282, 0.0829427242, -0.0399821438, -0.0570859164, -0.0574859902, -0.0486742780, 0.0707339719, 0.0035451429, 0.0141247893, 0.0122727752, -0.0524021350, -0.0189864524, -0.0251763109, 0.0222059209, 0.1164476946, -0.0288770739, 0.0437138341, 0.0060241385, -0.0140289711, -0.0148423566, 0.0453398526, 0.0018413513, -0.0032078666, -0.0458405800, 0.0675355271, 0.0363215357, 0.0697411895, -0.0157908071, -0.0413861349, 0.0092634624, 0.0295426250, 0.0499633700, -0.0350834876, 0.0059085861, 0.0004989731, 0.0251741745, -0.0500528105, -0.1048069298, -0.0065132175, -0.1148969978, 0.0225874595, -0.0045533925, 0.0317334570, -0.0619996861, -0.0014625066, -0.0159487464, -0.0256357640, 0.0471869335, -0.0139944106, 0.0055395048, 0.0126947556, 0.0561287999, 0.0098169884, 0.0078288671, 0.0597172901, -0.0354526974, -0.0945833921, -0.0286264084, -0.0240225028, 0.0506052859, 0.0006204974, 0.0993122384, 0.0771152079, 0.0719651878, 0.0466245115, 0.0130463280, -0.0216191560, -0.0248453617, -0.0888827816, -0.0368405953, 0.0028557472, -0.0433356650, -0.0517203994, 0.0265433993, 0.0294925496, -0.0401786640, -0.1149694994, -0.0141517650, -0.0084647872, 0.0519432016, -0.0322201103, -0.1036511213, 0.0711186454, -0.0298213493, 0.0781108737, -0.0232240446, -0.0154911308, 0.0559732057, -0.0034127247, 0.0788465887, 0.0349736139, 0.0062555689, 0.0337773599, -0.0197691415, -0.0596425086, 0.0034009211, -0.0506667420, 0.1323946863, -0.0693317652, -0.0576023348, -0.0022406462, -0.0873136595, -0.0142630450, -0.0718678832, 0.0254042298, -0.0904337168, 0.0074601946, -0.0462343656, 0.0265202187, 0.0106020607, 0.0628752783, 0.0374931209, 0.1197753027, 0.0024912700, -0.0677071065, -0.0453441478, -0.0149986306, -0.0004000000, 0.0270137861, -0.0255969986, -0.0214825757, 0.1009133682, 0.0325851180, 0.1368355155, 0.0627868921, 0.0318430550, 0.0884127691, 0.0737747028, -0.0364133641, 0.0688189864, -0.0912880301, 0.1009107009, 0.0107431710, -0.0666552633, -0.0491679572, -0.0324134454, -0.0559431016, -0.0552790128, 0.0839468613, -0.0110060638, -0.0269817337, 0.0535954498, 0.1149785519, 0.0236615166, 0.0525941402, -0.0479025617, -0.0270667374, 0.0163754281, 0.0202781186, -0.0024287791, -0.0101633398, 0.0062943338, -0.0057580769, -0.0056367414, -0.1109978780, 0.0637808591, 0.0613640808, 0.0720909610, 0.0048085940, 0.0532651916, -0.0062245638, 0.1192794442, -0.0693943202, -0.0533885173, 0.0723180696, -0.0622035749, 0.0625858828, 0.0456814244, -0.0089565972, 0.0855133310, 0.0048577883, 0.0012151948, 0.0237085782, -0.0954409391, 0.0772148594, 0.0591288321, -0.1232543886, 0.0158844199, 0.0113092046, 0.1317865551, 0.0026389854, -0.0551806316, -0.0064493497, -0.0614303239, 0.0181407332, 0.1052138731, 0.0961468145, -0.0282663591, 0.0545773320, -0.0067708478, -0.1241836473, 0.1060498208, -0.0983463749, 0.0120193306, 0.0283511281, -0.0439334922, -0.0245279726, 0.0401919745, 0.1755257547, 0.0892876387, -0.0427912548, 0.0097714439, -0.0546184406, -0.0626287088, -0.0681891963, 0.0182031114, 0.0053316932, -0.1058672369, 0.0264342055, 0.0627588779, 0.0376862362, 0.1028836966, -0.0725999922, -0.0201713853, 0.0145612452, 0.0815519467, 0.0497344993, -0.1293046474, 0.0526549518, 0.0652561709, 0.0627384707, -0.0413034260, 0.0647710040, -0.0171616916, -0.0717884153, 0.0355994105, 0.0254462380, 0.0287001841, 0.0371074229, 0.0022005844, 0.0386133082, 0.0209464319, -0.0537931174, 0.0875560194, 0.0634304509, -0.0378003232, -0.0643821433, 0.0177902710, -0.0328934006, 0.0400773957, -0.1110626087, 0.0193928834, -0.0754383504, 0.0235787872, 0.0256425794, -0.0235552229, -0.0397743694, 0.0627520531, -0.0439766645, 0.0077251792, 0.0022881927, -0.0030912627, -0.0668216124, -0.0188478678, -0.0461846292, 0.1018568873, -0.0200384427, 0.0168890636, 0.0487527959, -0.1108132079, -0.0896226913, 0.0571160987, 0.0157299228, -0.0767764747, -0.0148126269, -0.0483489484, 0.0318139680, -0.0221638661, -0.0220431574, -0.0457293503, -0.0190275442, -0.0407263115, -0.1063497066, -0.0774506405, 0.0046655545, 0.0373124816, -0.0594661608, -0.0797110125, -0.0531639904, 0.0712105855, 0.1215844080, -0.0164003503, -0.1127265170, -0.0067500160, -0.0372255482, -0.0999971852, -0.0133105172, -0.0573006608, 0.0186618809, -0.0435505100, -0.0721924156, -0.0743968412, -0.0036985858, 0.0595762730, 0.0017384416, -0.0713982880, -0.0317169800, 0.0579902045, 0.1071866155, -0.0539114624, 0.0060801757, -0.0389458463, 0.0979753733, 0.0664699674, 0.0732823834, -0.0453971401, -0.0503209680, 0.0530473739, -0.0844627768, 0.0811937526, 0.0777051598, -0.0433652699, -0.0044609350, -0.0833695978, 0.0917664021, -0.0285430253, 0.0426412188, 0.0295272749, 0.0110918423, 0.1142070442, -0.0514802299, 0.0544673949, 0.0354576036, -0.0688953549, -0.1052731127, 0.0339735411, -0.0489042848, -0.0438402891, -0.0328815021, 0.0134438686, 0.0904053524, 0.0656755641, 0.0050096484, -0.1103221998, -0.0129983444, -0.0616390742, 0.0442104638, -0.0175016299, 0.0225252602, -0.0439000651, 0.0117747253, 0.0273662880, 0.1130848750, 0.0203390419, 0.1258473396, 0.0046684821, 0.0471995696, 0.0306545515, -0.0421861075, -0.0087258751, 0.0223580152, 0.0497978628, 0.0383642204, -0.0524416082, 0.0566136166, 0.0283182319, -0.0197190959, -0.0170201827, -0.0186244939, -0.0195090380, 0.0913819671, -0.0124147786, -0.0067445906, -0.0936436951, 0.0902134702, -0.0594230108, 0.0149493497, -0.0645184368, -0.0207066238, -0.0295326933, -0.0316761546, 0.0088850232, -0.1186427921, -0.1695351750, 0.0562105179, 0.0398111790, -0.0644294247, -0.0853041187, 0.0296411403, 0.0256214440, -0.0850255489, 0.0204410125, -0.0104724802, 0.0801696330, 0.0097792000, -0.0033502404, -0.0964154080, -0.0790643096, -0.1697508395, -0.0162443556, 0.1598758996, -0.0714766830, -0.0690854192, 0.0272057336, 0.0857389718, -0.0245885048, -0.0961902440, -0.0970978439, -0.1148387194, -0.0541097261, -0.1184201315, 0.0657620206, -0.0333740450, -0.0605630167, -0.0988916084, 0.0095483540, -0.0353662632, -0.0262551997, -0.0122360131, -0.0049175783, -0.0492859893, -0.0648196116, -0.0605694279, -0.1389119327, 0.0139108626, -0.0929217786, 0.0059622712, 0.1098836064, -0.0288144685, 0.0163625646, -0.0715123042, 0.0325961933, 0.0278862622, 0.0124123897, -0.0309053268, -0.0233516023, -0.1238388196, -0.0439962111, -0.0353929996, -0.1072101146, -0.0336165018, -0.0534381010, -0.0334370025, -0.0931165218, 0.0201964360, 0.0393112749, -0.1038890406, 0.0023841334, 0.0052142157, 0.0384857804, 0.0398351438, -0.0094230482, 0.0270661227, -0.1257936060, -0.1463748664, -0.0180975217, 0.0109890187, 0.0837598071, 0.0400556214, 0.0018980345, -0.0278614182, -0.1216311902, -0.0357497856, -0.0250207316, 0.0525819957, 0.0045446916, -0.0615495816, 0.0651519448, 0.0894763321, -0.0514130369, -0.0786551386, -0.0878743529, 0.0435965322, -0.0284061152, 0.0707326755, 0.0293331854, 0.0562202632, 0.0619349480, -0.0735221654, -0.0695026070, 0.1233625636, -0.0330200493, 0.1074236035, 0.1205115318, 0.0174474344, -0.0415790305, -0.1552352607, -0.1543401629, -0.0246662237, -0.0573662594, 0.0605090186, 0.0251327492, -0.0715011656, -0.0450168662, -0.1260689050, -0.0264022034, 0.0156223513, 0.0502886921, 0.0374457464, -0.0128861917, 0.0182322599, 0.0304747000, 0.0281607807, -0.0316039920, -0.0036348642, -0.0258943066, 0.0718016028, -0.0916787386, -0.0397713631, -0.0271358527, 0.0019680467, 0.0368490592, -0.0491738990, 0.0250141341, -0.0672431514, 0.0248288047, -0.0278860983, -0.0774517134, -0.0599258915, 0.0583866611, -0.0023774887, 0.0419162586, 0.0926452801, 0.0164075010, -0.0338900201, 0.0334361196, -0.0314148441, 0.0262893103, 0.1303625703, -0.0470013171, 0.0441806018, -0.0234173313, -0.0299151260, 0.0277746487, 0.0721488148, -0.0767254084, 0.1253243834, -0.0230475646, 0.1359201968, -0.0736603737, -0.0035042330, -0.0660804361, 0.0445244685, 0.0109717129, 0.1047865823, 0.0390676335, 0.1078439876, 0.1444591284, 0.1022624448, 0.0052420618, 0.0026475866, -0.0639385059, 0.0811904967, 0.0533263572, 0.0676157698, -0.0672301874, -0.0740529299, 0.0248226393, -0.1306959242, 0.0042563980, 0.0814441219, 0.0772211030, 0.0304920916, 0.0458578765, -0.0174703766, -0.0749306753, 0.0604884550, -0.0468399078, -0.0622735694, -0.0093528898, 0.0671312660, -0.0128081944, -0.0579035617, 0.0148542281, -0.0223818831, -0.0543969013, 0.0745182037, 0.0046803663, -0.0299132764, -0.1015769690, 0.1114102677, 0.0148098757, 0.0078021530, 0.0551358387, 0.0826910064, 0.0487940386, 0.0136169875, -0.0534884408, 0.0394094139, 0.0100853322, -0.0182870049, 0.0728412494, 0.0873366520, 0.0015789362, -0.0024721797, 0.0341144912, 0.0433073789, 0.0257539693, -0.0979178101, 0.0469656698, 0.0249108449, -0.0256533213, 0.0260440465, -0.0603630468, 0.0796567872, 0.0846500173, 0.0747109354, 0.0221854355, -0.0298728384, 0.0564229004, -0.0500125848, -0.0821319371, 0.0211725794, -0.0272209253, -0.0810633004, -0.0239060447, 0.0847705156, 0.0149565041, -0.0278392173, -0.0216519795, -0.0115322983, 0.0682666004, -0.0913525969, 0.0627034232, 0.0354620814, 0.0079748817, 0.0234489460, -0.0184199736, -0.0721389279, 0.0494098067, 0.0935471207, -0.0231040511, -0.0123329079, 0.0806134418, 0.0013960042, -0.0582968816, -0.0446468294, 0.0904582068, -0.0831858516, -0.0381932296, 0.0559401438, 0.0208431128, 0.1158549488, -0.0368219316, 0.0973489732, -0.0628750026, -0.0199227650, -0.0152336750, 0.0339747630, -0.0850955322, 0.1221803203, 0.0690642297, 0.0905066580, -0.1404897869, 0.0343058184, 0.0129755689, 0.0434272997, -0.0219690576, 0.0240096990, 0.0430266559, 0.0221352037, -0.0249513928, -0.0730443820, -0.0529969819, -0.0209505986, -0.0071373587, 0.0406704992, -0.0622288249, 0.1027544364, -0.0325410627, -0.0107938144, -0.0212974381, 0.0370885469, 0.0836017877, 0.1295213103, -0.0935524777, 0.0817989409, 0.0531441011, 0.0657986701, -0.0615204498, -0.0099024801, -0.0361298360, 0.0457767919, -0.0716952756, 0.0675756410, 0.0270896386, -0.0975497290, -0.0158852134, 0.0957636759, 0.0675603896, -0.0599821769, -0.0675514564, -0.0248466320, 0.0839828700, -0.0610856228, -0.0191029478, 0.0557627864, 0.0340256579, 0.0758475661, 0.0422640890, 0.0705730617, 0.0200105831, 0.0126293497, 0.0659255311, 0.0201112684, 0.0165268239, 0.0347566567, 0.0596401542, -0.0556865782, -0.0610967129, -0.0236036256, 0.0475434326, -0.0238489658, -0.0748237669, 0.1566101164, 0.1094955802, 0.0214624181, -0.0672183484, -0.0406649001, 0.0574368276, 0.1141397059, 0.0083383983, -0.0300562512, 0.0587752201, 0.0408652201, -0.0580183193, 0.0852885991, 0.0591887087, 0.0741346255, 0.0110208625, 0.0459752791, 0.0286119487, -0.0454870835, -0.0231239982, -0.0546364784, -0.0003831598, 0.1384595037, -0.0087658241, 0.1262718141, 0.0771628693, -0.0106097357, -0.0055050212, 0.0193116758, -0.0509908460, 0.0593213849, 0.0769117996, 0.0105670821, -0.0653699413, 0.0364505909, -0.0635151491, -0.0645750165, 0.0121557070, 0.0278507452, 0.0453064516, 0.0305310637, -0.0461992100, -0.0685593560, 0.0141639719, 0.1127782762, 0.0806641728, -0.0039272578, 0.0020184892, 0.0648187622, 0.0317875817, 0.0017158067, 0.0194108840, -0.0015958587, -0.0374934785, 0.0151218884, -0.0660756305, 0.0695710704, 0.1544272155, -0.0031044690, 0.0615559742, 0.0315992460, -0.0476663485, 0.0201265439, -0.0581903383, 0.0100968117, -0.0333991759, 0.0949909389, 0.1364480555, -0.0294023193, -0.0184170250, -0.0526938736, 0.0100654084, 0.0391655602, 0.0101976991, -0.0663941056, 0.0132710570, 0.0427178144, 0.1064938307, 0.0356270336, -0.0541726388, 0.1225188076, 0.0238629598, -0.0287941489, 0.0044986838, -0.0622278638, -0.0091090566, 0.0866777226, 0.0244409777, 0.1208457649, -0.0319039263, -0.0400923342, -0.0474381857, -0.0167612098, 0.0746672675, -0.0641008317, -0.0242838450, -0.0465363078, 0.0294127706, 0.0026756043, 0.0222522952, -0.0108660208, -0.0539977811, -0.1393183619, -0.0247814041, -0.0144384634, -0.0018963009, -0.0670136064, -0.0391161293, 0.0434596725, -0.0046543698, -0.0546147041, -0.0735280365, 0.0670263842, -0.1581402421, -0.0332507268, -0.0396557115, -0.0829612613, -0.0954515636, 0.0061671711, 0.0191307776, -0.1049285755, -0.0547018014, 0.0078520672, -0.0755615085, -0.0516528822, -0.0115642585, -0.1283618361, 0.0581253432, 0.0699449629, -0.0581471510, 0.1138804555, -0.0461943820, -0.0957474858, -0.0866478235, -0.0650868788, -0.1134615541, 0.0614682697, -0.0040859920, 0.0389466584, 0.0465899631, -0.0451099910, -0.1080482304, 0.0137882447, -0.0410071127, -0.0377014577, -0.0546049997, -0.0901674181, -0.0899068564, -0.0238909889, 0.0638750866, -0.0050745150, 0.0672753304, -0.0983481035, 0.1064428240, 0.0765845403, -0.0634263530, 0.0425196774, -0.1104769707, -0.0099101197, 0.0245549940, 0.0921794623, -0.0464854203, -0.0780762732, -0.0109518860, -0.0378661305, -0.0131486487, -0.0764998496, 0.0433338806, -0.0593761392, 0.0809794962, 0.0215223990, 0.0521195531, -0.0281153116, 0.0384856723, -0.0815126970, -0.0328470506, 0.0919416323, -0.0620938167, -0.0463894084, -0.0271247011, -0.0015359484, -0.0938699991, -0.0271363854, 0.0145968180, -0.0895328969, -0.0235180724, 0.0684077442, -0.0131787742, -0.0149568925, -0.0301664118, 0.0543289743, 0.0021149630, 0.2501554787, -0.0137770800, -0.0189584475, -0.0443670452, -0.1317805797, -0.0459400453, -0.0227319058, -0.0051710801, 0.0547716878, -0.0183825120, 0.0276297051, 0.0669257566, 0.0539507195, -0.0716048405, 0.0608181879, -0.0130141340, -0.0341443941, 0.0068551567, 0.0032081108, -0.0383738689, 0.0634946823, -0.0420259945, 0.1132324114, 0.0006666328, -0.0405647941, 0.0827702507, 0.0647895038, -0.0232096836, -0.0940234959, -0.0822631568, -0.0110499905, 0.0170561671, 0.0199319459, 0.0215660334, 0.0332696997, -0.0181830395, 0.0179454889, 0.1096642315, -0.0112044392, 0.0472789258, 0.0880105644, 0.0380423218, -0.0943172872, 0.0345041119, -0.0227492508, -0.0003028775, 0.0415566452, 0.0090747047, -0.0089355977, 0.0621299781, 0.0602650903, 0.1378072500, 0.1309899390, 0.1083771586, -0.0151611203, 0.0376641490, 0.1026247591, 0.0600141175, -0.0607929304, 0.0434501246, 0.0002067903, 0.0293024275, 0.0942906663, -0.0803430751, -0.1692339778, -0.0913861319, -0.0164631531, 0.0753820613, 0.1122529954, 0.0107535664, 0.0382624902, 0.1278045475, -0.0097535392, 0.0210150816, -0.0679920837, -0.0344760604, 0.0657332465, 0.1301233470, -0.0106594628, 0.0428630076, 0.1269867569, -0.0871770009, 0.1018801332, 0.1023901254, -0.0027509781, 0.0516200773, -0.0323258378, -0.0033792506, 0.0659286007, -0.0511431545, 0.0013927303, -0.0124982167, 0.0499919951, 0.1580746919, -0.0509507433, -0.0352188200, -0.0539588593, 0.0311207566, 0.0622074381, 0.0581708476, 0.1437012106, -0.1142405495, -0.0639902577, -0.0214735419, 0.0318464153, 0.0517698340, -0.0698989928, 0.1042187512, -0.0091631319, 0.0826798752, 0.0647876859, 0.0200800076, 0.0364503339, -0.1007995978, 0.0697286353, -0.0545177460, -0.0407119244, -0.0625136122, -0.0124740144, -0.0438497402, -0.0910670757, -0.1266660392, -0.0368405096, -0.0027669286, 0.0238762833, 0.0131175658, -0.0468042642, 0.0432336405, 0.0929872245, 0.0399794765, 0.0381173342, 0.0431814194, -0.0945344865, -0.0611811578, -0.0060175010, -0.0819001719, -0.0400216579, 0.0088427775, 0.0240849704, 0.0496776700, -0.0255543254, 0.0379864983, -0.0578956157, -0.0041395645, -0.0753631592, 0.0116794743, 0.0135613428, -0.0795905069, 0.1137362793, 0.0862515792, -0.0959689915, 0.0193129014, -0.0177826695, 0.0518280827, 0.0059642564, -0.0697394162, 0.1301873624, -0.0101750018, 0.0448567159, -0.0265967809, -0.0449840762, 0.0168564655, -0.0659707561, 0.0455326103, 0.0081784893, -0.0142780207, -0.0248873234, 0.0230403226, -0.0012343058, 0.0359562971, 0.0860852078, 0.1217206642, 0.0097096767, 0.0344186947, -0.0225024596, 0.0039214455, 0.0816496313, -0.1221357957, 0.0745968297, -0.0603991561, 0.0028137837, -0.0056303190, -0.0120229982, -0.0368143506, -0.0903578103, -0.0790462345, 0.0104601001, -0.1103577763, -0.0498751774, 0.0281275064, 0.0158067420, 0.0832326412, 0.0140135037, -0.0168912765, 0.0872513950, -0.0336145163, 0.0139812306, -0.0402730256, -0.0091955420, -0.0914808288, 0.0034092239, 0.0089099668, 0.1019572243, 0.0642679855, 0.0435933173, -0.0189111736, 0.0092968196, 0.0973090380, -0.1191413179, -0.0637330636, -0.0374936759, -0.0942362025, 0.1259642541, -0.0202391911, 0.0046276348, -0.0645134971, -0.0699802041, 0.1670709699, 0.0851286426, -0.0563003197, -0.0412821658, 0.0348398536, 0.0831935853, -0.0698691159, -0.0325576775, 0.0104682287, 0.0265769009, -0.0455811620, -0.0264276583, -0.0554746278, -0.0418243334, -0.0940440595, -0.0257199351, -0.1094505191, 0.0515424199, -0.0607011542, 0.0158442054, -0.0477873497, 0.1591876000, 0.0595802963, -0.0514044203, 0.1101214439, -0.0167443231, 0.1246747747, 0.0785945132, 0.0528475530, -0.0617546365, 0.0305569861, 0.1019003838, 0.0251990762, -0.1062422246, 0.0622668751, 0.0863869190, 0.0936790779, -0.0093610873, -0.0904579908, -0.1809071451, 0.0585578829, -0.0140143875, 0.1459298283, 0.1833967417, 0.0578458011, -0.0047685211, 0.1085292622, 0.0437249839, 0.0053620758, -0.0707327127, 0.0504810885, 0.0400045998, 0.0646815002, 0.0902485102, -0.0186216589, 0.0162671618, -0.0108497292, 0.0626751631, 0.0568462685, -0.0342476740, -0.0096498448, -0.1112356260, -0.0541377254, 0.1333158314, 0.0688354373, 0.0950625390, -0.0554794036, 0.0681923702, 0.1259082258, -0.0102772266, 0.0098111173, 0.0576013215, -0.0279379878, -0.0103683686, 0.0581993051, 0.0614906251, -0.0359119363, -0.0374324135, -0.0440944247, 0.0161431339, -0.0351040475, 0.0738768354, 0.0100327181, -0.0023815958, -0.0598595850, -0.0667034239, -0.0458228588, -0.0045692795, -0.0904010236, 0.0695800707, -0.1051889583, 0.0674851909, 0.0090284823, -0.0503350385, 0.0023351635, -0.0482293069, -0.0773791745, 0.0475178361, -0.0503720976, 0.0586205348, 0.0265644807, 0.0546854287, 0.0832879692, -0.0747983232, -0.0745288953, -0.0505665280, 0.0317246318, -0.0889517516, -0.0272208638, -0.0276457258, -0.0326215178, 0.0402437486, -0.0681416020, -0.0120354109, 0.0634939522, -0.0437980630, -0.0389546268, 0.0654691681, 0.0275364127, 0.0550993606, -0.0484079719, 0.0363824852, -0.0092588821, 0.0797004402, -0.0651683137, -0.1000629589, -0.0918096453, 0.0149229029, 0.0735090524, -0.0162643269, 0.0182474013, 0.0761549845, 0.0669070110, 0.0145019032, -0.0107975360, -0.0577051118, 0.0582924262, -0.0903007612, 0.0470583849, 0.0686492771, 0.0109408190, -0.0310325753, 0.0724562407, 0.0065965671, -0.0131006138, -0.0120253554, 0.0508392230, 0.0200330317, -0.0174616426, -0.1583341807, 0.0518594906, -0.0255270917, 0.0158712212, -0.0347485356, -0.0118795773, 0.0069976794, -0.0889637545, -0.0547839738, 0.0156807061, -0.0441385843, 0.0256549101, 0.0192085505, -0.0773647279, 0.0395421423, 0.0537709408, -0.0419113748, 0.0323045887, -0.0565909445, -0.1433694363, 0.0214218441, -0.0481935479, -0.0569870286, -0.0337584428, 0.0123888636, -0.0104110092, 0.0579789169, -0.0544714630, 0.0283478461, 0.0834651515, 0.0820402279, 0.1023973972, -0.0109186042, 0.1155714020, -0.0126475068, 0.0124206701, -0.0278539695, -0.0142614879, 0.0970981345, 0.0277448818, -0.0867997333, -0.0194104612, -0.0294688102, 0.1423788965, 0.1023509055, -0.0306725260, -0.0847552493, -0.0247471035, 0.0440164804, -0.0401868112, 0.0095541179, 0.0921294689, -0.0820786953, -0.0758025721, -0.0006343376, -0.1149264798, 0.0559166372, 0.0040740604, -0.0497828312, -0.0557511151, 0.1092006490, 0.0591901094, -0.0479406193, 0.1066465154, -0.0624856539, 0.0366753116, 0.0274912100, -0.0328068100, 0.0292278305, -0.0191822648, -0.0249596015, 0.0645880625, -0.0398490205, 0.0530655347, -0.0109319063, -0.0881058946, -0.0054237735, -0.1325847358, -0.0715490058, 0.0105070733, 0.0156535450, -0.0246252306, 0.1015602499, 0.0809121355, 0.0521838889, 0.0219183862, -0.0351843275, 0.0327000432, 0.0184295084, -0.0001623317, -0.0205057841, 0.0311120469, 0.1054858416, 0.0174951423, 0.0154719586, 0.0361499712, 0.0374545418, -0.0569849424, -0.0924779996, -0.0216462202, -0.0418462753, -0.0852962956, 0.0891264006, -0.0057703056, 0.0408237651, -0.0054706484, -0.0067469729, -0.0044906680, -0.0033724871, 0.0153376590, 0.0006172535, -0.0263773426, 0.0343717337, 0.0782307461, 0.0507909693, 0.0397465676, 0.0574480221, 0.0223326199, -0.0981236845, -0.0524760783, 0.0239303783, -0.0337002762, 0.0303925127, -0.0688357726, -0.0157084726, -0.0434751175, -0.0827889293, 0.0581482276, 0.0795884579, -0.0474949963, -0.0056174258, -0.0108862296, 0.0035114554, -0.0982232690, -0.1093978211, -0.0143852560, 0.0524405204, 0.0521099269, -0.1028553843, -0.0638720617, -0.0075401217, 0.0330017582, -0.0667781755, -0.0928703770, -0.0613456927, -0.0153992241, -0.0280166343, 0.0847624689, -0.0169003941, -0.0802515224, -0.1105625033, 0.0340134092, -0.1730494499, 0.0023155452, 0.0067766123, 0.0244153384, -0.0072781146, 0.0109162061, -0.1166150123, -0.0690539926, -0.0450975671, -0.0511956140, -0.1254149824, 0.0814060792, -0.0258917734, 0.0573616140, 0.0028357280, 0.0401952788, -0.0423364826, 0.0316608660, -0.1162076890, -0.1417564899, -0.0174977146, 0.0730747133, 0.0419977084, -0.0985374227, 0.0439931750, 0.0184006765, -0.0258267894, 0.0529088564, 0.0302705579, -0.0790076926, -0.0452001616, -0.0794830769, -0.0142567260, 0.0524457805, 0.0395335704, -0.0408225693, -0.0550248362, 0.0655348003, 0.0600603335, 0.0089534167, 0.0455949493, 0.0268506166, -0.0163718015, -0.0677054599, -0.0477868058, 0.0383207612, -0.0974796861, -0.0568182170, 0.0032115451, 0.0366386101, -0.0688581541, 0.0367346369, -0.0269647054, -0.0672013536, 0.0639415011, -0.0476011969, -0.0344162881, 0.0906623676, -0.0182065796, 0.0910964608, 0.0318969637, -0.0062736110, 0.0378378071, 0.0350125656, -0.0821036324, -0.0258121770, 0.0005523097, 0.0076069902, -0.0421908870, 0.0664991885, 0.0372360349, -0.0839239806, -0.0091307107, -0.0118390908, -0.0013489240, 0.0713827685, -0.0377876945, -0.0032262132, -0.0199648291, -0.0268274378, -0.0841653273, -0.0578797683, 0.0545509718, -0.0132261058, 0.0965625793, 0.0319721177, 0.0090560969, -0.1269931048, 0.0828643143, 0.0028901873, 0.0951119736, 0.0532738306, -0.0324043781, -0.0122132301, 0.0120997271, -0.2779168785, -0.0568087325, 0.0041243406, 0.0087851202, -0.1074664444, 0.0240818523, 0.0502290577, -0.0646621212, 0.0788273662, 0.0666653588, -0.0269620642, 0.0507653691, -0.0828295872, 0.0721139014, 0.0297652856, 0.0126682650, -0.0158416852, 0.0168562848, 0.0113663459, -0.0617392994, -0.0300855469, -0.0421315990, -0.0233782772, 0.0523245521, 0.0932093859, -0.0347070172, -0.0340993628, -0.1225981042, 0.0177828334, -0.0469413251, 0.0645725131, -0.0143359657, -0.0133823045, -0.1539887041, 0.0571799167, 0.0399317555, 0.0650821030, 0.0524458848, -0.1278553903, -0.0141976671, 0.0993117914, -0.0738111362, -0.0105704581, -0.0632688403, -0.0738192201, 0.0992858410, -0.0338428020, -0.0037990527, -0.0091338567, 0.0314793624, -0.1201120168, -0.2198683321, 0.0010754778, 0.0568348207, -0.0469560772, 0.0571944937, 0.0343939774, 0.0133982068, -0.0631083623, 0.0034566596, 0.0835077912, -0.0575085394, -0.0378641449, -0.0569408424, -0.1741759628, 0.0565532520, -0.1346793473, -0.0184583925, -0.0332289860, 0.0433017761, 0.0332288258, -0.0157430023, -0.0224110987, -0.0319560692, 0.0228288788, -0.0353322849, -0.0930901989, 0.0152644506, 0.0328397974, 0.0471672378, -0.0685423240, -0.0160864387, 0.0819224268, 0.0584639125, -0.0848034248, 0.0220217574, -0.0757679492, -0.0525736548, -0.0149344113, -0.0067233704, 0.0269571748, -0.1893813759, 0.0448883995, -0.1372053623, -0.0611865297, 0.0048316722, -0.0619073994, -0.0275560394, -0.0000083274, 0.0003142018, 0.0446751416, -0.0504245125, 0.0394336954, -0.0538485721, 0.0315108038, 0.0047094272, -0.0420077294, -0.1164579242, 0.0768097341, -0.0246727094, 0.0349234231, 0.0029287643, 0.0689605772, 0.0783065856, -0.0639558583, -0.2344202399, 0.0043587256, 0.0619683675, -0.0132310092, -0.0104684839, 0.0389986672, 0.0491433255, 0.0464072116, 0.0607751496, 0.0432206318, -0.1330941319, 0.0526314564, 0.0204923023, 0.0466854945, 0.0559313707, -0.0770381466, -0.0092532141, 0.0026717510, 0.0311250091, 0.0168272164, -0.0649276227, 0.0176744089, -0.0840800628, -0.0114872828, -0.1136161163, -0.0595034547, 0.0499621816, -0.0457827933, -0.0196723603, -0.0408502482, -0.0084233610, -0.0515717827, 0.0912964121, -0.0563867204, -0.0193522871, -0.1073414236, 0.0345824249, -0.0565275140, 0.0745029002, 0.0302995406, -0.0416583940, -0.0395787358, 0.0465794578, 0.0373998880, -0.0091701280, -0.0841445625, 0.1423854977, 0.0916080251, 0.0083521493, 0.0837096572, 0.0519269891, -0.0009883493, 0.0244290214, -0.0506993532, -0.0302240252, -0.1149159893, -0.0997201800, -0.0627969280, 0.0701772124, 0.0557173118, 0.1072300673, 0.0536632054, 0.0688590854, 0.0089709330, 0.0621834919, -0.0207031649, 0.0014409269, -0.0168426111, -0.0567629673, 0.0761813074, -0.0271189027, 0.0635162145, 0.1317965984, -0.0067452486, 0.0029698522, 0.0512018576, 0.0362034738, -0.2212927788, -0.0022523927, -0.0512620881, -0.0694469362, -0.0244146362, -0.1148864999, 0.0542408340, 0.0276500080, 0.0338427946, 0.0628283247, -0.0465139560, -0.1427900493, 0.0429847240, 0.0950860456, -0.0462724268, 0.0787815973, -0.0811521858, -0.0177408494, 0.0785563812, -0.0695466399, 0.0827653110, 0.0098180426, -0.0259562749, 0.0819518045, 0.0203360058, 0.0853399113, 0.0441414714, -0.1234055832, 0.1628527045, -0.0224057343, -0.0093217939, -0.0641656891, -0.0375277214, -0.1253397465, -0.0067854743, 0.0134550277, 0.0678260922, 0.0412711948, -0.0456846952, -0.0062053176, -0.1171333790, -0.0551328734, -0.0933438614, -0.0968711004, -0.0838860273, 0.0881142840, 0.0101593789, -0.0404037386, 0.0879097581, -0.0622721091, -0.0753517970, -0.3114854693, -0.1076311320, 0.0807591230, -0.0202599540, 0.0976467356, -0.0174613949, 0.0280242171, -0.0298635438, 0.0055326507, 0.0030418946, -0.1467977166, -0.0564746670, 0.0063745952, -0.1161391735, 0.1416262537, 0.0148948617, -0.0118723260, 0.0369197838, -0.0023227346, -0.0052921069, -0.0906640291, 0.0855226293, -0.1039964855, 0.0376405865, -0.0837747380, -0.0359142683, 0.0261063743, -0.0286168456, 0.0696613640, -0.0040970375, 0.0086161001, 0.0359454378, 0.0759053826, -0.0672070459, 0.0306584872, 0.0156656038, -0.0113291219, 0.0387913957, 0.0332757980, -0.0727943704, -0.1211449653, -0.0443839394, -0.0470713302, -0.0080930619, 0.1231872663, -0.0697774366, 0.0140108913, -0.0061465180, 0.0376008525, 0.0093512135, -0.0627987534, -0.0372216217, 0.0687538609, 0.0205694083, 0.0403334163, -0.0549371801, -0.0106383357, -0.0498775430, -0.0332453102, -0.0294488724, 0.0227376800, 0.0087963874, -0.0825760961, -0.0869484991, 0.0232017785, -0.0001277003, 0.0674111620, 0.0109501490, -0.0375928394, 0.0212152302, 0.0015792653, 0.0938121676, 0.1739456952, 0.0156991277, -0.1040170640, 0.0629230887, -0.0400269479, 0.0542096272, 0.0104163932, -0.0242769588, -0.0382508636, -0.0123823481, -0.0147033744, 0.0003896313, -0.0339341126, 0.0824491605, 0.0753649026, 0.0650183111, -0.0648725554, 0.0341762789, 0.0760506690, 0.0772928596, 0.0217192676, -0.0158250332, 0.0887746885, 0.0650969222, 0.1026265994, -0.0247047301, 0.0195583869, -0.0484894738, -0.0117185712, 0.0844374895, 0.0960649326, 0.0241145864, 0.0626469180, -0.0130303754, -0.0027406695, 0.0495216921, 0.1188267544, 0.0122662252, 0.0857385322, 0.0141339349, 0.0470096245, 0.0580076426, 0.0609872490, -0.0335781872, 0.0873916596, 0.0572650246, -0.0131410928, -0.0790174678, 0.1805320978, -0.0543180145, -0.0541488826, 0.0610654168, 0.0872070566, 0.0452944078, 0.0811164901, 0.0632785633, 0.0436387248, -0.1031360552, -0.0807281360, 0.0897783563, -0.0101240790, -0.0150248166, -0.0597814694, 0.0341735370, 0.1019539833, -0.0430780277, -0.0187818855, 0.0360218845, 0.0431298763, -0.0064851651, -0.0161519758, -0.1225914732, 0.0204030052, -0.0762844831, 0.0077532218, 0.0440332480, -0.0897475481, 0.0677214116, 0.0543042086, 0.0025525836, 0.0195895247, -0.0554892346, 0.0346094072, -0.0058931089, 0.0184836462, 0.1028649881, -0.0241504349, -0.0679244101, -0.0099678105, -0.0355571955, 0.0116801793, 0.0260118134, 0.0178600047, 0.0090838466, 0.0369753651, -0.0293509960, -0.1318784356, -0.0034463294, -0.1101962030, 0.0221248586, -0.0238046758, 0.0048493422, 0.0594437569, 0.0617556572, -0.0199558828, 0.0218861140, 0.0165301878, -0.0604197644, 0.0315624811, -0.0169795007, -0.0620112307, 0.0392897427, 0.0793555453, 0.0150454808, 0.0241586752, -0.0528307892, 0.0253914632, 0.0127113685, -0.0987213627, -0.0081843305, -0.2111004293, 0.0339391679, -0.0611982308, -0.0552775599, 0.0285483096, 0.1020854563, 0.0106654596, -0.0090036839, -0.0631140172, 0.0594687760, -0.0393922105, -0.0687684119, 0.0172317736, 0.0328154787, -0.0297999885, 0.0368517041, -0.0589384809, -0.0388913788, 0.0291908458, 0.0355755240, -0.1486319304, 0.0574746989, 0.0959658176, -0.0556670986, 0.0251951609, -0.0245400593, 0.0208147056, -0.0174088422, -0.0083070602, 0.0178584401, -0.0609265789, 0.0546376295, -0.0350818299, -0.0265110973, 0.0286404397, 0.0349140093, -0.0486064218, 0.0340745449, 0.0288522206, -0.0238900147, -0.1464597136, 0.0728161484, 0.0465124957, -0.0308252797, 0.0115589593, 0.0113635799, 0.0503270887, 0.0054022814, 0.0523423366, 0.0589227267, -0.0257807672, -0.0298486911, -0.0254154764, 0.0765831321, -0.0142865898, 0.0396497175, 0.0066460916, 0.0825865120, 0.0077746185, -0.0795859545, 0.0182757229, -0.0257739536, -0.0289115496, 0.0544293821, 0.0051056989, 0.0147166271, -0.0514597632, 0.0434186868, 0.0010281098, 0.0184973795, -0.0003208812, 0.0477770306, 0.0602277555, 0.0095860641, 0.0099852243, 0.0066617914, 0.0157492012, -0.0024766915, -0.0776859522, -0.0161718577, 0.0490280949, 0.0761336088, -0.0586008243, -0.0147242304, -0.0439913422, 0.0315519907, 0.0264370851, 0.0101583963, 0.0290643647, -0.0615855530, 0.0952642709, -0.0060586678, 0.0635224879, 0.0142900785, -0.0521640554, 0.0254625771, -0.0459049568, -0.0868162215, -0.0190060958, -0.0201073866, 0.0849452615, -0.0819754899, -0.0595882945, 0.0424431823, -0.0126683675, -0.0036068817, 0.0019659821, 0.0919612870, 0.0250568427, -0.0196594875, 0.0116450097, 0.0530028902, 0.0046395008, 0.0532780923, -0.0309025459, 0.0828298405, -0.0568663813, -0.0229545161, 0.0070042089, -0.0603003912, 0.1027777120, 0.0838302299, -0.0835280418, -0.0680461228, -0.0175163355, 0.0395551920, -0.1034074873, -0.0168526582, -0.0694683269, 0.0856403485, -0.0282140207, 0.0819986761, -0.0296547636, 0.0557480119, -0.0028047662, 0.0228225123, 0.0541927032, -0.0480596423, 0.0296699200, 0.0482332483, 0.0330066979, 0.0096731558, -0.0802467912, -0.0198082533, 0.0126822321, -0.0577056147, -0.0314457417, 0.0690193996, -0.0173153523, -0.0027278096, 0.0066897632, -0.0725426897, 0.0869647712, -0.0661834851, 0.0724328235, 0.0242918059, 0.0256916750, 0.0929009244, -0.0568216071, 0.0169408266, 0.0061025280, -0.0106028365, -0.0461389422, 0.0166445952, -0.0604287237, 0.0172114968, -0.0179339107, -0.0352831855, -0.0705111548, -0.1073465571, -0.0085735312, -0.0114900079, 0.0368213616, 0.0317656174, -0.0435541160, -0.0510614328, -0.0382322036, 0.0285808984, 0.0629944801, 0.0276085641, 0.0057947901, 0.0472418368, -0.0062445863, 0.0629410967, 0.1044208184, 0.0348486602, 0.0242497046, -0.0016840000, 0.0832512975, -0.0251176599, 0.0907804668, -0.0779169053, -0.0517478958, 0.0449572988, 0.0482149944, 0.0248151682, 0.0051244884, 0.1038727686, -0.0487749539, 0.0089903884, 0.0435084403, 0.0382264890, 0.0350208059, -0.0556974560, -0.0468725376, -0.0905794352, -0.0638012439, 0.0229396075, -0.0216426924, -0.0105403457, 0.0701379925, -0.0150242420, 0.0033868835, 0.0051709316, -0.0758040771, -0.0192539524, 0.1086616740, 0.0261802450, 0.0146704596, -0.0612380020, 0.0686709359, 0.0235118419, 0.0124242017, 0.0043051965, 0.0822244287, 0.0628569424, 0.0378870703, -0.0358513035, 0.0920255333, 0.0646417812, -0.0127955358, -0.0340317786, -0.1292331517, -0.0432024598, -0.0209624339, 0.1232749075, 0.0667699277, 0.0618136264, -0.0249156225, 0.0695502982, -0.0094279712, -0.0040554497, 0.0362100191, 0.0088655213, 0.0044878307, 0.0909807533, -0.0234645475, 0.0755894259, 0.0781940520, -0.0367120281, -0.0405787788, 0.0292230044, 0.0712401271, 0.0460249372, 0.0002681780, -0.0367730558, 0.0011220387, -0.0066153426, 0.0834923536, -0.0140017802, 0.0666308254, 0.0208964422, -0.0610756092, 0.0365297087, 0.0705762208, -0.0118499696, -0.0678517520, 0.0661970377, 0.0926239267, 0.0320387818, 0.0645594075, -0.0444376729, 0.0552545339, 0.0099028517, 0.1006286144, -0.0031664758, 0.0173646528, 0.0100082345, -0.0783001706, 0.0569688194, 0.0045303679, 0.0392879620, -0.0103328424, -0.0566945896, 0.0264412537, 0.1093416139, 0.0299957711, 0.0116800778, -0.0031323512, 0.0110435002, 0.0320552811, 0.0285735782, 0.1095877588, -0.0200977530, 0.0823044851, -0.0358670987, -0.0867109969, -0.1127473190, -0.0257072020, 0.0177774560, 0.0792181045, 0.0756336674, -0.0324253850, 0.0246324558, 0.0217769016, -0.0777080432, 0.0276620723, 0.0413924307, 0.0744103640, 0.0820471197, -0.0758784637, -0.0724666715, 0.0035766806, 0.0873215273, -0.1047197878, 0.0481940433, 0.0539425462, 0.0142177930, 0.0665009469, -0.0789226592, 0.0128588472, -0.0595978536, -0.0811181217, 0.0413066372, 0.0676421225, 0.0129944980, 0.0667166337, 0.0528575480, 0.0683338419, 0.0155871157, -0.0500800610, 0.0133071011, 0.1164777875, 0.0705455542, 0.0581558794, -0.0362772867, 0.0359542444, 0.0564908907, -0.0664841682, -0.0593208931, 0.0192713812, -0.0161010399, -0.0079501132, -0.0090171536, -0.0516745113, -0.0218365695, -0.0328636244, 0.0532155186, 0.0479252040, 0.1179302856, 0.0352945402, -0.0518615693, -0.0581860505, 0.0486190021, -0.0622697212, 0.0024713648, 0.0323419496, 0.0635355338, 0.0019501621, 0.0177591443, -0.1057074368, -0.1631962955, -0.0281113256, -0.0206807218, 0.1153490543, -0.0076655415, -0.0147053171, 0.0366335660, -0.0233861599, -0.0604107790, -0.1078207791, 0.0518582948, 0.0954045430, 0.0595104247, -0.0419252403, -0.0090363836, 0.0549693257, 0.0301350169, -0.0184888486, 0.0968510285, -0.0687725544, 0.0204588864, 0.0234431699, 0.0610093661, 0.0847873464, 0.0560142696, -0.0332106985, 0.0385022350, -0.0168030839, 0.0914061591, 0.0301460866, 0.0604420789, 0.0726795867, -0.0140694333, -0.0456080623, 0.0106662791, 0.0468017198, 0.0497751050, 0.0490910411, -0.0197878070, -0.0651640967, -0.0635520369, -0.0852876678, -0.0022773887, -0.1400550306, 0.0139273843, 0.0002196374, 0.0295713656, 0.0258049499, 0.0018550070, 0.0215642508, -0.0631387457, 0.0703800842, 0.0202242509, -0.0177187920, -0.0356450938, 0.0205531921, 0.0650591403, 0.0323418975, 0.0321484692, -0.0193900671, -0.0236946978, 0.0175167341, -0.0447998270, -0.1333657205, -0.1437339634, -0.0090926215, 0.1247604266, -0.0751056299, -0.0522205085, -0.0504729599, -0.0227101576, -0.0235261042, -0.0684528276, -0.0622577742, -0.0793979317, 0.1068501100, 0.0853503346, 0.0276482366, 0.0907186493, 0.0353692658, 0.0724190995, -0.0784037113, 0.0511328764, -0.1183118075, 0.0365032889, -0.1371658593, -0.0473043732, 0.0823548064, -0.0289297719, -0.0603405014, -0.0355051793, -0.0464181080, 0.1145070270, -0.0473818593, 0.0425538644, -0.0071828105, -0.0736968145, 0.0988351330, -0.0318180248, 0.0072810487, -0.0895866007, 0.0740671605, -0.1013562009, 0.0245997980, -0.0728029609, 0.0828259811, 0.0180923007, -0.0547822639, 0.0116563858, -0.1417771727, 0.0458298475, 0.0316444114, -0.0238003619, -0.0296567585, -0.0554214194, 0.0272176266, 0.0018835118, -0.0581004210, -0.0022558288, -0.0264869761, 0.1145149842, -0.0132056260, 0.0262205135, 0.0853366181, -0.0022210584, 0.0648229495, -0.0174289141, -0.0737503767, -0.1109022722, -0.0252781119, 0.0059656901, -0.0194252543, 0.0173824597, 0.0243292227, -0.0838046744, -0.0309997071, -0.0907789394, -0.0269047227, -0.0336970203, 0.0705610141, 0.1165372878, 0.0079935687, -0.0543260835, 0.0342515297, -0.0521464944, -0.0714127719, -0.0403701663, -0.1031486839, -0.0004109427, 0.0002300397, -0.0952839181, -0.0952611268, 0.0012298648, -0.0010706672, -0.0467825346, -0.0317074023, 0.0483125970, -0.0418641642, 0.0506523624, 0.0294237770, 0.0140732778, 0.0769229755, -0.0198816396, -0.0392067060, 0.1846597046, 0.0124309389, -0.0171950646, 0.0091401767, -0.0135701746, 0.0043160287, -0.0078196535, -0.0262628179, 0.0011243618, 0.0309535600, 0.0196145065, -0.0405556522, -0.0245177448, 0.0021270635, 0.0162663497, 0.0748633817, -0.0008770104, -0.0092927441, 0.0795515254, 0.0567765534, 0.0428086109, 0.0661820695, 0.0498717502, -0.0512417257, 0.0272362456, 0.0292957872, 0.0150961615, 0.0122282766, 0.1144475713, -0.0396133438, 0.0807646289, -0.0086828033, 0.0607307702, -0.1401262581, 0.0161681771, -0.0338262692, 0.0014048559, -0.0822740868, -0.0788806528, 0.1121554375, 0.1270351708, -0.0518453345, 0.0977805331, 0.0610204078, 0.0736536905, -0.0217891503, -0.0292755906, -0.1007323563, -0.0721262842, -0.1921612918, 0.0670131668, 0.1443945616, 0.1219938695, 0.0643291548, -0.0684558004, -0.0398895927, 0.1453535557, 0.0324717984, -0.0591497608, 0.0181183647, -0.0230020620, 0.0594093800, -0.0303298961, 0.0067862147, 0.0524879210, -0.0203941744, -0.0344587304, -0.0050412109, -0.0677789450, 0.0066836998, -0.0347519293, 0.0366211087, -0.0160117932, -0.0468902402, 0.0584676974, 0.1672146320, -0.0252947919, 0.0533017628, -0.0128994770, -0.0315279476, 0.1150551587, -0.0933826417, -0.0129570561, 0.0131995426, -0.0888494402, -0.0522609502, -0.0294148121, 0.0609774403, 0.0943931565, 0.0547476374, 0.0291921850, -0.0240264889, 0.0596691780, 0.0257448219, 0.0174623132, -0.0609840080, 0.0462246537, 0.0167018939, -0.1179887056, 0.0068349028, 0.0234576706, 0.0755560622, -0.0990073010, 0.0536895767, 0.1146840006, 0.0642983988, -0.0365236141, -0.0250929371, -0.0536484048, -0.0877760723, -0.0256280657, 0.0049841693, 0.0222435649, -0.0242265947, 0.0310989358, 0.0552028380, 0.0298284367, -0.0360438451, -0.1005926356, -0.1811739206, 0.0033132869, 0.0307678804, 0.1379327029, -0.1084536910, 0.1021495312, -0.0301127639, 0.0694193318, 0.0133035779, 0.1536821574, 0.0520251915, 0.0560821220, -0.0365221016, 0.0407806151, -0.0215654410, 0.0221582353, 0.0156284384, 0.0404918157, 0.0865565166, -0.0161006153, 0.0356773548, 0.0185300596, -0.0153907044, 0.0159711819, 0.0631437302, 0.0809336379, 0.0068210112, -0.0511113703, 0.0087773250, 0.0026307134, -0.0008900189, -0.0621962920, 0.0051895804, 0.0618298762, 0.0602792948, -0.0101595121, -0.0575647801, 0.0549274161, -0.0368987508, 0.0624860488, 0.0140369553, -0.0629960671, 0.0137624452, -0.0530070886, -0.0370283760, -0.0158899054, 0.0524069853, -0.1032356024, 0.0642885044, 0.0880935937, -0.0126478178, 0.0409704782, 0.1108261272, 0.0347355865, 0.0475322381, 0.0530219227, -0.0986496881, -0.0415743515, 0.0640891865, 0.0846693292, 0.1318766922, 0.0689179450, 0.0267987978, -0.0346477218, 0.0371775217, -0.0590012595, 0.0049332464, 0.0527346507, -0.0684299096, 0.0175818224, 0.0012892826, 0.0342696607, -0.0508920178, 0.2059143037, -0.0867572650, 0.0659529492, 0.0103861960, 0.1243734658, -0.0440706946, -0.0610978454, -0.0154876057, -0.0017011225, 0.0731661022, -0.0493041724, -0.0998404399, 0.1050931066, -0.0117414510, 0.0769383833, 0.0013354359, -0.0398867689, -0.0087610772, 0.0905804411, 0.0377566889, -0.0192738064, 0.0174688604, 0.0209386628, -0.0091579044, -0.0061257202, -0.0746386573, 0.0467468090, -0.1642152965, 0.1301625520, -0.0597499721, 0.0464302264, -0.0807192549, 0.1366730928, -0.0973236859, 0.0614234731, -0.0181024168, 0.1071489751, -0.0526494086, 0.0895823091, -0.0796737224, -0.0038840601, -0.0290560164, 0.1038657427, 0.0148641858, 0.0148673989, -0.0309043601, -0.0986095667, 0.0478337407, -0.0816633180, -0.2629939616, 0.0781800523, 0.1573902816, -0.0618826635, 0.0682808310, 0.0523834042, 0.0065544825, -0.0260554403, 0.0248341858, -0.0792122781, -0.0578143448, -0.0285503957, 0.1218285859, -0.0597981662, 0.0029706820, 0.0632308349, -0.0725599155, 0.0427392237, -0.0326932222, -0.0129764741, -0.0510320179, -0.1069812030, -0.0600318201, -0.0225212965, -0.1560653001, -0.1015667319, 0.1334945112, 0.0862931833, -0.0278779287, -0.0217349920, 0.0052916575, -0.0638495013, -0.0126278680, 0.0371678285, -0.0512363985, 0.0246625952, -0.0541568138, 0.0904520601, -0.0201108754, 0.0342638902, 0.0513990335, -0.0730196536, -0.0050134035, 0.0702286959, -0.1357504576, -0.0094165849, 0.0107916109, -0.0215191618, 0.0732907131, -0.0835580900, 0.0290960465, 0.0318134725, -0.0334194005, -0.0883457884, 0.1167721078, 0.0325365737, -0.0365481712, 0.0301774871, 0.0460887998, 0.0064556315, -0.0154192094, 0.0214880481, -0.0702025816, -0.1421238482, -0.0451560989, 0.0631900877, 0.1338837147, -0.0160692446, -0.0157149509, -0.0827637464, -0.0908043310, 0.1281529218, -0.0294524785, 0.0336420350, -0.0526893660, -0.0712749958, 0.1236200184, 0.0524747297, -0.0628978834, 0.0402449928, 0.0426420495, 0.0074612200, 0.0351635031, 0.0306143202, 0.0301594120, -0.0644168034, 0.0514639243, -0.0052747424, 0.0368147679, -0.0926648304, 0.0892558843, 0.0084207002, -0.0328473337, -0.0540545322, -0.0482309647, 0.1528178900, -0.0817099065, -0.0821348801, -0.0216475837, 0.0885058045, -0.0417506471, 0.0303691067, 0.0471885093, 0.0329398364, 0.0302532054, 0.0393172912, 0.1424160153, 0.0160077866, -0.0728705898, 0.0728442147, -0.0358300470, -0.0673986748, 0.1054098755, -0.0675844401, -0.0661454052, -0.0222005472, 0.0346697047, -0.0613475814, 0.1698900163, 0.0073708333, 0.1319131702, 0.0685566887, 0.0271866750, -0.0507729203, -0.0225406718, 0.1334973425, -0.0440168157, 0.0945310220, 0.0463844649, -0.0390883200, 0.1254218370, 0.0778807476, -0.0277114827, -0.0273099691, -0.0158253442, 0.0681570023, -0.0601840466, 0.0759664401, -0.1016182750, 0.0811110288, 0.0408723243, -0.0463342443, -0.0201479662, 0.0782395303, -0.0748932809, -0.0549978390, -0.0865743011, 0.0677951574, -0.0294504613, 0.0531434491, 0.0516165048, 0.0376557223, 0.0146295866, -0.0455694012, 0.0372850746, -0.0047189943, -0.0404298790, -0.1316142678, -0.1068412289, 0.0678924322, -0.0073869084, 0.0550408773, 0.0239111688, 0.0098518115, 0.0563847981, -0.0242553260, -0.0428761952, -0.0046345666, 0.0392386802, 0.0624110848, 0.0711769611, 0.1232372895, 0.0441397130, -0.0457627028, -0.0371155627, 0.0860228539, -0.1359621137, -0.0176412594, 0.0527810231, 0.0030990026, 0.0663793162, 0.0174224563, -0.0098135630, -0.0230389275, -0.0318076909, -0.0530538261, -0.0893211663, 0.0256318375, -0.0347877592, -0.0730338693, 0.0142109487, -0.0410836935, 0.1193282157, 0.0818921626, 0.0570891015, 0.0451356396, 0.0186569802, 0.0818886906, -0.0113143036, -0.0722903386, 0.0638776943, -0.0266277213, -0.0724543408, 0.0637362301, -0.0048508178, -0.0474309102, -0.1034024358, 0.0319995433, -0.0683546364, 0.0826206729, -0.0262725558, 0.0361672118, -0.0372545421, -0.0368533619, 0.0051060934, 0.0389846638, 0.0376521237, -0.0984822363, 0.0101638827, -0.0061704633, -0.0637766421, -0.0325313769, 0.0006476297, -0.0473359078, -0.0491449609, -0.0116531104, -0.0760724768, 0.0117204422, 0.0421693176, -0.0002570945, -0.0020427092, -0.0275418926, -0.0274068117, -0.0087517137, -0.0782055482, -0.0318365768, 0.0108716851, 0.0602546856, -0.0079309214, 0.0900370404, -0.0476385765, -0.0676718652, -0.0583744720, -0.0447911397, -0.0498115830, -0.0032925867, -0.0425617360, -0.0090893526, -0.0841085762, 0.0132928975, -0.0388060845, -0.0296111871, 0.0298940130, -0.0578064360, -0.0931619108, 0.0124967042, -0.0904109776, 0.0302604847, 0.0574585646, -0.1058608741, 0.0570430942, -0.0750088766, -0.0024800084, -0.0843259618, 0.0245033503, 0.0114192227, -0.0917285755, 0.0219652914, 0.1162406802, 0.0659740567, 0.0194073506, 0.0439154394, 0.0171623845, -0.0455730930, -0.0800137743, -0.0404196903, 0.0431920178, 0.0214637797, 0.0195851456, -0.0444779955, 0.0508965403, -0.0668246001, -0.0488278009, 0.0043781190, 0.0001201645, 0.0949837491, -0.0289141983, 0.0923186019, -0.0026453128, -0.0304987300, -0.0066554500, 0.0109882206, -0.0765937790, 0.0438227355, -0.0167406145, -0.0277227666, 0.0329401158, -0.0419857092, 0.0444507264, -0.0185510702, -0.0208370388, 0.0186263621, -0.0992702395, 0.0507576838, 0.0210531875, 0.0028756440, -0.0576169416, -0.0539924316, 0.0008688893, -0.0296798293, 0.0836617351, 0.0607049614, -0.0281268004, 0.1308254153, -0.0792020112, -0.0728038400, 0.0053454712, 0.0623479672, -0.1181489825, 0.0005283964, 0.0060749142, 0.0685370564, 0.0491197743, 0.0193092506, 0.0393517129, -0.0767561197, -0.0513758063, -0.0304944105, -0.0518590957, -0.0220294464, -0.1052662656, -0.0687379837, 0.0679353178, -0.0182084180, -0.0461553521, -0.0164395701, -0.0580656305, -0.0345469192, 0.0005421655, -0.0665137842, -0.0757882223, 0.0801130980, -0.0599574149, 0.0065378640, 0.0069272639, -0.0461636521, -0.0007181132, 0.0719227120, -0.0080994181, -0.0376175158, 0.0181611590, 0.0220749602, -0.1034192294, -0.0503942855, -0.1080330983, -0.0152216498, -0.1114510223, -0.0427144133, 0.0649601817, -0.0616590045, -0.0107187293, -0.0033122138, -0.0768598989, -0.0010140666, -0.0221168585, 0.0247345045, 0.0592803024, -0.0793851018, 0.0162212476, -0.0043526427, -0.0687588751, 0.0060792798, -0.0203770231, 0.0175506808, 0.1307006478, 0.0018631631, -0.0815164521, 0.1328388900, 0.0569668151, 0.0311044492, -0.0356443785, 0.0220610816, -0.0329244770, -0.1055897996, -0.0292088706, 0.0216954425, -0.0741433427, 0.0342765599, 0.1334498376, -0.0912202671, 0.0564990565, -0.0467411168, -0.0464951769, -0.0796614140, -0.0136687504, -0.0599301942, -0.0193838794, 0.0141889695, -0.0208567847, 0.0554332957, -0.0610881783, 0.0656631216, 0.0129619362, -0.0339058377, -0.0883291066, -0.0180845149, -0.0671700686, -0.1081104949, 0.1253090501, -0.1358943731, -0.0959193408, 0.0563525744, 0.0435478389, -0.0174228046, 0.0052062613, -0.0147523722, -0.0453716293, -0.0362033620, 0.0269354600, -0.0202788077, -0.0743876696, -0.0138914390, -0.0787589997, 0.0161422975, -0.0954161808, -0.1034814417, -0.2012147903, 0.0262091458, 0.0330871791, -0.0381530337, -0.0531368665, -0.0928404108, -0.0018907404, 0.0209576543, -0.0416874662, -0.0793841258, -0.0495528318, -0.0054331315, 0.0732382610, -0.0440477505, 0.0174358841, 0.0217919573, -0.0419511981, 0.0030626764, -0.0263133440, 0.0161601156, -0.0715250745, 0.0262728333, -0.0444411673, -0.0191376507, 0.0389980935, -0.0410332642, 0.0188772175, -0.0865459368, -0.0901030526, -0.0177280009, -0.0885078534, -0.1859144717, -0.0016408346, -0.0862824172, 0.0109245460, -0.0494162217, -0.0030420823, 0.0116638895, -0.0993730500, -0.0756946132, 0.0396764241, -0.0637683645, -0.0224803146, -0.0909132436, 0.0677072108, -0.0629323199, 0.1270992011, 0.0111189121, 0.0264153201, 0.1397892386, -0.0726827309, -0.0076014213, -0.0993669331, 0.0917591080, 0.0368051305, 0.0224820562, -0.0205163620, 0.0314897224, 0.0321707688, 0.0774528757, -0.0334590636, -0.0410371348, -0.1527951062, 0.0216070991, -0.0678611621, 0.0150782838, -0.0126613230, 0.0701104626, -0.0649449602, -0.0098257400, 0.1052098349, -0.0342401229, 0.0132421097, 0.0699412674, -0.0550155193, 0.0510695949, -0.0069937366, 0.0073399530, -0.0246108267, 0.0116648860, 0.1142452955, -0.0082130795, 0.0282832645, 0.0702100694, -0.1684713811, -0.0058206380, -0.0544451363, -0.0564207435, -0.1349799186, -0.0398673043, 0.0119126271, -0.0592607744, -0.0092056822, 0.0248444527, -0.0763669536, -0.0340806916, 0.0045391405, -0.0606443509, 0.0168878995, 0.0235172752, 0.0120847905, -0.0841510668, -0.0931906775, 0.0651841015, 0.0713344589, 0.0499173775, -0.0906630903, 0.1527183652, 0.0161818136, -0.0226475522, 0.0300717503, -0.0938772187, -0.0032422077, -0.0414495058, -0.0248796064, -0.0296808295, -0.0440267660, -0.0394951627, 0.0104482789, 0.0302745365, -0.1645069867, 0.0191022381, -0.0050948011, 0.0038061091, 0.0137001686, -0.0887474418, -0.0507740304, -0.0943893641, 0.0421892367, 0.1005540639, -0.0467002168, 0.0041784314, 0.0992126986, -0.0732615143, 0.0803924203, -0.0377731808, -0.0414330140, 0.0124988062, 0.0373986848, 0.0157849547, 0.0586126000, 0.0028603987, -0.1176623181, 0.0976755768, -0.0067952340, -0.0319498666, 0.0097957291, 0.0202521719, 0.0544287823, 0.0636119545, 0.0455808342, 0.0294906367, -0.2697793841, 0.1052549854, 0.1063811928, 0.0501449071, 0.0070668687, -0.0027959398, 0.0773168430, -0.1106454283, -0.0869824290, 0.0063809352, -0.1094276011, -0.0409055501, -0.0661909580, 0.1438864321, 0.0267818999, 0.0961419269, 0.0194673967, 0.0854734108, -0.0498614833, 0.0989378169, 0.0678163320, 0.0364951529, 0.0509363711, -0.1121520177, -0.0389945507, -0.0184060074, -0.0327169150, 0.0741748661, 0.0527416281, 0.0955585539, 0.0297474116, 0.0820847973, -0.0712384880, 0.0089317597, -0.0120678935, 0.1295699626, -0.0379157066, -0.0898584723, -0.0230905768, 0.0313694663, -0.0585125796, -0.0201391745, 0.0360199399, 0.0236326996, 0.0516414829, -0.0390739962, 0.0844284147, 0.0263760556, -0.0474112146, 0.0695537701, -0.0223032925, 0.0297149885, 0.0426407605, 0.0266296845, -0.1286200583, 0.0828348845, -0.1280536205, -0.0285011046, 0.0003473164, -0.0436388627, -0.0175875612, -0.0289134067, -0.0150237074, 0.0020970725, 0.0652618408, 0.0422348566, -0.0435526632, 0.0523184389, -0.0263610538, -0.0297421794, 0.0556259975, -0.1293697506, 0.0449231528, -0.0328402668, 0.0413826741, -0.0181701202, -0.0074206623, 0.1401751041, -0.1133803949, 0.0171282440, -0.0061920192, 0.0225373860, -0.0357604027, 0.0263959859, 0.0747237802, -0.0730016083, -0.0873177722, 0.0352801643, -0.0367627330, 0.0039599654, -0.0467248783, 0.1243738830, 0.0633138120, -0.0134009337, -0.0638724118, 0.0020789213, 0.0240151323, 0.0051991120, 0.0007549273, 0.0242765341, 0.0062134657, -0.0796795934, -0.0200282913, -0.0279745515, 0.0543700159, -0.0464276411, -0.1161085293, 0.0479498245, 0.0616377667, -0.0430718996, 0.0721612275, 0.0237912629, 0.0091616036, -0.0236816723, -0.0918543562, -0.1331635863, 0.0867412388, 0.0547695868, -0.1171644107, -0.0748985559, -0.0218826570, 0.0073844176, 0.0431987047, -0.0951651260, -0.0410964303, 0.0400915667, -0.1735160053, -0.0506062657, 0.1231785342, -0.0973895565, -0.0202312842, -0.0555555783, -0.1606458277, -0.0225007087, -0.0408153832, -0.0658008158, 0.0118095893, 0.0472651273, 0.0685480386, 0.0508103035, 0.0828454420, -0.0113263093, 0.0738518536, 0.0455667861, 0.0549397022, 0.0530320853, 0.0788747743, 0.1663999110, -0.0474303812, -0.1208033860, -0.0346978232, -0.0252678916, 0.0177745167, 0.0011117924, -0.0166908838, -0.0007769327, 0.0372567773, -0.1459838152, -0.0102797663, 0.0548043959, -0.0263590980, -0.0346242450, 0.0095188301, -0.0538806021, 0.0917072520, -0.0404873416, 0.0081833377, -0.0725226700, 0.0809061006, 0.1329459250, 0.0175283700, 0.0181157906, 0.0423427150, -0.0548041575, -0.0201753043, -0.0170033425, 0.0034307507, 0.0319300629, 0.0948022604, 0.0527685955, 0.0889855996, -0.0110637192, 0.0127352122, 0.0525479168, -0.0727620497, 0.0065451902, 0.0477798395, 0.0544672683, 0.0226411130, -0.0219952036, 0.0189676397, -0.0426414944, -0.0837677866, 0.1592777669, 0.0383441150, 0.0575899705, 0.0564340912, -0.0379812159, 0.1074199528, -0.0251324419, 0.0196429137, -0.0113191735, -0.0097651742, 0.0685490221, 0.0403070487, 0.1239841282, -0.0400302745, 0.0317355469, 0.0620206371, 0.0853346437, -0.0176701453, -0.0269795172, 0.0732328966, -0.0254664216, 0.0041611996, 0.0756872594, 0.0161406659, 0.0794501975, 0.0415721685, -0.0693526864, 0.0242750570, -0.1707861722, 0.0850542858, 0.0615565069, -0.0342771374, -0.0161971059, 0.0025132929, -0.0457064547, 0.0720289722, 0.0437355824, 0.1121682972, 0.0466085970, 0.0433549099, 0.1384584308, 0.0028690612, 0.0309046730, -0.0313683636, 0.0585387610, -0.0537434109, -0.0049983393, 0.0261574648, 0.0206990596, 0.0581912287, 0.0425417684, 0.0109636057, 0.0555493571, -0.0138967484, 0.0130402697, -0.0919509530, 0.0552059039, 0.0655491799, 0.0787808001, 0.0098688984, 0.0509979390, 0.0068124630, 0.0351971723, 0.0524886884, 0.0621387362, 0.0568619147, -0.0190925896, -0.0276627634, -0.0098194769, -0.0120586185, 0.0447783507, 0.0266354755, -0.0278355330, 0.0304074306, -0.0116068935, -0.0112710167, 0.0208421312, 0.0304728951, 0.0091573168, 0.1059112549, -0.0829480588, 0.0378075317, 0.0001417506, 0.0695366114, -0.0904039070, 0.0323716104, 0.0280727521, -0.0127164936, 0.0924325511, 0.0231853314, 0.0534670129, 0.0458338857, -0.1451954842, -0.0613721870, -0.0209987108, -0.0107347257, 0.0662037209, 0.0178829767, 0.0076248418, -0.0226381067, 0.0934918374, 0.0595584214, 0.0344679430, -0.0636575148, 0.0309911668, 0.0389065146, 0.0418022461, 0.0840200260, 0.0353834257, -0.0303496234, 0.0509900413, -0.0314012319, 0.0865212530, 0.0339737460, -0.0281804856, -0.0568733551, 0.0068853074, -0.0419576354, 0.0378601812, 0.1003233418, -0.0096298307, 0.0188331064, 0.0188458599, 0.0780706778, 0.0676328465, -0.0766758472, 0.0461739227, 0.1020920798, 0.0354924537, 0.0577937104, -0.0119023891, 0.0214159936, 0.0117089553, -0.0017089137, -0.0479950756, -0.0365952887, 0.0000500940, 0.0989103764, 0.0058097136, -0.0207068156, 0.0017873867, -0.0665839836, 0.0218662266, 0.0132835684, -0.0190746095, -0.0551436655, 0.0333884396, 0.1017709970, -0.0279009696, 0.0917519331, -0.0400959738, 0.0237620082, 0.0467001647, 0.1145552695, -0.0221206062, -0.0364625342, 0.0353358239, 0.0720183775, -0.0513030738, 0.0337477066, -0.0267290398, -0.0733644366, 0.0909531489, -0.0572409108, 0.0605285391, -0.0708884746, 0.0122219110, 0.0588196665, 0.0675336868, 0.0536093935, -0.0013918148, 0.0026664191, -0.0895548165, -0.0469961800, -0.0231402125, -0.0885823071, 0.0562165864, 0.0123254433, 0.0768451020, -0.0387924016, 0.0822327137, -0.0699857697, 0.0558199771, -0.0127903651, -0.0442699119, 0.0558292829, -0.0274506398, 0.0795413479, -0.0517106056, 0.0593039542, -0.0124097317, 0.0267213266, -0.0487096012, 0.0192710701, -0.0579470061, 0.0024530140, 0.0334798805, -0.0138741480, -0.0825550556, 0.0507967435, 0.0341596901, 0.1088172421, -0.0471453555, -0.0127129434, 0.0311833154, -0.0761733279, 0.0835492909, 0.0326178893, 0.0573279187, 0.0213199370, 0.0123782204, -0.0386481620, 0.0402205549, 0.0331743360, -0.0186408684, -0.0147609254, 0.0749710351, -0.0296382383, 0.0250291824, 0.0405544378, 0.0051563862, -0.0219873805, -0.0262799934, -0.0236112718, 0.1067240089, -0.0319421515, 0.0290087070, -0.0030253807, -0.0331652053, 0.0554880016, 0.0042168531, 0.0180821046, 0.1001137570, -0.0745939538, -0.0302787721, 0.0231107604, -0.0144081125, 0.0629886389, 0.0204875022, -0.0040773051, -0.0240390915, 0.0237009767, 0.0215577055, 0.0980336219, 0.0377386212, -0.0161864217, 0.0439303145, 0.0862809345, -0.0542937666, 0.0248091035, 0.0583269559, -0.0649332255, -0.0232384298, -0.0734252632, -0.0407698005, -0.1354516149, 0.0105196759, 0.0110455211, -0.0789541900, 0.0708821565, -0.0091472566, -0.0507859215, 0.0157883931, -0.0058016181, 0.0794645473, 0.0302445032, -0.0541491061, -0.0363757722, -0.0075470484, -0.0377426073, 0.0914461315, 0.0161234178, -0.0569431856, -0.0069182701, -0.0605676956, 0.0099920304, -0.0256363209, -0.0981541723, -0.0129885562, 0.0006749362, 0.0072469409, 0.0107137943, 0.0118647777, -0.0356172435, -0.0129011376, -0.0414435007, -0.0079522179, 0.0032714182, 0.0748489797, -0.0659536347, 0.1041973084, 0.0329633541, 0.0568194501, 0.0173885692, -0.0857635364, 0.1148646772, -0.0078039235, 0.0384264030, -0.0110372966, -0.0225911010, 0.0260089412, 0.0639060140, -0.0697914064, 0.0328803137, 0.0465356745, -0.0132722519, 0.0945936069, 0.0175530594, 0.0566677749, -0.0004557191, 0.0883917436, -0.0279024541, -0.0677004308, 0.0718348846, -0.0022277620, -0.0194318481, -0.0133814830, -0.1867908835, 0.0316630043, 0.0090211891, -0.0779012591, -0.0646277070, 0.0126294838, 0.0166342445, -0.0221295953, -0.0273889657, -0.0587223582, -0.0117703611, 0.0883625895, 0.0687924102, -0.0104897851, 0.0581952855, -0.0115602976, -0.0130371274, -0.0391876660, -0.0429302864, -0.0990500376, -0.0927533433, -0.0064055487, -0.0423398986, 0.0404593423, -0.0514235236, -0.0150131928, 0.0470936857, -0.0081552612, -0.0383689888, 0.0278049204, 0.0161926150, -0.0083550299, 0.0034182919, 0.0416270271, 0.1288619488, 0.0172799211, -0.1031189039, 0.0076691872, -0.0462497324, 0.0459969640, -0.0137627404, -0.0217175987, -0.1074193940, 0.0440423079, -0.0387445763, 0.0158140119, 0.1230606139, -0.0421677120, -0.2675810456, 0.0312803611, -0.0801457539, -0.0198937654, 0.0326604173, -0.0171319656, 0.0913784802, 0.0419977643, -0.0674322322, 0.0385451466, 0.0874684677, 0.0699625835, -0.0287272055, -0.0415395573, -0.0858281031, -0.0091814976, -0.0583244227, 0.0151251033, 0.0570018254, 0.0211324189, 0.0070872116, 0.0202141758, 0.0466024466, 0.0989471301, 0.0227558855, 0.1277262866, 0.0962436199, 0.0112556443, -0.0161339492, 0.0379213616, 0.0524555668, -0.0794629753, -0.0118888542, 0.0397434607, -0.0532770827, -0.0711371303, 0.0172776598, 0.0831442177, -0.0184721798, 0.0337717757, -0.0152075933, 0.0160373691, -0.0301269982, -0.0438782945, 0.0323297083, 0.0524510667, 0.0295634363, 0.0216118265, -0.0410835333, -0.0734768063, 0.0879924744, 0.0243825838, -0.0936435089, -0.0227981899, -0.0459727831, 0.0661614761, -0.0846058503, -0.0372324623, -0.0701525137, 0.1871106923, 0.0244941972, 0.0870562643, 0.0652762130, 0.0568246394, -0.1255369186, -0.0396731533, 0.0022120674, 0.0154183619, -0.0994937345, 0.0503406487, 0.0046987133, -0.0223124083, 0.0281588770, 0.0228194911, 0.0706791580, -0.0957849920, 0.0778366178, -0.0571259074, -0.0662769005, 0.0274840854, -0.1162400693, 0.0132580185, -0.2139250785, -0.0377766192, 0.0706461295, -0.0611293651, -0.0609805621, -0.0164011773, 0.0528790802, 0.0830544680, 0.0150507214, -0.0845884830, 0.0388250649, -0.0187150631, -0.0467709862, -0.0297338795, -0.0751634538, 0.0429725088, 0.0337297246, 0.0039794659, 0.0672747567, -0.0705250129, 0.0391060971, 0.0225298144, -0.0007800946, 0.0133021660, -0.0526661724, 0.0459784791, -0.0640250966, 0.0603145771, 0.0241258852, 0.0169282313, 0.0583725497, 0.0513234027, 0.0680971518, 0.0933644176, 0.0371817686, 0.0824372992, -0.0189769547, 0.0414265245, -0.0168778449, 0.0085679861, -0.0746140033, 0.0820375383, -0.0017263008, 0.0754889473, 0.0448020026, -0.0718672276, -0.1350093633, 0.0396083668, -0.0377090201, 0.0583900064, -0.0132798115, 0.0230273269, 0.0090424623, 0.0718147755, -0.1147994921, -0.0381436497, 0.0152925570, 0.0305332486, -0.0161337461, -0.0726790652, -0.1023253277, -0.0569480956, -0.1945801973, -0.0481244475, -0.1009594426, -0.0346015096, 0.0303800814, 0.0201775059, -0.0935733020, 0.0285249595, 0.0176059995, -0.0089283809, -0.0185491126, 0.0571841635, 0.0189650096, 0.0251728836, 0.0271239392, 0.0019413065, 0.0825432092, 0.0881918445, 0.0311844498, -0.0316445529, -0.0283015892, -0.0124188205, -0.0076495302, -0.0009624630, -0.0732813925, -0.0578251518, -0.0165494792, -0.0727945939, 0.0389835760, 0.0748175085, -0.0250375867, -0.0034377561, 0.0426142663, 0.0620944574, 0.0609289967, -0.0543463826, -0.0839930624, 0.1062696129, 0.0674040541, 0.0479120389, 0.0584391020, -0.0088037439, -0.0681675300, -0.0164892506, 0.0453379899, 0.0646833032, 0.0594019219, -0.0109673664, 0.0088703539, 0.0231039859, -0.0422502011, 0.0239854343, 0.0146233095, -0.0129426122, 0.0257700887, 0.0245240014, -0.0437137820, 0.0813037157, 0.0275679529, 0.0390104204, 0.0903704837, 0.0221328177, 0.0641716272, 0.0616364889, 0.0212791637, -0.0182290804, 0.0498569384, -0.0441809669, 0.0151178706, 0.0254196823, -0.0365955979, 0.0531022027, -0.0649583340, -0.0338146836, -0.0306309573, -0.0474218354, -0.0762870014, -0.0679870471, 0.1157706007, 0.0118186921, 0.1039483324, -0.0213798955, 0.0525564142, 0.0318981484, -0.0018645735, 0.0323235355, 0.0532449372, 0.0559414253, 0.0183039084, -0.0012449984, -0.0046756119, -0.0417762399, -0.0161110517, -0.0172944274, 0.0779150501, -0.0177972205, 0.0599630252, 0.0075841374, 0.0412544794, -0.0657479316, -0.0821169615, 0.1150907949, 0.0688141212, -0.0404471345, -0.0435974523, -0.0369911119, -0.1259583235, 0.0195728391, -0.0749534369, 0.0233851373, 0.0422106907, 0.0298606455, -0.0051146634, 0.0215667114, -0.0853728652, -0.0150857884, -0.0835965276, -0.0450967140, 0.0224138182, 0.0502559058, 0.0285345316, 0.0036070910, 0.0744059756, 0.0478839651, -0.0015135749, -0.0247330442, -0.0262325611, -0.0584212504, -0.0851464123, -0.0214205962, -0.0296343397, -0.0063602459, 0.0211673696, 0.0155743128, 0.0815091059, 0.1117915660, 0.0709741414, 0.0465456545, -0.0551664755, -0.0466158241, 0.0387138203, -0.0579530373, -0.0044523217, -0.0163780842, 0.0624287948, 0.1051094607, 0.0792594776, 0.0331205688, -0.0347709581, 0.1181168333, 0.0840027928, 0.0212116595, 0.0078745205, -0.0279159583, -0.0347752720, 0.0631284118, -0.0376806036, -0.0025413646, 0.0468124859, 0.0053079273, -0.0277470425, 0.0643019006, -0.0090788817, 0.0317571647, 0.0479143001, 0.0330921449, -0.0291434154, -0.0797349289, 0.0367860906, 0.0266041439, -0.0677052289, 0.0253527425, -0.0408479683, 0.0450810231, -0.0056198756, -0.0374691188, -0.0357632898, -0.0540330447, 0.0580125824, 0.0717759952, -0.0009098229, 0.0078112115, -0.0755473748, -0.0304073617, -0.0595933273, -0.0234408025, -0.0061198445, -0.0760764703, 0.0588396080, 0.0376259759, -0.0248849820, -0.0396419391, -0.0615361333, 0.0040112790, -0.0757691041, -0.0908776894, 0.0552682132, 0.0618280098, 0.1188891456, 0.0194098558, 0.0307949129, -0.0210000928, 0.0649611577, 0.0114884758, -0.0574633405, 0.0402492844, 0.0010982853, -0.0354469903, -0.0772135854, 0.1091995463, 0.0284837335, -0.0399603397, 0.0541175790, 0.0024928243, 0.1166647747, 0.0472601913, 0.0584038757, 0.0735209435, 0.1510655731, 0.1136374548, 0.0064525022, 0.0557028875, 0.0365630612, -0.0498770289, -0.0133579187, -0.0249488968, -0.0019179297, 0.1414631605, -0.0562575310, 0.0640754625, -0.0304355621, 0.0053268094, 0.0147358868, -0.0534435399, -0.0908999071, -0.0262210686, -0.0240400881, -0.0210716929, 0.1269369274, -0.0176252034, -0.1217304245, 0.1210775673, 0.0786749572, 0.0602471754, 0.0479359254, -0.0086756255, 0.0335662067, -0.0364554897, 0.0595710874, 0.0579855666, 0.0629528835, 0.0282334965, -0.0116207432, -0.0254084002, -0.0487542152, -0.0030693829, -0.0299620386, -0.0158277359, -0.0505667888, -0.1197161004, -0.0232380833, 0.0287693385, 0.0112276841, 0.0403759070, -0.0559150688, 0.0425863825, -0.0070931981, 0.0183649976, -0.0200496819, -0.0301795024, 0.0667756796, -0.1123820469, -0.0550089702, 0.0924649537, 0.0808731318, 0.0215808563, -0.0037219869, -0.0124203181, -0.0005012287, -0.0823889598, 0.0522245616, -0.0302833486, 0.0775361657, -0.0326676928, 0.0629346371, 0.0372424535, -0.0136584835, -0.1193126738, -0.0299218558, -0.0355778486, 0.0794941112, 0.0267492663, -0.0343746543, -0.0003313249, 0.0147593459, 0.0093472842, 0.0507467873, -0.0155295329, 0.0531404726, -0.0798531398, 0.0457644053, -0.0053773029, 0.0442900248, -0.0112079578, 0.0252759140, 0.0356673785, 0.0328578465, 0.0004906733, -0.0528704263, 0.0224075839, -0.0749176815, -0.0402238220, 0.0067023942, 0.0187236760, 0.0309281386, -0.0474837497, 0.0568833761, -0.0219532736, -0.0288240481, 0.0071142605, -0.1089645848, 0.1075905412, 0.0089143887, -0.1432140172, -0.0617847256, 0.0712746009, -0.0100630745, 0.0075666546, -0.0565375760, 0.0160508882, 0.0784717351, 0.1074936092, -0.0539969169, 0.0583588667, 0.0765298605, -0.0161933210, -0.0225878209, -0.0183928423, 0.0906405002, 0.0120046288, 0.0167754777, 0.0339097194, -0.0178984217, 0.0692536235, 0.0247683953, -0.0111954594, 0.1372295469, 0.0202041082, -0.0987155139, 0.0881141424, 0.0972425789, 0.0246357918, 0.0726749077, 0.0361985415, 0.0178971346, 0.0159100983, -0.0703121722, -0.0228330605, 0.0512057431, 0.1105431095, 0.0790332928, 0.0157961287, -0.0281618945, -0.1705128998, 0.0510496013, -0.0287450012, -0.0114776352, 0.0021001748, -0.1072891429, 0.0599998906, 0.0581189394, 0.0082535818, 0.0090191960, 0.0767632574, -0.1171040908, 0.0957614705, 0.0639168248, 0.0687625185, -0.0218009520, -0.0088149132, 0.0827522874, 0.0547459908, -0.0451613255, 0.0523218177, -0.1766778827, 0.0106704729, -0.0696907789, -0.0732395500, 0.0591216087, -0.0093012275, -0.0560184829, 0.0090800682, 0.0374673754, 0.1205627695, 0.0198618025, 0.1372898370, -0.1018180251, -0.0524597540, 0.1279694736, -0.0562194064, 0.0198632963, 0.0380377471, -0.0723259225, 0.0455952995, -0.1033286750, 0.0420293584, 0.0156065570, 0.0380586572, -0.0199305918, 0.0937897488, 0.0886182338, 0.0652228445, 0.0605738014, -0.0050634518, -0.0461776778, -0.0205236245, 0.0427344963, 0.0542891547, 0.0107906703, 0.0495181270, 0.0060777529, -0.0559292398, 0.0176834166, -0.0218700208, -0.0103641814, 0.0054738303, -0.0270597134, -0.0578050539, -0.1315844506, 0.0016587126, 0.0450023413, 0.0645945817, -0.0453940406, -0.0452422723, 0.0234989468, 0.0069190897, 0.0090011731, -0.0270752069, 0.0222962685, 0.0445474572, -0.0849463195, 0.0525072850, 0.1265233159, -0.0844912529, -0.0302510206, -0.0159106553, -0.0857184306, 0.0355406329, 0.1186958402, -0.0164271872, -0.0343134962, -0.0948624909, 0.0307955351, 0.0121597769, -0.0161636919, 0.0314023271, -0.0395505019, 0.0323400907, 0.0470359586, -0.0324166268, -0.0078786584, -0.0557799079, -0.0569897592, -0.0093239881, 0.0095377471, 0.0012710690, -0.0458061062, -0.0768451020, -0.0009843000, -0.0392281637, -0.0386226475, 0.0553664751, -0.0323381536, -0.0434247740, -0.0150174135, 0.0095185162, 0.0875045136, -0.0046277875, -0.0599769987, -0.0479635559, 0.0551695563, -0.0627876520, 0.0130266808, -0.0141944578, 0.0336114466, 0.0251428410, 0.0215068515, 0.0613522343, 0.0509834103, -0.0695071742, -0.0745908096, 0.0076240823, 0.1071820781, -0.0977347195, 0.0841744170, 0.0866538510, -0.1024495959, -0.0140681239, 0.0081159109, -0.1100264490, 0.0506813601, 0.1281327903, 0.0502233580, 0.0712881237, 0.0476318449, -0.0214454383, 0.0045105810, -0.0254300665, 0.0428354368, -0.0897048339, -0.0765521899, -0.0571251027, -0.1069193780, 0.0544252843, -0.0518057048, -0.0188851692, 0.0620739460, 0.0031489104, 0.0569999926, -0.0501471199, 0.0698601827, -0.0229212828, 0.0310071278, -0.0528500751, 0.0469621457, 0.0367511287, 0.0341852047, -0.0647422895, 0.0286427941, -0.0388091616, -0.0219132956, -0.0928976908, -0.0331008174, -0.0740502849, 0.0629691184, 0.0623817928, -0.0261057708, 0.0840208232, 0.1184193268, -0.0594825484, -0.0818384811, 0.0331244357, 0.0402455144, -0.0257084966, -0.0287977383, -0.0477001779, 0.0383210033, -0.0015000760, -0.0501800999, 0.0281437077, -0.0015348342, -0.0140339304, 0.1104943976, -0.0358179249, 0.1894800365, -0.0577917024, -0.0315552242, -0.0264819302, 0.0970137417, -0.0153402286, -0.0031571726, -0.0889549032, -0.0425937697, -0.0344501846, -0.0263904352, -0.0760217458, 0.0215071924, 0.0983040258, 0.0405776128, 0.0192309376, 0.1469090134, -0.1090971380, -0.0779825300, -0.0475014187, -0.0096614659, -0.1182835028, -0.0005458557, -0.1261771321, 0.0552022830, -0.0509239398, 0.0139598371, -0.0569002070, 0.0215319488, 0.0546615310, 0.0366303138, -0.0082820868, -0.0315230787, 0.0490355827, -0.0466115065, -0.0592318699, 0.0201622806, -0.1424980313, -0.0826279148, 0.0163163971, 0.0763656870, 0.1170507371, -0.0241057575, 0.0056002219, -0.0116314869, -0.0339044742, 0.0035465304, 0.0963404104, -0.1365251392, -0.0759266019, 0.0073505617, -0.0148803880, -0.0432230532, -0.1087274998, 0.0390463099, -0.0486907549, -0.0440806597, -0.0940535143, -0.0348024629, -0.0201655626, -0.0715302080, 0.0166871864, 0.0691667199, 0.0223030820, -0.0513332784, -0.0383336768, -0.0398106314, -0.0812677592, -0.0386067294, -0.0246263258, 0.1270135194, -0.0465898030, -0.0254280902, 0.0675747693, 0.0007989502, -0.0399219543, 0.0480772145, -0.0790922493, -0.0072903950, -0.0420694388, 0.0352437645, 0.0453521684, -0.0076847784, -0.0483080074, 0.0073480518, -0.0182921011, -0.0145570189, -0.0702853054, -0.0875708759, -0.0713858381, 0.0557287373, 0.0806840509, -0.0133841764, -0.0467619039, -0.0003063887, -0.0141434679, 0.0315861553, -0.0154456077, -0.0287303235, 0.0164844152, -0.0628744662, -0.0045569735, 0.0575923994, 0.0679182336, -0.0030303770, -0.0106476247, -0.0752298161, -0.0694164783, 0.0111473082, -0.1044657156, -0.0183342658, 0.0866223797, -0.0503550582, 0.0060199187, 0.0805230141, -0.0094622932, 0.0039282436, -0.0094105853, -0.0709579587, 0.0095907813, 0.0662445500, -0.0047189067, 0.0054187998, 0.0022166446, -0.0153135629, 0.0311422907, 0.0102820452, -0.0931579769, 0.0315384567, 0.0482926629, -0.0402798317, -0.0118546439, 0.0944861770, -0.0214620885, 0.1572645009, -0.0066524860, 0.0153703494, -0.0067836782, -0.0062174797, 0.0458586775, 0.0420071557, 0.0772257149, -0.0050360244, 0.0705782548, 0.1315164268, -0.0448300503, -0.0282415170, -0.0625512674, 0.0725511536, -0.0391284302, 0.0495107286, 0.0129093891, -0.0249254722, 0.0572852530, 0.0229564272, -0.0582223833, -0.0330061428, 0.0084594050, 0.0593479574, -0.0349886529, 0.1112466529, -0.0571996234, 0.0710362345, -0.0305402540, -0.0013792154, -0.0207463168, -0.0899603069, 0.0480100848, 0.0252508633, 0.0320849158, -0.0258709397, 0.0312378760, 0.0190011617, -0.0886888728, -0.0223117638, 0.0333942659, -0.0768896192, 0.0511510000, -0.0345565192, 0.0606758855, 0.0081836646, -0.0437172987, -0.0201578271, 0.0200018734, 0.0673859641, -0.0548190922, -0.0349277481, -0.0767504349, 0.0738006607, 0.0053368108, -0.0535904169, -0.1500639170, 0.0419779085, 0.0226381365, -0.0287393536, 0.0543372221, 0.0203202665, 0.0073139537, 0.0933386236, -0.0623249710, -0.0537834540, -0.0595276020, -0.1260044277, -0.0955026150, -0.0256969556, 0.0738746449, 0.0095041934, -0.0537107065, 0.1084217653, -0.0750476047, -0.0595690906, -0.0744187757, -0.0750365555, -0.0570812672, -0.0714084804, -0.0872934759, -0.0709471256, 0.0418965779, -0.0859814808, -0.0465874448, 0.1005239487, 0.0461348034, -0.0490398705, -0.0043052253, 0.0309648924, -0.0906131044, -0.0125926109, 0.0067423652, 0.0590266362, -0.1385731846, 0.0093357218, 0.0069206785, 0.0209264830, -0.0063223173, 0.0670423284, -0.0527837537, -0.0524255112, 0.0429262631, 0.0558444411, -0.0455044955, 0.0317407176, -0.0349546447, -0.0503195040, -0.0895995274, -0.0235037692, -0.1177902520, -0.0708681718, -0.0451007634, -0.0776882097, -0.0097202919, -0.0721409917, -0.0260788500, 0.0270488020, 0.0373225734, 0.0488421954, 0.0710836574, 0.0115584489, -0.0601269975, 0.0119775636, 0.0457295589, 0.0362199284, 0.0290266387, -0.0628710613, -0.0036211277, -0.0033027106, 0.0576598346, -0.0231842715, -0.0377352796, 0.0390408188, -0.0204118229, 0.0633198619, 0.0391547754, 0.0411786884, 0.0528280139, -0.0206148680, -0.0998582914, 0.0350740366, 0.0665736347, 0.0721613243, -0.0532698855, -0.1396781504, -0.1154568344, -0.0109520694, 0.0040683663, 0.0912596285, -0.0350704864, -0.0040672021, -0.0615986623, -0.0823875144, -0.0055144322, -0.1303149611, -0.0260277521, -0.0273644067, 0.0090305302, -0.0698546022, -0.0597934350, -0.0833850577, 0.0886489302, 0.0852764547, -0.0677849129, -0.0290070418, -0.0051594009, -0.0070185135, -0.0512145832, 0.1088752374, -0.0381749049, 0.0413004532, -0.0872005150, -0.0051874272, -0.0042759972, -0.0437164679, 0.0684973225, 0.0338966064, -0.0498519056, -0.0258665755, -0.0158631839, 0.0880568847, 0.0227989871, 0.0073675360, 0.0924562439, -0.0038762938, 0.0541609153, -0.0054928591, 0.0361110754, 0.0196596142, 0.0581619889, 0.0957235992, -0.0454702638, 0.0170278586, 0.0067974110, -0.0623020902, 0.1132389009, 0.0702614337, 0.0331115201, 0.0476690866, 0.0273577571, -0.0048096194, 0.0242316462, -0.1262417734, -0.0491122045, 0.0717316791, 0.0220005997, 0.0077051986, -0.0020734514, -0.1248826981, -0.0035618448, 0.0370550081, 0.0521369465, 0.0369959176, 0.0506205447, 0.0480970889, 0.0653213486, 0.0377565883, -0.0154771917, -0.0847296342, -0.0385979302, 0.0074038412, 0.0793186054, -0.0538821965, 0.0608005077, 0.0661077574, 0.0348933786, 0.0782642365, 0.0609226152, -0.0099789444, -0.0124118915, 0.0009396141, 0.0254436713, 0.0691997334, -0.0941818655, -0.0729535669, -0.0375774987, 0.0638241917, 0.0555869229, 0.0217522532, 0.0496497601, -0.0755809993, -0.0372708142, 0.0770124719, 0.0419100411, -0.0084426180, -0.0820255056, -0.0439255908, 0.1047929004, -0.2380450368, -0.0170435831, 0.0344155915, 0.0926576629, -0.0182775706, 0.0206673816, -0.3650270998, 0.0208917260, 0.0769489855, -0.0085608950, 0.0244252104, 0.0890434831, -0.0551614948, 0.0731560439, -0.0964297131, -0.0143014137, -0.0246905107, 0.0487725884, 0.0221606679, 0.0471836589, -0.0694876760, 0.0357904844, -0.0076547437, 0.0328825377, 0.0871109664, 0.0089796791, 0.0788735524, 0.0183951240, -0.1309761256, -0.0103741661, 0.0076360721, 0.0150082596, -0.1027021855, -0.0020121112, -0.0589100793, 0.0739756748, 0.0351264179, 0.0792320147, -0.0510422885, -0.0062064198, -0.0038309577, -0.0283587780, 0.0827312246, 0.0335114151, 0.0077242698, 0.0387887955, 0.0344778448, 0.0553221852, -0.0425610431, -0.0699475333, 0.0548183210, 0.0555784106, -0.0936561972, -0.0039182636, -0.0275416113, -0.0881948993, -0.0185983386, -0.0206067637, -0.0606385358, 0.0159598850, -0.0599529184, -0.0159431044, -0.0248821452, -0.0260214638, -0.0703845099, -0.0411979370, 0.0546168089, 0.0391181633, 0.0042499024, -0.0503496900, -0.0612300374, -0.0034449107, 0.0324987136, 0.0050972197, 0.0305549037, -0.0211011562, 0.0457525626, -0.0308855511, 0.0933048874, -0.0097700665, 0.0865298957, 0.0076810974, -0.0673144162, -0.0396903232, 0.0431941561, -0.0431661792, 0.0149935111, -0.0464938581, 0.1021171436, -0.0047286977, 0.0473832153, -0.0573201291, 0.1401259452, 0.0391014032, -0.0314551182, -0.0188998915, -0.0012289879, 0.0407849215, -0.0160816405, 0.0622701272, 0.0088435756, -0.0600543618, -0.0177929867, 0.0452957787, -0.0494066812, 0.0391712859, 0.0172188040, -0.0578392446, -0.0026598757, 0.1241965517, 0.0215171892, -0.0239881091, 0.0565856658, -0.0107793938, -0.0156401545, 0.0040952540, -0.0106091024, 0.0898811519, 0.0123697789, -0.0273218304, 0.0504989065, -0.0303326212, 0.0535226837, 0.0357185937, 0.0324598476, -0.0443028919, 0.0009941505, 0.0660385638, -0.0735974982, 0.1000199318, 0.1000748649, 0.0256989896, -0.0131121604, -0.0165239871, -0.0194262732, -0.1170988232, 0.0249793511, 0.0125389481, -0.0519124530, 0.0771618634, 0.0445097759, 0.1536266357, 0.0219554380, 0.0388047881, 0.1644816250, -0.0713086426, -0.0021287813, 0.0233841762, 0.0634398907, -0.0389867164, 0.0005021756, 0.0335080475, -0.1284799576, 0.0886212140, -0.0761150941, -0.0435153916, 0.0986344740, -0.0460834503, -0.0092452141, 0.1320868880, -0.0464429371, 0.0069580805, 0.0584574454, -0.0356632099, -0.0322415158, -0.0070323055, -0.0811214745, -0.0002098476, -0.0352216028, 0.0251184069, 0.0699042529, -0.0450666770, 0.0056464314, 0.1678437144, -0.1586833894, -0.0128551833, 0.0750755072, -0.0109398197, 0.0276537612, -0.0592878200, -0.0238392446, -0.0212872326, -0.0360253006, 0.0859517008, 0.0150003554, -0.0444513671, -0.0162642412, 0.0376113914, 0.1006743461, -0.0510930978, -0.0374807976, 0.1026677638, -0.1045073867, 0.1206141785, 0.0597215332, -0.0014698523, -0.0800374150, 0.0646555722, -0.0778472945, -0.0245058574, 0.0601351820, -0.0227673687, -0.0341756605, -0.0085336640, 0.0382935703, 0.1284448504, -0.0121208299, 0.0516640432, 0.0555841029, 0.0027792163, -0.0778714642, -0.0202626102, -0.0308060236, -0.0530608036, -0.1417532116, -0.0189468451, 0.0427587666, 0.0665165856, -0.0379302129, 0.0017786502, -0.0736251548, 0.0746068135, -0.0440429077, 0.1016920656, -0.0978081524, 0.1084214598, -0.0064877439, -0.0414207131, -0.0053385333, 0.1297144592, 0.0299869906, -0.0399573855, 0.1105047390, 0.1279545575, -0.0251403395, -0.0578128584, -0.0052731819, -0.0052254302, -0.0707810298, -0.0371762924, -0.1044094265, 0.1055434197, -0.0286941640, 0.0590307787, 0.0389785618, 0.1155225635, -0.0218379665, -0.0238387417, 0.0261919815, -0.0397627912, 0.0118715726, 0.0852238312, -0.0473759733, 0.0523748361, -0.0597765446, 0.0645040423, 0.0013622610, -0.2867629826, -0.1409561038, 0.1411816925, 0.0173049998, -0.0128396302, 0.0918510705, 0.0021647387, -0.0446335562, 0.0390462540, -0.0679811016, -0.0569516793, 0.0957584009, -0.0194524564, -0.0777921081, -0.0537949875, 0.0590496548, 0.0614098497, 0.0385179706, 0.0010896522, -0.1328041404, -0.0976674333, -0.0513560958, -0.0029856358, 0.1064256430, -0.0035653750, -0.0871754885, -0.0256849248, 0.0000075819, 0.0206078161, 0.0380129106, 0.0894057378, 0.0105222445, 0.0383928306, -0.0055702175, 0.0726619437, 0.0803996474, 0.0454853885, -0.0142645845, 0.0788404793, -0.0482080430, -0.0574356690, 0.0195975751, 0.0403979495, -0.0641849563, 0.1236957759, -0.0527945384, -0.0020751061, 0.0552545600, -0.0566336811, -0.0745009035, 0.0703547299, 0.0352401920, 0.0754233971, -0.0680319145, -0.0939666256, 0.1016729996, 0.0155446222, 0.0026738308, 0.0676408187, 0.0274826176, -0.0080331936, 0.0213013794, 0.0002605499, 0.0648457259, -0.2295715511, -0.1139362156, 0.0510745868, 0.0276658386, -0.0648703054, 0.0591556318, 0.0611992106, -0.1114126816, 0.0522871912, -0.1723167300, -0.0456374064, 0.0333559103, 0.0257183816, 0.0446204469, 0.0005059430, 0.1226696745, -0.0076843696, 0.0514538735, 0.0586592257, -0.0949496031, -0.0360759310, -0.0526491664, -0.0810112804, 0.0066096443, -0.0673906431, -0.0539697781, -0.0693550929, 0.1316240430, 0.0198380444, -0.0191053003, 0.0185105484, -0.0941836014, 0.0006106350, 0.0464786291, 0.0130961044, -0.0092668533, 0.0033470718, -0.0176222064, 0.0249297228, -0.0620182864, 0.0558788367, -0.0382464677, 0.0251737535, -0.0498094745, 0.1152327284, -0.2385002524, -0.0727237314, 0.0655787289, -0.1276974976, -0.0006885196, -0.0255971421, 0.0890039206, 0.0832668915, -0.0363158733, -0.0374164991, 0.0302986018, -0.0988886654, -0.0938085020, 0.0924976394, 0.0569058284, -0.0490932651, 0.0010775343, -0.0389895104, 0.1234452873, -0.1350343972, -0.0285245180, 0.0231792554, -0.0936736688, 0.0028688866, 0.1040815637, 0.0128997862, 0.0195878446, -0.1297401339, -0.0306601040, -0.0034130230, 0.0758448839, 0.1099115312, 0.0546208695, 0.0983301997, 0.0018906128, 0.0373659059, -0.0721814930, -0.0610341281, 0.0732818022, 0.0501129143, -0.0805181265, -0.0855822042, -0.0129442485, 0.0751187354, -0.0908431783, 0.0373949185, -0.0596043244, 0.1032653302, 0.0550770871, 0.1643445343, -0.0126161920, -0.0189238843, -0.0331866443, 0.0662249252, 0.0437419936, -0.0565596484, 0.0965523273, -0.0506282449, 0.0556247383, -0.0663194135, -0.0436220169, 0.0853210241, -0.1160704046, 0.0554659627, 0.0285912566, 0.0666381791, -0.0518384576, 0.0240664091, -0.0091848141, -0.0860019922, 0.0884865001, 0.0250274017, 0.0674475208, -0.0477972627, 0.1216680929, -0.0307753421, 0.0157751366, 0.0025314968, -0.0477914363, -0.0355229601, 0.0117248315, -0.0563714057, 0.0457988828, 0.0051126732, -0.0620389171, -0.0017192145, 0.0727835447, 0.0945472494, 0.1121307686, 0.0301638078, -0.0102127409, 0.0411859788, 0.0260234959, 0.0795456544, 0.0754623264, 0.0142520647, 0.0610963479, -0.0453898162, -0.0727802813, 0.0318811573, 0.0051724506, -0.0615196079, 0.0440546125, 0.0623787791, 0.0974694639, -0.0357241854, -0.0059436802, 0.0530454107, 0.0845194831, 0.0456317328, -0.0123326117, -0.0033890135, 0.0719206482, -0.0107721332, -0.0127544766, -0.1142035127, -0.0713892952, 0.0489952676, -0.0667650402, 0.0063545899, 0.1156949699, 0.0470562913, -0.0521393120, 0.0236491784, -0.0652103573, 0.0211048238, -0.0009219361, -0.0571750179, 0.0478176475, 0.0793881342, -0.0334147215, 0.0283253193, 0.0350184329, 0.0294552241, 0.0886511877, -0.0106945178, 0.0830704272, -0.0204812214, 0.0901436433, -0.0245332196, 0.0069377758, -0.0078375861, -0.0306756608, 0.0820965394, 0.0726745427, -0.0179969240, 0.1167894304, -0.0420688577, 0.0134588536, -0.0506339483, 0.0181220416, 0.0028729981, 0.0836476013, 0.0691426322, -0.0350323394, 0.0463228188, -0.0378915593, -0.0150767015, -0.0262513440, -0.0772031918, 0.0965106711, -0.0279946998, 0.0764269605, 0.0364235565, 0.0463624522, -0.1012972519, 0.0985787511, -0.0552210547, 0.1872137934, -0.0020114335, 0.0187603198, 0.0597183481, 0.1076159105, -0.0104782758, 0.0580809824, 0.0227092672, 0.0542484261, 0.0008589482, 0.0997774079, -0.0126097118, -0.0406826176, -0.0042640464, -0.1081424952, 0.0064391261, 0.0996501073, 0.0274767447, -0.0368811041, -0.0217213891, 0.0794013813, 0.0319965817, -0.1115803048, 0.0674081966, 0.1216651872, 0.0166647658, 0.0047009340, -0.0425945669, 0.0956797004, -0.0473782718, 0.0002417081, -0.0577065460, 0.0233202558, -0.0354073532, 0.0062327124, -0.0100326687, 0.0052551669, -0.0049603563, -0.0574778952, 0.0892125294, 0.0796070024, -0.0639854595, -0.1395741254, 0.0108461073, 0.0765512288, -0.0330258608, 0.0497034490, 0.1019622460, -0.1024607792, -0.0158875175, -0.0028524494, 0.0296275374, -0.0713476017, -0.0722745284, 0.0778231993, -0.0598800443, 0.0665075257, 0.0397150069, 0.0598332360, 0.0397655331, -0.0157338288, 0.0462787673, -0.0387786888, 0.0527484864, 0.0346417464, 0.0503693782, 0.0460749269, 0.0289847478, 0.0053119557, -0.0281930380, 0.1047276556, 0.0317194872, 0.0332801640, 0.0487744026, 0.1077355146, -0.0427996144, 0.0019296290, -0.0507296510, -0.0790218562, -0.1326999813, -0.0505377240, -0.1053743958, 0.0256103743, 0.0644039810, -0.0071317763, 0.0341690294, -0.0881853998, -0.0349510983, -0.0657451600, 0.0902129188, -0.0332557335, 0.0062437491, 0.0366066545, -0.1355993152, -0.0387679674, -0.0040168017, -0.0542673804, -0.0432514288, 0.0410357937, -0.1680474281, 0.0044732504, 0.0012111459, -0.0187706109, 0.0258491728, -0.0554675087, -0.0548750050, -0.1632788628, -0.0106164785, 0.0074280822, -0.0292589758, -0.0392693654, 0.0058324621, 0.0029739311, 0.0517976843, -0.0238431022, 0.0137963835, -0.0366652012, -0.0503155142, -0.0101920282, -0.0097454777, -0.0082473494, -0.0802258924, -0.1141290367, 0.0923747867, 0.0094010150, 0.0292908605, -0.0293209944, -0.0426445007, 0.0352508575, 0.0461839177, -0.0419544056, 0.0068632187, 0.0728748217, -0.0270411372, -0.0609604977, 0.0388413556, 0.0744951889, 0.0193758234, -0.0137484288, -0.0420049243, -0.1185335889, -0.0101296641, 0.0634572282, 0.0898397416, 0.0346267745, -0.0024169562, -0.0738795102, -0.0054132408, 0.0615048632, 0.0871563256, -0.0624631383, -0.0503071174, -0.0305013731, 0.0650850832, 0.0465118624, 0.0394376703, 0.0914438665, -0.0324538536, -0.0545059070, -0.0513236858, 0.0577418804, -0.0483662225, -0.0138374018, -0.0086996155, 0.0822296515, -0.0645259768, 0.0481685586, -0.0048501189, -0.0702418163, -0.0434896797, 0.0032895112, 0.0512164272, 0.0149191739, -0.0252606403, -0.0052096229, -0.0928875729, -0.0843167007, 0.0249091759, 0.1159899905, -0.0709258616, 0.1260186583, 0.0692356154, -0.0332494974, 0.0126679186, 0.0542764738, -0.1116162166, -0.0334625244, 0.0280349851, -0.0280622169, -0.0892147422, 0.1526028961, 0.0481029861, 0.1455276608, 0.0050490731, 0.1198385209, 0.0163232945, 0.0696258396, -0.0480262414, 0.0775879994, -0.0237153545, -0.0311432686, -0.0233180821, 0.0567864366, 0.0067349635, 0.0365291610, 0.0509950854, 0.0447289944, 0.0198065899, 0.1051815972, -0.0138777914, 0.0355731137, -0.0057165422, 0.1127862111, -0.0579525195, -0.1490481943, -0.0082093505, 0.0082352739, 0.0081339767, -0.0148282070, -0.0530731305, 0.0375706069, 0.0331593454, 0.0097986115, 0.0190440305, 0.0155903269, 0.0225831978, 0.0794712603, -0.0146581195, -0.0687951744, -0.0342855975, 0.0120804328, -0.0225795675, 0.0272797886, -0.0012152025, 0.0042420374, 0.0240864418, 0.0373976789, 0.0816313699, -0.0049792347, 0.0033976675, -0.0806336924, -0.0076883715, -0.0126874913, -0.0932433754, -0.0762298107, -0.0392448753, 0.0081078988, -0.0018616782, 0.1340169162, -0.1039128825, 0.1136326939, -0.0739245564, -0.0959703252, -0.0686447620, 0.0558192246, 0.0488466062, 0.0749218464, -0.0663898662, 0.0733042955, 0.1301421225, 0.0046652108, -0.0637964457, 0.0061418167, 0.0128924213, 0.0820418000, 0.1082107723, 0.0218204726, -0.0750154331, 0.0450772196, 0.0636816695, -0.0431466252, -0.0378216244, 0.0488985628, 0.0125994105, 0.0446082503, 0.0227574017, -0.0935230330, -0.0777792558, -0.0433971211, -0.0084014004, -0.1567111611, 0.0233557485, 0.1084620357, -0.0538096987, 0.0152985100, 0.0216735527, 0.0094981007, -0.0017179133, -0.0421331897, 0.0001455634, -0.0703497455, -0.1007592380, 0.0969010517, -0.1003798172, -0.1164698228, 0.0719970837, -0.0134291919, -0.0035176389, 0.0074515496, -0.0564805567, -0.0221412368, -0.0578018092, -0.0708110332, -0.0408803225, -0.0375476517, -0.1031662896, -0.0478059687, -0.0342219919, 0.0034530514, -0.0396229438, 0.0330403224, -0.0591066442, 0.0478502959, 0.0020675033, -0.0796099082, -0.0500090383, -0.0437364094, -0.0617350191, -0.0124581056, 0.1086283624, 0.0275742952, 0.0320932679, 0.0419401377, 0.0125356773, 0.0322643742, -0.0274722259, -0.0188389737, -0.0255852900, -0.0418234430, 0.0252485033, 0.0209320057, 0.0693484321, -0.0506381579, -0.0323992297, -0.0693732575, 0.0490270294, -0.0079786098, -0.0699485689, 0.0644757003, 0.0211665276, -0.0934489295, -0.0272575580, 0.0763475373, -0.0188179780, -0.0756545439, -0.0179450419, 0.0650132447, 0.0445378199, -0.0475076362, 0.0059312666, 0.0534903295, -0.0213079974, -0.0087731006, -0.0462345779, -0.0323547125, 0.0443581678, 0.0101533849, 0.0152352601, -0.0782548115, 0.0160825215, -0.0380265713, -0.0566577502, 0.0253745560, -0.0312104803, 0.0151375262, -0.0099307997, 0.0517370813, -0.1333600134, -0.1460989416, 0.0295880754, 0.0197121110, -0.0070385826, 0.1143716276, 0.0461224876, 0.0182340499, -0.0294049419, 0.0988082886, -0.0645886809, 0.0387472361, -0.0078835394, -0.0500829481, -0.0604870059, 0.0400716923, 0.0312069003, 0.1134215370, -0.0649510622, 0.0111687360, 0.0715540946, -0.0553374663, 0.0175450128, -0.0698806196, -0.0795254484, -0.0105495472, -0.0082529299, -0.0365531594, 0.1366419196, -0.0366207324, 0.0541648343, -0.0822176337, 0.0670336410, 0.0068844212, 0.0748864934, 0.0718394741, -0.0944519788, -0.0560601652, -0.0790033787, 0.0052668941, 0.0478452034, -0.0599939674, -0.0465727411, 0.0361245051, 0.0936215371, -0.0645043924, 0.0030642673, 0.0699792504, 0.0503169671, -0.0573956892, -0.1104930118, 0.0485059619, 0.1247180626, -0.0124468040, 0.0632131770, -0.0574278310, 0.0024077247, 0.0205587521, -0.0773487836, -0.2148085833, -0.0765200108, -0.1214792579, -0.0066669234, 0.0454273596, 0.0167650077, -0.1703250855, 0.0817245841, -0.0643194988, -0.0354186445, 