//Numpy array shape [128, 10]
//Min -0.553438484669
//Max 0.435443907976
//Number of zeros 0

#ifndef W21_H_
#define W21_H_

#ifndef __SYNTHESIS__
dense_1_default_t w21[1280];
#else
dense_1_default_t w21[1280] = {-0.0435269959, 0.2329715639, 0.2458025813, 0.1845528185, 0.1464910805, 0.0206739828, 0.1345223039, 0.0107612703, -0.2566340864, 0.1872158200, -0.1723531336, 0.1226324514, -0.0599376447, -0.1789280027, 0.2491251230, 0.1938323826, 0.2330507338, 0.1805902421, -0.3074697554, -0.0854331106, 0.0259013269, 0.1254845113, -0.1351307184, -0.2049301863, 0.1955955029, -0.3171397746, 0.1783304363, -0.0466777198, -0.2264590561, -0.1527524143, -0.0299271252, -0.0038841646, 0.2855674326, -0.1824479997, -0.1576586962, 0.0492941663, 0.1525681764, -0.0571734533, 0.0661690533, -0.1671785265, 0.1340130121, -0.0486665443, 0.1373993456, 0.1611922979, 0.0100174192, -0.0840523019, 0.0349055827, -0.1995121986, 0.2366054207, -0.2271088362, -0.2007342279, -0.0159795377, -0.2017735690, -0.4709875584, 0.0584558770, 0.1667082757, 0.1661389172, -0.1687625349, 0.1259879470, 0.2077088654, -0.1308547109, -0.0647891462, -0.2011652589, 0.0316787176, -0.3299282491, 0.1929622293, 0.0504520945, -0.0603741147, 0.1040095240, -0.1384772658, -0.2001803964, -0.0262181703, 0.0183709543, -0.0934046507, 0.2513546050, 0.0523234122, 0.2286162674, -0.1099028960, -0.1363759339, 0.1067317128, -0.1593348831, 0.2558492422, -0.1105372384, -0.1402935237, 0.1860303730, 0.0267644431, 0.2038392723, -0.2281643450, 0.4354439080, -0.1303438991, 0.0200982057, -0.2701919675, -0.1496255845, 0.0093145967, 0.2676051259, 0.1887795925, 0.0974540338, -0.0764813796, 0.1582481414, -0.0732311457, -0.0335880853, -0.1562654674, -0.1278260350, 0.2204812318, 0.2386849821, 0.0283665527, 0.1619759500, -0.1230474412, 0.1362138540, 0.0720817819, -0.1722183526, 0.3009744585, 0.2403773516, 0.1354504526, -0.1196134165, 0.2299277484, -0.1696994752, -0.2006868273, -0.0411081947, 0.2487811595, 0.0540030301, 0.1745918840, 0.3092722297, 0.1337474436, 0.1289844215, -0.1884232610, 0.0016262094, 0.0896007195, -0.2164180279, -0.0604576282, 0.1069383025, 0.1181473807, -0.1607063562, -0.3128118515, -0.0893943235, -0.0401504971, -0.0305899121, -0.1822262406, -0.0552917533, -0.3303933442, 0.0164574198, 0.1491274685, 0.0331452042, 0.0392666906, 0.1868325621, -0.1982258260, 0.1623632759, 0.2160121351, -0.4089806378, -0.2140219063, -0.0095856609, 0.2386733592, 0.1846185625, -0.3183637559, 0.0662588328, -0.3172785938, 0.1778766811, 0.1165153831, 0.1538004726, -0.1971047223, -0.2085559964, -0.0829230696, -0.0088009210, -0.3240327239, 0.0794690847, -0.0367340147, -0.1801743358, 0.1253446192, -0.3036779165, -0.1042390317, -0.2259830236, 0.1361215860, 0.1239025667, 0.1907739639, -0.0068808780, -0.1848729104, -0.1730138510, 0.2021865696, -0.2273966670, -0.2091616988, 0.2618854046, -0.1706369668, -0.1946002990, 0.0953199714, 0.0511531942, 0.1451074630, 0.2027012706, 0.0429531857, 0.1873116046, 0.1739481241, 0.2483561933, 0.2911758423, -0.2909405231, -0.1509671509, -0.0400340669, -0.1141527072, -0.0347598977, -0.0679095834, 0.2510384917, 0.2432487160, -0.1246698275, 0.1639813036, 0.1255097985, -0.0731702596, -0.0130205350, 0.0869721994, -0.2047497034, 0.3249951601, -0.2176884115, 0.1376135647, -0.2661016881, 0.2498858720, -0.1380671710, -0.3929853737, 0.0325655676, -0.2308541387, -0.1201833487, 0.1010309309, 0.1288991570, -0.2647361457, 0.0051961467, -0.1168430969, -0.0371359512, -0.1638761610, 0.0822599307, -0.0801025331, -0.1508409828, -0.1816287488, -0.0451547056, -0.0301495586, 0.1966716796, 0.1183435097, 0.1409753859, -0.1881784499, 0.0467823781, -0.1324966401, 0.0334647931, 0.0487550050, 0.0896427035, 0.0960320458, 0.1691356748, -0.3051771522, 0.1427766383, -0.1736772209, 0.1354809254, 0.0549517646, 0.1005941927, 0.0577410907, 0.0866421238, -0.2552680373, 0.1316862255, -0.2453505546, 0.1285107881, -0.1768549234, 0.1433964819, 0.0686716214, 0.1615008116, -0.1759789884, -0.2984867692, 0.1582186371, 0.2277207077, 0.1414254457, -0.1862767786, 0.0918694213, -0.1038032398, 0.1436153501, -0.1849470735, 0.1495939493, 0.0255224165, 0.0777753070, 0.1433729827, 0.0604546405, -0.3199690282, 0.0431604162, -0.2574068010, 0.0298666824, 0.0413575098, 0.1245971397, 0.1746653467, -0.0991130099, 0.0160152782, 0.1973398477, -0.0753688961, -0.1079221815, -0.0706615150, -0.1446138024, 0.0477289967, 0.1172121316, 0.2165537030, 0.0704893768, 0.2474324703, 0.1304573864, -0.1025486290, -0.2355801910, -0.3802931309, 0.1411645859, 0.1621785462, 0.0489327796, 0.2307914644, -0.0769660026, -0.1538773477, -0.0508766547, 0.1225506961, 0.1782437712, 0.1821303070, -0.0438224189, 0.0910081789, -0.0758306757, 0.0692773983, -0.1074140221, 0.1831516623, 0.0966631919, -0.1942855269, -0.0338027962, -0.0667298436, 0.1298549324, -0.1192957759, -0.2050564885, -0.1626875401, 0.0685198382, -0.3968531191, -0.2336257249, 0.1000595614, 0.1928466260, -0.2010684758, -0.0772876069, -0.0861081779, -0.0491882563, -0.1836108714, 0.0519002825, -0.2205130756, -0.1959715933, -0.1565841734, -0.1273057312, -0.1964878738, 0.3778789341, 0.2350711077, 0.0840609148, 0.0937831178, -0.2775504589, -0.0804340243, 0.0359007418, 0.0920822173, 0.1450568438, 0.1496016085, -0.1418209523, 0.0681936815, 0.1316345334, -0.0883128196, 0.1850512326, 0.0721055567, 0.1890425384, 0.1710194945, -0.0837049633, 0.1555614322, -0.1873032004, -0.3620979488, -0.1101815850, -0.2366272658, 0.1147109717, -0.2364223450, 0.2599515021, 0.1871366650, -0.0006897523, 0.0244832933, 0.1635640264, 0.1848832369, -0.2558310628, -0.1784491390, 0.0513869785, 0.0898124129, 0.1985817403, 0.2688290179, -0.1620783955, 0.0179690123, 0.2695011497, -0.3457257450, -0.2337181270, -0.0835920572, -0.0118952729, -0.1890860945, 0.0291010048, 0.1529629678, -0.0294572562, -0.2150912136, 0.0993872210, -0.3277966380, 0.1865545362, -0.0247192010, -0.0750835240, -0.0982701555, -0.1540195644, 0.2823613286, -0.1072152331, -0.1799535751, 0.1433352679, -0.1784349233, -0.1694237292, -0.1615831703, -0.1024221256, 0.2139069438, -0.1896034032, 0.2177040279, 0.2504673600, 0.0219116844, -0.0436751358, -0.0404510945, 0.2501448691, -0.1285117269, -0.0849742517, 0.1606799364, -0.1500453353, -0.3617472351, -0.2771667838, 0.1727092862, -0.0395834893, -0.1902776957, 0.1143870801, 0.0009311158, -0.0414631292, 0.0540774129, 0.0333948843, 0.1696443558, 0.1454544365, 0.0813590214, -0.1874254495, 0.1271589398, 0.0473516099, 0.1499588490, 0.1682107449, -0.0035374069, 0.1260576248, 0.1935465336, 0.1550305635, 0.1892960966, -0.2212757319, -0.1390580535, 0.3972803652, -0.0895393938, -0.0068913628, -0.1146009117, 0.0670953616, -0.0324357823, 0.0102765542, -0.1650491357, -0.1402492523, 0.0084528709, 0.2769503593, 0.2214683890, 0.1478816420, 0.2297019213, 0.1583727002, 0.1652913243, 0.0184653588, 0.1940349340, 0.1623281091, 0.1579945832, -0.2096276134, 0.1614656597, -0.2010564655, -0.2282232046, 0.2397854328, 0.1804240793, 0.0153246783, 0.0094845733, -0.1011409387, 0.1893460155, 0.1574618369, -0.1870609820, -0.0012654238, 0.1518131644, -0.1568104178, -0.0586567372, -0.0656646788, 0.0969587341, 0.1611820459, 0.1331529468, 0.0427553430, 0.0885239542, 0.0843163282, -0.1754503399, 0.0703716204, 0.0393935591, -0.0040865131, 0.0846420676, 0.0576676577, -0.2035386264, -0.2960275710, -0.3494961560, -0.1782816648, -0.0371007249, 0.0935408846, 0.1759113520, 0.0145621058, 0.0876605287, -0.0837197229, -0.2632636428, 0.2286371738, 0.1956883967, 0.0751547217, 0.0025426033, 0.1537769288, -0.4342313409, -0.1829541177, 0.1093256474, -0.2578093708, 0.0845225975, 0.0573597588, -0.0367307812, 0.0231122635, -0.1970144063, 0.2581326962, 0.0684540793, -0.0768562406, 0.3075613976, -0.1584310830, -0.1899497956, -0.0614579953, -0.1021879315, -0.0898468569, -0.1959192753, 0.1267237663, -0.1045045704, 0.0468573458, 0.3269467950, 0.1115395352, 0.1477545202, 0.2986411452, 0.2696677446, 0.0033779121, 0.3315067589, 0.0809546635, -0.0668892860, -0.1460640579, 0.1634395719, -0.2252822965, 0.1586384326, 0.2695584595, -0.2510856986, 0.2079288363, -0.1832426786, -0.0078273369, -0.2082998753, 0.0947301909, -0.0547296032, 0.0579750575, -0.2823007703, 0.2229567319, 0.0336489491, -0.2494942397, -0.2053429186, -0.0369472094, 0.0396781117, 0.0980928838, 0.0305719227, -0.1916537136, -0.1179620624, -0.1095834374, 0.0809709281, 0.0217837468, 0.0972047746, 0.1921568811, 0.0895633325, -0.1714852899, 0.0778758898, 0.2228189260, -0.0129326098, 0.1655451357, -0.0498870984, 0.1943840235, -0.1520560235, -0.4286032021, 0.0261531342, -0.1992758960, -0.2210672200, -0.1886699200, 0.2474505752, -0.0159049910, 0.1599274725, -0.1238835230, -0.1488649994, -0.1419558376, 0.0097226612, -0.1354245245, -0.1645615399, -0.0669806972, 0.1722646356, -0.0173609145, -0.3006309569, 0.1082952172, 0.0933070108, -0.0037953332, -0.3362178206, 0.2637857795, -0.2220004052, 0.0921510532, -0.0852666199, 0.0882833898, 0.0545171462, -0.3476283848, 0.1865392625, 0.1179460734, -0.1562898010, 0.2327721268, -0.2576308548, 0.1987532377, -0.2079201043, 0.1440553367, 0.1655125320, -0.0142641673, 0.1605441123, 0.1444963217, 0.0121743474, 0.0768094137, 0.1776722223, 0.2332359403, -0.1230116934, 0.0651665404, -0.1996279955, -0.1465015560, 0.0344241336, -0.0003925103, 0.1433549374, 0.0870376825, -0.2354482561, 0.0861442611, -0.1346070915, -0.0302388370, 0.2233964354, 0.0452261269, 0.0288512260, -0.0481986813, 0.3727281392, -0.0538250953, -0.2354869246, 0.3113073111, 0.1148429364, -0.2507640123, 0.1862373203, 0.0942981467, 0.0601932518, 0.0829255357, 0.1158823222, 0.1114889383, -0.2045321763, 0.1873405874, 0.1087505966, 0.1311180145, 0.0319932140, -0.1173447743, -0.1058922932, 0.1349575222, 0.2816624045, -0.1053232849, -0.0144553380, -0.0769771338, -0.3767793775, 0.2032497376, -0.0146364085, 0.0027853691, 0.2412729263, 0.2551893592, 0.1817826927, -0.0350273810, -0.1444480866, 0.2123973072, -0.1897475570, -0.0756227300, 0.1406968385, -0.1683758348, 0.2311730385, -0.2086154073, -0.2469423860, -0.2036621422, -0.0572113059, -0.0910348669, -0.1729192287, -0.3063636422, 0.3730409741, -0.0980571434, -0.1427899003, -0.0994912013, -0.1165673733, -0.0432791151, 0.0830069110, -0.0888683051, 0.2060858905, -0.0433420427, 0.1768808067, 0.0525602475, -0.0672326386, 0.1625644863, -0.0466659442, -0.0259368513, 0.1754548103, 0.1449644268, 0.0280469116, 0.1754205376, -0.0244210139, -0.0306361578, -0.1820178926, 0.1253525913, 0.0000000788, 0.2138661742, 0.0097677177, 0.1178976372, 0.1891816258, 0.0387259945, 0.1711213142, 0.0084980177, 0.0627867505, -0.0728400871, 0.1259568930, 0.0002952784, -0.3260690868, -0.1979921013, -0.0775670931, -0.1962456256, -0.1905899644, -0.2807684243, 0.0348641090, -0.1061067730, 0.1338270903, 0.2001998276, -0.0269997269, -0.1787311435, 0.0311220679, -0.1933491826, -0.1858115792, -0.1744749546, -0.1824052781, 0.0174587388, -0.1355155408, -0.0756171793, -0.2194807231, 0.1125496253, -0.1718359590, -0.2571931183, 0.2109089047, 0.0866178945, 0.0183001496, 0.0846776515, 0.2252181172, -0.3189433217, -0.0467153601, -0.0662759766, 0.1811049432, 0.2056857646, -0.0986721441, 0.2003443539, 0.1522474885, -0.0324474275, 0.1173140705, -0.1084957197, -0.1880405992, 0.1143162400, -0.2300298065, 0.1575826257, -0.2083531171, -0.2601736486, -0.3422009647, -0.0144748082, -0.3323807716, 0.0210260917, -0.2205441594, 0.1057252288, 0.0403248481, 0.1499216259, 0.0260433480, -0.3273399174, -0.3583335280, -0.4274794757, -0.0043922113, 0.0794397369, -0.0104060462, 0.1687480956, 0.0992219150, 0.1435383111, 0.2900308073, 0.0606217831, -0.1110786200, -0.1808102131, -0.3034727871, -0.1041070744, -0.2047684640, -0.0656347796, 0.0010862392, -0.0590481684, -0.0226868633, 0.2299002111, 0.1118744910, -0.1667729318, 0.1123012081, 0.1724156439, 0.1391218752, -0.0480124839, -0.3491649628, -0.1323852688, -0.1000741795, 0.0812934712, 0.1403842270, 0.0047617061, -0.1391435862, 0.0898053423, 0.0928799286, 0.2920364738, 0.2003729194, -0.0098866476, -0.0009543076, 0.0510136932, -0.1629654318, -0.1662325710, -0.2147034109, 0.0075634699, 0.2340180874, -0.0049670185, 0.2298765182, 0.0594745576, 0.2280296683, -0.1711764038, -0.0031759366, -0.3536009490, 0.1772063076, -0.2052610815, 0.0890129209, -0.0343393460, -0.3213036656, 0.2511235774, -0.0361538269, -0.0824684352, 0.1823769063, -0.1516509354, -0.4051352143, -0.3414560258, 0.1161275953, -0.1133444831, -0.3481029272, -0.1141366288, -0.2153548896, -0.2001778930, 0.1913523674, -0.1522946358, -0.0159548763, 0.0735866800, -0.0312807448, 0.1300891191, -0.1063964218, -0.1521343291, -0.0117853740, -0.1880452931, -0.0817495659, 0.2057336271, -0.0076849093, 0.2230324149, 0.0294032246, -0.1472688615, -0.2351427674, -0.1671551317, -0.0907872543, 0.0276649501, 0.1873748451, -0.1932945848, 0.2449471205, 0.1681024879, 0.1938036829, -0.1221087575, -0.0559154339, 0.0659711286, -0.0204834025, 0.0681357756, 0.2481482178, 0.2226058543, -0.0651770383, -0.2166371047, 0.1892490685, -0.2514810860, -0.0675128624, -0.1354939044, 0.1255690306, 0.2445807755, 0.1529544294, -0.3577406704, -0.1324557066, -0.0340336114, -0.0783578232, 0.2421122640, 0.4078954458, 0.1308960766, 0.1884517223, -0.1915638298, 0.0374402106, -0.5353616476, 0.0624454021, 0.1137651131, 0.1213265881, 0.0000868064, -0.1344301254, 0.2511514425, 0.2763549984, 0.0189304240, 0.0725284666, 0.0225475710, 0.1035608202, 0.0045686574, -0.4567317069, 0.0647314787, 0.1657995284, 0.0091741970, 0.2714923918, -0.1060956120, 0.0449048132, -0.2653459907, -0.3264748156, 0.0519096255, -0.3421792388, -0.4140556753, 0.0647540540, 0.1205966324, -0.0046608415, 0.2176417708, 0.0574015677, 0.0420225114, 0.1985600591, 0.1503995955, 0.2871205807, 0.2465189099, -0.2448322475, -0.0793555379, -0.3231841624, 0.1813266426, -0.2930257022, -0.3320216238, 0.0166135076, -0.2760918140, -0.1191440597, -0.2706013024, -0.2102124840, -0.1223806366, 0.1937227696, 0.0749808475, 0.1748997271, -0.1986569762, 0.1329123378, -0.1052334532, 0.0727313384, 0.1156660318, 0.1874446124, 0.0318546072, -0.1593857706, 0.0903432220, -0.0828037411, -0.0475387871, -0.2984600663, -0.0165723823, 0.2671594322, -0.1174335703, 0.0424077995, -0.0122722862, -0.1480325907, -0.2640124261, 0.0408091545, -0.0040122238, 0.1246488839, -0.3019142151, -0.1533016115, 0.0620339923, 0.0900244117, -0.1037881300, -0.0934868604, 0.0410623513, -0.0429786518, -0.0056543010, -0.0719588250, 0.2031276077, -0.0908049345, 0.0905533656, -0.1963414103, -0.1969477236, 0.0692076162, -0.2654777467, -0.1281107068, 0.1140270084, 0.0930604637, 0.0217263866, 0.1199481189, 0.1084899679, 0.1433013976, 0.2406931669, 0.0957656652, 0.1620683223, 0.1275700629, -0.1717490554, -0.1533852369, 0.2320400625, -0.0222978648, 0.0132325077, 0.3274440169, 0.0094630960, -0.0333289504, -0.2822681367, 0.3109390736, -0.2161262035, 0.2053045630, -0.0117695546, 0.2138785869, 0.2015274912, -0.0014218212, -0.2976921499, 0.2039273083, 0.0993595198, 0.1739273369, 0.2576240003, 0.1896961927, -0.2391578406, -0.1659959257, 0.3029436469, 0.1919651628, 0.0255688187, 0.0066598565, 0.2773599029, -0.0514964648, -0.1197856441, -0.1149976030, -0.2399766892, -0.2451114357, 0.0068399641, 0.2220861018, 0.1356207281, -0.1623784155, 0.0549364723, -0.1938083619, 0.1832082272, 0.0730443373, 0.1566644013, -0.0695181936, 0.1393046826, 0.2217536569, -0.1817462444, 0.0553137362, 0.2096141726, 0.1072425917, -0.3023620546, 0.3267378807, 0.2384195924, -0.0048851999, 0.0722015351, 0.0533655658, 0.1223260015, -0.1052551791, 0.0456116833, -0.0963573679, 0.1918998510, 0.1840980798, 0.0291221440, -0.0399155803, -0.1878353208, 0.0176492482, 0.0585294850, 0.4282065630, 0.1133740768, 0.0171425156, 0.1973371059, -0.1375652701, 0.2060698420, 0.0686899871, 0.0632778034, -0.3541129529, -0.0397567824, 0.1592434347, -0.1527902931, -0.0026138902, -0.1236878037, -0.5521433949, -0.2937610447, -0.1230945215, -0.0617249496, 0.1197443381, 0.1337421983, 0.1500503123, -0.0107954293, -0.0942687169, -0.0750575736, -0.1127253994, 0.1237599030, -0.0021918870, 0.1443330795, -0.0274706203, -0.2310733050, 0.1922366023, -0.0554392487, 0.1413743794, -0.2240131795, 0.2731319666, 0.0098614413, -0.2311601192, 0.0441416055, -0.0750494301, 0.1846225560, -0.0243681669, 0.1404191852, 0.2540351152, 0.0409664474, -0.0880043209, -0.1744532436, 0.0522567704, -0.2651785314, -0.1179066002, 0.1196136549, -0.0842110738, -0.2119736522, 0.0448047556, 0.0510494336, -0.2995232940, -0.3106441796, -0.0406614952, 0.1840928495, -0.1812508702, -0.1245413423, 0.0251020193, 0.0363386460, 0.0578523576, 0.3416977823, -0.1466117203, -0.1333656907, 0.1131230369, -0.2341875881, -0.2310741693, -0.1994225383, -0.2209729701, -0.0457353815, -0.1453589499, 0.3521656990, -0.0498123504, -0.1779570729, -0.0434175730, -0.0349701121, 0.1700510681, 0.0715517104, -0.1065124050, -0.1644229293, -0.0110121965, -0.1710840762, 0.2185905874, -0.2608210146, 0.4090126753, -0.1541681290, -0.1023617908, 0.0402121954, 0.2315459400, 0.2597845495, -0.1423438340, 0.1519354731, 0.0566841140, -0.1532476395, -0.2687686980, -0.1730748415, -0.2319691032, -0.2542268336, -0.1094194874, 0.0197607838, -0.5534384847, 0.0426318087, 0.0775851607, 0.2564979494, 0.0978011563, 0.1748835146, 0.0389919765, -0.1192390770, 0.0409755260, 0.1970296353, -0.2558702230, -0.1390223652, 0.1201478839, -0.3016144633, -0.0431337766, 0.1852886826, -0.0096836276, 0.1469590217, 0.1968714148, 0.0200669151, -0.0166398808, -0.0267093387, 0.0448041745, 0.0236370787, -0.2728249431, 0.1075649038, -0.2037721425, -0.2325029373, 0.0808240697, 0.1085608006, -0.1973452121, 0.1436876357, -0.2632107735, -0.1092293859, -0.2211651653, -0.1039410830, 0.2143874615, -0.0043697683, -0.0770083889, -0.1798036695, 0.1887905151, 0.2225620896, -0.1353877932, -0.1647850424, -0.2317416221, 0.3282505572, 0.1558423936, 0.0063840332, 0.2554505765, -0.1427012086, -0.0897903219, 0.1400057673, 0.0202157777, 0.1665241122, 0.1994678229, -0.0024699944, 0.3466064632, 0.1379351020, -0.1279836893, 0.2160553634, 0.0923130363, 0.1397984326, -0.1973402798, -0.0074784257, 0.1114759371, -0.1144378111, 0.1359170973, 0.0548206083, -0.0060169273, -0.1935831010, 0.0578309409, -0.1097399145, 0.0472978763, -0.2677748799, 0.0001652765, 0.1232922599, 0.1651920974, 0.0951876268, 0.0901297331, 0.2506485581, 0.1801391095, -0.1872418523, 0.0656090975, 0.1085187718, 0.2472490072, 0.0080294041, -0.1575955451, 0.0485445149, 0.1656470299, 0.2377831191, -0.2779549360, 0.0365712643, -0.1830790788, 0.0488629639, -0.2141717374, -0.1944628209, -0.0756701156, -0.2679525912, -0.0229734518, -0.3097583055, -0.0512396283, -0.0634382293, 0.0270718895, -0.1189691350, 0.0522025079, -0.3736056983, -0.1785009205, -0.2671179473, 0.1903959215, 0.1973327696, 0.2716128230, -0.3701639771, -0.2110000551, 0.2237932682, 0.0550244749, 0.3061554730, -0.0968547016, 0.0413138792, 0.1637417823, -0.1906179339};
#endif

#endif
